-1.5450071756167904624135189806111156940460
0.1772539395613181023581006456879549659789
-0.3063919719995285007030361157376319169998
0.6135309662473817926553465440520085394382
1.3619540933600813303883114713244140148163
-1.9530560127414542392898511025123298168182
-2.2367331683107898321338780078804120421410
-0.6920881634052908903953493791050277650356
-2.3070790322196126354015177639666944742203
-0.7591143087206654316290155293245334178209
0.4606990056588726734076999491662718355656
-0.1037692862509080743427247739418817218393
-0.7911291579028754128444234083872288465500
-0.7571477598937941255741179702454246580601
-1.5189177259624402349658112143515609204769
-0.7488130453517736206947574828518554568291
-0.2524232396476403517127096165495458990335
-1.5220221458566645100773939702776260674000
-1.1528327184466613530844369961414486169815
0.0966511279247205257192376848252024501562
-1.8783507775274415063648802970419637858868
-1.6252396033432530142448513288400135934353
-0.9649309257835827491334157457458786666393
-2.0171315643321547916855251969536766409874
-0.4653197866242123059699054010707186535001
0.7913798321037287530899106968718115240335
-1.0212125773393143646217140485532581806183
-1.2545856589186670237978660225053317844868
0.0101234693586004561444147142879046441521
-0.2078255842075806825164363544899970293045
-1.5269590794736949135312897851690649986267
-0.2452876981907716191777524272765731438994
-0.8561807455389456311678486599703319370747
-0.5529614216271474536057439763681031763554
0.4374494253174736613232198578771203756332
-1.1265530468066549119043884275015443563461
-1.6052376935658454470967626548372209072113
-1.7107502831549306065994642267469316720963
-1.8706217359371981601157131080981343984604
-0.0942816678387006362749289678504283074290
-0.8572250406992165672193095815600827336311
-0.4932142369656010161271808556193718686700
0.4795548591372323921078191233391407877207
-1.7120561353401346771363478183047845959663
-0.5193033928459064307858739084622357040644
-1.1760242645584348952780828767572529613972
-1.6591646163278519487960238620871677994728
-0.5485419864702949510615326289553195238113
0.9338567843528625678217736094666179269552
0.3597343694654563384105472323426511138678
-1.4409629170700861688914073965861462056637
-0.6961983794915866941011017843266017735004
-0.0255107837988845891075140315251701395027
-1.0209183742474698952662492956733331084251
-0.3483214929461688758038917512749321758747
-0.2781104232846738910645001396915176883340
-0.8181700356118606354272060343646444380283
-0.8134740631384158593419897442799992859364
-0.3116194725207449556236838361655827611685
-2.4308903736943641149537143064662814140320
-0.1325049653851606279442165714499424211681
-1.1594669390515450757561666250694543123245
0.5346493699637907548449788919242564588785
-0.7994806044252763532753647268691565841436
0.0777298511191704261102941586614178959280
0.2388348132552076397150386810608324594796
0.2113168678695395152900005086848977953196
-1.1495579547193648384251218885765410959721
-0.8564838583958475082269501399423461407423
-1.0378963022571265906179860394331626594067
-0.4000461932649990726140742935967864468694
0.8068408248962868345444121587206609547138
-2.5988175285040409079329037922434508800507
1.1861366649186915189773117162985727190971
0.5803845950570701850423915857390966266394
-0.3411040824781339519944367566495202481747
0.3640750682792199266479826746945036575198
-1.4643040637890214483718409610446542501450
-2.0554084651025728014417381928069517016411
-0.0912453903537264188194910730089759454131
0.5407806736333923280923841048206668347120
-1.7145497513481751106212414015317335724831
-1.0929897347755268555147267761640250682831
-1.0475213031635313143397070234641432762146
-1.9581055085087160083645585473277606070042
0.0731145399619328034690468598455481696874
0.3655163231684405711341412370529724285007
-1.1299116617698294895433264173334464430809
-0.6844003386766424057441327022388577461243
-0.1675368508772345499391320799986715428531
-0.9290144469018046802233357084332965314388
1.5740842519721947034838649415178224444389
-1.8673855319873386982010288193123415112495
-0.3774300802093790707658627070486545562744
0.2078010211410061536252413816328044049442
-2.9223756745763274089711103442823514342308
1.7829316135036352708453932791599072515965
-1.1292317007834924424969358369708061218262
-0.4921909880762602162995733579009538516402
-0.4270497754834865489215189882088452577591
1.6551452526065735249005683726863935589790
-2.2335940652325594335536607104586437344551
-0.5511396531129176823426973896857816725969
0.6127182577303357247089365955616813153028
-0.6889182302558994885899323890043888241053
0.1893954465847551560386818891856819391251
-1.8678099250117763396872305747820064425468
-0.2436681939326724999350659572883159853518
1.0835976409091463423806089849676936864853
-1.7144267093925293909961737881531007587910
0.5053349569308305255788127396954223513603
-2.1333203786990968531256385176675394177437
-1.6396071668114839958718675916315987706184
-1.0794710038226613679768206566222943365574
-1.1580397450770074652126595537993125617504
0.4646735968243213554806914089567726477981
-0.3309882505427698684563608821918023750186
-1.1417326530513973725788900992483831942081
-2.3607436561850301259823936561588197946548
1.0235394315448205215801635858952067792416
-2.4698587232723903106546003982657566666603
0.4507830427523396576994230144919129088521
-0.3298170919068478812441469472105382010341
-1.0144529647371975933367593825096264481544
-0.6072018855561007733001588348997756838799
-1.4159880057151845722529515114729292690754
-0.8704573633560470646841622510692104697227
-2.2845564019794668553231531404890120029449
-1.3933830243814355753784184344112873077393
-1.0378371971665927286920805272529833018780
-1.0804760288631143350102092881570570170879
-0.6499930676512175597991927133989520370960
-1.4754318904791272615284469793550670146942
0.0764814921804958802731277955899713560939
0.3609586656883396749151415860978886485100
-2.5851479501479244227368781139375641942024
-0.2900838298928688496758354631310794502497
0.9280018309486594008106408182356972247362
-0.6009404266267801553169647377217188477516
0.1257109490797394257821650853657047264278
0.5044906538572114795826450972526799887419
0.0369530931711302065845181630265869898722
0.1481803946041057307159150013831094838679
-1.2139463014441773669460644669015891849995
1.7030439728035251523152737718191929161549
0.1054333002108766986770760354374942835420
-0.1779871410176383506041020154953002929688
-1.2228461124922471725540162879042327404022
-1.3339194807577585688562749055563472211361
-1.9189309274253620873906811539200134575367
