0.7347964904890466053544173519185278564692
-0.3585856067583548800747905715979868546128
-0.7911728626913195894232444516092073172331
-1.2860792682751212012703945219982415437698
0.6878820926652974288018072002159897238016
-0.0847518285398217163795209216914372518659
-0.3162532186319826910114727525069611147046
-0.2792249617035397202258195648028049618006
0.2022405680460927224206812979900860227644
1.9868548674015653610069875867338851094246
-0.9876657425879838969606794307765085250139
-0.9937571743694126880086514574941247701645
0.3376876978254886862984562867495696991682
-1.0971720104122621997078113054158166050911
-1.4556801290625480671536706722690723836422
0.5556752155283929406337506406998727470636
-0.9394477881245629768969251927046570926905
0.8399397223909399468055880788597278296947
-1.9668759392231283111840411947923712432384
-1.3421646957888591078500439834897406399250
-0.6062370567795145603895434760488569736481
0.9150698120674745084102141845505684614182
-0.5987182176903917962818013620562851428986
1.6224882399333995230961136257974430918694
-1.1030166570785908675134123768657445907593
-0.9731729166101722450221700455585960298777
-2.5893271074378687579553570685675367712975
0.4353607642229415652934676472796127200127
-1.6850182503198567474100855179131031036377
-1.7020305986749277860070606038789264857769
0.9004584416241973032768441953521687537432
0.2115128060154796152403378073358908295631
-0.0454643300937459526878114957071375101805
0.2022695918178450680269264694288722239435
0.0601225584655682016022026914470188785344
0.5878188155481388621481642076105345040560
0.8589366364299731992915098999219480901957
1.6127506292446764923909086064668372273445
-0.0776561772550536932868681105901487171650
2.0141548154926507407935787341557443141937
0.0205512683812647187209243782035628100857
-0.3754340085868926313317217591247754171491
-1.6081945623829163594109559198841452598572
0.5405744966002198337307049769151490181684
-1.6185125257492458672459179069846868515015
1.9023027766281712658269498206209391355515
-0.9935236903353884541090224047366064041853
0.2223820009372752815046681007515871897340
1.9642208338678130985499592497944831848145
0.3865017695968982480714259963860968127847
-1.5876892546141876394472092215437442064285
-1.0219099490811272001877796355984173715115
-0.4043931135733578874358329358074115589261
0.8355716557530510346651908548665232956409
2.7705635235254071346844284562394022941589
-0.5515317206467756916410394296690355986357
-1.3547740156501433261837519239634275436401
1.6936239796948950875332684518070891499519
-0.6876835165887266176909520254412200301886
-1.2056685953862984472806374469655565917492
-1.4706901388504578509497378036030568182468
-0.6942506959353592632666618555958848446608
-0.7668573997937812025682546845928300172091
0.1659192528266324462293823671643622219563
-0.1797380845620378531091176910194917581975
-0.8192773952226291012124193002819083631039
-1.3861889697440137325656905886717140674591
-0.3088144982824382878128233187453588470817
-0.7242663367022055265209701246931217610836
0.0720662213074195756590256678464356809855
-1.5003343596635982937215203492087312042713
0.6580513464394455169781394943129271268845
0.9615728502249709652716092023183591663837
1.4599024162469298460109712323173880577087
-0.5887237156717163300001516290649306029081
0.8265501757992284037612762404023669660091
1.4409611438585285814184544506133534014225
-0.7778879819445870813510168773063924163580
-0.1597098320220255718293600466495263390243
0.1152755644194003864511088863764598499984
-1.6980561161729508246054365372401662170887
1.0947211472432916146146908431546762585640
0.4016387672544059483925593667663633823395
1.1586447405856725723083400225732475519180
-0.5826965750727757242799498271779157221317
-1.1808783327372764926366244253586046397686
-0.9920528577359204458474550847313366830349
-0.7433565609415744290799921145662665367126
-0.8619763953357094665719273507420439273119
-0.0293940159823852034670643718072824412957
-1.8168814235637471554696276143658906221390
0.7025974893146327282522634050110355019569
-1.3478058202001879095632830285467207431793
-0.2847478058530243383295044168335152789950
0.5284397334528132539333000750048086047173
0.2168376538941242936964215459738625213504
-1.0621951418273520850732438702834770083427
-1.1695457542107137172138209280092269182205
-1.5813150724434739125001669890480116009712
0.8101854917853223980728216702118515968323
-1.9854626234908090420816506593837402760983
1.6138800442418979042003002177807502448559
-0.9946718226556362507650987936358433216810
0.4205380011956751373780605263164034113288
1.8136001942749788717890169209567829966545
1.3821183054139092316603409926756285130978
1.6326340357254176538503998017404228448868
0.4100443981088590650330161224701441824436
-2.1578951988481294144150979263940826058388
1.2545400002927471483360477577662095427513
-0.0892973839689049503354212333761097397655
0.7021780976555791475846035609720274806023
0.4824459608205585725571040711656678467989
-0.0861474810300090904080505538331635762006
-0.0532243326376865624749434857676533283666
0.3992070696152822395497139496001182124019
0.6818769267816462420483958339900709688663
0.1282204960148929651087001957421307452023
-0.4406166984664808827787396694475319236517
-0.4256255267255412144677961805427912622690
1.3444309402131520148060417341184802353382
0.6455451199844932652638362924335524439812
-0.5041190025475399405507914707413874566555
-0.3871652817458114403947888604307081550360
-0.4624056729061370996092250607034657150507
-0.2229999718208722225831763807946117594838
0.1634817063285221583335271589021431282163
3.1958243204787244451381411636248230934143
0.3891540824927066655192220423487015068531
-0.0226151357883867566711533214629525900818
1.4728618843422462969527941822889260947704
-0.2664099986406187059451156073919264599681
0.8071172090691088873981584583816584199667
-1.4315293452321893319378887099446728825569
-1.8110494012144611186698739402345381677151
-0.4298753402944416324160670228593517094851
-0.4682665232749539385714854233810910955071
-0.8630272981588815728315466913045383989811
0.3819046437488491929634903954138280823827
0.0851385652959234656700360233116953168064
2.0861605285369813067575250897789373993874
-0.6891496359418576300726044792099855840206
0.7975502833125148738346865684434305876493
-0.2096500339854546479667618541498086415231
-0.5288461990248456423557854577666148543358
-0.0325628170080332138280887477321812184528
-0.8195463047746966989137717973790131509304
-0.3244478414186214854098011528549250215292
0.9416970167679475922639653617807198315859
1.6783425000836709184426354113384149968624
-0.1720540138930771734138147621706593781710
-0.9900544081145943309252288599964231252670
-0.4038779389094360738887701245403150096536
0.5408353911691772264447308771195821464062
1.8437778427885358478732769071939401328564
-1.2145249591239528630381983020924963057041
0.5879329652395657301866549460100941359997
0.9290683839178028868843739473959431052208
-1.2920055280234827854712875705445185303688
-0.3530017684519427545453140737663488835096
-0.9585746557909849974166149877419229596853
-1.3678903606518102442635154147865250706673
-1.9261979063766228037479777412954717874527
-1.3959810606391596099484786464017815887928
0.4526611188379066064157996152061969041824
-2.0932195162798281629079610866028815507889
-0.7093671918590903624490806578251067548990
1.8008137534510595401116006541997194290161
-0.3913507713097620910325247223227052018046
0.9485385553172773764885050695738755166531
-1.5740046392574260636365579557605087757111
-0.2417434073494480473165424427861580625176
-1.3497170767998059037751090727397240698338
0.7462191918198207707391134135832544416189
1.1323967943296675553455088447663001716137
0.7857410724036995031127617039601318538189
-0.3068107007519512152704521668056258931756
0.7871546211118153335561942185449879616499
-1.2102145813054312473155960105941630899906
-0.1765033087435039782508994221643661148846
0.7586170822684472625496709952130913734436
0.0196236728851463503031649082686271867715
0.5761907119340385907690915701095946133137
1.4544575377834103591112580033950507640839
-0.9713511644998129579420265145017765462399
-0.9781333727320510318392621229577343910933
1.8314187521737632646789961654576472938061
0.9129521561077409419482364683062769472599
0.4354169386961218024545416938053676858544
-0.3779653302264843195423793531517731025815
-1.4233168147660875124671520097763277590275
0.3588210138788615610749843654048163443804
2.2440006920125310507785343361319974064827
-0.3432375348685824389960430380597244948149
-0.0281848236336295077109070916776545345783
0.7318343844625482264021343326021451503038
0.8861466726597232446138718842121306806803
0.6813808247406534235324215842410922050476
0.4467960462412849387270341594557976350188
-1.9926986384092071347140517900697886943817
-0.2664785731543484192940240973257459700108
-1.5181579468402213173305881355190649628639
0.3281820296540663428608297635946655645967
-0.9498754383592744598985291304416023194790
0.9509874139971891127132153087586630135775
0.1470645782897368192276843501531402580440
1.4546209383054782282584938002401031553745
-0.2381093885711655366854699877876555547118
0.3862198312255888943411719083087518811226
-0.2409659585512685386898823480805731378496
0.5792950015067133140433952576131559908390
0.9594986763668925666692643972055520862341
-0.0000538526698755543851071178607092804214
0.7989766933271514881553798659297171980143
-0.4418715166080492973144089319248450919986
0.9094569889965182785118713582050986588001
-0.1218702081588155655689220679960271809250
1.2693710578776762343267137111979536712170
0.9443050632900479302023200034454930573702
0.8032260338190695403426389020751230418682
-0.5296623585245797682929946859076153486967
-0.1808771164301622436099137303244788199663
-1.0596776570713277720869882614351809024811
0.6715997017392066892327306959487032145262
1.2637387836740332502927230962086468935013
-0.3152951535364448831799677464005071669817
-0.9313577464374068748398372008523438125849
1.5912531806059717620627225187490694224834
-0.2023129097956171684735693361290032044053
-1.1398368050897840220159196178428828716278
-1.1326391157974868839630744332680478692055
-0.1689147289587272504629567038136883638799
-1.2788344595747525023199386851047165691853
0.0056925895910927793927558404618594067870
-0.1987878776721133944338504306870163418353
-1.2213498829150981617175375504302792251110
0.0853841834798531734707083273860916960984
-1.8189838239298796729315199627308174967766
0.3582149845080241368222573328239377588034
-1.3242663843167135073741746964515186846256
-0.0199645332561968376350325371504368376918
0.1409093872248861345486403706672717817128
0.4557531745803542477801784116309136152267
-0.2175719010759079863337461802075267769396
-0.0163625298139068835190368389476134325378
-1.6956128448613880799200615001609548926353
0.1207037587454018040533654243517958093435
-1.0748578646612039211305500430171377956867
-1.6423881301063851800847714912379160523415
-1.3541010555460413211648074138793163001537
-0.2182051889895585405909628207155037671328
-0.7749796854079196162246034873533062636852
-0.2373424663846621651686064069508574903011
-0.3248927702610673318162071154802106320858
-1.2722165043656923355541721321060322225094
0.5008001008435289946874036104418337345123
1.0194789809817637049604854837525635957718
-3.4976082821721123927716234902618452906609
0.8412465122640988557378705081646330654621
-0.9898564872997952512889696663478389382362
-2.4025141064681814206949184153927490115166
0.6976295528183389382803625267115421593189
-0.4246039141979024988948765439999988302588
0.0866140604542634251483690377426682971418
-1.8799177495711421048696365687646903097630
-0.0347675559909083262133400182847253745422
0.1495099934538957064944497687974944710732
-0.2906447317215827275127537632215535268188
-1.7820930021636980367105707045993767678738
-2.4627795356666357662334121414460241794586
0.0454287531911600761524994140927447006106
0.5827127717492610603500224897288717329502
-0.7504358168813600737934166318154893815517
1.6711600393951993037688907861593179404736
1.6585647824039424502728934385231696069241
0.0521488571835467887294335298520309152082
-2.1673726736433756023814112268155440688133
1.1099357189433904924413809567340649664402
0.3125930663844762036340796385047724470496
-2.1513969348183024088427828246494755148888
0.7671043989551856734365742340742144733667
0.9332046415706058972716618882259353995323
-0.2159037170273319650171117700665490701795
1.4209649977085279104471737809944897890091
0.0007849998073747474448477734476625755633
-0.8569230143001324018214859279396478086710
0.6547296419936629030544850138539914041758
-0.5400909421849553471162153073237277567387
0.1306703093079800703790738225507084280252
-1.3969140066619400997183220169972628355026
0.2658595405183830084894225365133024752140
-0.2225434886331590644825695335384807549417
-0.6018743012383404034082445832609664648771
0.1303667002357344062435373643893399275839
-0.2258318603062287321936452144655049778521
-1.5749437523757268131419095880119130015373
0.0001732880136105424738555275121498766566
1.0560848768110602247105589412967674434185
-0.8510321399125119201656275436107534915209
-0.2411690312928762291999618128102156333625
