0.6198724622716456078563851406215690076351
0.0049926542930659040253615899018768686801
0.5728163978487861296429173307842575013638
0.1121158605654350576275035678008862305433
-0.4002925674047808080047161638503894209862
-1.7907893337282252410602723102783784270287
-1.3084418799486428053313602504204027354717
0.2005149889626701431577515677417977713048
-0.1273641624143116157785726727524888701737
-0.0196956740992161004333294016532818204723
0.2257259178772680618951795850080088712275
-0.1227525764138340247377811920159729197621
-1.6247565808127653053105632352526299655437
1.7082724201104619865532185940537601709366
-1.0701623124468109260476467170519754290581
-0.2493830493313046459125104092890978790820
-0.9460526083973942457205907885509077459574
-0.5810903233040873860915098703117109835148
-0.1228998203027671376474927456001751124859
-0.2206894099219409710599393292795866727829
-1.7239420942322134511215381280635483562946
-1.3754777966361637631109715584898367524147
-1.0731324801385979661461078649153932929039
1.2821053079066291324750181956915184855461
2.0951526675067713156863646872807294130325
-0.5520943220821877828186075021221768110991
0.5163547899394281825991015466570388525724
-1.2907966701772799478220576929743401706219
0.6602096930653362782948079257039353251457
0.8285440714583972576789960839960258454084
-0.5242105615406187357763201362104155123234
-0.4722813743433761923817826300364686176181
1.0789371210438349901750143544632010161877
-1.1332506017366665851398011000128462910652
-0.8693490988396893603962212182523217052221
0.8588276387353502849819619768823031336069
0.1268419901951818584695530489625525660813
-0.0672975540460336862924606293745455332100
1.8628036979766584568807274990831501781940
0.3032378443192386141546990074857603758574
1.1555713455995129113063057957333512604237
-0.3264553955495702597389140464656520634890
-0.4558462552098436204595088838686933740973
-0.2222361994511576899213878277805633842945
-0.1080308412950781865591309838237066287547
0.8839411928552058927976986524299718439579
1.8676703407265369261125442790216766297817
-1.2262586673802866599203298392239958047867
-0.9042037460499278145320545263530220836401
0.2472629026810811980752191630017478018999
1.3665374724664332006796030327677726745605
-0.6207668408038495844181170468800701200962
-0.9662824440587792773627029419003520160913
-0.7022022704174414320377195508626755326986
-0.8216405373003639045492718651075847446918
-1.9874833453565423635467368512763641774654
-1.3107775466991296031693536860984750092030
0.4702320997417635539683544720901409164071
-0.3844115932304879024172805657144635915756
0.8443726289461623846221982603310607373714
0.9721435139705539851817661656241398304701
1.6367062988238556542341939348261803388596
-1.1787782851023009822455378525773994624615
-1.0398740893757409953224168930319137871265
0.5947807111323929474266947181604336947203
-0.0405816509887167095604887379067804431543
-0.1255274217279683246495380899432348087430
-0.6823490367616777962922469669138081371784
0.0253915660770122550426997065642353845760
0.0565663558610727396080974926917406264693
0.3456337362540183311132580001867609098554
0.7391847703358546128882267112203408032656
-0.0564931691266990776423284614793374203146
-0.8802745163621185087166054472618270665407
-0.6519429881888700872849540246534161269665
0.4439527186796144997416035948845092207193
-0.2135791236612841481612434790804400108755
0.1312261426910415751390104333040653727949
-0.7324814666397773121886416447523515671492
0.5479338151890362773599463253049179911613
1.4009044841751738808000027347588911652565
0.5681669868785594879057043726788833737373
0.1062346210633705601011911312525626271963
0.4297959452662968304892388005100656300783
-0.6434368917495115747229306180088315159082
1.0445925136565714641534441398107446730137
-0.2987775988743206490028114785673096776009
0.2224629907621717972432406895677559077740
-0.5488635155120332731470966791675891727209
-0.4853999707706604938017846961884060874581
1.4891642441708019539703400369035080075264
-0.5345160008136169427217510019545443356037
0.3765422786244390085386157807079143822193
-0.2014358428378320853280314395306049846113
0.0135407256138122180505467540001518500503
-0.3521739483478987242648372557596303522587
1.0770518407203932831350812193704769015312
-0.4892012810602212047328407606983091682196
2.7521012538723366169790551793994382023811
1.3758064914565446557048744580242782831192
-0.2489967699696131464559556434323894791305
-0.5522636572896474360661045466258656233549
0.6371474746443678283114309124357532709837
1.3419708385989010945849031486432068049908
0.1000977414369600693166972860126406885684
-0.3634989623910545031293395368265919387341
0.8277370689544579773766486141539644449949
-0.7077470983940327142747150901413988322020
0.4925937671587650168447680698591284453869
-1.7200914531684929897892288863658905029297
0.8835577384687397506368711219693068414927
-0.3367336756963686394961143832915695384145
0.3731595414510019970144583112414693459868
-0.1395571081977831362497255440757726319134
-0.3691963615815604393688431628106627613306
0.8326719227654377775138527795206755399704
0.7491204331483269918123824027134105563164
0.5865199230526541018804209670634008944035
-0.3536049361046932348884297425684053450823
0.7349751049768250554805604224384296685457
0.0188079429470027550963528994998341659084
-0.3903168878262978647164516132761491462588
0.6769013638555014811259979978785850107670
-0.6869196357978258893339784663112368434668
0.6723608171091637331073798122815787792206
-1.7652145779393286773029103642329573631287
0.4833663719165866567983869117597350850701
-1.8714841066318115281319478526711463928223
-0.2595675881881091551228735170298023149371
-0.7065102725381271486781997737125493586063
0.9319877179512318088328015619481448084116
0.4998946826829763767641168215050129219890
-0.9677201420851040403192655503517016768456
-0.0766422446644179911068306410015793517232
0.0394799265459089970820016901598137337714
0.9557508880917690019529686651367228478193
0.9417251178542908052193638468452263623476
1.1724633650439038046187079089577309787273
2.0245214876327897179919546033488586544991
-1.2939814033741774412789027337566949427128
1.1338746335818388200067374782520346343517
0.0176673912660531978735534153202024754137
-0.0875986179770652101383987542249087709934
1.1697606300884388907945776736596599221230
0.8769370584723114037117852603842038661242
0.2374607537399089363105986194568686187267
-0.1047636147443225668185462495785031933337
-1.5130387371070093127656264186953194439411
0.9844366025299952083216226128570269793272
-0.1123203184441921992364754601112508680671
