1.8806395822596018163608277973253279924393 0.3331006963556722988428759890666697174311 -0.8385632126055776458528612238296773284674 1.6751141256351578245897826491273008286953 -0.2818155798980231940831231440824922174215 2.5156906781696037889162198553094640374184 -1.2669059796987083288399844605010002851486 -1.7435857669924181845289012926514260470867 1.9745507514548907845863823240506462752819 0.8334383908937073037748177739558741450310 4.3730178452019217161250708159059286117554 -0.3419572706019813335132084830547682940960 0.8617507145736988949380474878125824034214 -0.4960285534578535715510838599584531039000 -0.0232552586271603141387931401595778879710 0.5831823819740805658895510532602202147245 0.9696728292833853846133251863648183643818 1.7357936249655754323839573771692812442780 -1.2405483072629088781013706466183066368103 3.4610630046939969695074523770017549395561 3.1130623117367819396861250424990430474281 2.2566352431437364245425669651012867689133 1.3297530704816460378481224324787035584450 0.0147706443600771463592336019132744695526 0.0016571119369826331491069026924378704280 1.3953545222418333171532367487088777124882 -3.0837115319491261722362196451285853981972 2.2266570815628821122800218290649354457855 3.0096005793422944130099949688883498311043 -0.8825889338821628626874371548183262348175 0.4514385566784736569800884353753644973040 0.9527170846882507815323037902999203652143 -0.5259662411765004819130808755289763212204 3.4148796612121206095480374642647802829742 0.8057559943103553834475860639940947294235 -2.7435218892909047916361942043295130133629 -0.0761531151536923994749272992521582636982 -0.7068297906813094666489405426545999944210 -1.7615582703137471209942077621235512197018 2.3110144186455507941957421280676499009132 0.6315332862005385017312164563918486237526 3.3233375153032298499056196305900812149048 -1.1409486799742138973812188851297833025455 -0.5070690905068654386056437033403199166059 1.2186345040871426892437057176721282303333 1.5684139149946059177409551921300590038300 -2.8970243561648656438478610652964562177658 0.1974355421284880451882060015122988261282 0.7395326137182932635383281194663140922785 2.4005741571520942123640907084336504340172 0.9175125303617650551757378707407042384148 1.1655758881659756820425855039502494037151 3.0816913120672952963730040210066363215446 1.0171926790129113271632377291098237037659 1.4911450963711507800013578162179328501225 -1.2078938648932739940988767557428218424320 3.2631794907420639262340955610852688550949 -0.3100028812921962750870363834110321477056 1.5389852613397290159724661862128414213657 -0.9084688272673826503478267113678157329559 1.6431526584283229208693910550209693610668 -1.4950429822664719203828553872881457209587 -1.0724982197416110807353106793016195297241 -2.7999503558356457766365110728656873106956 0.1707496836068101708772104529998614452779 -1.7183546883027696061674305383348837494850 -0.9038300473895375386490513847093097865582 -3.1756546663040134959032911865506321191788 1.6532627943909510292996856151148676872253 -0.7372823793894659472059061045001726597548 -0.8505988807189595046764907237957231700420 -0.7109163796496817955272717881598509848118 2.5964789808432842121987960126716643571854 1.5605855868083517989930442126933485269547 -2.1146470997218145271290268283337354660034 -2.7807808591405680509467401861911639571190 -0.9144522682447060457633369878749363124371 -3.2552165380767053015631518064765259623528 0.3614712131332368239000629728252533823252 -2.8927919252626237422987287573050707578659 1.6193350599230176278808812639908865094185 1.7767357856662480131149095541331917047501 -0.5782419395821550844871694607718382030725 -0.0288699369358934761209400932102653314359 -2.3275846967611992788249608565820381045341 2.1089834909022870945705108169931918382645 0.5381335103388826812675915789441205561161 -0.9628722108693881231999966985313221812248 -2.0897719444738451777254795160843059420586 0.3753434103302459301509941269614500924945 0.1484207096734116715364137917276821099222 -0.6998657874687549407255460209853481501341 -2.1361476948371143080862566421274095773697 -3.8769834008615418063925517344614490866661 -2.5522681398636737348795122670708224177361 -2.7072895769532721033101552166044712066650 0.7001709720810090908926781594345811754465 -1.0400425649363893576548889541300013661385 1.1606910954767681865007489250274375081062 -2.8228767362578830457664480491075664758682 1.2385208969812544488320327218389138579369 2.3838863860188248544602629408473148941994 2.8335479339801650233710006432374939322472 2.9673147935939234720592594385379925370216 1.1047297429555056336170082431635819375515 2.5989484974536143369050478213466703891754 3.7017292953683500478234691399848088622093 -2.0196615833894924207925214432179927825928 -0.7894891936771341045542271785961929708719 -1.8414988572942700972845386786502785980701 -3.1105069556886113524285519815748557448387 1.5017489068718257172463381721172481775284 1.4883422378548436526557452452834695577621 3.1287665266086874815698593010893091559410 1.4732909971186636255424673436209559440613 2.3686198684079489140685836900956928730011 -2.8258137277447041846301090117776766419411 0.8737976617426196357385492774483282119036 0.6176748389277855189050114859128370881081 -2.4390812034857005663468498823931440711021 0.2486068745521515244156773860595421865582 -2.3433921628132177161774052365217357873917 1.2129463358421344043591716399532742798328 2.8353936696303438935728991054929792881012 0.1812410156513310222070600730148726142943 -2.9090207942978230093444835802074521780014 -4.0511347733460310038822171918582171201706 2.4818314849694229629051278607221320271492 -1.8552564658777117578836168831912800669670 -0.9669632060867880962717890724889002740383 2.6318364325281056181893291068263351917267 1.8944557191008866148251854610862210392952 -0.2529022128340489006248503756069112569094 -0.0132822371742896717938808848202825174667 -2.3402255731067618249596762325381860136986 1.9732292781552638327724480404867790639400 -2.3762630841463696640403213677927851676941 -1.2010278046423619180416153540136292576790 1.3480874460106895273980853744433261454105 -1.4375510242500768587348147775628603994846 -3.4081583872790628397808632144005969166756 -0.8839811686749937669205223755852784961462 1.3719992192892473958920618315460160374641 3.7201089858532361276388655824121087789536 -0.3835842032195259654336894072912400588393 1.2402089283845287859264772123424336314201 1.0334204322297393385809982646605931222439 -1.7661285132822708288102830920252017676830 -1.6896734170921994255820663966005668044090 -0.2803288152605376004622428354196017608047
-1.8864356106935113999156783393118530511856 0.2032040832063931323769878645180142484605 0.8760514913445116569334913947386667132378 -1.6996260520837587204567853405023925006390 -1.7013971917966397295884917184594087302685 -2.5171367954197196858956431242404505610466 0.7006477032512237190786663632025010883808 -1.6793582418592738481066817257669754326344 -1.9610339778358878426445244258502498269081 -0.8454937463171292577612803142983466386795 -4.3658723018640435142856404127087444067001 -0.3236172496147111110609273509908234700561 -1.5079811728963525840896409135893918573856 0.5342945894814872254130477813305333256721 1.6729229912864764795443761613569222390652 1.1529035248753272124844215795747004449368 -0.9477314739445096281045266550790984183550 -0.3151959676504837437605033301224466413260 1.2333504093188223382782098269672133028507 -3.4454159255841627640393198817037045955658 -3.1085312332805359325504923617700114846230 -0.4991068214485656628909282517270185053349 -1.3190612766812075395961301182978786528111 -0.0331930465174619521162568958061456214637 1.0574551923533863639903529474395327270031 -1.3659303189235412201441022261860780417919 3.0808855899282359125379571196390315890312 -2.2175274834182863159526277740951627492905 -3.0051239529810578332558179681655019521713 0.8917519387782616435700333568092901259661 1.6241150524043694858278286119457334280014 -0.3282774210810292525586362444300903007388 0.3744413192271588419757222254702355712652 -3.3991800124269682115141222311649471521378 -0.8420587442104290332167693122755736112595 2.7297698946197739289232231385540217161179 1.6442163428788665324731255168444477021694 -0.0636679506148676160881549890291353221983 1.7650211738260157545710171689279377460480 -2.3377736707699270368721045088022947311401 1.0385486320509660362887416340527124702930 -3.3250292536316083946701382956234738230705 1.1244479481394333841848265365115366876125 0.2718184649312191947245764822582714259624 1.6766693281127951209441562241408973932266 -1.6128814886396483085917452626745216548443 0.1833390133634581475874369971279520541430 0.2878421431765381677259085790865356102586 0.6268018720206232075042862561531364917755 -2.4291299715635275013880800543120130896568 -0.9050902987720628178891502102487720549107 -1.1374072376198096634425382944755256175995 -3.0925408464533705732435464597074314951897 -0.5896780534459629130594748858129605650902 -1.4987161191090856426910704612964764237404 0.4856446279186001357963675673090619966388 -3.2572129910855425194426970847416669130325 -0.7398414355958494725840068895195145159960 -1.5581730183585296156678623447078280150890 0.7271864779352116281430085109604988247156 -2.9694624568183018986644583492306992411613 1.4829796465961579965409100623219273984432 1.0834365665812137891066413430962711572647 2.7845152894665505804994154459564015269279 -0.5954280402154239482115372084081172943115 1.7214528248802880572299045525141991674900 -1.3223712694306586357129162934143096208572 3.1791056655206801906388136558234691619873 -1.6347488395596077026539205689914524555206 2.0336953921264706579563608102034777402878 0.8682412053365039517061063634173478931189 0.6455775855000691620944053283892571926117 -2.6015740827050413130905326397623866796494 -1.5803401696905692297434598003746941685677 2.1043479628850016993624194583389908075333 2.7697671597763431350358587224036455154419 0.3925408410381849844128510085283778607845 3.2700060744850434346631118387449532747269 0.5190640891852373872694670353666879236698 2.9051001376263290154611240723170340061188 -1.6337917278308398127961709178634919226170 -1.7626670952132490466368608394986949861050 -1.3982806668898557500568813338759355247021 0.0801601969253658563907549705618293955922 2.3319823634192471395465418027015402913094 -2.1020787189193548272214684402570128440857 0.8559871472939130088164461085398215800524 0.9104703785911997249158389422518666833639 2.0710321389856503060400427784770727157593 0.0017565843736165333809073896276231607771 -1.4153619260124259415789538252283819019794 0.6742812121687259407920578269113320857286 2.1445268319379686694503561739111319184303 3.8827179752777301047217406448908150196075 2.5436491615221439310801088140578940510750 2.6682277074215301482240647601429373025894 -0.8631155321786062595279531706182751804590 -0.2032645966872247966783504580234875902534 -1.1470439076832532609984127702773548662663 2.8164910001236718173345252580475062131882 -1.2228917019971818902490667824167758226395 -2.3490694835558834085986745776608586311340 -2.8460922660158534114316353225149214267731 -2.9500076034104090183518565027043223381042 -1.1423723414989237490146933851065114140511 -2.5887984489238586860437862924300134181976 -3.6955203740417572610965635249158367514610 2.0380842529330873702519966172985732555389 0.8218204306567911121561564868898130953312 1.8369497952851541189289719113730825483799 3.0860117251962435602763434872031211853027 -1.5414216324888432296802420751191675662994 -1.4752301044969560184227930221823044121265 -3.1336279746979163185471861652331426739693 -0.8612840933813193933232810195477213710546 -2.3536690142631284672347646846901625394821 2.8278169791320686421443042490864172577858 -0.6026656383031097075075877000926993787289 -0.1651621835921393832702364079523249529302 -0.9354637518520446670677870315557811409235 0.9985114089749055343858685773739125579596 2.2998610962213423825062363903271034359932 0.2057988430133294854851300215159426443279 -2.8275369785044492942915894673205912113190 -0.7973133076778565753173211305693257600069 2.9359598404391271664337637048447504639626 4.0655231200910995070785247662570327520370 -2.4708083573068417848617173149250447750092 1.8401965402632969315277478017378598451614 0.9646093694858052236540402191167231649160 -2.6480502298578323383537735935533419251442 -0.8336643537542655080230247222061734646559 2.9586415410321631469514613854698836803436 -0.4767528421459664156323299266659887507558 2.3267614271025203187548413552576676011086 -0.4089232579831686975602167422039201483130 2.3601420854482642042171391949523240327835 1.2015064626777072209762309284997172653675 0.1587778581293446955591264213580871000886 1.4343779349134235800988790288101881742477 3.4137324291176089907651203247951343655586 0.2634151627862018618664308178267674520612 -1.3719638206311899342182414329727180302143 -3.7207018692435607221113968989811837673187 0.1956933978795536432926382985897362232208 -1.3207120860713639221017956515424884855747 -2.2294673368287032388934676419012248516083 1.7286003076279710111151644014171324670315 1.6960478427815086632790553267113864421844 -0.8399659449469309979718900649459101259708
