-0.0069052824466489179378037022161151980981 0.4325517473043078986449927469948306679726 1.7767780559425148112495662644505500793457 1.6705804089474405316195770865306258201599 -0.0799302997832738448824585475449566729367 1.2788397191118578977153674713918007910252 1.1491993649418490441860285500297322869301 1.4400827572833398981799746252363547682762 -1.8835335416845466749435900055686943233013 -0.1176443458005816955491695807722862809896 -0.2535201996186892126061707131157163530588 0.3144534617584607838480792452173773199320 -1.0246608009378530557142994439345784485340 0.3759538723331989906739636353449895977974 -1.0556343251834110485987139327335171401501 -1.7892485121117140955959712300682440400124 1.4363665104995588794878358385176397860050 -1.6362366360749771576621469648671336472034 -0.8463547577914188879688595079642254859209 -0.2638797454041786894052279421885032206774 0.0290600133266325361125481663293612655252 -0.0305517653975958120016187535838980693370 0.5940080707596054887531522581411991268396 -0.7863950197296298849636286831810139119625 -0.8356647325856498831342378252884373068810 -0.5589426631776569509568730609316844493151 -0.8328317833632905564655857233447022736073 0.7815303204931294267510111239971593022346 1.1198157459714341843692864131298847496510 -0.7411972489871514468973145994823426008224 1.8164184265607603574466111240326426923275 0.1458139411722253753200817527613253332675 -0.3244922625686797457156274049339117482305 0.6444867262758974257863542334234807640314 0.3288876658509332640001332492829533293843 -0.0467335907196110775241315593575563980266 0.6157735087424688336099620755703654140234 0.0631379500937285786932307019014842808247 -0.7351316409642600913088017478003166615963 -0.9901762048271337546268000551208388060331 0.0879181614203325134671018759036087431014 -0.5257591714561755669166132065583951771259 -1.4987215128665101193661257639178074896336 -0.2204088358952200621398986868371139280498 0.1624158342549390232623096608222112990916 -0.6751750343235096707417142170015722513199 -0.4070210910812813720482949975121300667524 -0.6167772432349138966856116894632577896118 -0.8497146717805184046312660939292982220650 -0.6400780791473115183265463201678358018398 0.1905770468314948729027236140609602443874 0.3137827509862868291534709896950516849756 -1.0875510325804451650100190818193368613720 1.9274046690217008226397865655599161982536 0.4954313620827047182082480958342785015702 3.0081263454435807069842212513322010636330 -0.9716175733822829396757470021839253604412 -1.5255219066883625167463378602406010031700 -0.5922401483065883320833222569490317255259 -1.4986243242237964334861999304848723113537 -0.6441742020245702082803518351283855736256 0.7226544618815042841930562644847668707371 -1.9128750669513157056655927590327337384224 2.2535787884863323071726881607901304960251 -0.6006341182924400667886288829322438687086 -0.4863901821269139835735018095874693244696 -0.3778645470636141090459148017544066533446 -0.0628013100735964335807892666707630269229 -2.1183613127792355612655228469520807266235 1.7279729026798349433846624378929845988750 0.2594181706585583779833825701643945649266 -1.2017874846892007134613322705263271927834 0.2722705856913574251620957511477172374725 -0.1820833238887971106123586650937795639038 -1.1070668507008025738258538694935850799084 0.3574655972708152273931148101837607100606 0.7738220931153115822453969485650304704905 0.4074804625147586678579614272166509181261 -1.8985991940625350782312352748704142868519 0.9601956958455708512900628193165175616741 -0.4974484645931515625072449893195880576968 -0.5075214831514475166684974283271003514528 -0.6112444087264891079414041996642481535673 0.1419283193216404614922510063479421660304 1.3285296576854088712593693344388157129288 0.6035973153268260338322193092608358711004 1.6948445762151327365074848785297945141792 1.3839969482438922998568386901752091944218 -1.1984761208335201754238141802488826215267 -0.4502248606643793338299985862249741330743 1.7868639423358128048846538149518892168999 0.1281306754813247572588608136356924660504 -0.4356578376108630745733307776390574872494 0.9473871675400470371286587578651960939169 -0.6782221408440607390843979374039918184280 2.2277397405918306638739068148424848914146 0.9200727204948092596836772827373351901770 0.4675213865811745361789064645563485100865 -0.3493177453241268493044913157064002007246 -0.1492651891831737187565920521592488512397 -0.8963387202634564010494955255126114934683 0.6376822373505316443598189835029188543558 -0.6546360707537057788130141489091329276562 1.0236064468904204627364151747315190732479 0.9780043574889466517774394560547079890966 -1.4053027472091477179105822870042175054550 -0.1674490586187458163180963310878723859787 -0.7333601945836556446067788783693686127663 -0.8439475940661581576662797488097567111254 0.6308254110118757251868260027549695223570 -0.3721498175934949692589270853204652667046 1.9425840826061924193624008694314397871494 -0.9740666491315824737640127750637475401163 -0.6731922846098539192638554595760069787502 -2.4244420366660488497245751204900443553925 0.0133585139103210362443441283630818361416 0.1017212786818066372340751968295080587268 0.3582965048783076089655708074133144691586 -0.4253034505626721584192750924557913094759 0.0511856150998253045525387960879015736282 -0.8028451296490026756202951219165697693825 0.6869710596036475713788149732863530516624 0.2508316136453432321218315337318927049637 1.0971158318076119631001574816764332354069 -0.8589416806984006003133913509373087435961 0.8031834597489566629491264393436722457409 -0.7376817435287492674689246996422298252583 -1.2523033653174373558414345097844488918781 0.0272854979113918982847053484874777495861 1.3655464129217869118093631186638958752155 0.9715041053341562093947914036107249557972 1.8157258431496239303726270009065046906471 -0.4508206289435584546154700547049287706614 -1.0250126889129880236595226961071603000164 0.4347315828406012605533703663240885362029 -1.7104343505280137360813341729226522147655 -2.0620916065114407444980315631255507469177 -1.4608193536229101550105724527384154498577 0.7021173518878235375595409095694776624441 -1.0834713808341047691641279016039334237576 1.5400264182023117864872574500623159110546 -0.6781277446659307317489151500922162085772 1.1850105324766786463186463151942007243633 -1.1687097892524289655113989283563569188118 -1.8119769516707946444000754127046093344688 0.5291535470618934366981989114719908684492 -0.7957314538032679296364335641555953770876 1.5972982123304990675904946328955702483654 0.2561047441104712385495645321498159319162 -0.0322803651851783432458198319636721862480 -0.8431604836188354434867164854949805885553 -0.4106365984614668840357865065016085281968 -0.1400680494324843261555457729627960361540 -1.1343892646562545589716819449677132070065 1.3810125784822699923637401298037730157375 -0.3202501483529359149748927393375197425485 -0.9659017192142981267366508291161153465509 2.6613558624759372506218824128154665231705 0.4282377161404939958089244100847281515598 0.1889168635963913434050454043244826607406 -0.0205340076243178924764176684902849956416 0.7761198415860180999104045440617483109236 0.3849060640663268251238093853316968306899 -0.3476818703025683632290565583389252424240 -1.5457756971804585965912792744347825646400 0.9892298890804829269995934737380594015121 0.2194955216356203886451936568846576847136 0.5807084068366317186615788159542717039585 0.2930269208992743457109497740020742639899 1.1561315992981635591974054477759636938572 -1.1638660253438888325661082490114495158195 -1.6632051985536946414612202715943567454815 -0.4957967891366287793708522713131969794631 -0.0161460183414568990423187955229877843522 -0.6834683865639876731989943436929024755955 -0.1345865859084161009207036840962246060371 -1.0735972638710495896674501636880449950695 1.1070801115666031311235428802319802343845 0.0663610865522411136341318638187658507377 -0.6122358143972953525846492084383498877287 1.1907742851844416165363327309023588895798 0.0883925577529105777063733739851159043610 0.1884227601322294443075833214606973342597 -0.1632999402444934577971480393898673355579 0.0016140345550720810487155265633418821380 -0.7696858092306162468787533725844696164131 1.6114620224862938879795137836481444537640 -1.7887710056581542783504801263916306197643 -0.5158888899198357247399826519540511071682 0.3499293370213021336923020498943515121937 -0.8812943433261402059741840275819413363934 0.0952396413013406328840204650987288914621 1.2827130461066411637460760175599716603756 -0.1311963747357050014130663839750923216343 0.6583239507832111536700381293485406786203 -1.5389986605722925094852371330489404499531 0.9141363685654267934310723831003997474909 1.3385563993340336974569027006509713828564 -1.4657386074453333524303388912812806665897 -1.1933620751252322911284409201471135020256 0.5459457031486789624352695682318881154060 1.2654259710388524595714443421456962823868 -0.8923925426640161306934828644443769007921 -1.5242358777743694187023493213928304612637 -0.6305754602714856993372904980788007378578 1.0282134539004361695191391845582984387875 -1.5835983051405322363791583484271541237831 -1.1339834669849440107469717986532486975193 -0.8051229533917001468523721996461972594261 0.1694450884483601482699555162980686873198 -0.5116808874778590032761371730885002762079 -2.7996026079131581809633644297719001770020 0.5916715011438903326634886070678476244211 0.6267036159988578214452559222991112619638 -0.5016236161918108393820148194208741188049 -1.1415154533788591795229194758576340973377 -0.3365721209760884069517317129793809726834 -0.7495019842974270929403246555011719465256 -0.5056830231493145699772640000446699559689 -1.1365167933666293631489452309324406087399 0.1774286511129945786979789090764825232327 -0.0073643552916822611897895711763339932077 0.1947214606485318244555315914112725295126 -1.1795611754803227988475100573850795626640 -0.8253037060034874583536179670772980898619 -0.3579759907448326061718546498013893142343 1.5591247395963001576291162564302794635296 -0.9118114564627748386271832714555785059929 0.1206879714829181826640791541649377904832 1.4105410504389803705294070823583751916885 -0.8993472766538356255594521826424170285463 -2.1718472519007923082767774758394807577133 -1.5348076131320558257442598915076814591885 0.9471956948930373432204987693694420158863 0.5289087180268496890533924670307897031307 -0.7736917278152972698990197386592626571655 -1.2385255156918117958042557802400551736355 -1.2309947281907622773644561675610020756721 -0.8065561294637940692453526025929022580385 0.4638859843891623979672544919594656676054 -2.2726842392118102864628781389910727739334 0.8970936516483861700166357877606060355902 -1.7031981908039950379674110081396065652370 -1.4049597761525753902844826370710507035255 0.1863452306408201475385055800870759412646 -0.3081316658057022817018832938629202544689 -2.0974050936154839952507700218120589852333 -0.5413033520021242051001308936974965035915 0.3243584807528620550520770393632119521499 0.3679858938029355597265634969517122954130 0.3077243790776704179812384154502069577575 0.6646179379786368857097045292903203517199 0.7513533486706561737022980196343269199133 -1.6355058687033843245473008209955878555775 0.1741195080966767005925532885157736018300 -0.1263447232003180320525359547900734469295 -0.8632897824108799467168751107237767428160 -0.5540571719685466467453238692542072385550 -0.9127878633796367990882458798296283930540 -2.0265295793205688745786119397962465882301 -0.0952850846362352787988214686265564523637 1.1891054448512581309671531926142051815987 0.7293823272496475773607471637660637497902 -0.1594062379286078634521572894300334155560 0.8243622858796533225955727175460197031498 -1.5740680527069612626434036428690887987614 0.4747333929955175335635431110858917236328 1.0506348817076527346614511770894750952721 0.5593624585404257665288696443894878029823 0.3209631161172344926413302346190903335810 0.1102908334361891173891478956647915765643 -1.1215133845149631852677885035518556833267 -0.3511172089092459147607883096497971564531 -1.7771562338429931493521962693193927407265 1.5644983072090543618770652756211347877979 0.8721860880991836317832621716661378741264 -1.4683023580516711970034293699427507817745 -0.6229288891709615638703212425753008574247 1.2484575149268932747759208723437041044235 1.5257838293712504551535857899580150842667 1.4073615816863107585987791026127524673939 -0.0346420983454139713719754922749416437000 0.4728677639722848602410465446155285462737 -0.1864923499179575172579603759004385210574 -1.2663896689664368988559317585895769298077 -0.2757140169725788014787326574150938540697 0.8306472036549298332275270695390645414591 2.4589430936521936565952728415140882134438 -2.4240723723516599541483174107270315289497 0.9867822259503686854742454670486040413380 -0.7283723734302870456147616096131969243288 -2.7398487818216010758476386399706825613976 0.7805838647417679965201386949047446250916 -0.8990612892544941336936403786239679902792 -0.7529909235170565429129396761709358543158 -0.4735116386704215085678981722594471648335 -2.3235513386246462452788819064153358340263 1.1794329299640031738505285829887725412846 0.1675079921512322156385010885060182772577 0.6702635309157786158706926471495535224676
0.6637680248832321661112132460402790457010 -0.1964174177647836916360546410942333750427 0.5879164124991962392385858038323931396008 -1.7263950703752874993313071172451600432396 -0.8089187569632387830864672650932334363461 -0.9847250148294361959955267593613825738430 -0.2935174515999822708600675014167791232467 -0.0593272912103110991455245937231666175649 0.7397442385137615872281457995995879173279 -0.5636072495992900943662107238196767866611 -0.1875904425164740541021046738023869693279 0.2220398077399012848331949498970061540604 2.1493864410430356670644869154784828424454 -0.5232242710807357699565045550116337835789 0.6428841930120905434620226515107788145542 1.2618965315782983971359954011859372258186 -1.4929583724026345148416794472723267972469 -1.3019443625856490509562490842654369771481 0.2573561729268160069850068794039543718100 1.5110918932107573198209138354286551475525 0.6129348805361958252291287863044999539852 -0.2538778879171517677271197044319706037641 -2.9601152285617642334614174615126103162766 -0.3176486582106148870430217812099726870656 -0.7432761427896523720448840322205796837807 -0.2634411807931245630420846737251849845052 1.1302612559664115821078667067922651767731 -1.6214164971098496970114410942187532782555 -0.2631672251968173448233301314758136868477 -0.7786846375260010333363425161223858594894 1.5234490207880069245760523699573241174221 0.5511634173099509981241794775996822863817 -0.9966737864398661495002329502312932163477 -0.1052357178953203242777192372159333899617 1.0940480500359264226517552742734551429749 -1.5601411829115101603804305341327562928200 -0.0377711391027798007447024986049655126408 0.4422604439846946622338919041794724762440 -0.5044998047395380380564233746554236859083 0.5997776552814971795513088181905914098024 -0.6247720708216772944609829210094176232815 1.5416771885906723760228942410321906208992 -0.7448934805425382332799699725001119077206 -0.6084724013696465316769490527804009616375 -0.8050439249885580350607483524072449654341 -0.4486644169355222255823889554449124261737 -1.4935905589380704672208821648382581770420 0.8597342660468028086029335099738091230392 1.6983923443952306797655182890594005584717 -0.2093645945694938281800290269529796205461 0.2941431725873359659395589460473274812102 0.7226146376868608500743107470043469220400 0.1796033973397304084329562101629562675953 -0.3740993365663299874412928147648926824331 -0.3939133381949583845305085105792386457324 1.1775317013507495822466353274649009108543 0.4530044992580769536161255928163882344961 1.9404946256164004037003678604378364980221 1.4116021642428453475304195308126509189606 1.7867998458557574625871211537742055952549 -1.1803203013572716173484877799637615680695 -0.2076455414534630339318255209946073591709 0.7794719399740733800641123707464430481195 0.5021149865392952049703012562531512230635 0.1159559679058361214565309182944474741817 0.2354746747024788477986589896318037062883 -1.2281154732364660819854407236562110483646 2.2595213555456239440388799266656860709190 0.7140298768056819733729412291722837835550 -0.9266844863724627012757650845742318779230 -0.4377900545344856619855988810741109773517 -1.0473734664392009285904805437894538044930 -0.8350748398503080593968661560211330652237 -0.7603552744009205444086774150491692125797 -1.6979440920084987176608137815492227673531 1.1753465382673540240432430437067523598671 0.8929441610741759571823195074102841317654 0.0082520295932720175852148614126235770527 -0.1133010633770315245261173231483553536236 1.0335914723387693570089140848722308874130 -0.5892976550366449961515513678023125976324 -1.2817155021664374814349685038905590772629 0.2250515926341171979441213579775649122894 0.0277007179033782781341077594561284058727 1.1895068057665278971057887247297912836075 -1.0813454366680106399911664993851445615292 -0.6474988277686397619703484451747499406338 0.7319408223487132714168978964153211563826 0.0663004372001373548650704492501972708851 -0.3384899089342344180586508173291804268956 -0.7645155858797845205288012948585674166679 -0.3159521407228266798306037799193290993571 2.4169209691685109575587375729810446500778 1.6208969510520228052286029196693561971188 0.1218064534000802279223307778011076152325 -0.1194278478485397976260884433941100724041 0.7676041906189341457178443306474946439266 -2.0768156226228469130035136913647875189781 0.7780360526687780664545357467432040721178 -0.2893139603609239940418262904131552204490 0.4669654965784244549098502830020152032375 -0.0561541829351953555859999767108092783019 -0.1241084308831047477994502514775376766920 -0.1880054628346188583254416926138219423592 -1.5536443234826042836260739932185970246792 0.0576323665060392772985231601978739490733 1.6579412735002236889414461984415538609028 -0.5286886980717647732674890903581399470568 -0.0090623644151233886251395333033542556223 -1.0028435449823767111610095525975339114666 1.9759305267686964047157971435808576643467 -0.3071748539516994669362759395880857482553 -1.0021768075361434657821746441186405718327 0.3237164447430836422547884012601571157575 0.0247287211003242614337782612210503430106 -0.8845110465007318678587466820317786186934 1.0522781655640864872935935636633075773716 0.2565704706469900675536166545498417690396 -1.8583517920808658718812012011767365038395 1.5196818712838993103986240384983830153942 0.5595428525677565989582262773183174431324 0.7245246716522510954661129289888776838779 -0.3958008193824792408932466969417873769999 0.1329777161925755069038501687828102149069 -0.3000042729376752315140208793309284374118 -0.8043761232973752894892527365300338715315 0.8567579954471619130274007147818338125944 0.2190832571595517086482374224942759610713 -0.8199940638092706457484837301308289170265 -1.8446131662438416398686058528255671262741 -0.2603669577721034467110428067826433107257 -1.2912875459210289008638028462883085012436 1.5206581246291763775957406323868781328201 1.6678895930727584140385033606435172259808 0.3594342217416717222278066401486285030842 -0.6558153835185969171561737312003970146179 1.1788349358594338855965588663821108639240 1.2476022985028876188806634672801010310650 1.1995143751197194781354937731521204113960 -0.1292933031330113224921518622068106196821 -1.1346596958550396738729659773525781929493 -1.3930838640818579143854094581911340355873 -0.1263584889275518319262658906154683791101 -1.8854974812375489001681216905126348137856 0.6674116365881632706447135205962695181370 -1.4386592764487018403229967589140869677067 -1.0576722644278930829386808909475803375244 -0.0866987860912433599969162401066569145769 -0.6423844316621506456144174990186002105474 0.8136320135717479695713905130105558782816 -0.2914261282163300714742604213824961334467 0.8061148228308515628626196303230244666338 -0.8924365923984318715866947968606837093830 -0.2119400224447020864015911456590401940048 -0.5582949487894379725361204691580496728420 -0.7402911300436804120650435834249947220087 2.0037610338523608177752066694665700197220 1.5352755199918139972226072131888940930367 -0.3685833042959233973867583245009882375598 1.6974515841990418518747674170299433171749 0.3897719845205533939491715500480495393276 -0.1717273557917230464298086189955938607454 -1.0881867081132301500190351362107321619987 -0.8064731793620784072729179570160340517759 1.5487470638746787532369353357353247702122 -1.4119142241463340514684432491776533424854 0.1944430936905281737114847828706842847168 0.8672952957368778026392419633339159190655 1.7167477611812129723034558992367237806320 0.8776688841461068868454731273232027888298 -1.6218043379428095374095164515892975032330 0.1496054858716011348729324481610092334449 -0.3463453190607378440191155277716461569071 1.0458297532221454417822315008379518985748 -0.4337226044220242049398450490116374567151 -0.0028438231016843238188607223548842739547 0.6120041912827861585455480053497012704611 0.5590810897229804288244281451625283807516 -0.5330040534891459236277455602248664945364 1.1148397844366562114970520269707776606083 0.5767097129559721757630086358403787016869 -1.6427160417815043214062598053715191781521 1.6214315494099793557580824199249036610126 0.9636115480845495184780702402349561452866 0.4023671650920726539091276663384633138776 0.0606972432809853718049808435353043023497 0.9240213198307410946696904829877894371748 0.8688635549522247814024922263342887163162 1.7105326623431453825219250575173646211624 -0.0018834796997039065461626572428599502018 -0.2826274640272681271113697221153415739536 0.6042419748104317367420890150242485105991 -0.6925494592093852652681107429089024662971 -0.5726182065784751751280623466300312429667 -0.1956425735404589139054820634555653668940 -1.1993686483060792546950779069447889924049 -0.1819997216020696195748485024523688480258 1.1403098366062900392847723196609877049923 0.9712276880308143844899859686847776174545 2.0321967260915818620503614511108025908470 -1.2994155519836638745800883043557405471802 -1.2952409710116121743794792564585804939270 -0.2317077925287799322617843245097901672125 -1.9020635391986207007875009367126040160656 -1.2660050013766730447883901433669961988926 0.0246100967600419891223584301087612402625 0.3252414500522320950359755897807190194726 0.5476671742923824304227764514507725834846 -0.3811094001493470218022707740601617842913 1.5790890727926831793581641250057145953178 2.3276974603263171914591111999470740556717 -0.1951148860020808506465783693784032948315 0.3850277242631020002683328584680566564202 0.5365819096430221035731733536522369831800 -0.2930035525183877775923235731170279905200 1.5053263334343938151249631118844263255596 1.5855205991467924420135204854886978864670 0.9257518198499928852029938752821180969477 0.7513968204758525448738737395615316927433 0.0929203921466121574024299434313434176147 -0.9955467652718137383516250338288955390453 0.2820136041677727134491249216807773336768 -0.2212900837791337282922654594585765153170 1.3935959556514512236446989845717325806618 -0.3001517528939454670933173474622890353203 -0.6837427224423774374528761654801201075315 -0.0598696981669046349172624843504308955744 -0.0932770226502246946331808885588543489575 0.4065428842708234125069566289312206208706 -1.6580576317725370660838279945892281830311 -0.8595025079100439002743883065704721957445 0.2867176641685134086401376407593488693237 -0.4733450410463342916678186611534329131246 0.2509212247598559542005602907011052593589 0.7306261229446971983136904782440979033709 1.0572555092870983273201090923976153135300 -0.5405318404131075338270306929189246147871 -0.7386378172569375566425264878489542752504 0.1376420907679684335622738444726564921439 0.0179283845987756387807543489998352015391 -0.8030731206595204119125241959409322589636 0.8911175741985920550902733339171390980482 -0.5758442391411277005985880350635852664709 -0.6756822746610364749386690164101310074329 -1.0169809889313121686882368521764874458313 -2.1347772731111902544398617465049028396606 -0.0476352247630669606293096762783534359187 1.5888369429659978671054432197706773877144 -0.8420365613645333091596967278746888041496 -0.8234437865518303700795854638272430747747 0.6927010746091220028120005736127495765686 0.2397874080134007601650125707237748429179 -1.2274665241557267680860832115286029875278 -0.0921967447935121142688075224214117042720 0.7278014482446939492632509427494369447231 -1.0095158004004920471174955309834331274033 0.9749642690951746404337541207496542483568 0.3436102591291265717643454991048201918602 -0.4197801108770675138082140165352029725909 0.5912189512648469147393370803911238908768 -1.6701576018750130536716369533678516745567 -0.3635952827787614638488378204783657565713 0.8604571623342234243381199121358804404736 -1.6019084646723089626618730108020827174187 0.0093356905427486609055920396826877549756 -0.0009317042352823139183051748268837854994 -0.4848664118307335901825183555047260597348 0.2476204434715003899203367154768784530461 0.2691813306984432996316058961383532732725 0.3644705342087942723239279985136818140745 1.6011759647413446039365680917399004101753 0.0509042099439051126674726788223779294640 0.0481662348075118998402821546278573805466 0.6327671721518297598407798432162962853909 0.3381930624823173414661425795202376320958 1.1316992679438409030723278192454017698765 0.9506253737378325130435996470623649656773 -0.5413120685170876855707433605857659131289 1.2545526466447292079919861862435936927795 -0.4432326113213869156481905520195141434669 -0.1163454842953381279668789716197352390736 2.0574954717728295428003093547886237502098 0.2176531806559505732856507620454067364335 0.7354046911547675868803253251826390624046 -0.7751400310185589948019924122490920126438 -0.6344225581747101605500915866286959499121 -0.7300682405908441863218172329652588814497 0.4083640761558083864812829233414959162474 0.6472345931200225166435302526224404573441 1.2943380542924975973306800369755364954472 -0.0110122369796482304921125816576932265889 0.3886859614143423624632589508109958842397 0.1651560669857890240042053164870594628155 -0.0496753838606294809143726354250247823074 -0.3674710807855926519849276701279450207949 0.4788798890663570340109345124801620841026 0.6337776692472446571358091205183882266283 1.7395104018991598415766475227428600192070 0.5142919074806775459052232690737582743168 0.0928023518465225794038531148544279858470
-0.8323198990481244230466018052538856863976 0.0362945016590853000715277687504567438737 -0.0634340256413687408887369656440569087863 0.9542351443661128973516838414070662111044 1.6615950722136836326114917028462514281273 0.1799649193282442938279785948907374404371 0.6906831481940411965325665732962079346180 -1.9564834329115370348262104016612283885479 1.8200808416526610411523279253742657601833 0.1235710313135554849761632567606284283102 1.2616666914967473722697377525037154555321 1.3763513326758454180520629961392842233181 0.7553264642019079655455016109044663608074 -0.2490468107956174403927462890351307578385 0.0804098682915928286707440975078498013318 2.5932977914455084267331130831735208630562 -1.1062771413633756267813623708207160234451 1.1415353866725082010447067659697495400906 -1.3711611525545992495977998260059393942356 0.6717676791394660007483707886422052979469 -0.5736230732123843711889321639318950474262 -0.4875609662456950044173709102324210107327 -0.4818019132264905746154681764892302453518 -1.2118387763075879615115582055295817553997 0.2027771902440977103143637805260368622839 2.8836601269979129646969795430777594447136 0.3294775959366270656758501900185365229845 -0.0769682625330351116721416815380507614464 1.4849849805885679820960376673610880970955 0.7652221941579165909175230808614287525415 0.2882787498996600694667336028942372649908 1.2192839543874314234273015244980342686176 1.1831254212291777427878969319863244891167 -0.9341745367993092852287873029126785695553 -1.0343144757042503911748099199030548334122 0.6200891199220296412519815021369140595198 2.8844469794400646733834037149790674448013 -0.2546628268468045241945674206363037228584 0.6242767144881748997420345403952524065971 0.5912347063859083595716015224752482026815 -0.8153260261421426680072954695788212120533 0.0351121854308021202895062629067979287356 1.2519543626474336495135730729089118540287 0.1357062805786536374696993334509897977114 -0.9514939079710442726423025305848568677902 0.9298307741522288116797767543175723403692 0.4988311019597547746329269102716352790594 -0.8304529990098798997166795743396505713463 1.8521976308654037879364295804407447576523 0.8087387611666561060275171257671900093555 1.4087846159096009124311876803403720259666 0.4000904523658183054024561897676903754473 0.7052902847445828848904625374416355043650 0.6982260163212592463111150209442712366581 -0.5979105574162723035769317903032060712576 -0.0683423257997604616242881547805154696107 -0.5659103341347154758622650660981889814138 0.9908807329529444318794162427366245537996 -1.2826646244540753638574415163020603358746 -1.5849705148481323391251862631179392337799 0.4183659500286966981263958587078377604485 -0.2814719125147459033442487452703062444925 0.3462191263846693400907383875164669007063 -1.4304019807536378916523744919686578214169 -0.4320270248563083392845385333203012123704 -1.0583760959342649599079777544829994440079 -0.6569833419857777911943230719771236181259 0.2808353577238046350217359758971724659204 0.3694447162549071572712477973254863172770 1.1142085958785439281371054676128551363945 0.0372197167590641656009786686354345874861 0.7313887252756258172681214091426227241755 0.0741725480681832971541211918520275503397 0.2835655228189767895763395699759712442756 0.2727406764373370706699972743081161752343 -0.7908446891149284452282586244109552353621 0.8059579973488221193989033963589463382959 0.3453933093781479390926847372611518949270 -2.1127241196162436231986703205620869994164 0.3310372292179840081338682011846685782075 -0.0832260664211894179986828135042742360383 -0.8094786147708269430367522545566316694021 0.8915848663436831689210748663754202425480 -1.5761853045952980423294320644345134496689 -0.2460535332842659905772109141253167763352 -1.1063807603853079708500217748223803937435 -0.4373289853215797107210960348311346024275 -0.7513642213747908638055150731815956532955 0.7595553424196551661751186657056678086519 0.3116387215417922296190056385967181995511 -0.1059859166920265882705365356741822324693 0.0906044955449091665711236487368296366185 -0.2406024767947806120016451814080937765539 -0.6592345590346799788505904871271923184395 -1.0561529533813915904261193645652383565903 -0.2368270163430648556079916033922927454114 -0.2865865289024253081962001488136593252420 0.2831804588816307366450075733155244961381 1.8854079219231971720205365272704511880875 0.8428796884915443765606823944835923612118 -0.2470525181917312684820586810019449330866 -1.2335341753281192644919883605325594544411 0.6690082202829483737360760642332024872303 -1.9868727403073391801768821096629835665226 0.0646500313159801276441385198268108069897 -0.6097587561132843392286417838477063924074 -0.7343769033455850303582224114506971091032 -0.6448579607794975299128736878628842532635 1.4447534133526767075039742849185131490231 1.1925224073576525807283132962766103446484 -0.1895113658170798076607610482824384234846 -1.1650443759071000826565978059079498052597 0.4238389302863262431131374796677846461535 2.2129364951702741315386901987949386239052 -0.4530555481258126682142517438478535041213 0.6509847554033425520714217782369814813137 1.4589351537653010293382749296142719686031 0.3631070602986465889472356138867326080799 1.6582188103364869924405411438783630728722 0.4736565106346081743815545905817998573184 2.4524719998624533445763518102467060089111 0.0772013849091681553238331048305553849787 1.3809709538022383323863095938577316701412 -0.1298250291948619128401531952476943843067 2.3012105767890052021584779140539467334747 0.3629224447575297718415754388843197375536 1.8884060921002341348895470218849368393421 0.7276394087441312441555396617332007735968 0.7799401755606253372476999174978118389845 -1.8211730997391728514855913090286776423454 0.9390134111263437333150250196922570466995 1.0682017661102771732828387030167505145073 -0.7685582606739037592191721159906592220068 -1.2087207331335299009822392690693959593773 -0.3446063605152607234316519679850898683071 0.0235741242817829321776201823013252578676 0.7873311890107369537261661207594443112612 -0.0841257666470694304150512721207633148879 -1.7834308031872252442440185404848307371140 -0.8352174694146836664288002793909981846809 -0.3944183797821506076708431010047206655145 0.1888167698971602304069961064669769257307 0.8499430410881388953114878859196323901415 0.3734381945787890733079450455988990142941 -0.8441483040341691834740345257159788161516 0.1210066123706041718577353094588033854961 -0.2401883992380962062895832787035033106804 -0.1768107592005804529211587805548333562911 -1.5624875609884960603324088879162445664406 1.2602889350456598638317018412635661661625 -0.7909317998310355646296443410392384976149 1.2055578880122379548112121483427472412586 1.7485120105444900140412300970638170838356 0.6673604511510943249064098381495568901300 -0.5914016613054627891088443902845028787851 0.1227291660973033049497615820655482821167 -0.5624893621980432412144068621273618191481 -0.6126684099500034896834677056176587939262 0.3630278172413353154901471953053260222077 3.0307317780588478584036238316912204027176 0.2718982720324288337998552833596477285028 2.2632851401254958645381520909722894430161 -0.6869566230980213017431879052310250699520 0.7133770364425943144581765409384388476610 0.4665702171699614431155112015403574332595 -0.8845050172157363777003524774045217782259 0.4485701911999377400341870725242188200355 -0.1683017297023859659699240864938474260271 1.2972921725414428006928346803761087357998 -0.0488331659924775424164167247909063007683 -0.1165603564866840441416329099411086644977 0.1331241869788187259793232897209236398339 -1.3645447643782371294207678147358819842339 2.1786222091618614449259894172428175806999 1.0947509527266479079088412618148140609264 -0.9296719326767669544508976287033874541521 2.1215843791468858015036857977975159883499 1.6167000490983127747313119471073150634766 1.4659324023206441456324000682798214256763 1.8920882930897235940648215546389110386372 0.3060049717580765049618207740422803908587 0.6008322506145815644629237795015797019005 0.2990794643535486518892696494731353595853 0.4857584450230706396567370575212407857180 -0.4907455059664832530685885103594046086073 -0.0701601846701429138208894187300757039338 0.1110509213832288899492795053447480313480 -0.9042791379889292269211864550015889108181 0.1746743049338995434904830972300260327756 1.1873152979779253435310693021165207028389 -0.2765835290592060236036786591284908354282 -0.4519175418117801767969865522900363430381 2.0865166991300250209917521715397015213966 -3.4562566755082024805290075164521113038063 -0.2917123269100179161483765710727311670780 1.1716858964809202525714226794661954045296 0.3227109645656493497334338371729245409369 0.5687246050900406357797578493773471564054 1.7836796555797538310628169710980728268623 2.1444679592402775547554938384564593434334 0.0157951519181372956879272351216059178114 -0.4429101154629973557952382634539389982820 1.0050193703746415074817832646658644080162 0.9620304900353989774330898399057332426310 -0.4693290228291125409931794365547830238938 -1.5209885387736161721505823152256198227406 -0.1943862039222807036598084096112870611250 -0.1029001507119860076011619298697041813284 -1.4755343344858793397378349254722706973553 0.2203953102164376842697635083823115564883 -1.1838615454553467198905991608626209199429 1.7489429271198679849419477250194177031517 -0.8657629158647365263945516744570340961218 0.6673452137402988704195649916073307394981 1.1897996567913435850272207972011528909206 -0.2183344879444865660467200996208703145385 -0.8700407693941609732490860551479272544384 2.7021018265899261479034976218827068805695 -0.5405917339533022891728819558920804411173 -1.5272998803101487386157941728015430271626 0.1561335977479267889123093482339754700661 -0.0708341750971429595651329691463615745306 0.1212260126388592096358109984066686592996 -0.4916186272031666804060989761637756600976 -0.7075549042789491815952374054177198559046 -0.8638249473755222895832162066653836518526 -0.7761945309964651817935532562842126935720 -0.2117902385175101653835838533268542960286 0.0966405887542693270431115593055437784642 -0.7099517751278372479362133162794634699821 -0.1396049065483132012310818481637397781014 0.1994347441350238503421365976464585401118 0.6418300461685342295226064379676245152950 -1.0459769524982092114839815621962770819664 0.4370582482664544521355765027692541480064 1.3863337408707059328349942006752826273441 1.3805014148937562179497717806953005492687 1.0341048720380328074242015645722858607769 -1.3077315971786100945450925792101770639420 -1.6777374305911001428626150300260633230209 2.4028549319511474102739612135337665677071 -0.9051469466076766945406006925622932612896 -0.3397441094623043778000237580272369086742 0.7003313554092950310447918127465527504683 -1.3139553033483828414773597614839673042297 1.2139441418414020912308615152142010629177 0.6964856911637559155892063245119061321020 -1.6838038874336773709217141004046425223351 0.1890636212752563327654797831200994551182 2.0611932158199399722775524423923343420029 0.7510182220047076917524009331827983260155 -2.9751325914062158872752661409322172403336 0.6657457917995504015351571069913916289806 1.1336682987073640749287051221472211182117 0.8358265985896099481422538701735902577639 -1.6590525102202549057039959734538570046425 1.4573363649758737103923067479627206921577 -0.5129913088574055146651176073646638542414 -0.8390127569142176167105162676307372748852 0.0776598173445567918626863956887973472476 2.4861472751785020918191548844333738088608 -0.6919257919068272366658334249223116785288 0.9165455842844909550848342405515722930431 -0.0926516768787394029427417763145058415830 -0.9148334676245455376886184239992871880531 -1.0387998255543908765474725441890768706799 0.3397544247891601254529803100012941285968 1.2198385580606809774906196253141388297081 0.0280605740871260056490399392714607529342 0.4050601067357851303718518920504720881581 0.0119483134275840240795529823003562341910 0.4639589661611228654791716508043464273214 -0.0164839533090671355730627567481860751286 -1.0087035454955890489969760892563499510288 -1.2840225166576675341900681814877316355705 -0.2824622781753474698440697920887032523751 0.2158819942638182665106683089106809347868 1.1374248011426155713365915289614349603653 0.6599928788331260731681027209560852497816 0.7838617798989014895383320435939822345972 1.4165720133031782790311581265996210277081 1.3685166135312076818308923975564539432526 1.0243456546719527100464119939715601503849 0.8768251854920039445318025173037312924862 1.7787065818284009122152156123775057494640 0.9738041871254925485601461332407779991627 -0.3633067491968001161417589628399582579732 -0.2546992777151399489632410677586449310184 -0.1525387335194583193764827910854364745319 0.4419852586952285888877156594389816746116 -0.3022245601059371233887418384256307035685 -0.1538527698699945212013062700862064957619 -1.3922205174366282243170189758529886603355 -0.2651246544802677296281956387247191742063 0.3792822409599951871683742865570820868015 -1.3826208561436923449861069457256235182285 0.1614261473201034080560134498227853327990 -0.1615791652479237894279862075563869439065 -0.9341556119544961456213627570832613855600 -1.8996221014045300279349248739890754222870
-0.3661867775953734360783187185006681829691 2.4453677481350388767111780907725915312767 1.1554429439028750525864097653538919985294 -1.3928734828040809645699482643976807594299 -0.4605147131373477642490854577772552147508 0.1724098160854271588604547105205710977316 -0.8016568546840288078669800597708672285080 0.0602430016786538319317756418058706913143 -0.4842650668238426270306717924540862441063 1.4934818428269402978969537798548117280006 -2.1954436208718841605502802849514409899712 2.2973153367591767626265664148377254605293 -0.7001510129988818276203232926491182297468 -0.7602006008487887100955049390904605388641 -0.6398904392918138839263519912492483854294 1.1110569763434927637035798397846519947052 1.1494214958148896155165630261762998998165 1.1587329889908475344384441996226087212563 -2.6194886596280761992261432169470936059952 0.7702634954139200296197032002964988350868 -1.7580755015867128854267775750486180186272 0.3834050376055140318953817768488079309464 0.5435850154226233854615202290005981922150 -2.0259099171422714213974813901586458086967 -0.3094936237990679184228781650745077058673 -1.2311775891373415436902405417640693485737 1.6432247350154254306175971578340977430344 -1.3700255712874978009097048925468698143959 -1.0039978847421326957345399932819418609142 -0.9747872647895440278986711746256332844496 0.7864115926388776101063626811082940548658 -1.1588277691168891170292454262380488216877 -0.3860067852369737928519555225648218765855 1.4141506999552506673722973573603667318821 0.4762149241745325944918931782012805342674 0.2374547999436201206613361591735156252980 -1.6628256674558068439750968536827713251114 -0.1870906349706707161306695752500672824681 -0.2674240446300915619026739022956462576985 1.2026068609842048839908557056332938373089 0.9772134806349791480428734757879283279181 0.2020965083618733171277881410787813365459 0.5458408607188632855056198422971647232771 0.0491270154769066630384699578826257493347 2.3270037765930480233578236948233097791672 0.3458948996332627534577852657093899324536 -0.0710297788613539066160385004877753090113 -1.4974679679404692134170318240649066865444 0.6692495862075207302410717602469958364964 0.3986737579397533481895266049832571297884 -2.1250403869174978588318936090217903256416 1.7911987363379830995313568564597517251968 0.4025833500143767285095464103505946695805 0.6636421488829233883421920836553908884525 1.5201463618826085433255457246559672057629 0.1663652778376762120249310328290448524058 -1.0994808879001241042061565167387016117573 0.4295848273184769139376726343471091240644 -0.1556751756717910661897974478051764890552 -1.5475953235731809698449978895951062440872 -0.2097057093502535940476860787384794093668 -0.8287607051168011107478150734095834195614 -1.1932217513407818998416587419342249631882 0.2644515781455560876622712385142222046852 1.8250564848693959785208562607294879853725 1.4660289169211488946586996462428942322731 -1.6054004316604228996823167108232155442238 1.1847794147128929420631493485416285693645 -1.5376479963423821395451795979170128703117 -0.6407101745653128732627124009013641625643 -0.3061206012199513271099249323015101253986 0.2693800171447510161115701521339360624552 0.5169768091155263478597703397099394351244 -2.0072993354015040701199268369236961007118 1.1636032315632467426524954134947620332241 -0.2641662552938460750695526257914025336504 -0.5134014928238632702317545408732257783413 0.1875341407129661741581827527625137008727 -1.2013286645142433606281429092632606625557 -0.1929286948831716308472294940656865946949 -1.4613073667188334336941579749691300094128 0.2639911592713120036535201506922021508217 0.6331555896651509529604595627461094409227 -1.1983573169493610954816631419816985726357 -0.1288204527010297639755265208805212751031 0.5765412303031682839105087623465806245804 0.7591429075669783310686966615321580320597 -0.9366249967229086648146108018408995121717 0.1695911152173067149018237387281260453165 0.9304175978182454009868251887382939457893 -0.8472143992358547315291161794448271393776 -0.2411978326455325449817479466219083406031 -1.3717318004257437191739654736011289060116 0.4238343174856427086893972955294884741306 -0.1994832641780373561068984145094873383641 -0.1459165476350101631197730966960079967976 0.6408617812526946622142531850840896368027 -0.0042378577556436026335662248243352223653 -1.4313693173656891755030073909438215196133 -0.9021234806022708774264629028039053082466 -1.3852776430750888270182485939585603773594 -2.8947088935240161688966509245801717042923 2.0082785844145050191400514449924230575562 0.7214835197419861012591013604833278805017 -0.4884233158049239298392762975709047168493 0.8389649724635374061776360576914157718420 0.5018392171547617630622539763862732797861 0.4030417259761029380449315340229077264667 1.1961362911938686615087590325856581330299 0.9275149233300946649549700850911904126406 -0.0940958641776933335520993750833440572023 0.5208455349540159762256052999873645603657 -1.1768955385135133617779956693993881344795 0.8176059313871198996892530885816086083651 -0.2566373234879376630246383683697786182165 -1.0045044572813939254274373524822294712067 0.5541432242468742330743225465994328260422 0.7045908926467134847371198702603578567505 0.2017663015050152608420575006675790064037 -0.0728391846576099399879211659936117939651 -1.0666771158674690500589576913625933229923 -0.2425119122168941931949603940665838308632 0.5722575033848967818173036903317552059889 -0.9275961447098259871069103610352613031864 -0.1489247320265960905505409073157352395356 0.0520899923277673634891549170333746587858 0.9496620164101420291657973393739666789770 -0.4417959427094314550643616712477523833513 0.9942682640595155163509843987412750720978 -0.9991108083845792187105416815029457211494 2.9396053055645312568344706960488110780716 1.5874941216735567461881828421610407531261 0.9428009780257686767157565554953180253506 -1.3755215554048105808249147230526432394981 -0.6219507930456822375475667286082170903683 -0.1157424839003225319755685518430254887789 -0.9066456985269941704075336019741371273994 0.1453348913963455890652198831958230584860 -0.6404239481920894760946794121991842985153 1.0409369846785021529456116695655509829521 -1.2807683511415517418896570234210230410099 -0.5024687460415232509447491793252993375063 -0.5685949931483813557520079484675079584122 0.3164995407048917797077081104362150654197 0.0106744654009703551778009966710669687018 -0.6512599094819284673008041863795369863510 -1.0167292099197942079058520903345197439194 0.4442776139984616623479496411164291203022 0.0118005714007227355266671509070874890313 -0.8133609920475386445559706771746277809143 -2.5401068247358242757627522223629057407379 -0.2745474535239345037496150325750932097435 -2.2436209398471365084049011784372851252556 -0.0446703185373793082435511792027682531625 0.8852024880187393529595851759950164705515 0.0101126625102879886403117737359025340993 -0.0367964412309684796298370201839134097099 -0.0667249253826457805471861206569883506745 -1.3020831568406296963047452663886360824108 1.8479601629520023831076969145215116441250 -0.6041507761679659749276538605045061558485 -0.0068706171686099288403726248475322790910 -0.4566406254097470363007005289546214044094 -0.8903593757216301529666679925867356359959 -1.7302380520711997391458680795039981603622 -0.8870631898745693355579078342998400330544 -0.8608408121024615500260779299424029886723 -1.1745813980243136054326669182046316564083 -1.4547855531261053574354491502163000404835 0.9376784506285994469365618897427339106798 -0.5596385559133870701842283779114950448275 0.7174687032866774449857416584563907235861 0.1669389793047317549490315968796494416893 -0.5124446778568000349096678291971329599619 1.2277366278386558917645743349567055702209 1.2312677014514490370089561110944487154484 0.3538115707728236025708667966682696714997 -1.5090929829780534987548890057951211929321 0.5226627594060848647217198958969675004482 -0.6227356042432018456977971254673320800066 0.0261882605879048650787677132711905869655 -0.1363962920307816850673532371729379519820 0.3441546686059590021145027094462420791388 0.2864255010956180957926164865057216957211 2.4169378901716882523942331317812204360962 -0.2836513576351779031270439190848264843225 -0.4917533428027862640874445787630975246429 -0.2360659442099848348561863531358540058136 1.1738730129165426685489137526019476354122 -0.1842932527170000056582210845590452663600 -0.1809078943143929141257331139058806002140 -0.6386950264258872689282497958629392087460 -0.5242666601376477775175999340717680752277 0.0031911140440970533690978605534382950282 -1.2038900324464194557805285512586124241352 1.0029138752788779864744128644815646111965 -1.4661983426998197455048966730828396975994 1.2572731682292659360911102339741773903370 0.4324785959842361027227752856560982763767 -0.2858684387445579178077537108038086444139 -0.2471890878764625709695934574483544565737 0.1308717070726201359143203717394499108195 -1.5706319639935004683906072386889718472958 -1.1240560902165506185212962009245529770851 -1.7232996173143628748647415704908780753613 -0.3057583004544672800051330341375432908535 -1.1156080192614019619412601969088427722454 0.5502616464038332377839424225385300815105 0.4060707063028902719103996332705719396472 0.3558720069689352283326400083751650527120 2.1520007754462460169975202006753534078598 -0.5665921622569498605770377253065817058086 -2.2085413242098943520375087246065959334373 -0.8331934812960533065506751881912350654602 -1.1692283208204714561873061029473319649696 0.6498093797736883558968656871002167463303 -0.9367303015393819709544231955078430473804 0.6676091633810569136997514760878402739763 0.1210369225335528459153167091244540642947 -0.8115974086475393756145990664663258939981 0.2250639018879211084023239664020366035402 -0.6193783495838487418438944587251171469688 0.0968772886694840434929076877779152709991 -1.5802114330114380713609989470569416880608 1.3871217272287630351002007955685257911682 -0.2162273476919400472251453493299777619541 -0.0378100751162822393269813403549051145092 -0.8577635739159727989999737474136054515839 -0.1299499227001698620220793145563220605254 -0.2727461413751289254214782431517960503697 3.0291466425230573200622075091814622282982 -0.8379608837331797843717140494845807552338 0.4220503767153228058539582434605108574033 -1.0224804063669370446376660765963606536388 1.3709714814636841939687883495935238897800 1.1867897071661204222436936106532812118530 0.5910817986563892123541563705657608807087 -0.4072171157965300825054555389215238392353 -0.2539475676484790889197995511494809761643 0.6275193051442371494630378947476856410503 0.4479937335564035949531103142362553626299 2.3583422057197247490023528371239081025124 -0.3329178357631158990947994880116311833262 -1.5420026453401061150572104452294297516346 1.2777453336135971007081479910993948578835 0.6928104193840363134171411729766987264156 -1.1556465475268566933664260432124137878418 0.8951669404634021720568171076592989265919 0.0290834281865411208023441957948307390325 1.3483739279603830230058747474686242640018 0.7157157421636548555454737652326002717018 0.7804357092374262228062775648140814155340 -0.5579370669673703320157187590666580945253 0.8713409094348496530813008575933054089546 1.0617955726043069031305776661611162126064 0.6366757968302855230646741802047472447157 -0.8885440424011870064191498386207967996597 0.2489131493946263873340285499580204486847 2.6307869059915058862486603175057098269463 -0.1028731563402251747429971828751149587333 -0.3855232278607195750552705248992424458265 0.8184785839464854273472838031011633574963 -0.7851223578724088048019780217146035283804 0.4004904918842639438558705933246528729796 -0.3572548894588662982130244927247986197472 0.4816550410005551174918991819140501320362 -1.5193964208050811937056323586148209869862 1.1084088329932879624095676263095811009407 -1.0979269374388260782637871670885942876339 0.1420924082393138221380723962283809669316 0.8440020417184006529254247652716003358364 1.5523885047138066273220147195388562977314 0.9358484730798443118615637104085180908442 0.1629999091844038794363314082147553563118 -0.3380300170521233771303570847521768882871 0.3524474040256709850282845764013472944498 -1.4381800198099516929772789808339439332485 -1.0789780110539108903822125284932553768158 1.8352948479769615186540931972558610141277 -0.7852522251274984821378666310920380055904 -1.3857035530921495425360490116872824728489 0.6514499558707547155478323475108481943607 0.1776337501579949296193206009775167331100 -0.4192005761383790773955126951477723196149 -0.2373082179219930254454595797142246738076 -0.0522784677398821367999559583950031083077 0.6885885243854682480346696138440165668726 -0.8378770804310550213145347697718534618616 -0.8594872779558635489394191608880646526814 0.3708453706247683001606674224603921175003 0.5069743797053557488041519718535710126162 -0.5526525407162760084034403007535729557276 -1.4415471488550588574639732541982084512711 -2.8786207900314511043404763768194243311882 0.4440746201779337543058545634266920387745 -0.9483039001766545572635891403479035943747 0.1081892807348773938302954888968088198453 -0.5423408426311363550453847892640624195337 0.7475559233462275576798106158094014972448 0.1112641355696153272480941609501314815134
1.0645900601665414519914065749617293477058 -0.6031067128832539037119886415894143283367 -1.1424054451515706087860735351569019258022 1.9712345659043659651388225029222667217255 0.7358173429668447562690403174201492220163 -0.6674344477509073225718339017475955188274 -0.1360124338812079558547196711515425704420 -0.2944535378290951133095632030745036900043 -0.8780147520185012099958044018421787768602 -1.0516511890916468985324172535911202430725 -0.5131707216760630352325733838370069861412 -0.7994917509600460991947556976811029016972 -0.0999474915706402428083876543496444355696 0.7996206038259320303396293638797942548990 -1.4469999276360778761585379470488987863064 1.0594991076760857939831339535885490477085 0.1549261116635800017427015973225934430957 0.4249960954352617892304522229096619412303 0.2375764979979188007419566019962076097727 1.0602422769401487201434974849689751863480 0.7217959279701747776769593656354118138552 -1.8564262183913340376051337443641386926174 -0.3963098055681147369178063399886013939977 -0.6552725955678482261390627172659151256084 2.0367761643319242104155364359030500054359 -2.7047788107213004415996238094521686434746 0.4671111478779270131944656441191909834743 0.0556634434716014939170669606482988456264 -1.9860515201368020843375461481628008186817 -1.1287032611356864197915683689643628895283 0.3821458040524426391648660228383960202336 -1.7284038232552247915663201638380996882915 1.7854097984587689040836266940459609031677 -0.8128381034488048051400710392044857144356 0.2798404897227761978228954831138253211975 0.8988920085273124360725205406197346746922 -1.1823410704326322573365359858144074678421 -0.4894523081801429031933992064296035096049 0.2335888083220043487386874403455294668674 -0.8562707715296536958859974220104049891233 0.6821007992538831166129398297925945371389 0.5400688524783480159996429392776917666197 -1.6112151410839412601916365019860677421093 1.6534933844140911052278397619375027716160 0.3236216062054110831347486509912414476275 0.3370402822682468935155952749482821673155 0.2689808085912446244947204831987619400024 1.5379655223731278912424613736220635473728 -1.2091966601881933840445526584517210721970 -0.5329432375095838336775955212942790240049 -1.6925443788138203604631826237891800701618 0.0851159978761604346653157904256659094244 -1.5746026815078491001287375183892436325550 -1.2994166619586811073361332091735675930977 -0.0739939476940884438560530611539434175938 -0.6638084510277527661159524541290011256933 0.7566694542450602689598326833220198750496 -0.5225080897441267691050370558514259755611 -0.5347500541098348936230877370689995586872 -1.4489536167809231592684682254912331700325 -0.9461126805534610939574235999316442757845 -0.5204634318064171871753842424368485808372 0.1269146585787375991483116877134307287633 -0.7055888343239772320103497804666403681040 -0.9214663795613565744346828978450503200293 -2.3190169771627284767134824505774304270744 -0.3637273221342606777106709614599822089076 0.3473447054425545799105634614534210413694 0.2383525246405075737055057061297702603042 -0.6406521193208696285381620327825658023357 0.9105199782918959039434980695659760385752 -0.5287802300655369824866625094728078693151 1.2594815899164280015298800208256579935551 1.0912777122168315635519775241846218705177 1.0528949767288602323844770580762997269630 -0.1857483098466001791848611901514232158661 -0.0332854474083092155556329316823394037783 0.3460128210963968053981432149157626554370 -0.3490887781806381595650634608318796381354 -0.4979315745219963229573068019817583262920 1.4965227896263562090695131701068021357059 1.0552782212793454519328406604472547769547 -1.4559430082128439476463199753197841346264 -0.2199327519614970305461554289649939164519 -0.9816428593426078652584010342252440750599 -0.1590004063412934209864602053130511194468 -0.1246708804249735957903055805218173190951 -1.0778161431451562801697718896321021020412 2.3382109938127428883092306932667270302773 1.1147929808528334039152696277596987783909 0.8628310783404539163754520814109127968550 -0.7354345421978647490135472253314219415188 -0.0832924446742865087767171416999190114439 -0.6723427474468313125299800958600826561451 -0.3198918826733886389135363970126491039991 0.6135078600528136583136529225157573819160 -0.2343404869938749413016410017007729038596 -1.1536332328339073960421501396922394633293 -0.6665034811595860197996898932615295052528 -0.9409606430113646169388630369212478399277 -1.2851604715452518146179272662266157567501 -0.8068417279718110846076228881429415196180 1.2211922491576971960824948837398551404476 -1.2279017716641913438024857896380126476288 0.5821581854812296619172684586374089121819 -0.6149511131694459509233752214640844613314 0.3338435796239729858037037502072053030133 -1.0061326803289749598491198412375524640083 0.0819321861930346617697296096594072878361 -1.3015518998326145450050717045087367296219 1.2432552786760868723803241664427332580090 -1.7356380794054693250672016802127473056316 0.1486604697832399624157773132537840865552 0.5946865773260813226031018530193250626326 1.0134535927114498576884216163307428359985 -1.8671582508061617122763209408731199800968 1.0741460536173723649966404991573654115200 -0.7362494612812671146429011059808544814587 -0.4985948924875205356954666058300063014030 0.8023369621317576472208088489423971623182 -0.3070703245166827022316624606901314109564 0.8078473145722105952515335047792177647352 -0.1587347569657197587922325965337222442031 -0.3223215239094940898212371394038200378418 -0.2576273863369649141930040059378370642662 0.9705208989240200478931797078985255211592 0.2698420276278507556888541785156121477485 1.4549468593726158083256905229063704609871 -1.2508264342529507029411206531221978366375 -0.5887726006647030496665706778003368526697 -1.0309757907156098521994636030285619199276 -0.9032707696198802871379029966192319989204 -2.3756268866492527003231316484743729233742 2.9374476247843031018192050396464765071869 -1.5134261426081743184823835690622217953205 -0.3565125654946879052431540912948548793793 -0.8049875917597943963954776336322538554668 2.1283784147518138851751245965715497732162 0.4290008054097484979649834713200107216835 0.7085748790062397217681677830114495009184 0.3842400827814219654854355212592054158449 1.5691870961339791090694006925332359969616 1.4072814344051258750312172196572646498680 0.6833496946791802750809097233286593109369 0.2261936078785516945899303209444042295218 1.2117767114836304198632888073916547000408 -0.2437517423250196157979985400743316859007 -1.9523492427922715108934426098130643367767 0.8445986305584184394845692622766364365816 -1.9925033911967167110645959837711416184902 -0.0991393883103779127718979680139455012977 -0.2345605213573791758552289365979959256947 -0.0225649157569617966889730098500876920298 -0.2154772440587904569486710215642233379185 0.9009325074649654485625660527148284018040 1.0569277139736710235951022696099244058132 -1.2298465205870412475519515282940119504929 1.5273036750646813430876136408187448978424 1.7092766529170717593189010585774667561054 -0.0946465395650323837450912378699285909534 0.6104214147215457630935020461038220673800 -0.8281555354333984819703573521110229194164 0.3112958484191251096184771540720248594880 -0.2612983989707449161699059914099052548409 0.6197981287167827479933635004272218793631 -0.7667392631338830755183266774110961705446 0.1016902429794686174568951742003264371306 0.8555490538150937185335465073876548558474 -2.3041080458752118964582678017904981970787 0.8243290106997471777816599569632671773434 -0.4588416048684598735896145171864191070199 -1.8651116998551631187552857227274216711521 -1.9025501842076970593353735239361412823200 -1.7141699070809617300170657472335733473301 -1.9640513454269172832766798819648101925850 0.0795062587210298987727696840011049062014 0.6796056533900892704380680697795469313860 -0.7024682411909967116869779601984191685915 1.3607091132021695845111253220238722860813 0.3002859913570966043927512600930640473962 0.3060349356320954394838906864606542512774 0.2770897905099929392491731050540693104267 0.2648029818566479121066947755025466904044 1.3744129088660121951193104905541986227036 -2.0316066454930332696449113427661359310150 -1.1614099314816153096785456000361591577530 0.5904460039066935506113509291026275604963 -2.2762863621008673220558193861506879329681 -1.1855467464978914904349949210882186889648 -1.0890793019128783836180218713707290589809 0.3142061795112598421297889217385090887547 0.4548389028012597146144457838090602308512 -0.5189250001698290093443688419938553124666 -0.0717742375390068992890846288901229854673 -1.2248283017104300007815709250280633568764 -0.7633208678286189652339999156538397073746 -0.1354548684118332402270823422441026195884 -0.3472133017432567636539886279933853074908 0.8416534297381746965172055752191226929426 -0.3344769892037718350685793211596319451928 0.9153563991066511196237343028769828379154 -1.7609703906557594432769064951571635901928 1.0651442764617522485082190542016178369522 0.0645533104456075951249616196037095505744 -0.3787894552699502259685004901257343590260 -0.0142330590584408868404242554106531315483 -0.5747559408364978361660746486450079828501 -0.3632422513515636830483401809033239260316 0.8040451189148519750560240026970859616995 -0.1418842584852187393984479513164842501283 0.1295671016583851420378437069302890449762 1.7551535160298992188643296685768291354179 0.4874320707739556723936402704566717147827 -1.5409512648762009323633037638501264154911 -0.0948830273761839954049790435419708956033 -1.9740730789828000446561873104656115174294 -2.5888099433340676647219424921786412596703 -0.4583886020312705755763715842476813122630 -1.0807000550216578904638708991114981472492 -0.8815871507057422284958647651365026831627 0.0863462708272344781068596830664318986237 -0.2000278498802627591413028085298719815910 -1.9145475878528406266099182175821624696255 -0.7969174627457681348019491451850626617670 -0.4187370990139911985927767545945243909955 2.0425015527995862285592920670751482248306 1.0295031689035993860414919254253618419170 -0.2656258218806061277561525457713287323713 -0.4464869228078259255632076474284986034036 -1.0024446811049645411628716829000040888786 0.8380515597622134604804955415602307766676 0.4358512439235971980266981518070679157972 -1.0577019427747298419006938274833373725414 -0.3535830504607721525012209440319566056132 1.0465987282694697579898956973920576274395 -0.7491104647547768280446689459495246410370 0.0329053609647723399600494076366885565221 2.0243683639226581760794942965731024742126 1.6318950373256295716117847405257634818554 -2.1062653383886167368643782538129016757011 -0.2184367038287551021635835013512405566871 -0.6085034919617982041017967276275157928467 0.0605484877737230212102481630154215963557 0.6282705979303858656592751685820985585451 1.3960878739111484136969920655246824026108 0.7640492725539774765408651546749752014875 -1.4273467444385645741533608088502660393715 0.3505406288545107051923821472882991656661 -0.5290576050925823725634700167574919760227 -0.5991932490737393868229787585732992738485 -0.8330163742064410348220349078474100679159 -0.0713158915683256289241853664861992001534 0.1468839344699054694221018735333927907050 -0.8544169295004157005379852307669352740049 -0.4424532612711337131727873384079430252314 1.1147463933356005494346163686714135110378 2.0774894292647285709563220734708011150360 -1.5011629777592856438417356912395916879177 0.8875288063667357008057479106355458498001 1.1451064547575786622957139115897007286549 0.2092074902687486859242937953240470960736 -1.1227790888842574812400698647252283990383 2.0835054888507005266262694931356236338615 -1.1106566020832251417971292539732530713081 1.5900506099680189464606883120723068714142 -0.9262320977666055332733208160789217799902 1.4677432317204530676235663122497498989105 -0.8101333859645030166518608893966302275658 -0.2835144948210782112063554905034834519029 0.6739789825858649718881565604533534497023 0.9523295917155381040686279447982087731361 -1.4958922400756367032670368644176051020622 -0.0591635151183529245377812344486301299185 -0.7420842028440104432007728973985649645329 0.9971334419346902233627361056278459727764 1.1371544496292491643885114172007888555527 0.8469636502857119664255947100173216313124 -1.0229095508381469414871389744803309440613 0.1595038471296999493809209980099694803357 -0.0034591878316415202582190246971549640875 0.4687941829552247363643857624992961063981 0.0947672156102571938696144115965580567718 -0.2766343064173993337995227648207219317555 0.6087916841662363021114856564963702112436 -0.4153383722703110625396050181734608486295 0.1873054634887891256589398381038336083293 0.0393764080278312250671390870593313593417 1.0948368431407986545167432268499396741390 0.3303286646815427052281677333667175844312 0.8475519926991564867435613450652454048395 -0.2724544319421266513892021521314745768905 -0.4056674676695812276072672375448746606708 0.6603165542224705975016263437282759696245 2.3106848332780676180675527575658634305000 1.8499691541976699404870032594772055745125 -0.6019626294651865272555824049049988389015 -1.2396099123474255687682443749508820474148 -1.9948259286069558449128180654952302575111 -2.2101595507502409532207821030169725418091 2.2892095046005906944230900990078225731850
-0.2837950801775681042293797418096801266074 -0.3161756783226355449478717218880774453282 0.5447866149477380570687046201783232390881 2.3737783867586004227234752761432901024818 2.6853150164254842025002290029078722000122 0.6395302110424964103785328006779309362173 -0.8456055567137427120272263891820330172777 0.1969632021065051696862013841382577084005 -2.1971707474960329165014627506025135517120 1.9868118050966065979423547105398029088974 0.4921883609651468982626454362616641446948 -0.5794450938643519455339969681517686694860 -1.7058431680171688427094522921834141016006 1.2945557198050279268386475450824946165085 0.0522704724689072100507480911346647189930 0.5146095942083129815003417206753510981798 0.8967878001740866578117561402905266731977 0.1157865383998156472156182417165837250650 -2.2222342266224255347140115190995857119560 0.4531360588978730064013689116109162569046 -0.8678664481160262011982808871835004538298 -0.1553166231965444621376803979728720150888 0.5832987216910376915279812237713485956192 -1.2528801707561323386386220590793527662754 -1.3412808032081651177236381045076996088028 -1.4490119109023484877951659655082039535046 -1.0842164482198617392327832931187003850937 1.9203395988355815848791507960413582623005 -0.0735171940106576771167823380892514251173 0.2860342867002235167639412338758120313287 1.5621526680537300979523251953651197254658 0.9480688114957053214126858620147686451674 1.6885597205440847634605461280443705618382 1.3741807612363423629631142830476164817810 -1.2978739847639744198204425629228353500366 -0.3338669182921926159579584236780647188425 0.4349591777617466403782486850104760378599 0.6586258120776051772082837487687356770039 0.5700384598768809540914048739068675786257 -2.5297902612306910619111022242577746510506 1.1252786984753535559633519369526766240597 -0.6282272293157791231976716517237946391106 0.6934038056639065805697441646771039813757 1.4467000269636784981486243850667960941792 -0.8235493643739203450948593854263890534639 -0.9309875980143750284767634184390772134066 1.5239627044758468077390034522977657616138 -0.6887808661566141577026201048283837735653 1.8110730415239075785649447425385005772114 -0.2309379477823588211471417253051185980439 -0.3406845882182156781681214852142147719860 0.9210139984758048958823906104953493922949 -1.6331405720857437025017588894115760922432 -0.1442198144635362944132594975599204190075 0.9054703866321003324912908283295109868050 -2.0949011060504671988269365101587027311325 -0.5840696090209213098276563869148958474398 -0.5649774885516936073770466464338824152946 -1.4961489540194492509073143082787282764912 -0.1213041994342830554032275358622428029776 0.2372026406241736773417017047904664650559 0.8815154836757466139118832870735786855221 -0.2506628548666612332773695470677921548486 2.5687716106011171390832714678253978490829 0.7176064215397773837779027417127508670092 -1.1911313788273665270622814205125905573368 0.5345185579344449156025120828417129814625 0.3760784881294885195757160545326769351959 0.7517426377467218978623009206785354763269 0.5853627022543996805126198523794300854206 -0.4839497640121112054245600120339076966047 -0.0548325840106317283217940428130532382056 0.5722546290472279029160063146264292299747 -1.5039501650121425146977571785100735723972 -0.5878805550739375496149818900448735803366 -1.7608466863878791119901734418817795813084 -0.5277062365438903723813268697995226830244 -0.6105814883194623510220822026894893497229 -0.7035129980627186085939683835022151470184 0.5809783579148136700709414981247391551733 -0.3012387361245638661699786098324693739414 0.5421669166390961080992383358534425497055 2.0558671968760715564883412298513576388359 -0.6780385783982409986236916665802709758282 0.6121597149010656879752900749735999852419 -0.9934725513295127319324251402576919645071 -0.0320468375148225334547724685307912295684 -1.1949029661560739423720178820076398551464 0.1723298063767751131525329810756375081837 -1.5185963038241563349828311402234248816967 -1.4171267403068334989058030259911902248859 -0.6996006276603163875904556334717199206352 0.8182663076863569973085077435825951397419 -1.4404122146488707034706067133811302483082 1.1173004020771930555611106683500111103058 -0.9469206894745320068906835331290494650602 0.8378237180611980416955475448048673570156 -0.3972717313099637381768047816876787692308 0.6562809721138648244576074830547440797091 -0.3700732467971026840025672299816505983472 -0.8826661400752924269141885815770365297794 -0.6059723009645413549506542949529830366373 -0.5330231781262030343881974658870603889227 -0.6637419346887940552193185794749297201633 0.0557658160076304060259744233007950242609 0.1448911642053117843076393000956159085035 0.8230536364171007202017449344566557556391 -0.4971559341752151417459515414520865306258 0.9017823091683836445042743434896692633629 0.0994053001444247102957874062667542602867 -0.1552392375436947857814118378882994875312 -0.4601263851759417322639933445316273719072 -1.0549092530099100084584051728597842156887 1.8491890050993735616913227204349823296070 0.5478099058278844690761388847022317349911 -0.4038472574736468589939875073469011113048 -0.1627221160404541400179567744999076239765 -2.0225816406141836623078233969863504171371 1.7843069016658292813559683054336346685886 -0.0143264556118736351847386956137597735506 -0.4500114283962616812395651777478633448482 0.7798124171558270534276857688382733613253 0.2240205684176657663364551353879505768418 1.1566311662567556606262542118201963603497 -0.0307862317798648886524315315682542859577 -1.2881472114238252668627637831377796828747 4.6129527721138412488244284759275615215302 1.7889752549416937377202430070610716938972 -0.1838656134426729371611486385518219321966 2.0062149086385776541874292888678610324860 0.0352521272449805717075221878076263237745 -0.5265661546671721593426696017559152096510 -0.5282225512634197706063332589110359549522 -0.4250492936940122867817137830570572987199 0.0708837250446524153035809945322398561984 0.1825315796516545630012728906876873224974 -0.4824470810079244387225116952322423458099 2.4788456532423119860197857633465901017189 1.5381695748424859537806241860380396246910 0.9201526929323726733400690136477351188660 -0.2565108599105055953160103854315821081400 0.1211256394143268577678895780991297215223 -0.4853417680111409282517342944629490375519 1.0235096133376653249058563233120366930962 -0.8046120613510282515434823835676070302725 0.1915482547852952466271858611435163766146 0.0304637498985844829002544997820223215967 -0.3225396778529613928121477783861337229609 2.3570602356216663331167637807084247469902 -0.0662842033563794535977464761344890575856 0.1507882778542692925327628472587093710899 0.1419886217002273576248683184530818834901 0.5851735546154510636540635459823533892632 -0.9101196462641648610158995325036812573671 2.5304155782202473190523051016498357057571 -0.6409184843547893750681510027789045125246 1.8483254964218287508259663809440098702908 -2.0923781267977727971185686328681185841560 0.5523614995852745845894560261513106524944 -1.9127623841494132417295759296393953263760 -0.5809925042786669990846348810009658336639 1.0269865589132063377064696396701037883759 -0.2334457551518699103265674921203753910959 -0.2197931033222091656842422935369540937245 -0.6814091450670669569689152922364883124828 -1.3287771771331329251353281506453640758991 -1.2965655383150400670189128504716791212559 -0.0263572511070056941795414218177029397339 -0.9430507129681335865001301499432884156704 -0.2672461142853863602653063935576938092709 0.6186235147852986449024115245265420526266 -1.7018525159824817727383106102934107184410 1.1435898207597052778083934754249639809132 -0.6139088576586613221763855108292773365974 -0.3257896940923146744673033481376478448510 -1.3652101851714137925597469802596606314182 0.6589497206444218102561194427835289388895 -1.0124283393141346731880503284628503024578 -1.0059414886547404233141378426807932555676 0.8528352595278871906003814729047007858753 -0.4471294208690418936491539625421864911914 -1.1109916763754739132963322845171205699444 -0.3877629206461738475830713923642178997397 -1.9238736167163072998675943381385877728462 -2.6579973754237666838662335067056119441986 2.1705968607677625925589381949976086616516 -0.4955447265298267289779232669388875365257 -1.3211386714404391717891940061235800385475 0.7716625292225220977826438684132881462574 -0.6954911515552814060825426167866680771112 0.0327311498153428220847516172398172784597 0.5820956365520632003196510595444124191999 -2.2738051090322897174189620272954925894737 -0.1291894818526238553069163117470452561975 -0.1808437480766147131827636940215597860515 -0.4310771465946210412312211701646447181702 0.2181666673645928089531054183680680580437 1.0488332770783088676580518949776887893677 -1.4838288924668356916214406737708486616611 0.9892346944001206843211093655554577708244 0.8859331153676139880559503581025637686253 -1.5463059793649118756064808621886186301708 -0.4566566160955826125800172121671494096518 -0.5285926691728847215401287940039765089750 0.0594599846550187272065102206397568807006 0.7610390744963675402345870679710060358047 -2.5231520198467674021003404050134122371674 0.3050825894110498759381755462527507916093 0.2149240619506517513404020292000495828688 1.6366309803523777510747549968073144555092 -0.0949634324905838378416689238292747177184 0.0136857474251574628976158010118524543941 0.1879403433138340240304842154728248715401 -0.5097641536229903236332461347046773880720 -1.9372044327592738977017461365903727710247 1.5419912557419108711798116928548552095890 2.3522109491983766993428162095369771122932 0.2698038309285317737362674961332231760025 2.2226455826329125642359940684400498867035 0.6405720437257930166552455375494901090860 -1.1517931695862715368861017850576899945736 -1.5997823343419130814879736135480925440788 0.4390446672954332885119299589860020205379 0.9586288519724261991683533778996206820011 1.6892757066228292206488958981935866177082 1.3357986349906985079627474988228641450405 -1.1374205445528065006044471374480053782463 -1.3919958274848653889677052575279958546162 0.2842112318546694549326048218063078820705 0.1689412061717744661937246064553619362414 -2.1864813623533256858877393824514001607895 1.0460079558452284320679837037459947168827 -0.8269676279539394103679228464898187667131 0.5059837636908161018212126691651064902544 -0.5473625540162162517177080189867410808802 0.4419931149946887405377538016182370483875 0.1110391749373553782476164997206069529057 0.8017195126858737141972710560366977006197 1.2790718304599903998308718655607663094997 0.2865776283641415234093585695518413558602 -0.6250151515688846526330735287046991288662 -0.0443948321908894799614486714744998607785 0.0023382364936548188927289970706624444574 -0.4709464768724384020615048029867466539145 -0.1193274450872158359837627017441263888031 1.0509609515462430273657901125261560082436 -0.3756593311021995673648632418917259201407 -0.6295599892653369611394964522332884371281 -0.5220609671680087604528353040223009884357 1.4916637728226516124152567499550059437752 1.4542505929304609946228765693376772105694 0.5014558703226842384381711781315971165895 0.8164149848523136743239092538715340197086 0.7843687393624902970401535640121437609196 0.4616965998918329816547156951855868101120 -1.3398628613105678653028007829561829566956 0.1460553800188190143316546709684189409018 0.0336587675854425061316987921600230038166 -0.7384726453676873081377607377362437546253 0.3254608710469462651282412934961030259728 -1.0666808503545976982707088609458878636360 0.6408547598845647508269962600024882704020 -0.7620649289659602310109676182037219405174 -0.7340296308863774044084493652917444705963 1.5311606977929268502691684261662885546684 0.3028957931971385519887007831130176782608 -0.2193363614781250192642403362697223201394 -0.4016745909331938535480333030136534944177 -0.7222874343076330916346705635078251361847 0.0191497419654787469356360674055395065807 -0.6565342272585833471865157662250567227602 0.0143743158718415350860730939075438072905 0.1956746535887958771127159707248210906982 -0.8206249223747189569522220153885427862406 -0.5231583873340953649844209394359495490789 0.0631262292524223528333848776128434110433 0.3262497057122031862697042470244923606515 -1.9634128221582345386053702895878814160824 -0.5433796280915946796952198383223731070757 0.4684310523846759166666231521958252415061 1.3810352305453288401793088269187137484550 -0.7604399307439333455249652615748345851898 0.7365752755154395536862921289866790175438 1.2447721664865485369233510937192477285862 -1.2521323224772991089537299558287486433983 -0.2930373725561935538408420143241528421640 0.2982772107545360595892702804121654480696 0.1152058135076593492485130809654947370291 0.9117110156795120712303059917758218944073 -1.6836681516670075620112356773461215198040 -0.5010504904136044990181630964798387140036 0.1775190621441319893669685825443593785167 -0.7408570760712489544630443560890853404999 -0.8478495877775691358380072415457107126713 -0.6119171387145465601520299969706684350967 -0.7388991521523469163668096371111460030079 -0.8908774179117214808698577144241426140070 0.1598212878576120432594365183831541799009 -1.0588416808392451251563670666655525565147 -0.8552839122825396378502205152472015470266
-0.3997151641936124155662923840282019227743 -0.9313508952062782286773767737031448632479 1.1740597418072833413305033900542184710503 -0.6643009555534068466542407804809045046568 1.7697329180630478884239664694177918136120 -0.4455984803720836606721888983884127810597 -0.5874190166311903382734271872323006391525 2.2205256564591011603226888837525621056557 -1.4511942957392431896579410022241063416004 0.3773401055109806834231278571678558364511 0.4863358174401385958240950913022970780730 -0.2863109971062021141818831893033348023891 0.3779413862318916073057550875091692432761 1.1787194013289896687979307898785918951035 -1.5825990279326633825007775158155709505081 -1.3398381684785130030235222875489853322506 0.1143495526918401339333541955056716687977 -1.8988581634210404125440163625171408057213 1.6101986476232454936763360819895751774311 -0.1314682689970296247672365552716655656695 0.2312174009884930825364790507592260837555 -1.6813250221165063624795266150613315403461 1.4294271209947122525107943147304467856884 0.6887739874636845671673768265463877469301 1.7304533140379758648919050756376236677170 0.0113139475756286935620442690719755773898 -0.0137891758443234747205652368506889615674 0.3142610277401448048983922944898949936032 1.0872105919480368196872177577461116015911 0.5970657347393464320361999853048473596573 0.2022009464420439217580138802077271975577 0.6243531827055395222458855641889385879040 2.8518521931745577369099464704049751162529 1.0270160953759766009341092285467311739922 -0.4206603502325363397318369607091881334782 -1.7469709448143191377056382407317869365215 0.1360687438913857072453339469575439579785 1.9799409371324332429509240682818926870823 -0.1348013159558882623212383577993023209274 0.2678036583068965081899648339458508417010 -1.1394611759850987731113036716124042868614 -1.2248492168112334876894919943879358470440 -0.9781025138808957519742648401006590574980 -0.1660343192411959378773644857574254274368 0.2378641247256007007493394667108077555895 0.0008725445882056720491373735804074840416 -2.5567899994264204899252490577055141329765 0.8031014540872578599817188660381361842155 1.1345617391944875507192591612692922353745 1.5577721919656499771633662021486088633537 -0.2277947648573341588029705917506362311542 1.3140963902938154195254583100904710590839 0.4307184994316181070317384182999376207590 -0.8138185299605672495815156253229361027479 -1.8191015679363160550963129935553297400475 0.7323318781054689585729988721141126006842 0.9038741095724641683162303706922102719545 -1.5008393945391611534745379685773514211178 -0.5848499107006306374501036771107465028763 -1.4039857398759814088862185599282383918762 -1.1849071293402224647195453144377097487450 -1.0479759755028970058532422626740299165249 0.7998459401908688537474745317013002932072 -0.5452833797160012707649912044871598482132 1.0879867033228340922335064533399417996407 0.6963803195525740674654002759780269116163 0.1594870578556096818445553253695834428072 0.5965097816589641777085262219770811498165 -0.0897174295938433646879772709326061885804 1.6137049562658714041418761553359217941761 0.4428346052860979709109301438729744404554 -1.2687849351901911987283710914198309183121 -2.0720921842607840090977333602495491504669 0.1155102125197715046134305794112151488662 0.5052750514831934047776940133189782500267 -0.6344655607173081968142014375189319252968 -0.6911663413568855940383173219743184745312 -1.4189646456698610244018254888942465186119 0.5115193964683160121609262205311097204685 -0.1015144170994308758793067681835964322090 0.1619205087553446942294499422132503241301 0.4697812925122213378870128508424386382103 -0.5523242956638959588744341999699827283621 -0.7046990482030026647919385140994563698769 1.2849651624972524555090558351366780698299 -1.0083599889554621942266976475366391241550 0.3695582958536657858239493634755490347743 -2.3213415012932521186428402870660647749901 0.9680996348287369546170566536602564156055 -0.3791945164163206261065397484344430267811 0.0659265231778399657391886989898921456188 0.2469903065559888311053526877003605477512 0.9182461477503456315218954841839149594307 -0.6344884378470675434513736945518758147955 -0.4744174742038492209594835458119632676244 -0.6570598337146285050636151936487294733524 -0.7193362423461931998147633748885709792376 0.6937131237772632408322692754154559224844 -1.2418699555730596806313315028091892600060 -0.5768471954058279616006643664150033146143 0.0586899007308352774203719093293329933658 -0.7758892926647394938655111218395177274942 -0.2112132116533008419079209261326468549669 -1.1321448421039310705538127876934595406055 0.1818164358441924088882757359897368587554 0.8039222026672346865794338555133435875177 0.6956614651601056298346748008043505251408 0.4841919974795486636409691527660470455885 1.6875828882423573595872312580468133091927 0.3217039277495747917612334276782348752022 -0.4790843014070446659324886695685563609004 -0.6926507871513687408793202848755754530430 -1.0672453564808663806218191894004121422768 -0.1796125377822362090274310730819706805050 0.2926071242844050512843523392803035676479 1.6346412691675156203530150378355756402016 -2.7863129088353257856169875594787299633026 -1.1210724908311211489575498490012250840664 -0.5609031045748792410066130287304986268282 -1.0130481555712314012396291218465194106102 0.1622003787099725868880994994469801895320 -0.8705165848499728520337725967692676931620 -1.0494088073046226039508610483608208596706 -0.1394761728173567749688999128920841030777 -0.8353927736498868439340981240093242377043 -0.0835415006235905172049527322997164446861 0.8414884784225262759349561747512780129910 0.1079104490468938276626076344655302818865 1.3028129688890321968841590205556713044643 -1.7894590370553173919176970230182632803917 -1.7975779328758569874935346888378262519836 0.6328748154698354833058715485094580799341 -0.4580142947267422659507474236306734383106 0.7434793560933942169199895033671054989100 -0.1522037409259679729967018602110329084098 -0.8443340535132417556951622827909886837006 -0.6800884060670742137233446555910632014275 -0.8890669402763442530357451687450520694256 1.0658059498820506849625644463230855762959 -0.9252609686522283993781456956639885902405 -1.2317706587925016936679867285420186817646 1.4482677435947373112412606133148074150085 0.3119867812374625959392915319767780601978 0.3175302307589014105815294897183775901794 -1.2276661281945326908981996893999166786671 0.4468180674581492817232231118396157398820 -3.1586638556540602706945719546638429164886 -1.3014399046887725752696951531106606125832 1.1553713611826921248137978182057850062847 -1.5786043511525076343815499058109708130360 0.4785951096618382138991876217914978042245 -0.2704309288216005247029727343033300712705 -0.4006844911450787583007127068412955850363 0.2340261270619909683698978142274427227676 -1.0679603271898321370514395312056876718998 1.9480367191180010255635579596855677664280 0.6157266769548461748939871540642343461514 -0.5594833722038127232778492725628893822432 1.1905356846329897546610254721599631011486 -0.7466806290579932614548397395992651581764 -1.9158285040111642238969125173753127455711 0.2135954363030177771687334598027518950403 -1.0435092360892286311724319602944888174534 0.1018603997565610402853408800183387938887 -2.6101210165387427331040726130595430731773 -0.9267224463701217995748038447345606982708 0.4962135082060327717634606869978597387671 -2.0735058050481072200454946141690015792847 -0.1839136155698934682600764745075139217079 -1.4020505323229779381932758042239584028721 -1.1055465604253975619997163448715582489967 1.6777918220414067551615744378068484365940 -1.6617321830514160119207645038841292262077 0.3098017607540294870993591302976710721850 -0.8883384175005689664672559047176036983728 0.1990805390192271484561814531843992881477 -0.4424461251615335877218626592366490513086 -1.2106417293502806931115856059477664530277 -1.2284601668715140476706437766551971435547 0.9790269416617459752316676713235210627317 -0.5540224376902571634673222433775663375854 -0.0935457920355293598424495371546072419733 -0.9275684720042851605370515244430862367153 -0.4839257177537016341162257049290928989649 0.0519864756700671448719219824852189049125 1.8064468789588190578143667153199203312397 0.8945883802171772369860036633326672017574 1.5638595035086839679649983736453577876091 -0.7589855224952164469698345783399417996407 -0.5798316302578960801383800571784377098083 1.4287183025576588590865867445245385169983 -0.5606312147221919062189954274799674749374 -0.6081865451417434176306642257259227335453 0.8715448560104284148053466196870431303978 -0.2410789009017111905741614918952109292150 0.2658275802613586646927501533355098217726 0.0567309391813904176360416897750837961212 0.2846090775706920927845544611045625060797 0.8132045447302842511305698280921205878258 0.3208686643773749347374746321293059736490 1.3942479914958112452438854234060272574425 -0.4097439417788367732597976100805681198835 -0.4628314612200611910530767545424168929458 1.2811946168275927249169399146921932697296 -1.5894287873334433935923470926354639232159 1.6527394010130245227685463760280981659889 0.7905995733331837582724688218149822205305 -3.7504480114269407309279813489411026239395 1.6494631151203917873715454334160313010216 -1.2440211486428045528640495831496082246304 -1.3733078744619906519375263087567873299122 -1.1429188767005182825187148409895598888397 1.0153407028985392823727806899114511907101 1.2586129628863018670159590328694321215153 -0.6022496897338507348962366449995897710323 -0.0668486403288615499418412468912720214576 -0.2903152434868728204442334117629798129201 -0.7626561654705055204317432071547955274582 0.3064117455954306068477421831630636006594 1.0124863033818485291703836992383003234863 -0.6784324649839362786352126022393349558115 -0.9343715158279793930873324825370218604803 -0.8304746423162633339742910720815416425467 1.9725315648191634743113809236092492938042 -0.3523325482921340068287463509477674961090 -1.0245866949380115773493571396102197468281 -0.2324653762671964885022646285506198182702 -0.0262728530937059411021206045688813901506 -0.4539415581682828548792940637213177978992 1.1467239442474115307391002716030925512314 1.2025211937916551185878688556840643286705 -0.1836883066232909422765828821866307407618 -1.8556766731449445551049848290858790278435 -0.1652986181873856708079983945935964584351 -1.5603246941913280210201264708302915096283 -0.0775464319129879203762456540971470531076 1.6679264887096714176095701986923813819885 0.7595961065882178564478977023100014775991 -0.0040156176029288543835593650044302194146 -1.4402661980423483445434840177767910063267 -1.4857174425966712671964842229499481618404 -0.0183198545373839706551510886356481933035 0.1348343683585449814810175439561135135591 -0.3449771530785158413223712159378919750452 1.9638354330554390614338444720488041639328 0.1541061245361971809852974502064171247184 0.2125951922458824139283706244896166026592 -0.0654472631514193686763647406223753932863 1.2749799818856613065065630507888272404671 0.2951031230718876297025587973621441051364 -1.9501222380762723851432838273467496037483 0.6315405355023937516989462892524898052216 0.0394367200422659283653992190465942258015 1.2222680336730862293848076660651713609695 -1.8174541449064782749900359704042784869671 -2.0302889660719958264678552950499579310417 1.3636772659144946739928627721383236348629 0.2628705282735551151951369774906197562814 -0.0092090287718415778095426560412306571379 0.7575479861494414102196515159448608756065 1.1564827462858893181163466579164378345013 -0.3381238608640168563646000166045268997550 0.6261380906425931813785723534238059073687 0.3857053751791598150688855639600660651922 0.4640815673294386156655377817514818161726 2.0577507028528199128913911408744752407074 -0.0464832901269263895627226190754299750552 -0.7602768311326842942676762504561338573694 1.1082195143695745542800068506039679050446 1.3300786425698536419304218725301325321198 1.9674578218330980305950106412637978792191 3.8480842863388455832307499804301187396049 0.2128325243448601633566852342482889071107 -0.7486933072974930603038501431001350283623 0.4251574118727099449444040146772749722004 -1.2742100147956112454750154938665218651295 1.3109201755849217985172572298324666917324 0.0108961453766587869351756268088138313033 0.6293576718958392435254722840909380465746 -0.6737812198346014858074681797006633132696 0.1695151852407419668100629905893583782017 -0.8018006833937834088033014268148690462112 -0.1561182298880169072585744061143486760557 0.1493308904991869634493184548773569986224 -1.2912266402844321255827253480674698948860 0.1183513734637052505771492860731086693704 -0.2556475599759195915794407483190298080444 0.0866422899620899050754374570715299341828 0.7251182340988279184657017140125390142202 -0.9231200785790908414085720323782879859209 0.9976231562580712974863672570791095495224 -2.3402724818510032278595645038876682519913 1.2462972088810586601681507090688683092594 1.1406450414031761297906086838338524103165 -0.1805793534428483948506283240931225009263 1.3080517302151097869256091144052334129810 -1.3300058648514159198583683973993174731731 -0.2022335774582849077241064605914289131761 0.4529213784879916881997985456109745427966 1.0288286882447879033719573271810077130795
