-0.2800791065210656571871083997393725439906 -0.1310521789703585626707393885226338170469 1.3023351537436096414523944986285641789436 1.0731482486986703150932953576557338237762 -0.6958862761421248377402548612735699862242 0.9016869942576313246007657653535716235638 -0.3998040722472558927691466124088037759066 -1.8208290147297223615652228545513935387135 0.5186986735298375617020383288036100566387 -0.2383967444839660554389837443522992543876 0.1764245583542854434178082101425388827920 -0.0459013517557236017108124315200257115066 1.0215753222387373710944302729330956935883 1.6226326862237649972797726150020025670528 -1.1599467912547267722800370393088087439537 0.1330018048346635894940703792599379085004 -0.1539313300878178969455234437191393226385 0.2746714968562526393291989279532572254539 -1.7216296248173452720919840430724434554577 -0.4556392719553118975106542620778782293200 -1.4602198762835336687260223698103800415993 0.0775368404660025517527444094412203412503 -0.3730847476793739403433391998987644910812 -0.1127711472266214320914201607592985965312 0.3192494055014642451162387715157819911838 3.8274713497670318496091113047441467642784 -1.2821563365135151268958679793286137282848 0.3797736005470088160862474069290328770876 -0.1416499734572502777751878966228105127811 0.4754202016162936694776419699337566271424 -0.6316695763489454940042833186453208327293 -0.5154535566881163211050420613901223987341 0.2819651684351153764218622654880164191127 -0.8916337182734476174417181937315035611391 -1.8506894753250930918397898494731634855270 -2.1881396931720162868373336095828562974930 -1.3220160281335393559487556558451615273952 -0.1041779252734236910216125693295907694846 -1.2022394373855340710122163727646693587303 2.4402696481931367422646417253417894244194 0.4918889072833599329648279763205209746957 -0.5415157062864394132972734041686635464430 -0.5393205083841547953227291145594790577888 1.1542632440878228816671935419435612857342 0.8835180957615321739595515282417181879282 2.0085152289181831264386346447281539440155 -0.0577416814595638760998497218679403886199 -0.2081340903790691865271611504795146174729 -0.9572574947780019272158824605867266654968 1.9751897556360031860123172009480185806751 -0.3318680306466694762690394782111980021000 1.4085071889609448447799877612851560115814 0.4607175628371171782760029600467532873154 -0.1461504511351350010794902800626005046070 -0.5483663604375190736561762605560943484306 -1.0315936194698862582441734048188664019108 1.6632310038363102844272134461789391934872 1.2224250436211956394316757723572663962841 1.2107338804910388052604730546590872108936 -0.6083894126066210494840902356372680515051 -2.2826086527602664766334328305674716830254 -0.2374068871082589959886632868801825679839 -0.4619398292022486307573103658796753734350 -0.7015085338681588122966559240012429654598 0.2288776770983811104098748501201043836772 1.0719926308720553187470159173244610428810 1.5322323464435827489182884164620190858841 -0.6584500035981207810564797000552061945200 -0.9103640679886217945693260844564065337181 0.2337337386572553854513500937173375859857 0.2107346827404748546008761422854149714112 2.6773688054702469152346111513907089829445 0.6656874258143594680348087422316893935204 -0.9914978635265672135545855780947022140026 0.3876991222972658301948456482932670041919 -0.0862324378155880227891927347627643030137 0.5394467275168051134670577084762044250965 -1.2341544136464561720600840999395586550236 -1.1062042543586958487367155612446367740631 -1.9819916555864447449408771717571653425694 1.4175728873156148157619327321299351751804 0.7739366003671397375995866241282783448696 1.7148337055466993383845419884892180562019 -0.7211907475703557279800293144944589585066 -0.6066896561901751194767484776093624532223 0.8564661496942278517963131889700889587402 0.8117122129863019175388672010740265250206 1.0326554850930267370756610034732148051262 0.0213886147743153794131831801905718748458 -0.2272171438184529823622881394840078428388 0.8517348772627370001586655234859790652990 0.5663786564804095258196525719540659338236 0.5762523407361975769092055088549386709929 -0.1621646765738097850650945019879145547748 -0.2223466307460264246298464740903000347316 -1.1897063086102588336245844402583315968513 -0.2844925640892966289818843961256789043546 -1.3198274180328672944284562618122436106205 0.3847013870435532778557785604789387434721 -1.3702082954874192921579378889873623847961 0.3382008623616739595441060828306945040822 -1.4121440143906287545405575656332075595856 -0.7335501757749209872372375684790313243866 0.0824288692241631620882813535899913404137 0.3890720255503373747885120792489033192396 -1.0159710103012014048573519175988622009754 -0.4549569703565094491715115054830675944686 -1.7279520754918546998624151456169784069061 1.5536870154306503533092609359300695359707 -0.1990960050797601632588396114442730322480 -0.6401305790903798476065844624827150255442 -1.2380997202882171315252435306319966912270 1.1456920449565293207427885135984979569912 1.1394755568816516966279550615581683814526 -0.7841567469413163182778703230724204331636 -0.8056616250669965673125716421054676175117 0.8165732483817893516686581278918310999870 1.5513306623203171330516170201008208096027 -0.3637976318264773412103352256963262334466 0.0184437938682591798245091752050939248875 0.9801435497260179152689829606970306485891 0.6772474692320471501005840764264576137066 1.2899514544121826187250690054497681558132 -1.1291913051800952505487884991453029215336 0.1473101198457850147249814654060173779726 -0.6234244107316329053247727642883546650410 -0.9006662055565398672385413192387204617262 -0.3385407557822484037046706362161785364151 0.1890460366722335749933847637294093146920 -0.5635142484421905573199751415813807398081 -0.7336914723680902916669310798170045018196 -0.0432165265037803697500962130106927361339 1.1099205794031385963194225041661411523819 2.2086986596978763763843289780197665095329 0.0592629111524920482167999580269679427147 0.7459370672769768395582445918989833444357 0.0357352047137667744314271089933754410595 0.0433503259903893212179326610566931776702 -0.3616174164405841495728566314937779679894 0.4441970848121571946442998068960150703788 -0.7629541349990107690359764092136174440384 -0.2111572982551189470168395700966357253492 -0.0732622891284580579629448493506060913205 1.1500186032656289913944647196331061422825 -0.3912805909728879760756115047115599736571 -0.2805091264547372453819207294145599007607 -0.6463428025313431302123490240774117410183 1.1452588085382648941390471009071916341782 1.3027567330561715674974720968748442828655 0.3396027223022281549269507650024024769664 -0.3095023739569155440953807101323036476970 -0.0441750814505632166673265714962326455861 0.1491953925337872188805476980633102357388 -0.8366982633920155842943700008618179708719 -0.8604439810852204661983932965085841715336 -1.3625281113585334669124904394266195595264 -1.8346230395350593411762929463293403387070 -0.4292440789672877232696635019237874075770 1.2290194446535869232661752903368324041367 -1.2097951085330489462421610369347035884857 0.3500723688413991951939863156439969316125 -1.4790889599002683407746872035204432904720 0.6180166137025731032395015063229948282242 -0.2466430434300051210971815862649236805737 -0.7503944190833008454077912574575748294592 2.0693884795751404936936523881740868091583 -1.8611724877310074077740864595398306846619 -0.7732177410151478413879999607161153107882 -1.4153128981081650739071164935012347996235 2.4293767012709337471676462882896885275841 0.2539004710239945450389598136098356917500 -1.5414021272043707533327960845781490206718 0.1118933864331660837931892160668212454766 -1.7699324669539058252354379874304868280888 0.4428610866689921543581931473454460501671 -1.2167793035133018797466775140492245554924 -0.5173911743738375257350980973569676280022 0.0916032610980242606446566355771210510284 -1.6614616053916251292577044296194799244404 -1.0862855433273888028367082370095886290073 -1.4550889848930677050731219424051232635975 -2.2141395123510179132608755026012659072876 1.0711977678138107084038210814469493925571 -0.4040234570179266349043700756737962365150 0.0153079453075569658915267012844196869992 0.5214469071020909618496830262301955372095 -1.1844767666455582322271311568329110741615 0.9185378720031582844285367173142731189728 0.5598885179880496165694125920708756893873 -0.2870503648970772481163749034749343991280 -0.5320143588847467963631743259611539542675 -0.3326137250488558905203717586118727922440 1.0652660949742778218052308147889561951160 0.5603862305040326896587998817267362028360 0.5237872269090345644926287604903336614370 -0.1341137407231745293234581595243071205914 -0.6805913040364365285128656068991404026747 0.1880608577222489530278437541710445657372 0.5516517716715406693950285443861503154039 -0.9656621114487631274414525250904262065887 0.9087177045937995245594720472581684589386 0.0241620299906691662905622308699093991891 1.0347920775003129900682097286335192620754 -1.4088988617043154416563766062608920037746 1.2793349795644355371138090049498714506626 -1.3661091291396596503204818873200565576553 0.8310911764380917166050721789360977709293 -1.4363542821215842248960825600079260766506 0.4666053753304378881594516315090004354715 -0.2742826098755093977565877594315679743886 0.6333831544425502224626711722521577030420 -0.6402206316555798526479748034034855663776 0.0003749625799674036435819857171480862235 -1.2593639633671647182211472681956365704536 -0.1575985887246723060606257149629527702928 0.4951949282658822948377519423956982791424 -0.3005971851736655708897671956947306171060 1.4426102232694770766130432093632407486439 -0.4996554181624156543151116238732356578112 1.1482380438932162647347468009684234857559 -0.0794047988733803805638800099586660508066 -0.7984564638899467325927616911940276622772 0.3198297356442435512846600431657861918211 -1.3387778433439927461279239651048555970192 -0.5931512571341560624560429459961596876383 -0.2887131128561790105457873778505017980933 -0.2265280206700222842552960855755372904241 -0.6199112782596740700569171167444437742233 0.4163644443899165992206690134480595588684 0.5739033014496134343929156784724909812212 -1.0803996055944771192969255935167893767357 1.1595208737088147366023349604802206158638 -0.1739264924253118849151178437750786542892 1.7593912943426404105196070304373279213905 -0.1541277464216199155622177840996300801635 0.3941100699392107720164801776263630017638 -1.1673235300887481180609483999432995915413 0.3616617869151247388614933697681408375502 -0.1100395737154394731893702896741160657257 0.6899463242677688068482666494674049317837 -0.2589427054564912844547563963715219870210 -0.1286916068940442692269954250150476582348 0.8536566987282989682483957949443720281124 -0.3182616766078957826202611158805666491389 0.6761372168186097209030549493036232888699 -0.0621442983253011407840382673839485505596 -0.3965415732592048048132937765331007540226 1.4085126088020030188374676072271540760994 0.1914587819684073766168808106158394366503 0.4321642413922898162681462963519152253866 -0.6661074284028291048187497835897374898195 -1.4904510835255408984778568992624059319496 -0.2389081236349477055380674528350937180221 -0.4752328994865055444840606924117309972644 -0.7936840140221345096804839158721733838320 -0.5616116873654789509728857410664204508066 1.7700002113313424434437592935864813625813 -0.9878715839818638100311432026501279324293 -1.6618753093934093278960517636733129620552 -0.5065841389969170105445073204464279115200 -2.1577385096137140507721596804913133382797 0.4403373331784363187146880136424442753196 0.7378547784177270640881829422141890972853 0.6907251729865249156858908463618718087673 -0.8129844002648415335343656806799117475748 0.9718269591957090502987171021231915801764 -0.0682518652779045970069304871685744728893 1.4809264116924425458421410439768806099892 -0.4790960082817520282461032365972641855478 -0.1261189716373201374910451022515189833939 0.2697655415957402880167137482203543186188 -1.2308443819483150249993741454090923070908 -0.0589472914955145727011753820079320576042 -2.1622932495097901828273734281538054347038 -0.9318866369117180248338172532385215163231 -0.2990951000306393270378180204716045409441 -0.1064401504830143618818283357541076838970 -1.5918439338202514665709941255045123398304 -0.5256231319156871029107946924341376870871 0.5024563134885974280408049708057660609484 -1.1761257370833411162180937026278115808964 -0.1034592746909019506107441088715859223157 -0.3974972050326381900475780639681033790112 0.5416588566793087977657705778256058692932 0.4404824159439809649896346854802686721087 -0.0014763738867633164307535675874305525213 0.7159037396716020351661313725344371050596 -1.1115097297259537434399589983513578772545 0.9196780088681615339396557828877121210098 2.4657392812974352480637207918334752321243 -1.9351436193867874724361399785266257822514 2.1828755382098452564321178215323016047478 -0.2993046195940067821794627889175899326801 -1.1606280204029679747890213548089377582073 0.0720894276007601891853582287694734986871 -1.8996058601707659363455604761838912963867 -0.1392800570607624355279341443747398443520 0.7767074030966747422155549429589882493019 -0.8465939448109762732741501167765818536282 1.6087545565545147141506276966538280248642 0.1239101338790528084032871447561774402857 -1.0425018611692733472295913088601082563400 0.6889646710884311797684631528682075440884 -1.5898889359767780504739675961900502443314 -0.9685595714897207164639780785364564508200 -0.4716684343928873590634509582741884514689 1.2009403940609097993785781000042334198952 0.5110247214632547274604235099104698747396 -0.8912597481876368687991885053634177893400 -0.3928160195367079166040014115424128249288 -0.6401387380171456031874299696937669068575 0.0277155991441323940049912266658793669194
0.3957660448418128251724112942611100152135 -0.7225004056958382880893054789339657872915 -1.1840463302070174389513113055727444589138 -0.3262937189275785243580685346387326717377 0.8257222218141216929510051159013528376818 -2.3604873242919572895459623396163806319237 -0.7953472982393777757081920753989834338427 0.6510962771130588411239159540855325758457 0.5747240751014709436716998425254132598639 -0.7967718985170443302123999274044763296843 1.1318340543780800455664348191930912435055 -0.4863566557983462490533099753520218655467 1.3329167486232911254973032555426470935345 -0.3402077598718392104082397509046131744981 -0.8410163514439890075635730681824497878551 0.1692319059769907541035394160644500516355 0.3731449897711240915043617860646918416023 -1.6286423997612302638771097917924635112286 -0.9488137273797742077263706050871405750513 1.9751190148937527446548756415722891688347 1.5388913285069958369888354354770854115486 0.7031089518851211250805022245913278311491 1.1445067600428213694385704002343118190765 0.4641603570283353019654271065519424155354 0.5023595524863335715082257593167014420033 0.3904988706689834221386092849570559337735 -0.5325779670202388516031533072236925363541 -0.7728150442566262823262945858004968613386 -1.5906102460837951984018445727997459471226 -1.5830522330358263172200850021908991038799 1.3924565634760690535642879694933071732521 0.7393095522885498871445975055394228547812 0.2578806897853803126174909721157746389508 -1.0264760004706674489938222905038855969906 0.9875412209763950732721582426165696233511 1.1609813321627366899946309786173515021801 -2.0934548578612415248301203973824158310890 -0.4360715948911414452382473427860531955957 -0.2845516101084098470330729924171464517713 -2.4352858732359901061670370836509391665459 1.2883443359893198554289028834318742156029 0.6196030641851305587053388990170788019896 0.0834562903847813203350725075324589852244 -2.6843946925834316630243847612291574478149 -1.3806310849574039423259819159284234046936 -0.4350779674608621916398476514586945995688 -0.2428812699664102126018150329400668852031 0.3631005641626248725550851759180659428239 0.6028537434490818247567744947446044534445 -0.5757010463829239643729351882939226925373 0.1814007318204818863804916873050387948751 1.3111335501743266451768477054429240524769 -1.4026475319827120813442888902500271797180 -2.2277699817665190806792452349327504634857 1.3084112543545085571849995176307857036591 1.4629189198953067574393571703694760799408 1.4046399893267327296797475355560891330242 -0.3556673381643611353553069420740939676762 1.0749632721679875935194559133378788828850 -1.6694372847863065967288775937049649655819 -1.6162509322136380252032950011198408901691 0.5638180810171522505669372549164108932018 -1.5507347476831627730575746682006865739822 -1.7291252493093614006625102774705737829208 -0.1560162589165011992609066737713874317706 2.0223054748767150812227555434219539165497 0.6507507080159613543912655586609616875648 -1.6905556044132556969827874127076938748360 1.2099478276585171609980307039222680032253 0.5798512535004154422324518236564472317696 -0.0232956464321049661059248592209769412875 0.9450267858242162866133639909094199538231 -0.7248205882848508530003073246916756033897 0.4441841241004709783801729372498812153935 1.9426206471424176669415828655473887920380 -0.4223669133618126458884489693446084856987 0.9272604895711695771609583971439860761166 -1.2961320379881926534437752707162871956825 -0.4313558344654878640156425717577803879976 -1.6978050936340833843019026971887797117233 -0.9445374316946689718932361756742466241121 -0.5969731220986985720244888398156035691500 0.5228282408858159202580395685799885541201 0.5940629186032572173203902821114752441645 -0.8356991239385079817125756562745664268732 1.4752890991724687541619687181082554161549 0.1134534605173353888352139051676203962415 0.7650462914221206611742331915593240410089 0.3835370291534199171934460537158884108067 -1.2004598742294347868408976864884607493877 0.1365266116388682282600797179838991723955 -0.7589120398286514079799758292210754007101 -1.3057946085627047949628831702284514904022 0.9548585446609993976352370737004093825817 -0.3458707124249570385998708843544591218233 -1.0287664590809240117152967286529019474983 -1.8051905981507136988994943749275989830494 -0.0932174183847912091183118832304899115115 -1.3342190306699286406200144483591429889202 -0.5784924077375289686031578639813233166933 -0.6018976170711047846140218098298646509647 0.4047511283104558432732744677196023985744 -1.4164200896916128158409264869987964630127 0.6970370177295068803147159997024573385715 -0.4045156313085279675689776013314258307219 -0.1507485165318673547840688797805341891944 0.7990983504355664290841332331183366477489 0.2702667608379920594074974360410124063492 0.2674400687298335577146701780293369665742 -0.1978936117380258319364827457320643588901 -1.1395840142242128489868946417118422687054 1.9895165908835354962036490178434178233147 -0.2721463433266124165577082294475985690951 1.0399942378370312656699070430477149784565 0.7403411223302922561373407006612978875637 -0.5690344427713784902778115792898461222649 -0.2831921552210118209202960315451491624117 1.1978680585121876944754149008076637983322 -0.7096760552473494465530734487401787191629 -0.0520959574019582913328996198742970591411 -1.2662914219412984007107070283382199704647 -0.0231932274616712848225308363225849461742 -1.3137409185447601611684831368620507419109 -1.4370247897791168512071635632310062646866 -0.1911145335859098792763433038999210111797 -0.8555684140659511882631704793311655521393 0.5380674894089254589601978295831941068172 2.5436187034726143174623302911641076207161 -1.0833204265741909200215786768239922821522 -0.6995129673836176786849705422355327755213 1.9797142777285947623511219717329367995262 0.3114380273258720022155898732307832688093 0.5934376287573673858233291866781655699015 -1.0240789948141044707341507091769017279148 1.2575159634856178936246351440786384046078 -1.5233462644387520956712478437111712992191 -1.7887197917126087531869416125118732452393 0.4717054974749819717949606001639040187001 0.4245527708346432116393032174528343603015 0.7694800764242649693258613297075498849154 0.1614738758273667751375057832774473354220 -0.4869965156904695890993650664313463494182 -0.2550203498709755489670669703627936542034 -2.0108340245573272930812436243286356329918 0.0803987794444612074995504258367873262614 -0.1944953791684252419891265617479803040624 0.9896647929986404079727435600943863391876 -0.7236356069407453572850386080972384661436 -0.7191770070005204518182040374085772782564 -0.4949427141981705413620318267930997535586 -0.1905219857625255752697768230063957162201 0.6277738055915551562691234721569344401360 0.9827932195568784834449616027995944023132 0.1595603127711801294541515972014167346060 -0.3719119396235115448945407479186542332172 -2.9298393234942641250029282673494890332222 -0.1035740843615848560954617596507887355983 1.4744474304518597751467723355744965374470 -0.4099528389267258488004586070019286125898 -0.0849693876393179253758702884624653961509 -1.0548738022769399425015990345855243504047 0.1055097258185982989076023841334972530603 2.5548083666621015375142178527312353253365 -0.6512693380699244860565499948279466480017 0.5430300613731012804308306840539444237947 -0.4188815683348476315295272343064425513148 -1.1932433128255035548193063732469454407692 0.1780876968388521996988771434189402498305 0.5692228329185851087856917729368433356285 -0.3022551918281041194447311681869905441999 0.3676672635683373990822531141020590439439 0.8500370921496234188907692441716790199280 0.6102937394436108720086053835984785109758 0.7024438746542013278784111207642126828432 -0.6876302861597891613598676485707983374596 0.5109293926497029403321903373580425977707 0.2728291476671422244315579064277699217200 0.3743500493543514551220141584053635597229 -0.6414441865930510244808715469844173640013 -0.2644231440700460233905744189542019739747 0.7487544980429582386349807165970560163260 0.3456596843472131697083682411175686866045 -0.6937477154507253329640548145107459276915 0.3988057932300037022876892933709314092994 1.4748683971187359631471736065577715635300 1.5878366908433707571646209544269368052483 -0.8702744369606169039244036866875831037760 1.9289583538657959493889393343124538660049 -0.9970196061526868103186416192329488694668 -1.4565345730530063761420933587942272424698 2.2072678602177018269969721586676314473152 -0.3009088104682113851140456972643733024597 -1.2708071114172208027071064861956983804703 0.5144509989017260753740856671356596052647 -0.7492524211943315526340825272200163453817 -0.4102949539128565303869322633545380085707 -0.0288715012773235225884693733178210095502 0.9012864149127028934316285813110880553722 0.0362847209642728138478950938861089525744 -0.7956812654993122846391884195327293127775 0.7223946023784537651124537660507485270500 -0.9965103877917673713682233938015997409821 1.0382678225605683763888009707443416118622 1.0529340984960411375936928379815071821213 1.0145246484658314578553017781814560294151 0.8772005062089103244460375208291225135326 -0.4897807461362319036979329212044831365347 -1.1875688540867470610606915215612389147282 1.6208829311271848450104471339727751910686 -0.1426495731985471249192443110587191767991 0.1199338605819831593546354042700841091573 0.1856888765009070130229673623034614138305 -0.4917509573369457931413251117191975936294 1.0540540781918734669631021461100317537785 0.7966445211980772711513054673559963703156 -2.0654673678414257054214431263972073793411 0.4476683418955414994755415136751253157854 -0.0471976783667803490018854972731787711382 1.1496861332239169950497625904972665011883 0.1127896819713854609235070824979629833251 2.3768099028624090074401919991942122578621 0.8515061607326512849169830587925389409065 -0.7222969273926174160749269503867253661156 -1.2741044624720987421540030481992289423943 1.6812677616635496313790554268052801489830 -0.8040810148669098600393567721766885370016 -2.3543277860553661895437471684999763965607 0.2334064496897324814117524738321662880480 2.9303390054516089691105662495829164981842 0.0587555181626831513064246337307849898934 1.4000609791180238516972167417407035827637 -0.1111652256301962765627777685040200594813 0.6218550965330179591816772699530702084303 2.4713009310760996051214988256106153130531 1.1263767012198810935075243833125568926334 0.9269921177011415380775360972620546817780 1.1884728222845684086905748699791729450226 -1.2524264609407684822883766173617914319038 0.4376010212248524489098144840681925415993 0.1043178705169518216688828715632553212345 -0.0757761860108073226349745254992740228772 0.1170711910343748274332398295882740058005 -0.3555161665812880400494577770587056875229 -0.3904046724671992874000636675191344693303 1.0654910938893671357163839275017380714417 -0.9326192804521418189267478737747296690941 -0.0572029037626589562104406638809450669214 0.2490991557874742412526103407799382694066 -1.1858738507920176807886036840500310063362 0.6427668519081760623024024425831157714128 -2.0494692860025573999394055135780945420265 1.8716792492007916504093145704246126115322 -0.0609603735182966954830874328763457015157 0.3849670956867387028310645291639957576990 1.4017911538333860388405582853010855615139 3.1233726456098498402980112587101757526398 -0.7834202889646365575160302796575706452131 -1.1549905713203412194189922956866212189198 1.3455276870069268202456669314415194094181 -0.3771782030934217044837453158834250643849 1.3233790729895866800092107951059006154537 -1.2000426380135849058206076733767986297607 -0.0978322360458263040605686455819522961974 0.0484102571581620649832089497976994607598 0.7150095639098967836844167322851717472076 1.8340955735355393141361446396331302821636 -0.5592824981029380637664871755987405776978 0.9489299404643632973588296408706810325384 -0.0641752607754996623468102256993006449193 0.3227365232507676817697017668251646682620 -3.7105015590630103794467231637099757790565 1.9754552309893764761028478460502810776234 -1.2424013214717595232627900259103626012802 -0.0644285165891822081407624978055537212640 -0.8397858570586335114072085161751601845026 0.5399375270434225715376896914676763117313 0.5715986653058823252493425570719409734011 0.1792901284364220582112636748206568881869 -0.2330806260641164195934749159277998842299 -1.2701830763744164087825083697680383920670 0.4054841839950134585457419689191738143563 0.0533712858931055106337382198944396805018 0.8008015683525407935050566265999805182219 -0.2067023689190316537711566979851340875030 -1.4174645574948068205145546016865409910679 0.9383065717592526944201836158754304051399 0.9197157089095252535670965698955114930868 -0.9548454612714397660155896119249518960714 -1.4609048305201712825152071673073805868626 0.3412074062824262954407572578929830342531 -0.3850524017643453533743524985766271129251 -0.1532855702562384292431119092725566588342 0.4956053922096808062036643605097196996212 0.1802752242281295269599183939135400578380 -0.3439006008411057413454159359389450401068 1.0003551052590982095580329769290983676910 1.3632871993114537012559139839140698313713 -1.6655109712328652893376101928879506886005 1.0668098236537333356466206168988719582558 0.1484207352075945784974919661181047558784 2.3024639051674617995502103440230712294579 1.4111728873615485557735382826649583876133 -0.9842793696012315241006263022427447140217 3.0959234407885891648959386657224968075752 1.3910679763373943185200687366886995732784 -2.6797539537312209390051975788082927465439 -1.2259456363725504957074008416384458541870 1.0937266242457635012641503635677509009838 0.1948433532873509732574746067257365211844 -0.5384318890097665732952236794517375528812 -0.8168847358094110111537133889214601367712 0.0479519798412240474960732683484820881858
1.3665611213359556419533191728987731039524 0.9458849251074871178346370470535475760698 -0.1027345568931424257819173817551927641034 -1.6607323007739469566956813650904223322868 -0.1363654582055300046317114492921973578632 0.2973616021891731797666125203249976038933 0.2295175949232383660891798626835225149989 0.4265459391602673955290470075851771980524 1.5562609900934065709776632502325810492039 0.3829730995782579250352739563822979107499 -1.1563308416953241852809242118382826447487 0.0414961771234029011545807463789969915524 0.0703000519328013107056563057994935661554 0.5184421603158444469272581045515835285187 -1.1841362351917932294043112051440402865410 0.6155754502113055526280049889464862644672 0.3305032166025540507625635200383840128779 0.6572558643697736791011720924871042370796 -1.3158488452668712920257121368194930255413 -0.9800732792719679675741417668177746236324 0.6569352631965464928143205725064035505056 -0.8618095999409818297465335490414872765541 0.0715995786801336409066465193973272107542 1.4024681343668414790215592802269384264946 -0.5409946063819914829906565501005388796329 0.1175124484227309112904791277287586126477 -0.1756426618045536514056692567464779131114 1.1771810031973919397074723747209645807743 -2.2418092397421922612466005375608801841736 -2.1335566081194672349852226034272462129593 0.0511202518951385034839951515550637850538 -0.0171497972500979853349711845567071577534 -0.4975745890372745838803325568733271211386 0.5072200819032917085138478796579875051975 2.1991882952030299414047931350069120526314 0.5894832998657901779182566315284930169582 0.9283782774885661615016374526021536439657 0.2600847116343038556429689833748852834105 1.2435829454865778842531653936021029949188 0.8205204764003598549848561560793314129114 -0.2979585083172093251668854918534634634852 -0.2544874209581210466879497289482969790697 0.0932333660377555328846455040547880344093 0.0986573236385760166111680291578522883356 -0.5894199680547440589606367211672477424145 0.9946121286942524175600510716321878135204 0.0898355795789019667685337822149449493736 0.0556721323858301725406860782641160767525 -0.7073090524200602580151553411269560456276 -0.6253091530061744007795709876518230885267 1.7006877187417270835823046581936068832874 -2.1232159906235499313709169655339792370796 -0.2325354569050710473732124228263273835182 0.2533283706126959744509008487511891871691 0.9491125780827956992524718771164771169424 0.8555446795137586768476012366591021418571 -0.1691260528371461568930556040868395939469 0.8320018742432730984859290401800535619259 1.0684877492923308128780490733333863317966 1.2150297460219707801343247410841286182404 -0.0255230946538190818506652846053839311935 -0.2365769123649589800173487219581147655845 -1.1870593606911752360133505135308951139450 0.5168259960517637141563795921683777123690 -1.0843343549593398300601165828993543982506 -0.1233061405124646070508021011846722103655 2.0362453676257836754359686892712488770485 -0.2777761066724547256434618702769512310624 0.2562760664109816621802906411176081746817 0.2389678505860497736978942384666879661381 1.3445662001707820998319675709353759884834 1.6346237596076997888872028852347284555435 -0.2120581260825542824210998560374719090760 -0.1870856520608590312093610918964259326458 -0.3403032419639470673722314586484571918845 -1.7318099524442778225363781530177220702171 0.1730283842835466379117548285648808814585 0.8153850901019003005743002177041489630938 0.6574933993418620170601229801832232624292 -0.3688822006350204185665120348858181387186 0.2578016810453254703539016645663650706410 0.7312740497131979822142966440878808498383 0.1727055993543657186339856934864656068385 0.4178802785202592739999261084449244663119 0.3981399619257703914598778283107094466686 -0.6529502359756008678104421960597392171621 -0.2198036084295834635682354019081685692072 -0.1026442161340795772295209076219180133194 -0.2963715078393572843751258005795534700155 -2.1023694249612212558986357180401682853699 -0.2532891217978601727800480603036703541875 -0.4338914694450923259516628149867756292224 -0.3647740334185983201997771629976341500878 0.9371366090875243859414922553696669638157 0.3048892084307036065560225779336178675294 -2.5502607271761101870310994854662567377090 -0.6735941652361120413061712497437838464975 0.8431054045956739573242089136329013854265 -0.0630070997557254236509649558684031944722 -0.9648031769527576351208608684828504920006 -0.2424416364700634485274122198461554944515 0.6002807175171177567207791980763431638479 -0.4738874238787084136603766637563239783049 0.6060346764872169833537896010966505855322 -1.9227526796804592645884213197859935462475 0.8580465343342122963576912297867238521576 -1.0347886190041069021106068248627707362175 0.4789515243104683350772177163889864459634 -0.4748565737950549703327851602807641029358 -0.8420929927059410680101336765801534056664 -0.0150297452081846940469267437379130569752 -0.0845178615493504953315451189155282918364 -0.9307917621270176411485408607404679059982 0.6439878747939709047187761825625784695148 0.4532140832248391371095408430846873670816 -1.0714329678772633869243691151496022939682 -0.8921076915381617178368856002634856849909 -2.2222995962781952883347003080416470766068 -2.3460918537611377132634515874087810516357 1.4486576934539530103762672297307290136814 -0.1443193063411830623365972314786631613970 -1.1617659480887350120781320583773776888847 0.3892021690032028691241805518075125291944 -0.1629500292292029028917710320456535555422 0.8711514771878505758451183282886631786823 -2.4143289896993556098436783940996974706650 -0.4093141747247919792762615998071851208806 -0.2461885662083597714477889439876889809966 0.3969478908614846868196934792649699375033 1.1364307103328348258486357735819183290005 0.3824787880305042797601799975382164120674 0.4168394324678094675640238619962474331260 -0.7201264393857569334755908130318857729435 -2.0753562243046270729962543555302545428276 -1.3871467680014337719995864972588606178761 0.8479969498544054351540921743435319513083 0.3297066997809663391194590076338499784470 0.3401187658959686221926688176608877256513 1.7656577124766377195896893681492656469345 -0.2559467837263247891321782390150474384427 0.8802439099693163404580786846054252237082 0.6656046872510270606682070138049311935902 -1.3945049415024459715795046577113680541515 1.1207749292921844741499626252334564924240 1.2010624174951618492457328102318570017815 0.5361047246976288205289051802537869662046 0.6471715845624216312259591177280526608229 -1.1695468243491946580547846679110080003738 -0.3657926588733526607200019498122856020927 -0.6454240553767205401669571074307896196842 -1.2635722627752945523837979635572992265224 -0.2125294171296787659741767129162326455116 0.6845399533994210861109763754939194768667 0.7346893816269053356649010311230085790157 0.2019670720302627342501722296219668351114 -1.1768786838233440406042973336298018693924 -2.2343394123335711398681269201915711164474 -0.4475886991259807601295506174210458993912 -0.7597181087802538090869575171382166445255 -1.0463968118271425034038202284136787056923 -0.7316844209374850915850174715160392224789 -2.8033963241149444378663702082121744751930 -0.1371184755217318695930117655734647996724 -0.1966277834913276179040764191086054779589 0.3863617027444640750211135582503629848361 0.6994995136089401377432750450680032372475 -0.5512917649287825128112672246061265468597 0.7037394269543366664976247193408198654652 -0.5925618125501405097921292508544865995646 0.0222260263724643643279410554214337025769 1.1691157890518280026981301489286124706268 -0.5328367426520407290624348206620197743177 -0.8725952116607331721098717025597579777241 0.5649003464298564258783130753727164119482 0.5336126297830242615205520451127085834742 0.7604444846605412644535704203008208423853 1.7716521202169837057027734772418625652790 -0.7539273222691494913405563238484319299459 -1.6433628030635545336224367929389700293541 -1.9718627081543171897237698431126773357391 -2.8279572004374275984162068198202177882195 -0.8546548234829691725877864882932044565678 -0.3907328238248909402230424348090309649706 1.0164047141515515360055132987326942384243 -0.0133704292842683394176850342205398192164 0.7214774953033090687526396322937216609716 0.5005938937159756241257468900585081428289 -0.4699026735121771269909629609173862263560 0.2358715198818431002525386475099367089570 -0.0300083855377996124025319346628748462535 1.8702284110673879080621873072232119739056 -0.0564037784172854439468380860489560291171 0.8613868502099093493740156191051937639713 0.9499332361291782378387438257050234824419 -0.4681388498069456449712788526085205376148 1.2339729552109783838886869489215314388275 -1.1907771581460031562471613142406567931175 0.3077837126698779179889697843464091420174 -0.2733505995710182046032343805563868954778 -1.1131581870187725602505679489695467054844 -1.5033463279200125484180716739501804113388 0.8815725847694452221858796292508486658335 -0.6986795795627325222909576041274704039097 -0.1967694392914791645665673058829270303249 -0.6857484790706718236208416783483698964119 -0.3054833542970415427575403555238153785467 0.3307007072299905092727101418859092518687 1.5325765746739645756235859153093770146370 -0.2538079224976925729606591630727052688599 -0.5911902653842209254264616902219131588936 -0.9098473186563722503450435397098772227764 -0.0147763376440986152204892789541190722957 -0.2442441869472201931845489752959110774100 -0.9362592891804931705124204199819359928370 -0.2653209797484913368137426914472598582506 -0.5547882096546220553889838811301160603762 -1.2859579730109400586002266209106892347336 -0.4294300868552247130160992583114420995116 -1.7612352952508762982120060769375413656235 -0.1103474432566478591333236636273795738816 -1.2261292868738089545388447731966152787209 2.4132465548971193669558488181792199611664 1.2425304482915850989854789077071473002434 0.7416926673358632537969015174894593656063 0.8757870008577655074333279117126949131489 1.5023675403350096324572859884938225150108 -1.1628619456047106783813660513260401785374 -1.0404996152135601583665902580833062529564 -0.6464885099816237712389010994229465723038 -0.1685614320170711055713042014758684672415 0.4347136505322509725246504785900469869375 -0.1163401745171825235614093685398984234780 -0.9239345106457527156962328263034578412771 0.6694308314117596303560731030302122235298 0.0326496992539815622524912441804190166295 1.1442730318556877389113424214883707463741 0.3234718519605182529552678261097753420472 -0.5129114208598737345567997181206010282040 -0.6960098422993085121035505835607182234526 -0.7882130967724103598470719589386135339737 0.6835156598499001479041226048138923943043 -1.9204295315373640651301911930204369127750 0.9584884042298945638904683619330171495676 0.2235526573923151405498543908834108151495 0.0960814899044921538751040657189150806516 0.4878053553903510808353871652798261493444 -0.8461766150247467255240962913376279175282 1.0105430271506770090184090804541483521461 -1.6756293163707636217907293030293658375740 0.7230328124047575855115610465873032808304 0.2808325882206119672446220647543668746948 -0.2577038797590374130663803953211754560471 0.0730304689883946450690288543228234630078 2.0789094581371752035181543760700151324272 1.6874027488921170547797601102502085268497 -0.8834730646385575703050108131719753146172 0.5232567822521456690765262464992702007294 0.1638878122604672249451596144353970885277 0.0958995310331933886738298156160453800112 0.8018169581236512799549132068932522088289 -0.7480170670164031365700907372229266911745 0.9647438274362248877835668281477410346270 0.4422401705031790974942396132973954081535 0.9731643500931298484957210348511580377817 -2.1444775528769426387043495196849107742310 -0.1057477030141957541342634385728160850704 -0.5453679157161294144273711026471573859453 0.2426821324346382924286302795735537074506 1.4283852106533776460395301910466514527798 -0.0605679368883910995702279933539102785289 -0.7770078418559104305174400906253140419722 -0.0017923444088670387186468246909498702735 -0.0051278352053062293408602911881644104142 1.2056840141429041590726001231814734637737 -1.3658788054165931225014674055273644626141 -0.1036339330338047065582784966863982845098 -0.5881475206122851462353651186276692897081 0.3673580993601890387623143396922387182713 0.3532661777321380314198506766842911019921 -0.2400446665820136216140667784202378243208 -0.6729074301474180508364497654838487505913 -0.3955174354340364462068180273490725085139 -0.6331426702454234778372210712404921650887 -1.6505696555036786232761869541718624532223 -1.6208497141531519325496901728911325335503 -0.2242668238291503357562106657496769912541 0.9697725461617211495379820007656235247850 -0.3231222135773218484544599959917832165956 -0.9472054493095951599457293923478573560715 0.6734301475153059435285740619292482733727 -0.6455463904423960341816268737602513283491 0.5728896105983941611228260626376140862703 1.0443468514362856947030877563520334661007 0.7001932134830278764425770532398018985987 -0.6201237801150142336936710307782050222158 2.1213663996322855709308896621223539113998 -1.3018751925267104674333040748024359345436 -1.5093039447125859986442719673505052924156 1.7686193129208602758950519273639656603336 0.7348939374343906871800413682649377733469 -2.4186217635554871918657227070070803165436 0.9214102372224197701200409937882795929909 0.0346895872560767995484987125109910266474 -1.9221467344098372986849199151038192212582 0.7147404802953600810866419124067761003971 0.8701108468592494427085171082580927759409 1.2861667921117567736644105025334283709526 1.8502927667968955827149102333351038396358 -0.2797761398776198449311891636170912533998 -1.2724662702604117026083940800162963569164 -1.6631644131116369855760694917989894747734 0.6861612049651146794104761283961124718189
0.6852079840848775971196005230012815445662 -1.4936994528527927084127213674946688115597 0.7259934187330809862714886548928916454315 -0.8904487241663774366173811358748935163021 -1.0717779124390998113369732891442254185677 -3.1252678346250353236257524258689954876900 0.7676833708591784821706482944136951118708 1.6321305393051488419331462864647619426250 -1.5525144917328239646536758300499059259892 -0.4470833689342702532698581308068241924047 0.4648617926302062164367612240312155336142 2.0869790082845405265743465861305594444275 1.4268922248299125143944365845527499914169 1.6257745310727527154881499882321804761887 0.7575749287222872663249972902121953666210 1.4729749968063423626318808601354248821735 -0.6617970375979653763209853423177264630795 -0.7965042194211918724633392230316530913115 -0.7650796267395947314327031563152559101582 -0.9518879723784807733721891054301522672176 -1.8357504375601296775499804425635375082493 0.9340208618976836296710075657756533473730 1.1864462958271007053667744912672787904739 -1.1780555789227606933167180613963864743710 0.2606367694434450488216725716483779251575 0.5054353322428492001350264217762742191553 -0.9300855820318097988419481225719209760427 0.8796507706679587146325616231479216367006 1.2650547329086312409174297499703243374825 1.6832956483024950067317604407435283064842 -0.1676796792415670422915496828863979317248 2.4600163939835892890073409944307059049606 0.4285897498986276921151272745191818103194 1.9604780334874851721593813635990954935551 -1.0135231936870006119733034211094491183758 0.6563586034632955534817710940842516720295 -0.1973725915978214728863093796462635509670 0.7237301773579126740187916766444686800241 1.7607086205358088992767306990572251379490 0.8684026273724431144174218388798180967569 -1.1970730478059017354297566271270625293255 1.4608487306490653967472326257848180830479 0.3135481552171737185119582136394456028938 -0.1669500247658681213458464753784937784076 0.7089489260183625685129982230137102305889 0.5346799806576326696827550222224090248346 0.1526415288830844096956695921107893809676 0.2394904889114560786467222897044848650694 -0.2386674381358837582212117922608740627766 0.1401908454043511720321646407683147117496 -1.3968577807927800016329911159118637442589 0.2912178485635243951890060998266562819481 -0.4478797405691447575115660129085881635547 1.2970584979395878288954691015533171594143 1.3422523004142379310366095523932017385960 -0.0620845162791415702829844747157039819285 -0.8040076894989991451723199133994057774544 -0.9917061925792807208779322536429390311241 -0.2178390203599422925151429808465763926506 -0.2352580739196810377666935210072551853955 -1.3037335068681448202454475904232822358608 -0.1436474924655359031167023431407869793475 0.9422267788804836730065517258481122553349 1.7980845030095713443785143681452609598637 0.0015149152119158010212224274582126781752 -1.4683181228257116135438309356686659157276 -1.1146795147933292735586974231409840285778 -0.0228237760739563901035698023633813136257 -0.1253062706308900320362198499424266628921 1.0240986247461287828031117896898649632931 0.1671070201148846245953194511457695625722 -0.6792351230392295047266770779970102012157 1.3141835965505919148199609480798244476318 -0.6691525885004036000580640575208235532045 -0.3218429861960584448254962808277923613787 1.7197247819353935760489093809155747294426 1.8058504376478319297660846132203005254269 -1.6853400729232692611958555062301456928253 -0.8055346109407347521269571188895497471094 -1.0629949114092154260902134410571306943893 1.6709014204146110937898583870264701545238 -0.6334145298012306968260531903069932013750 0.1567068799365805287227004782835138030350 0.1135109592582606435895442587025172542781 0.5751782590201339750990428001387044787407 0.6988666647083582317279137896548490971327 -0.7631746947027480132419441360980272293091 1.6730399902227990338587915175594389438629 0.6660506028087602725662463853950612246990 -0.6385101414024502153310436369793023914099 -2.3701247359687078741785626334603875875473 2.3732995808945784865784389694454148411751 -0.3237303534824388373536407925712410360575 -0.5930789860849948746945869970659259706736 0.0304065873211525443398084433965777861886 0.3288247617112973752995230825035832822323 -1.1341486198454644451771855528932064771652 0.4807137921158329829651734144135843962431 0.9810008788148946168305997161951381713152 -0.8848282014998893885149300331249833106995 0.3034888102749818683534499541565310209990 0.3233380592491670313393115065991878509521 -0.3221978271257719406150954455370083451271 -0.8900680588810839788393991511838976293802 -0.6320245063201298529875771237129811197519 0.8084482425274871486564620681747328490019 -1.4830898269240120335155097563983872532845 -0.5845118142212838430182841875648591667414 0.9948231259932563963488405534008052200079 0.8830039198076645723389788145141210407019 -0.4370625740076270471234920478309504687786 -0.3749375294788501733478369715157896280289 -0.0173913034045770388547058615813512005843 -0.0656814725881625094405791287499596364796 -2.8429320210954864833752253616694360971451 1.6687193274706251244765553565230220556259 -0.5819098513356952828701196267502382397652 1.8325943623615794653147759163402952253819 -0.6971758258455413859167038026498630642891 -1.4654657240589314959322564391186460852623 -0.8897605699855056782254791869490873068571 0.9705618314568096316463652328820899128914 -0.7740509363465973846629708532418590039015 -0.6855482706789817193282488005934283137321 -0.2464841028531896960362956860990379936993 0.3255113317572244091557820411253487691283 0.1576272398210623870706825755405589006841 1.5825123423700520053358786753960885107517 1.6949211893717295307482118005282245576382 -1.6735709883534224395873479807050898671150 2.2206742955153320195904598222114145755768 -1.5557313504331948816883368635899387300014 1.6848210868985153965127210540231317281723 1.3713130941123794492852994153508916497231 1.2897910109171959458507217277656309306622 0.2228298935005195713365822030027629807591 0.3677335815235042160153966506186407059431 3.0130669004084205120364003960276022553444 -0.2589445630629508832143415020254906266928 -0.2412081163703043984458673776316572912037 -0.7730436378964435917282571608666330575943 -1.1183733835827989189226627786410972476006 0.0774805122231495557727498635358642786741 -1.4012866012225959622128357295878231525421 0.1450180569169267907891907043449464254081 0.9293561424933352022037524875486269593239 0.0654739612445523339046005162344954442233 -0.6315071886729609618171821239229757338762 0.3877540322761124924610953712544869631529 0.2668681694438782003864218950184294953942 1.4105817351693965555625709384912624955177 1.2370956569636912814047491337987594306469 0.2313882822138940420497732475269003771245 0.5599639419944355545055714173940941691399 0.6318560463340948674115793437522370368242 -0.7232742413690248506341617940051946789026 0.2700280749359871834691659842064836993814 -1.4943118086024482771279053849866613745689 -1.6637071072486990797045791623531840741634 -1.5014475978592540794664955683401785790920 0.8258687689516387431254429429827723652124 -0.7540764080287563064786127142724581062794 1.9747408222914848430207257479196414351463 1.2981818984981099429631967723253183066845 0.0440327984679342032681148566553019918501 0.4821542213207068439118074820726178586483 -1.5800244301219770193256408674642443656921 -0.5740233879122323967791885479527991265059 0.8640742808830418342225243577559012919664 1.4641693432477647096590089859091676771641 -0.5581371836053810042699296900536864995956 -1.0290621456141375578141605728887952864170 1.2775497657887266989007457596017047762871 0.6057454244777491503270994144259020686150 0.3788176106997360181871670192776946350932 0.3300011553850275003441083754296414554119 0.5479243808083524847063472407171502709389 -1.2384231904568621107642911738366819918156 0.8596501552172193250100917794043198227882 0.0311981481640473783112366135128468158655 1.4749515663356471684153348178369924426079 0.4553595943754505936951204603246878832579 -0.4327273677479153701774805540480883792043 0.4194267882899753163705725000909296795726 1.5281856146209049640560806437861174345016 0.7955587420019016864358718521543778479099 1.1210353012508893488785588488099165260792 2.0957032508943398418921333359321579337120 0.1465703050828669751215471706018433906138 -1.4949080500799407644763050484471023082733 -0.6384823100286513009038458221766632050276 -1.2928977363737756967054792767157778143883 0.1170276432110260861341188842743576969951 -0.8536523911842954781548087339615449309349 1.4828877678855136856839180836686864495277 0.8205658489450690096234097836713772267103 0.3464640192044379229940886943950317800045 1.2963061240343247693118655661237426102161 -0.2631041491063329518240720972244162112474 0.7600439940662148119443486393720377236605 -0.3031714946553105138882244773412821814418 -0.5688444930556517675768191111274063587189 -0.3144929965064067745039722012734273448586 0.6911000307200252379402627411764115095139 -1.0995400208360506244531507036299444735050 -0.6672504845544238172294626565417274832726 1.0489130658714522770225130443577654659748 -1.3130020350071056611795938806608319282532 0.6519363675824804138514423357264604419470 0.6359411580190412749402639747131615877151 0.1052281052777226805217125615854456555098 -0.1041580432025160513065387135611672420055 1.2322486286747045269862610439304262399673 -0.9058573285303760380671178609190974384546 -1.4251597592094831234987850621109828352928 1.0940871911083465128911029751179739832878 0.2736483376340620998767860783118521794677 -2.1641294039661000958574277319712564349174 0.3906752785664205362969880752643803134561 -1.1351281338074530324888655741233378648758 0.7506868345628608940600656751485075801611 -0.2273673109791304602911310439594672061503 -0.6963727797118223206140896763827186077833 -0.6942985203130238591739953335491009056568 0.1722575952058523762744357554765883833170 0.2998476028731180131892131157655967399478 -0.8376364337011915628394831401237752288580 0.6597529037118313732790397807548288255930 0.2058249223370625102802478068042546510696 -2.3218675170811984287411178229376673698425 0.9803345428281714513119027287757489830256 -0.9115537098428898588053925777785480022430 1.3519463214021192332126020119176246225834 -0.2526572392753592133374240802368149161339 -0.9694444033956348683034320856677368283272 -0.9833677260841318101824981567915529012680 0.6285195416306743609879958967212587594986 0.1382557961853604910906767599954036995769 -0.9203875358977526843773375730961561203003 0.2033588490378785973433650724473409354687 -1.0283363067630795217866079838131554424763 -1.7170261298964062390837170823942869901657 -0.0330347724412913684721715412706544157118 0.8118405635011458620908797456650063395500 1.1375126468333485174611041657044552266598 -0.1692014717770627119097781587697681970894 -0.0254174511969582142545398539823509054258 0.2032933639256608027157113838256918825209 -1.7840338602239800280813142308034002780914 0.0067521199128016641186067481328336725710 -0.5007576048844817329097622859990224242210 -1.9961395404580049017795317922718822956085 -0.1178669530000238663269840344582917168736 -1.0478019017209809771173922854359261691570 0.1688462888264854744324594548743334598839 -0.9931112037761792299406238271330948919058 0.3600107599617658471480297066591447219253 -0.1872509993603611866408442665488109923899 1.2645509782641550788895301593584008514881 -1.2100485539720204908320511094643734395504 0.4120192564574579607850068896368611603975 0.3633556233445959793293411621561972424388 -0.3983180885907580126570337597513571381569 -0.9144377417090636672725167954922653734684 0.4056487132894422420470448287233011797071 -0.5259285008140103245821705968410242348909 0.3223298963847265885540593899349914863706 -0.6091779108345024562609637541754636913538 1.2967251580410561473399866372346878051758 -0.1274220876183174144813392558717168867588 -0.4436153768700532573632244748296216130257 -1.0820688454920697196826040453743189573288 1.6305206137480090511360231175785884261131 -3.2521013514625636275923170614987611770630 -0.3945890980904488976044319770153379067779 -0.0096974838024963105204134805603644053917 1.0282036162611964957847021651105023920536 -0.3041847457461261949873687626677565276623 0.0517368447864340191832965842877456452698 2.0321649777506132217297363240504637360573 0.3347472851687691708377769828075543045998 1.0497748736980667683127421696553938090801 0.5790226000846344645012209184642415493727 -1.3801731301103901117244276974815875291824 -0.9284084616585625004958615136274602264166 -0.2946135612414996218788587611925322562456 1.3132041608776605645658719367929734289646 -1.2857174584834156760848600242752581834793 1.0984128627971434521981564103043638169765 -0.4483825396557465370328543485811678692698 0.0847117630834237911319206659754854626954 0.5632694684355350478455193297122605144978 -1.9941909473588366186191933593363501131535 -0.3847413662418674440424126714788144454360 -0.7286526797276028366567857119662221521139 -2.1897351369898316875151067506521940231323 -0.0207289966783545803741262147923407610506 -2.2883432943600676701123575185192748904228 -0.1806579502500366973816170457212137989700 0.2123532790458980412662270964574418030679 -0.0082842014522965905232165795268883812241 -0.5065567415588464461606577060592826455832 -1.0073183560311200768211392642115242779255 -0.9580372040239193420774199694278649985790 1.1860435716561206209718193349544890224934 -1.1019700898745952155621807833085767924786 -0.1604393213015775365715143152556265704334 -0.7965015263479842122507079693605192005634 0.6059310203870530431302654505998361855745 -0.9295256053874740853615321611869148910046 -0.6126296415401945028023078521073330193758 0.5518534847409070076551529382413718849421
-1.2911915739606729669475271293777041137218 -0.0624474520047758122065495456354256020859 0.1038173212088612656911479348309512715787 1.2777204173363856387624082344700582325459 -2.2427475766083588837318529840558767318726 0.3755745907435552588538030249765142798424 1.1160200389025283218558115549967624247074 1.3319132264061390724663169748964719474316 -1.8302583196090138617506681839586235582829 -0.6391592979206626168320326542016118764877 0.1531958665406775443873499398250714875758 1.3345103208202619970990099318441934883595 1.5396184332168096897675013678963296115398 0.4891206314972713631306078241323120892048 -1.3298344187904804769573274825233966112137 1.5555640169804088035476752338581718504429 1.2665441529033445444696326376288197934628 -0.0183675712338769586695619295824144501239 0.6375733191917765108058802070445381104946 -0.1745599201682505874355655350882443599403 -1.2322280224516573010618003536364994943142 -0.9470154462735987932475723027891945093870 -0.1052338693291130222728924081820878200233 0.3986568295725498867199121377780102193356 -2.5774269320580129871700592048000544309616 0.0470342602273871035478691737807821482420 -2.0478832373169604252893805096391588449478 -0.0373526143340966038097761270364571828395 -0.7338845634938778728084685099020134657621 0.6774058922127996762441171085811220109463 -0.5796612468136991269673785609484184533358 -0.5050014802368478772365278928191401064396 -0.9191894994983240696484472209704108536243 -0.1752356876355578851889305269651231355965 -1.8618897865665178237293275742558762431145 -0.2542780880787744446358544792019529268146 0.9841997827914601426613216972327791154385 0.1971477504255751966866228030994534492493 -0.3212498960787480983825048497237730771303 0.7203884872809340755850371351698413491249 -1.6826696017693316687058313618763349950314 -0.4170882172704694634823852084082318469882 0.1610508323069362868196208182780537754297 0.1311667722526106694136416308538173325360 0.7405477233544393023123575403587892651558 0.8124211020845572006621182481467258185148 -1.3514662865924069734546719701029360294342 0.2180760687436363309821274469868512824178 0.6599656818138983638277750287670642137527 1.1798444330793906864585096627706661820412 -0.6144880890691225561184296566352713853121 -0.7299332610294220202717951906379312276840 -2.3595151141465473543235020770225673913956 0.0298663102875143700309923389113464509137 0.1964242266554891147567474263269104994833 0.3403739924866309718431978126318426802754 -1.3294596838665959648295711303944699466228 1.3761213379433219206049443528172560036182 -0.2265955585903418612048199065611697733402 -0.5157195189718787320387605177529621869326 0.2988970221731098719786245965224225074053 0.1483123488771620201998047150482307188213 -0.6902275675382235631261096386879216879606 1.0021771840401225706074228583020158112049 -1.0176844722487701222490841246326453983784 0.4681124743785831099351923967333277687430 -1.5851197529858966905891293208696879446507 0.8858167043280662511506307055242359638214 0.9293545291043738831859855054062791168690 0.4127988878007062822916850564070045948029 0.0715894176890989053507752259974949993193 -0.7898043348097361082693623757222667336464 1.4743630640316529589739502625889144837856 -1.3411258664273120189136534463614225387573 -0.3404873123818510927129921128653222694993 1.2481427817055343876262440971913747489452 -1.2977433803180591365133977888035587966442 1.0000687449483918189940823140204884111881 -0.8286744545069694156680384367064107209444 0.4681555567828021291454376751062227413058 -0.2593908406366637331430524682218674570322 -0.8670371251553987690385838504880666732788 -1.1640501479955920327569174332893453538418 -2.5946762679153634323370170022826641798019 0.4688386185090473445846726008312543854117 -0.7019703692457948118743615850689820945263 -0.1116663459682857850729931215028045699000 0.9467723539366330598454624123405665159225 0.0909711759489778837295403945972793735564 -0.5464022401916061033588789541681762784719 -0.1984203698692229012046084335452178493142 -0.0692317031226042239877571660144894849509 -0.4003540619474936779198515068856067955494 1.6071517125454057861588808009400963783264 0.4466418241333324212760658156184945255518 0.7078671657564175045962429067003540694714 -1.7097840523693419445550034652114845812321 -1.4646617747905563700072661958984099328518 0.7307461011726927857523605780443176627159 2.2178640768095481128341361909406259655952 -0.8885634411846785596367226389702409505844 -2.1850342052904192513551606680266559123993 -0.6973674415483509525515160021313931792974 2.7297302903255142858540693850954994559288 -0.1881687362579962941033784318278776481748 -0.2686743970700435912846160135813988745213 2.1710941638400793607388550299219787120819 -0.1706195362191925135597614371363306418061 0.1010671566237549418021401947953563649207 0.4234065301600157260608625620079692453146 -1.0500783935408835034763797011692076921463 0.2898438226228194358746748093835776671767 1.2317621347669147624515062489081174135208 0.8991269011785637532696568996470887213945 -0.1063179931141712553088751747054629959166 0.2299423065381309416732591444088029675186 -1.9463093923434973131492142783827148377895 -1.3968781971582189260772111083497293293476 0.5551938573927430731203003233531489968300 0.6322440473972518182321778112964238971472 0.3565374852311272158011945521138841286302 -0.3452915692174092776589588993374491110444 -2.6130250963936818564548048016149550676346 -0.0089786797664560928644572612711272086017 -0.6364156310656454706986551173031330108643 0.2200839369607540951800928041848237626255 -1.4290703382099358975665381876751780509949 1.2142054842203060527339175678207539021969 -0.6374716243475171406629442572011612355709 -1.6400567913053953894575442973291501402855 -1.2873016295028458788607395035796798765659 0.8237105848912861238986238276993390172720 0.5149840439111457168763763547758571803570 -0.7976659136786590220680182028445415198803 -0.1204971692320644660600947872808319516480 -1.5827012821328325653524871086119674146175 1.6720282323051520734225050546228885650635 0.5108790431418287480980211512360256165266 -0.2363662495826764631257077553527778945863 0.9472583103552424388382746656134258955717 1.2304938805252751965468860362307168543339 -1.1052563679369198368362958717625588178635 -0.7944427432793399468380357575369998812675 -2.9640226873878066093936922698048874735832 -0.0242889997687668092452017987170620472170 -0.0773772352491797349438584774361515883356 1.9809027228177940038733595429221168160439 -1.5478955738821513765657300609746016561985 -0.4976414586775796955464556958759203553200 2.2903145716927708619436998560559004545212 -1.8297763925690098130161231892998330295086 1.6425905666344156053071401402121409773827 -0.1823257359181069958697918309553642757237 0.0211695614683748319084788391819529351778 -1.3571159953391678243406204273924231529236 0.9111468935260590429336957640771288424730 0.4859668504887509898892972159956116229296 1.0633878828910379166217126112314872443676 0.8813439749562419489592457466642372310162 -0.2159977171844263688083032093345536850393 -1.0376231391035797280153474275721237063408 0.9433016431111029831413361534941941499710 1.4118183738884562128390598445548675954342 1.6335510160901718368364754496724344789982 1.7771803709389208947300176077987998723984 0.9634964529055878301733173429965972900391 -1.9945765686138490213608065459993667900562 -0.6793237911047401711428506132506299763918 -0.1852140823363389865452433014070265926421 -0.3706374704865772473638685369223821908236 -1.4448600862396847599455895760911516845226 1.2775838572442033136411509985919110476971 1.2088107306244435523723268488538451492786 0.3508666585863017273183572797279339283705 0.8136235047570506973002579798048827797174 0.1959691497821561823045044548052828758955 -1.8650946475241267918931953317951411008835 1.3334753823180895970779147319262847304344 0.1218881983143055708351809585110459011048 -0.3924913731540454753243807317630853503942 -0.0786138076487025300176370024018979165703 -0.4521510159500239378616015528677962720394 1.1133233829881712395604154153261333703995 -0.4421709854303051967505666652868967503309 1.7818191996490735373726010948303155601025 -1.3598660751773745669623849607887677848339 -0.4248135041681436741001220980251673609018 -1.0716092977414872766672715442837215960026 -0.0742375435324574145523612855868123006076 -2.9445912872101209778463726252084597945213 0.4870902071547204004176023772743064910173 -1.3666122708456220902206723621929995715618 -0.0879327678360065784213261963486729655415 0.7094371747642128633870584053511265665293 0.9353009419723440354133003893366549164057 0.2113055187599307549461968847026582807302 0.0693952316001796298827741793502354994416 -0.8761050258019237313433791314309928566217 0.4091292937779991700786297315062256529927 -0.4817036267691161555148937623016536235809 0.9495823765004809402512364613357931375504 -1.1506328401200498490197787759825587272644 1.5514710629318289036859823681879788637161 0.2135941030376391214229414572400855831802 0.0556611312250474207785622127175884088501 2.4995784387690189731756618130020797252655 -0.6707498575735808543640814605168998241425 0.8248934734274782076823839815915562212467 0.2912830444486427805550476932694436982274 1.3310269753731147623909691901644691824913 -0.5747775744275833709195921983337029814720 -1.0494825692361673397101640148321166634560 -1.6156492969764950640154665961745195090771 0.8906456003142118049709097249433398246765 2.4158023570092823639754442410776391625404 -0.1820237437028542903938443942024605348706 0.5994396667408311563107758956903126090765 2.1785071007109522156497405376285314559937 0.3471250719558792718899553619849029928446 -0.0306871634079304879405558637017747969367 0.3771986967898970921631018882180796936154 3.1359163481991090272060773713747039437294 0.2778540501796800676892473802581662312150 0.4299811349574832464170981438655871897936 0.8211440272661976180756937537807971239090 -0.5346459950861541798872167419176548719406 -0.5878815331674605015876977631705813109875 -1.0282518052588858203932886681286618113518 0.1117124764553076160522593340829189401120 -0.2768585266390548027537477082660188898444 0.0809597128218721151515779865803779102862 0.4197162855330531794351145435939542949200 -1.4602105190311196469821197752025909721851 0.5231362513688898596697640641650650650263 1.5643889237971466688037480707862414419651 1.1612133135290452212728951053577475249767 0.7980969785549979489402971921663265675306 1.7162813485614663022715831175446510314941 -0.2717103254162451242414988428208744153380 -0.0432274472383336813563481371147645404562 -1.1072585677854223096261421233066357672215 -1.6426676874754511104015364253427833318710 1.4190856188517444458341287827352061867714 -1.7024903045269597079425238916883245110512 2.1172236412410576633646996924653649330139 1.8002561120138553807379366844543255865574 0.0891412922024556741984468999362434260547 0.5930559465181769462915895019250456243753 0.6018284747839317549988891187240369617939 0.5557389455898735786121278579230420291424 1.2689838509610207317734875687165185809135 0.4775402899490046038089019475592067465186 1.1420452745716704878731206918018870055676 1.1933081078070149061431948211975395679474 0.7582051903540913961876412940910086035728 0.8325917095182092664273909576877485960722 2.5162119251281334086911556369159370660782 -0.7170095299937551125424306519562378525734 0.9244641110095144220792917622020468115807 -1.6430554192164401605680268403375521302223 -0.1621321340627499274500422643541241995990 1.0498790097904195928180115515715442597866 -0.2710886373769820778534267446957528591156 0.7339329583990608085741769173182547092438 -0.8288855407100441663459378105471841990948 0.8372250173894588698431107331998646259308 -0.6727338696999863865144675401097629219294 0.0787830085451546036079406576391193084419 0.9785332378093649641215279189054854214191 -3.3388086179843963208213608595542609691620 -0.9649280480986277552801766432821750640869 1.0779634312916102079071833941270597279072 -0.4765532663238007948791619128314778208733 0.5661928172199912623341333528514951467514 0.7659952885312842907339359044271986931562 -1.6079881378525899826570366712985560297966 0.8419024572519754334720687438675668090582 -0.3211984261154070541266492000431753695011 -0.9700886452768102685695339459925889968872 0.4229608638402272413614468860032502561808 0.0959588924984306756993390763454954139888 0.5594484231785680217186040863452944904566 -0.6471367895916385615251442686712834984064 0.5875978136320852973639716765319462865591 -0.3773735021578257242680365379783324897289 0.5925746325910477008136467702570371329784 0.9188531404724112894299992149171885102987 1.5325098187132040195024273998569697141647 -1.6102346475500703970595850478275679051876 1.8711704557984401020576115115545690059662 0.4423493438098123342605560992524260655046 -0.6005301358634840269701271608937531709671 -0.2743041601958721709131339139275951310992 0.5799223342753579979458322668506298214197 -2.3064175282938439437430133693851530551910 -0.5990922615906575376953924205736257135868 0.4696096247790748079431466521782567724586 -0.2513995919096905784506645886722253635526 0.8440991980057924726210671906301286071539 -1.9120759924877788193953165318816900253296 0.7819025435567890092158904735697433352470 1.5655976125463857417940971572534181177616 0.1657162931923419624258286830809083767235 -2.8847210674101160243765207269461825489998 0.8495567066041905812667778263858053833246 -0.2358190950949294872884820506442338228226 0.7044878298745820277559914757148362696171 0.0326274393361091416543295906649291282520 0.0998806670961626952287559788601356558502 0.0682506614021380908496894335257820785046 -1.3001725533212253882453524056472815573215 -2.0686101528086506817771805799566209316254
0.0075155258550369686415537628931815561373 1.6619481096947159581844744025147520005703 0.0825952754720803428156727932218927890062 -0.7029736651683817783009544655214995145798 2.9056728482347327080503873730776831507683 0.1122344969913618706325308949089958332479 1.1351970610783856940884106734301894903183 -1.7376077462752177460458824498346075415611 0.2171080769722592840320629647976602427661 -1.4229122190794749602815727484994567930698 0.5539659323382247757550089772848878055811 0.1891365374346102579128370280159288085997 0.2358611719477826385027441347119747661054 -0.7567391735928947760214668960543349385262 -1.2438852893781584540988660592120140790939 -1.4217524918064485817126296751666814088821 -1.3285014389166920345530797931132838129997 1.1612977826987154195137463830178603529930 0.5729601203325724867454482591710984706879 -0.1599678318066583004863900896452832967043 -0.6562400147146407736187256887205876410007 -0.4170646119694310649528290468879276886582 0.3981025921006601797635937600716715678573 0.4278847142867439612423652306461008265615 0.0951800989553702875278773376521712634712 1.1362536760351744646868610288947820663452 0.6717931311358020796120626982883550226688 -2.2690092865897963925192470924230292439461 -0.2163389763810068255889262900382163934410 0.5719510651719792448943735507782548666000 1.6420017589362445598055728623876348137856 -0.4239788207264549857455904202652163803577 -0.6332912691286267659052100498229265213013 -0.1835803400974939381118389292169013060629 0.8384885775596429002831655452609993517399 -0.4810877741238456795080935535224853083491 0.6722532944577029878630014536611270159483 -0.3687621603882203502600134470412740483880 -0.5733067864893263143599710929265711456537 0.1577871175891157884407789424585644155741 1.7247872547765150663678923592669889330864 -1.2854411810978894070700562224374152719975 0.8211435810755729480803211117745377123356 1.5318893961254622659851065691327676177025 1.9349687532112849197574178106151521205902 -1.6695888566228531679769275797298178076744 2.0886665559545516401840359321795403957367 -0.0466204098016039097940321767055138479918 -0.3339427944874684972553779971349285915494 0.3664823098145436053307832935388432815671 -0.5211712063603071154460621983162127435207 -0.0637614809530673148918467063595016952604 -1.0475590973368658076481096941279247403145 0.8236208918128983258455377836071420460939 0.9503752626333786812651283071318175643682 0.2122752282766646458878057046604226343334 -0.0152531865028920909921339443826582282782 -0.3731631834488670085292483236116822808981 -0.1500007683985503659229721051815431565046 -2.5112075443666790341978867218131199479103 -2.3329480880819284394078749755863100290298 1.7806812921064427701622889799182303249836 0.6289840089548484058923349948599934577942 -0.5763022359519789361570474284235388040543 3.4224054186510683983613034797599539160728 1.5832082031599625793205632362514734268188 1.2467293798784089275955011544283479452133 0.1617133257207088725682098129254882223904 -1.5820931685655610365870415989775210618973 -0.3522379046671616498187518118356820195913 -0.8433675505425808349713179268292151391506 0.4025558891825393170726954394922358915210 -0.3518377604948560444242389166902285069227 0.4352559775345430925774792285665171220899 0.4280949672547544326839386030769674107432 1.6286690620531201201259818844846449792385 -0.5683492767261701938963369684643112123013 -0.4822680089681246617949739174946444109082 0.3245169544796857596935524270520545542240 -1.6232448764048101885748565109679475426674 -1.8622052223681029303747891390230506658554 1.9102427563199892990297712458414025604725 0.8273977375382777221801688938285224139690 0.0522857527048527573332314943854726152495 1.3353660167601324459951683820690959692001 1.8367711505867305721295679177273996174335 2.7498988169275571102900812547886744141579 -1.4766375184625002425775619485648348927498 0.9957965567998380285175130666175391525030 -1.1638658098128307205598730433848686516285 -0.9146118175044164466669371904572471976280 0.4310979385538112329534499167493777349591 -0.3676733842681268460417243204574333503842 -1.3875416497237538226983133426983840763569 -1.4735917990799676235980086858035065233707 0.6950303740803871477282882551662623882294 -2.0691578956043046311208399856695905327797 1.7573732660875061029059907014016062021255 -1.0669192005988026306084748284774832427502 0.7571659838280513366015611609327606856823 -0.3763511421737670281650878223445033654571 -0.0072920429524055445022479027272765961243 1.0199578261814783441963072618818841874599 1.0537057164005136922213523575919680297375 1.1532583437852792496158826907048933207989 0.4698480797703000200193912405666196718812 -0.1963147591782963274908979656174778938293 -1.2178185115893094270234087161952629685402 -0.9758221481516136108780301583465188741684 0.4997824622856558707262308871577261015773 0.1690045311613430356612042260167072527111 -2.7395714170659970498888924339553341269493 1.5848056318057146540922985877841711044312 -0.8962534918441406039946173223142977803946 -0.7217830751422384949478328053373843431473 -1.2836560504498497614633834018604829907417 -1.0139848086406288985017454251646995544434 1.4835976700022399654699256643652915954590 1.2984499035716501325055105553474277257919 0.8003088001429591313851119593891780823469 -0.3881266657731079483539815555559471249580 0.7008863845208676002229708501545246690512 0.0032643157984847985184084784293645498110 -1.6167989536599949307316137492307461798191 -2.8455278336644100889429864764679223299026 -2.0561208958725925022292813082458451390266 -0.8731905122207604952322412827925290912390 0.5901104189019241719194042161689139902592 0.9519202586172862412539075194217730313540 -1.0671038601635614018192654839367605745792 0.5767624342682141636018400276952888816595 -0.1171784374407757872704749502190679777414 -0.1242259181378257554273503160402469802648 -1.0524629337975452969544676307123154401779 0.7317636782300586117955276677093934267759 -1.1590967844820943000172519532497972249985 -1.9356884776323015628918255970347672700882 -0.2291890462840382725051568968410720117390 0.6238344968453557459753255898249335587025 0.3141342029456849482826896746701095253229 1.2349366471499274577894311732961796224117 -0.3255164982092031977778390228195348754525 0.3526811232696789866203346264228457584977 -1.0863269360593492685040928336093202233315 0.5895917003667335842820307334477547556162 1.4063993345707495041807533198152668774128 -1.2314832692519206425174616015283390879631 -1.7046850024980084725712004001252353191376 -1.5789114043237340023750903128529898822308 -0.2452576055061033155624272694694809615612 -2.4447561622539955017430202133255079388618 -1.1902369999896533769856432627420872449875 0.5033682017699013799827412185550201684237 -1.0769830190631919375476854838780127465725 -0.1595592416518395728619594819974736310542 -1.1838171962387404878569441279978491365910 0.6607613552434404846636084585043136030436 -0.0859588652238554018492067143597523681819 -1.6357590350132371614932935699471272528172 -1.9058598152024079919186760889715515077114 -2.1598528379350958594784515298670157790184 -0.2165468122197568290321356698768795467913 -0.7790831845851874382091750703693833202124 -1.7056295949987387849944298068294301629066 -0.6086387189720140478144116968906018882990 0.7287987982920796081742764727096073329449 -1.2600974094809842540598765481263399124146 -1.3817174304852000155108271428616717457771 0.8275621358681203298957029801385942846537 0.9264993066662244869391429347160737961531 0.5238970990056961429814919029013253748417 1.1582825682199553440909767232369631528854 0.1332885841390197834144260013999883085489 0.8196426437540695886241337575484067201614 -0.4532855296869167660567256916692713275552 0.2307280679331008554910908969759475439787 1.2220122571303031477896183787379413843155 -0.1843786959492331178900315080682048574090 -1.6483089622084743375296511658234521746635 0.1278922906971303452561272706589079461992 -0.7714506503894623667960672719345893710852 -0.4579783003473894553714274024969199672341 0.5546663060088591334917396125092636793852 0.4413671429820988367787037987000076100230 -0.4439260224830431367237792983360122889280 -0.0986062231628415941653287291046581231058 0.4120002475818036469235039476188831031322 -0.8216549780314046369511515877093188464642 -0.8681566677171675960877905708912294358015 -0.0564737491755500919943244753085309639573 0.3500074180048008409826820752641651779413 -1.3743109010552285731421306991251185536385 -0.5579882126975339584618041044450365006924 0.5164026838723519974294617895793635398149 0.6762853956335327376692134748736862093210 -0.9478786219929253853422324027633294463158 -0.3269090030187098983027738086093449965119 -0.8750886209041488505988581891870126128197 0.6658637161759158873408637191460002213717 0.7055402252527636086654183600330725312233 0.5027517938446426359888619117555208504200 -0.2120645818007527994009109306716709397733 1.1840135157124127562866533480701036751270 -1.7762508331662045790722004312556236982346 -0.2209495878468845653230800962774083018303 -1.3941734547669384358670185974915511906147 -1.7975877123128889412129183256183750927448 0.6629167257344948938069251198612619191408 0.7301238972820813799557981838006526231766 -0.4059380191839045970425559062277898192406 0.3102058720680902492716768392710946500301 -1.0347292146068589602236897917464375495911 -0.6528561685900975408713975411956198513508 0.4413601209262283942003080028371186926961 -1.7334379627548943680892534757731482386589 -1.5526989968165927358256794832414016127586 0.6978456742719979510880534689931664615870 0.1795988847469222882136108410122687928379 -0.5844984485779314287157149010454304516315 -0.4170595879057895083441565020621055737138 -0.1203606166121872628194111598531890194863 -0.8103224312749298663405284059990663081408 0.0593474577706767092433182142485748045146 1.8510136065685758310905839607585221529007 -0.3428619332121449203576446507213404402137 -0.8818362486433537483776490262243896722794 0.5803227027086265144006915761565323919058 -0.7794035198202901026931499472993891686201 -0.0900582689139171610470668838388519361615 1.3559382516266098583912480535218492150307 -0.0448733661626455615500930207417695783079 1.0280282252028274392330331465927883982658 -0.5766417037605917617071327185840345919132 -0.5096935838236374971543796164041850715876 1.1904007080146954411503656956483609974384 -0.3742276316923803247682656092365505173802 -0.1848540429946292640295268938643857836723 -0.6296873080980304182574514015868771821260 1.0256148709324002243903350972686894237995 -0.2318810026419849401602135685607208870351 0.7908793407820730037016687674622517079115 0.7670232390944999867343767618876881897449 -1.2392699189899483158683324290905147790909 -0.8592411281298906189363151497673243284225 0.0793313717607540269671773103254963643849 0.2583900065808484303175873719737865030766 1.2409517093340838300719042308628559112549 -0.4108357051494602174557257967535406351089 0.7526427123338984559453024303365964442492 0.7933051447127362765243674402881879359484 1.0276278315237841187723688562982715666294 -2.4352913533024893588674331112997606396675 -0.1279305383999805867389909508347045630217 -1.7596240093111548130622168173431418836117 0.2917960935596536908853693148557795211673 -0.4881934134196186936271999456948833540082 -1.0271060038717922946460703315096907317638 -1.6230610792492408123166569566819816827774 -0.3347020690777693929796043903479585424066 -0.5840210738533512246917211996333207935095 0.7111703357737921837866679197759367525578 -0.9839946971831947664099971007090061903000 -0.9463794489090171513367977240704931318760 0.1659746700128052199207928651958354748785 0.0851447732097514314864028506235626991838 -0.3805049458616178159608978148753521963954 -0.4348101260011266733229717829090077430010 -0.4736781680893114021557721571298316121101 0.0693781760735375091497800781326077412814 -0.7089820636663456410175854216504376381636 0.4298796184256795660516559109964873641729 0.3515353773817067040141637335182167589664 -0.4516331839903554024040488457103492692113 -2.3900010897289649669517075381008908152580 0.8536295033830294531895788168185390532017 -0.2035735431903180348012227796061779372394 0.1913783139616737627441978020215174183249 -0.7757599603247319342003152087272610515356 0.7377271125528935824533505183353554457426 1.1908860322800223219275039809872396290302 -1.8631622701901147109992962214164435863495 -0.5175747739452857265618490600900258868933 -1.4291980645444375408459336540545336902142 -0.2403160659443522584322039392645820043981 0.2410853660822867561286386717256391420960 0.2089915830072267277639497251584543846548 1.9996274469095443038213488762266933917999 0.8745032361545781451894754354725591838360 0.7506219101036685215078136934607755392790 1.0733163730277648362232412182493135333061 0.1560239262600294218863439255073899403214 0.9993978599615990221494143952440936118364 2.5648934758478088014044260489754378795624 1.6168737024937520629919163184240460395813 -0.1112744869346518339359164428969961591065 -0.5443315690477483759224242021446116268635 -1.1946427883020467319852286891546100378036 -0.7101647963300259380758916449849493801594 0.1319731349023499922257229854949400760233 -0.4670362817156129553453070002433378249407 -1.8377475665603253407454076295834966003895 1.1437239638227525428959552300511859357357 -1.2975810038479249630682943461579270660877 -1.7307754451831038888798275365843437612057 2.0500107857416689505214435484958812594414 -1.4228968247700692906221320299664512276649 -1.4336568658001973552984509296948090195656 -0.3153338939020026154835818488209042698145 0.0150820505608444937334366997561119205784 0.3297521140987866306026887741609243676066 -0.9278684142762341213739318845910020172596 -0.2079090690012089515104065640116459690034
-0.6027279970726879820830390599439851939678 0.9561084474738563709905747600714676082134 0.9577497581445677532485660776728764176369 -1.2480016721201756535464255648548714816570 -1.4910462006406262069901913491776213049889 -2.5113296247453229526058748888317495584488 -1.7682087726957305129360520368209108710289 -0.1628141489808997977029036974272457882762 -0.2816338521443992881643225700827315449715 -1.6955290232245339154815155779942870140076 -0.4725889608760678872734217748075025156140 1.1409917848043209520625396180548705160618 -0.3172232075850838217689897646778263151646 -0.7463128745538111230573008469946216791868 0.1769446070204005461157237277802778407931 -0.5237819050155485545161582194850780069828 0.2121294995523466120346256502671167254448 0.1122601374925833034312816494093567598611 1.4672875684748774016696870603482238948345 1.0165737712588471808317081013228744268417 -0.9392002561165702090306695026811212301254 0.3332322036530524500541616816917667165399 -2.7031989509333778087807331758085638284683 0.9017474384999427661213644569215830415487 0.5660976638002247485204065924335736781359 0.9992609953676666600941302931460086256266 0.0243297117321225227215553132964487303980 -0.2787014172093112973627171413681935518980 0.0966645121168505233599788084575266111642 0.0063560067403069112415558983286700822646 0.1749699747965927643100769728334853425622 1.2270805658846830610286815499421209096909 0.3522656949840902718129598270024871453643 -0.9965400839438468549857930156576912850142 -0.9205880799722602203516430563468020409346 -1.4933150640837546951900094427401199936867 0.0621402054873515172217501856266608228907 -0.9817262017903793935857947872136719524860 0.4641167584618538510810026309627573937178 -0.0588114987896402180433952366911398712546 -0.1820859947838366632577589143693330697715 1.5861154142635296437902070465497672557831 0.4414583540814024931187020683864830061793 1.3740759452682638208642629251698963344097 0.9062678893297559934438822892843745648861 -0.3890909896916392440857634937856346368790 -0.2140907360455798769116597668471513316035 0.7339803834886429179107381060020998120308 -0.9358885980496658429927947508986108005047 -0.0400676913713043647558009752174257300794 -1.4714815719296994167564207600662484765053 -0.6625647029900458839790644560707733035088 2.2714098320227389393721750820986926555634 -1.1076975973121914176289237730088643729687 1.2287829947752615389333641360281035304070 -1.4678493216503727403221546410350129008293 0.1776120400456212833351088420386076904833 2.7552984176599415455655162077164277434349 0.0055308846459653287705449109523669903865 1.4507853687291660804703496978618204593658 -1.0858823544000353322758201102260500192642 -0.4247208528270184357822358833800535649061 0.0137126233134824936088502767006502836011 0.4519120703259845162058638834423618391156 -1.7936854433923647977877635639742948114872 0.3740751797574684567315728145331377163529 -0.3332384080619922861465909136313712224364 -1.7628917938757211469891217348049394786358 -0.5630929462079619085557169455569237470627 1.4215012490552318968894951467518694698811 -0.4538884448997078657761505837697768583894 0.1738516940408895705694192201917758211493 -0.9453337333991318480741483654128387570381 0.4048817034347229615320884477114304900169 0.1433827889071870864690083635650807991624 0.5448334382108999118798919880646280944347 -1.1944145542670683290964461775729432702065 -1.3591864174278998067535439986386336386204 0.0051335639252803565157901033444431959651 0.2608652213170941092101884350995533168316 2.7750105091757593100965095800347626209259 1.1729403182157716045708184537943452596664 0.9432443243055850246037152828648686408997 0.0156841149206962959805622404019231908023 0.2140758276089660960828098268393659964204 -2.3340598037816580045955561217851936817169 0.0999319469589472902937288267821713816375 -2.2269383865682939038777021778514608740807 -1.8147343906445496664048278034897521138191 1.0544908995310209309792526255478151142597 0.4944783565222507504266502564860275015235 -0.8833701514387019004814760592125821858644 0.1423411866067846587302625493975938297808 0.9832549686208488237681990540295373648405 0.5391243008706679828989649649884086102247 1.1924774431320963596903084180667065083981 -0.3667513663786975963709835468762321397662 1.3226470183233602906369696938781999051571 -2.4565577804422762397962287650443613529205 -0.4503815455533108913499518166645430028439 1.2625840118755733421096465463051572442055 0.1280676593086531311893594420325825922191 -1.1004699086970204380264704013825394213200 0.5182899948031759462807599447842221707106 1.1495450644198383916005923310876823961735 1.6696079345016583417304900649469345808029 -0.5699555379367398089129892468918114900589 -0.3054700531746719627257391493913019075990 2.0439884346523458091837710526306182146072 0.5505076797710369840288535669969860464334 0.8312676909898399912890454288572072982788 -2.9315037794610843135956201876979321241379 1.9947452498045947777427500113844871520996 0.3454139086760097399064761702902615070343 -2.7071524358626057882304394297534599900246 -2.1831778906698899866967167326947674155235 0.2071274048203254058986289010135806165636 0.1919435937966053051795256578770931810141 0.2764793515979461213660783869272563606501 0.6399641921862546656285530843888409435749 -0.0240511666281088831720325060814502649009 -0.2493717693315256889174946763887419365346 -0.0373493383503461992556360371509072137997 0.0785722378990876962889799983713601250201 2.3724423139051036280022799473954364657402 -0.0712619004914562120811538648013083729893 0.3651207104842115747089792421320453286171 0.5355211011088449879480322124436497688293 -2.1399586913084913675220377626828849315643 1.3677760271441479211773639690363779664040 0.2403261114621005334335279712831834331155 1.1971927095863492684912898766924627125263 -0.3958238086773360753234385356336133554578 -2.3322897564754847543611049331957474350929 -1.4136994037088377318411858141189441084862 -0.5826196475638889538117837219033390283585 -0.3524899044799054692589379556011408567429 -2.3538345896753116726074495090870186686516 -1.8780068530332061360610396150150336325169 -1.1536243228446370068240867112763226032257 1.6901914881171407056825728432158939540386 -2.3169999529429907703104163374518975615501 1.6497196913250882222001791888033039867878 -0.7019545808797239550003155272861476987600 -0.9952516701738488569262131022696848958731 -2.8592821896230247169512495020171627402306 -1.4359963459741387215018448841874487698078 -0.9507678921658626602919639481115154922009 -0.3470420909942036336026660592324333265424 -0.0030334372253732408419857335957203758880 -0.0184146466124875084202638930719331256114 1.3088658932639156695643123384797945618629 1.3387781378292642475713591920793987810612 1.1891946246410369791846051157335750758648 -2.1814543681909097649906925653340294957161 -0.8053837505314699329872496491589117795229 1.3876717292303963890987006379873491823673 -0.4612701987200351627649297370226122438908 -0.3774546409096641852443099196534603834152 -0.6703458181644936786369726178236305713654 0.8515708688165551931703589616518002003431 0.0218551140901794005433345091660157777369 1.0303925124709041316606317195692099630833 -2.3298395399158264851280364382546395063400 0.9365121456612013339793065824778750538826 -0.6440098584721428709443102889053989201784 0.9862614482176220720432979760516900569201 0.1359972326376390205915356546029215678573 0.0875338402117500774535230334549851249903 -1.8525568192359407326819109584903344511986 0.6121085443639545653482514353527221828699 -1.3349411792295073908576341636944562196732 1.1653798699828716856075061514275148510933 -1.0185818357923557275768189356313087046146 -0.1203974894541958995386465858246083371341 1.3022806671915896359337239118758589029312 -1.5043424416865662784914547955850139260292 0.7566627995857010402502851320605259388685 -1.7541773814337684456177157699130475521088 -0.4875507385842045571244796065002446994185 0.0819718825525618810523553747771074995399 0.1974126905288027256091254457714967429638 0.0157871561008519380175929569531945162453 0.6406312038260688623836358601693063974380 1.4706096984083643075535974276135675609112 2.1162991315776391587633042945526540279388 0.3444612913361896344710544326517265290022 -0.7996701985961899294963473039388190954924 0.8704897703825827948165283487469423562288 0.2702792185820904746762494141876231878996 -1.2962405743253806456039001204771921038628 -2.4611747617553598743711518181953579187393 -0.0186953466308048266153463146110880188644 -0.1389941735026128388774679933703737333417 -0.6020190811202025260584491661575157195330 -1.4099505620423815610564588496345095336437 -1.8312388193142610237629241964896209537983 0.2295816274500843134909189302561571821570 0.3096349078310533520230762860592221841216 -1.0282173223307202736265253406600095331669 1.1918720299324714329003427337738685309887 -1.4231138935123155420114926528185606002808 -0.5936942854500678601326058014819864183664 0.4589919855791680380896480073715792968869 1.0598141942036407581184676018892787396908 -0.2659603923450505891246109513303963467479 -0.5728728763275746649341613192518707364798 0.3636169005067713677625818036176497116685 0.8282180680428158359163148816151078790426 -0.9986317627142957675800971628632396459579 -0.5160302250118720124305582430679351091385 1.5821321628821682914178836654173210263252 0.5794853375407478246472692262614145874977 0.8083384322095501506311165940132923424244 -0.4858227162652772879170015585259534418583 -2.1174271035975436028309104585787281394005 1.1081656586485868487557127082254737615585 -1.7386756207400022589126820093952119350433 -1.1966582374750591721834780400968156754971 1.6900827462465104478184230174520052969456 -1.1263867736233126315426034125266596674919 0.7622272235894251846133329308941029012203 1.2369551061844390460464637726545333862305 0.0124371326653799005312883707574656000361 -0.5301148931627694960155849912553094327450 0.0157505428912286422893362924924076651223 -1.5806465174582804422698245616629719734192 0.2245643595405290293687272651368402875960 0.0735753403466798405752058442885754629970 0.1435264699611872585283123271437943913043 -0.7363791706425045768824588776624295860529 -0.3199109040083578103796924096968723461032 -0.2060686726357401910014743862120667472482 1.2904306330017696335943355734343640506268 1.6795128041041091915275274004670791327953 0.8960806451631584401695818087318912148476 -0.1357984641974240291872888519719708710909 -1.0443164537730402763315851188963279128075 1.2062686474987001084002713469089940190315 -1.7398544098819495040686433640075847506523 0.6079146003015337695885023094888310879469 1.0471533160112278526554518975899554789066 -0.7470193788678924917689982976298779249191 0.2021263598566200025974382015192531980574 0.0790545527565810063341800173475348856300 0.7234758744309152111995331324578728526831 0.3987139981216424322596481033542659133673 0.0615155472029938893419043210997187998146 -0.7258622011155301256835059575678315013647 0.6622458209388162320152559914276935160160 1.4062809142454824051782225069473497569561 0.4456985723982630487327583068690728396177 -0.8967677884838785029586460950667969882488 0.2115591961314039759489702419159584678710 -0.4990520846334179916325979320390615612268 0.0667384913794202561110324722903897054493 1.0097630960413856993085346402949653565884 0.7196861348711541817024794909229967743158 0.3230237103833237255479104987898608669639 -0.6430493267295095405344795835844706743956 1.1326880717290384037454487042850814759731 0.9218671242411984323439355648588389158249 -0.8608517984016964552651529629656579345465 -0.3584427270117453434572496462351409718394 0.4268035986618154975502648085239343345165 -1.5613091443218636289458345345337875187397 -2.0746099932915456065529724583029747009277 -0.7720782533849183115748360251018311828375 1.1588467831678608277456987707410007715225 0.1447488830634493794935480082131107337773 1.4034257023333442937484960566507652401924 -1.9592690593890098593732318477123044431210 -1.6519450338303165448650133839691989123821 1.2177406602479348141088166812551207840443 -0.6222039572902688941979931769310496747494 1.0591801390102653090963258364354260265827 -0.9864387841589734584601956157712265849113 -0.6543100719155924283043646028090734034777 -1.2869366247172773221052466396940872073174 -0.0002601942572211298626561060132189595606 -0.6884258327822103673554465785855427384377 -0.0535494878919613101486696393749298295006 2.4758188693970750726691676391055807471275 0.1377621695542966817615848640343756414950 -1.0562214072075437609754544610041193664074 0.4253344203280144397716355797456344589591 -0.8265256872956761036164152756100520491600 -0.2107026133889831343015686115904827602208 0.3153441622860372883785373687715036794543 -2.2728927189771646055760356830433011054993 0.2857515952974534756414470848540076985955 -1.0040343415843004937215710015152581036091 0.7045550215480145261892630514921620488167 -1.8388322581191287596880101773422211408615 0.1437170377734353354792773416193085722625 -0.0456573220584579331227104148638318292797 -0.8309638614868676276259407131874468177557 1.0054049064415162551000548774027265608311 -0.2601387903686051550344870975095545873046 -0.7693627372348091908449418951931875199080 -1.7961940355476626596242795130820013582706 -0.0689595478905677267134066710241313558072 -0.2905251575571576871936940733576193451881 -0.0791493342994540327595132112037390470505 0.7082988461746129171814345681923441588879 -2.0000804594709538086760858277557417750359 0.0576702511080364327300529225794889498502 -0.1270179340581628901762911709738546051085 -0.7194350297955426354334917959931772202253 1.2749966222222515188633451543864794075489 0.4802745770298313954249636026361258700490 0.0491975067963884779564942562046780949458
