0.1297416435485969909979786507392418570817 1.5540395534998836524209764320403337478638 0.8283500854884475739225990764680318534374 0.4157928609217264592778917631221702322364 1.6097462734993446265008287809905596077442 1.8235827230903955964436136127915233373642 -0.1062638390696517415312527532478270586580 -0.5922311571274899710815020625886972993612 0.4223535453468685307854002530802972614765 -1.6756053629381915115459378284867852926254 -1.0584888612495659820922355720540508627892 1.4711093121335849787101324182003736495972 0.3940101195899541886014105784852290526032 -0.8027223795508056092273818649118766188622 -0.2016533016226521313196684559443383477628 -0.2544568311575720054307225836964789777994 -0.0584990167577925310182784812695899745449 0.7206935900042614751015435103909112513065 -0.0613878235669617841607781372204044600949 -1.8794148163460260292367820511572062969208 1.2886739391605950277863712472026236355305 -1.7689299678018235439935779140796512365341 -0.4036349600078986132878355874709086492658 0.8219958164956255863842216058401390910149 -0.9528765542239924224432456867361906915903 1.2473906540151937782923141639912500977516 1.7625610274257723641966322247753851115704 -0.8179206547325782450386100208561401814222 -0.3207684460095051592887216429517138749361 -1.2109846412125224723865812848089262843132 -2.1382888181187644782710322033381089568138 -1.1753471993424311481390986955375410616398 0.9926874633748621334916606429032981395721 -0.4688970922517402550866449928435031324625 1.6361378900152625526231986441416665911674 -0.4517746259464310298881173366680741310120 -0.7342417852217525409130871594243217259645 1.1837426624616416148683128994889557361603 -0.4338055542763522565152811694133561104536 -0.2466812453679943784035089038297883234918 -0.7210055713625214135475971488631330430508 -0.9465985813799987491634624348080251365900 0.9033109557452781990249945920368190854788 -0.4225863521601935235416647174133686348796 0.7530024390360380293074626933957915753126 -0.5530028951072584186832159502955619245768 0.7680441338095188585910477740981150418520 -1.4206669509220670732929647783748805522919 -1.3211912268415166860080489641404710710049 0.6215100087385044824728197454533074051142 0.3166598749015389069327852666901890188456 -0.3221910091722173241635118756676092743874 -1.7216430064592789239696912773069925606251 -0.8722799865580317391078324362752027809620 -0.3020745123194077952355485194857465103269 0.4250047408148038829978077046689577400684 1.4856981173346026636750139005016535520554 -0.3635955790709681778594131174031645059586 -0.1491962212873634008314382981552626006305 0.3321610867613686290944485790532780811191 -0.3884120630843935217946238935837754979730 1.5397758049622747300588798680109903216362 1.1506469922587967413818432760308496654034 0.0138465749436166383340429675286031852011 0.6887544626738771880170020267541985958815 -0.3429381419223800908646637708443449810147 -0.2784875435705972956945686291874153539538 -0.9172521794228304381491057029052171856165 1.3492699462081121364320779321133159101009 1.4765363223969172334903987575671635568142 0.5811291278198755794193175461259670555592 -2.4488818885479806120031298632966354489326 0.6057530641417430139483712991932407021523 -0.4966367842634483165120684589055599644780 1.2736444324328877186758290918078273534775 0.2705944655921099228912396483792690560222 -0.8570312098646233334164890038664452731609 0.3945868005186324301014622051297919824719 -2.2269093224887250848098574351752176880836 0.3108241275407279680109695618739351630211 1.9757227052870260930461654425016604363918 0.8717249536199980219919325463706627488136 2.0655161870301728122001350129721686244011 -0.8304868333228776489107758607133291661739 0.5634501912101470555427340514142997562885 1.9233306492647601615431085519958287477493 -0.3034322841586624130982841052173171192408 -1.8684469497786682090634258202044293284416 0.6741386986911609424666380618873517960310 -0.9085593964414852008459888565994333475828 -0.1737196082901059368541751837256015278399 0.3384263827744144470521803214069223031402 0.2119746607734666610234341987961670383811 -1.4546139448866775012447760673239827156067 1.5594559658446232042194878886220976710320 2.8128334754886203938895050669088959693909 -0.2504839377546276280028791916265618056059 0.5704471168611090492461812573310453444719 -0.7237158309272919698429404888884164392948 -0.7103160129961396673792251021950505673885 2.2371154178245031829419531277380883693695 0.4577606528669455610014438207144849002361 -0.4557602247191838151785248101077741011977 -0.6691994525001642157846504233020823448896 -1.3185248759664998097207444516243413090706 -1.0658527298972486629935474411468021571636 -0.3321946754747697183596244485670467838645 0.4839932222266322137116389967559371143579 -1.8060879186071621127496200642781332135201 -1.1455872424245103768924991527455858886242 1.2318955770366468716048302667331881821156 -1.3328656068803541590028771679499186575413 1.1772299473819094473014956747647374868393 1.2099657214931383020228850000421516597271 -0.6652069576275925211206185849732719361782 0.3926187672946101492321702153276419267058 0.5074391211670439272296562194242142140865 0.5879011907710692819151176990999374538660 1.5696762685024450156845432502450421452522 -0.2453521638154372852547169259196380153298 1.0425428314625264647474978119134902954102 0.3692072992538352749214425330137601122260 0.3935416370438657440722352021111873909831 -1.1576042283424441414751981938024982810020 1.9892894320141405462010197879862971603870 -0.2379218275336850429990676047964370809495 1.4028290299622885317631926227477379143238 -1.3946948046896967543517575904843397438526 2.3781685110561139318008372356416657567024 -1.2429979906662889099777657975209876894951 0.0190076554492873833757116130982467439026 0.1995373598106320589540274568207678385079 -2.5363700104788624578588951408164575695992 0.0671322983973314246775032643199665471911 -0.6183136223528566954854568393784575164318 -1.4784929850519923366647390139405615627766 1.9010657202540852672711935156257823109627 0.5703693505181000045212158511276356875896 1.2149473242387125448971119112684391438961 -0.7172547015555957861110414341965224593878 -0.4507006593259199611622989323223009705544 -1.1794044177498022030192714737495407462120 1.0846604660686933740976201079320162534714 0.1259286963846859008775425081694265827537 -0.6605285970857702748659789904195349663496 1.1051105281850235328988674154970794916153 -0.2781417115395396488786161626194370910525 -1.4481005047246977568420334137044847011566 0.4174299594074167840673794671602081507444 -1.1074860956456535898695392461377196013927
-2.0750812450391964425477908662287518382072 -0.7852505316921339906244270423485431820154 0.3256575810650234603649266773572890087962 -0.0069191638791702330182897817678622232052 -0.4292528160234165834907571479561738669872 -0.8195276426466376884505393718427512794733 -1.1872174369872803278980200047953985631466 -1.3534439291145596850896026808186434209347 -2.0620483718211564116984391148434951901436 0.1829335591276645411884516079226159490645 0.0520935869840900150906648491400119382888 -1.2356511026023899724179955228464677929878 -0.0633343686492576912749896678178629372269 -0.6959233579071302244756225263699889183044 -0.5654690418812432506356913108902517706156 -2.5212897869955708252120984980138018727303 -0.7671339397325747100353510177228599786758 1.7151302676513999756480188807472586631775 0.5950245328976221381722666592395398765802 -1.2453807598221950936334678772254846990108 -0.0097107251759656447454016614528882200830 0.5413033480370763594891059256042353808880 -0.1648782951161965326658531694192788563669 0.5013727079192155100528793809644412249327 -1.7717208305541969348695374719682149589062 -0.6381686940660840079431181948166340589523 1.7044185135623155513684423567610792815685 0.1523905628742889262206006151245674118400 -0.3612253186719864284093262085661990568042 1.2273658174898192108059902238892391324043 -0.5384229673471911947757462257868610322475 -1.3382510393012225780040580502827651798725 -1.3795771308448372405308646193589083850384 -0.3397534273880361554986961891700047999620 1.4482735699615263413875254627782851457596 0.0352659000507407199842546674517507199198 -0.3263704908150332761884726551215862855315 0.1433098926693396890641452046111226081848 -1.2783954634354293133924329595174640417099 0.0123552986230686372842724196630115329754 -0.0189330950676405672383761924493228434585 -0.6968930848406881262135925680922809988260 1.0188391611235521061473718873457983136177 0.9235947785640145069052664439368527382612 0.7119992929419439731120178294077049940825 -2.6408980306626212986031987384194508194923 0.1145644764138348675741596593979920726269 -0.7764667121783698222614589212753344327211 0.3054939357400058286273747398809064179659 -0.0119950509717134789350323487155947077554 0.5600390854003799434579491389740724116564 -1.9908983639555359879125262523302808403969 -0.6927704948628198300397684761264827102423 -0.8811919129688371432607141287007834762335 -1.7680219957512406381283653900027275085449 -1.4485521283200863962292714859358966350555 -0.1072221725028360272968797062276280485094 0.5569632646131188469240669292048551142216 2.1815908827960845961513314250623807311058 0.4392850365820210600809048173687187954783 -0.0689523352166848541022758922736102249473 0.0431976934347755511800492911334004020318 -2.1453715066346807915920180676039308309555 -1.1712914207996329984950989455683156847954 -1.4053965355306523576928157126531004905701 -0.4571581734626801174492527479742420837283 -1.2466704055241075721482957305852323770523 0.3851731061915159570752109630120685324073 -0.4916472211836697692177722274209372699261 1.1340224419134825595278925902675837278366 -0.5345891318248562340542662241205107420683 -0.8703127801706249666580106350011192262173 1.0848258270605766195870955925784073770046 0.2696095184089265517357603130221832543612 -0.0307487459643317577462351408712493139319 -1.4141133832782888379853147853282280266285 0.3620663445984221850970641298772534355521 -0.1379719953609061522392664755898294970393 0.9735521016044468289862834353698417544365 -0.4735266458274202117095796893408987671137 1.8248453745583763652149400513735599815845 -1.0515873456724744716694885937613435089588 -2.3379892025661574983530499594053253531456 -0.1230285145543142388824264799040975049138 0.4925097207305401680876855152746429666877 0.6742472639298656700290734988811891525984 -1.0303280964024572607939944646204821765423 -1.6342936809630197458886868844274431467056 0.2618328260313820265992035274393856525421 -0.5918127406380192523371874813165049999952 -1.2996243720946303312757663661614060401917 -0.4855584699615647648052174645272316411138 -2.6206739485239545217609702376648783683777 0.3890178989711624013558832757553318515420 0.3779976637643862602544686524197459220886 -1.3706814852068498478132596574141643941402 0.1056056274016748119937147976088454015553 1.3788490351659195010114444812643341720104 0.6822741485791009585781807800231035798788 -0.8141650553903059250870910545927472412586 -0.2052456053132923341486559820623369887471 0.7699099677001443042811956729565281420946 0.0226214234506232590715679720005937269889 -0.4634334881081463297647360377595759928226 -0.1786324269330413494483167369253351353109 0.5673548210543467584798804637102875858545 -0.6027729709103010202753125668095890432596 0.1320307384446531284716286336333723738790 -0.9577382262369689147618601055000908672810 -1.9260230399441098381174697351525537669659 2.1294539415913233959543049422791227698326 -0.3683421952632628948443027638859348371625 0.3525436168459926133955661953223170712590 0.1134921844037298233054400498076574876904 -0.7007575204481821806723473855527117848396 -0.6775356238813251552599581373215187340975 0.8907419501468093470109010922897141426802 -1.0831543376262955380440189401269890367985 1.9398613079038413697929854606627486646175 0.7778807969475208805576471604581456631422 0.4872907462239506881651607272942783311009 -0.8633449836097220053687806284870021045208 0.7557434073359945436720863654045388102531 -0.2820962460958036932545667241356568410993 0.5129926009077669935010135304764844477177 -0.4668327743849551292321109485783381387591 1.5043822692683961328441455407300963997841 -0.2351763253590497815270765613604453392327 0.3451712584793916738234997865220066159964 1.6864018077329196998448423983063548803329 -0.3265852746556983654535599725932115688920 -0.4720240284096226535126561429933644831181 0.5486314885165552990287096690735779702663 0.0458052714618562492598918822750420076773 2.7499330170509375115273087430978193879128 -1.1440091448334750445781082817120477557182 0.8707193496204118643433389479469042271376 -0.4992089291101467485312070948566542938352 0.0241234223265694332216657613798815873452 -0.5517839324177848947527991185779683291912 -0.4395679084656784474383073302306002005935 -0.7532577212340572092585944119491614401340 -1.1589441443787735774861857862561009824276 2.6190891336174937364944526052568107843399 0.0154106472062101127612487871942903439049 1.1183171363815029852872839910560287535191 -1.4517715621363529443499373883241787552834 0.1290584600020841243850355795075302012265 1.0315793348155231079488203249638900160789 0.2704760532928767724492047364037716761231
-0.6081152301882449817682640968996565788984 0.4975753951333553026792344553541624918580 0.5479784805953482607066007403773255646229 0.3402506158400854241463662219757679849863 -1.7143470834133480718008968324284069240093 -0.8603084259177257164807883782486896961927 -0.7971103062704670838556353373860474675894 -2.1876057020847898826332311728037893772125 -0.5105443589123628278514388512121513485909 -1.3745739312103884000038078738725744187832 -0.7256569839628774776230102361296303570271 1.1102213792351789400925099471351131796837 -0.0427700096233932444689251894942572107539 0.4387988435817225529866902888898039236665 1.3575873061045091727550016003078781068325 -0.1362695245166799240532640169476508162916 -0.9178429203137119518629560843692161142826 -0.6590054190454097682305700800498016178608 0.8046621008919082607135919715801719576120 -0.4229769026067627946119387161161284893751 0.3201499176133068558236516309989383444190 -1.3863900732137934834753423274378292262554 1.3229079275724298092598019138677045702934 -0.0091148798674986000745157355140690924600 1.7170537805764602978797483956441283226013 0.0047256242612850659495782323915591405239 -0.0829216985420690999575299429125152528286 -1.7000761010557843277979372942354530096054 0.1522493245197273081803501781905652023852 -1.4744890731741184808356592839118093252182 -0.4612568267399618782143022599484538659453 -1.6933650687852599414640053510083816945553 1.5664539629761284889042372014955617487431 0.6269507254533123186135412652220111340284 1.3240496962161010241487701932783238589764 0.0882085938341159447872996679507195949554 0.0968823654771642089889027715798874851316 -1.2892079476385496228374449856346473097801 0.9266763819653329736780733583145774900913 0.3519814582540558012269116261450108140707 -2.2613919844401908498809916636673733592033 -0.2714163076184111789146413684647995978594 0.9108373008784019786432395449082832783461 -1.5206815381004887832716576667735353112221 -2.6893871022757744881914732104633003473282 -0.5070971447964063294477909948909655213356 -0.3175393196099087211869971270061796531081 0.4148302692538698432933585991122527047992 -0.3134691497279782912421808305225567892194 -0.9180962417361427929662909264152403920889 0.1140741245564262373868302802293328568339 -0.9838640544191618042546565447992179542780 0.3838600226796387016037215289543382823467 -1.9360094981085864684899888743530027568340 0.0422119610497442704355464115906215738505 -0.8728879720807967146356531884521245956421 -0.3896823762674090918523006621398963034153 0.0590789721165213277398464697398594580591 1.8111753108172390369645654573105275630951 0.0690778070389925641370254538742301519960 -1.1053438635023389302602936368202790617943 -0.5805835080609369480697523613343946635723 -0.2597648095246828381377213190717156976461 -0.4494931452724991172154034302366198971868 -0.1453658201181279863156703413551440462470 2.2944979509661340699722131830640137195587 -1.4907199240164636933059227885678410530090 -0.1197186968254177752424283198706689290702 -0.4670991038391499872162171413947362452745 -0.8267630752785329883991494170913938432932 -1.7096167797560095635844845674000680446625 -0.4131850718629225815980987590592121705413 -1.9206770370440311435089597580372355878353 0.9655551585453646668000260433473158627748 0.3025177094367741403857507975772023200989 0.1121525260178596050675281503572477959096 -1.5594066702582205508065271715167909860611 0.7502205634666925249121050001122057437897 -0.4098732667164951548599560737784486263990 -0.7031690256771491176479571549862157553434 1.3501296710700232406310306032537482678890 -0.9508597436507958411411323140782769769430 1.1306960811908308706108527985634282231331 2.1977251688634287241086440189974382519722 2.4629462710844141071220292360521852970123 1.4498522809250173892792190599720925092697 0.2756886399132762455188583317067241296172 -1.8943245816343132759129730402491986751556 -0.3926632910721731817282886822795262560248 0.5576337499227406180324351225863210856915 1.0917642848863182702956464709131978452206 0.7889892995790681595735804876312613487244 -1.4399266078028758464313341391971334815025 0.5348003813117859772674478335829917341471 1.5688650695081751695880711849895305931568 1.2781335524491892474685528213740326464176 0.0301083995175852638104263547802474931814 1.7599994389914539461017284338595345616341 -2.8829534608385798399865507235517725348473 0.4859328136880305959444115160295041278005 -0.0249336142636770938252332996398763498291 -1.3482025936967680923572743267868645489216 -0.7374855026363263954536364508385304361582 -0.3295924857227958137961820739292306825519 0.7133011095015900915328188602870795875788 -0.4013070169655647001505371918028686195612 -0.0079559546027685237867821399504464352503 1.2106322940142690836040628710179589688778 0.8409203366051607453357519261771813035011 1.0661907162358514877809056997648440301418 -1.8129107350843998158751446680980734527111 -0.2221974415050917417424614086485235020518 -0.3694765133523542077753631929226685315371 0.8358953982900250156973243065294809639454 0.6469881798791506932744255209399852901697 1.3320479079879341544057069768314249813557 1.2484514377180564448366340002394281327724 1.7667323277128608172148460653261281549931 -0.4389071878633150070037061141192680224776 -0.8285949412603558217327304191712755709887 -1.0107915935292450804183772561373189091682 0.1043611940116553893354023330175550654531 0.3994668779422977378246173429943155497313 -0.0626137453395579773873791395999433007091 -0.1467212907911337738120494122995296493173 0.0244434690001159998784530102966527920216 0.4279594982114300893982772322488017380238 -1.1162354769742839355473051909939385950565 1.1930655550827629074461810887441970407963 -0.8066875473636456739257027948042377829552 -0.6798042321979202995407831622287631034851 0.7250801399850484996179034169472288340330 -0.9108567550619189878702286478073801845312 0.9418877478024424432234695814258884638548 -0.9061371794434766036019368584675248712301 2.4009913098811503928686761355493217706680 0.7557114397573528874474391159310471266508 -1.8159582299111860503870730099151842296124 0.1349409503045496117046297968045109882951 0.1668961806609691456149136001840815879405 -0.1581183502394117590394984063095762394369 1.8255470760869887403288203131523914635181 0.6956810772588792879389529844047501683235 0.6727968354041784504460110838408581912518 -0.3355819562378068443564416156732477247715 -0.8747480468237407436049579700920730829239 -0.1313778772791430460298300886279321275651 0.7656996193248126747477044773404486477375 -0.2702182356007915564610755154717480763793 1.1637983489776966283812953406595624983311
0.6424251902475771602851750685658771544695 -0.1409794517999248264494838167593115940690 -1.4120580343142437040881986831664107739925 0.1195471780614904139250498360524943564087 0.9092610765982472864621399821771774441004 2.4611146508491681395014438749058172106743 -0.2421792404294965672661987809988204389811 -0.9772121362831743818233576348575297743082 0.7037857360383633631428779153793584555387 0.3427817872681782063182254205457866191864 -0.2667908573366420399430865018075564876199 -1.7971653449261035806472364129149354994297 -0.9212106259280814501977374675334431231022 -0.3266033978393120817962369528686394914985 -0.1826956239348541122247127077571349218488 -1.0910042910153610051793293678201735019684 -1.1615735628869696682841095025651156902313 0.1789756608795830539193616459670010954142 -0.2444783452625159114734998411222477443516 0.6472826330939700500977096453425474464893 0.2589572729097615599869186553405597805977 -2.0352628072878249376742587628541514277458 0.9379568299106451068070100518525578081608 -1.1540417123746180561028040756355039775372 0.5653496547757730361638550675706937909126 1.1223752903810764181002923578489571809769 0.7615824186742965462570964518818072974682 0.0936413470044708678985401206773531157523 0.3269448673147122286231081034202361479402 1.8881024995519792852860518905799835920334 -2.0901666834400156602669085259549319744110 -1.4345129196463772824898796898196451365948 0.2831335088260886756472700653830543160439 0.9772662985240455624236233234114479273558 -0.4331579189829448672810485732043161988258 -0.2343664707514045708602878903548116795719 -0.3877209415901917699542877926432993263006 0.8651124955143476569219274097122251987457 -0.2673717830666237915693272952921688556671 1.2700573398257066770611345418728888034821 -0.1013650030362052978372133793527609668672 0.9287755768187953009373813983984291553497 0.2913332223809384502466457433911273255944 0.0581239734583541486911961726491426816210 -3.5151941777600193006492190761491656303406 -0.7952873813690640725226899121480528265238 -0.5462777599280566054318342139595188200474 1.4978952521915398499174898461205884814262 0.6570973962261914547156038679531775414944 0.6850777674525295735108443295757751911879 0.8589707965070191297840551669651176780462 -0.6452918176306704500788669065514113754034 0.6207825521117182887564922566525638103485 -0.3122473084817636856946876378060551360250 -1.7453302592159440909114209716790355741978 1.4304104719689294533679913001833483576775 0.7996903166523281480948526223073713481426 1.2847416433529776913502473689732141792774 0.4895446899330995749188844001764664426446 0.3104698604693926222708455497922841459513 -1.6246040798358687418101453658891841769218 -0.6274039238243508398440440032572951167822 -0.0351907590448328061460969706786272581667 -1.3124868092777786099389913943014107644558 1.7905927838603199475642213656101375818253 0.1263291764757830115684100746875628829002 -0.4862854091564313141482500668644206598401 -0.2351330816160431547157116938251419924200 0.5864297500940862661877872596960514783859 -0.2800440867531297506332066404866054654121 -0.5723324424991522718642045219894498586655 0.2963695191890800550993390061194077134132 -0.3599835916847522465644715339294634759426 1.9718058355618670596243191539542749524117 -1.6668048608307954872032041748752817511559 -0.7476952284501289236473553501127753406763 0.3300815398776797415791861567413434386253 -0.2604831881469089616132350784027948975563 0.5831658035852040899982284827274270355701 -1.1028960244293377623847618451691232621670 -1.9989818114821706895867237108177505433559 1.4317112180049291758621166081866249442101 1.4364626521350074561667042871704325079918 -0.5461535636692527173607913937303237617016 -0.0184584765331670605514879923703119857237 -0.3868725399540723919322715573798632249236 0.3954115814859021083016443753876956179738 -1.3213356891613796673112801727256737649441 1.3480047899665903443633396818768233060837 -0.0126225296767634529576662671956910344306 -1.3164333608016187682210329512599855661392 -1.0026479871711959646063405671156942844391 -1.0123699272744657307043780747335404157639 0.5060392970396460077253664167074020951986 -1.6419102848467368449547620912198908627033 0.8075547185171689790195159730501472949982 0.9984507375233285797477833511948119848967 0.1717535854759095204080665553192375227809 0.7329285258779916212290572730125859379768 -0.9549750836596947456413886357040610164404 0.1822748087509009073947652268543606624007 -0.3348470262170657463229872519150376319885 -1.4013482834801807008773266716161742806435 -1.5893351697159574520412661513546481728554 -0.7453646238669422441347478525131009519100 0.5596550503115442776191912344074808061123 0.4120019623088888582884692368679679930210 -0.4685704677119199579315989012684440240264 1.0270750761146822949143597725196741521358 0.4710534666548265581020871195505606010556 0.0125535728343622830782688737372154719196 0.8435683327506583450983157490554731339216 0.7165884429902223962116636357677634805441 -0.0826469995944211360816566980247444007546 0.5956177923250252081999178699334152042866 -0.7285026124494833332789767155190929770470 0.6118791304027662025788458777242340147495 -0.3434122982522501144053705957048805430532 -1.4070173218385684243969535600626841187477 -0.6896389391081071407185731914069037884474 0.2616584239434801006929376399057218804955 -1.3040090104055956921058623265707865357399 0.4660376142937009413813598257547710090876 -0.2859346993654576229992869684792822226882 0.1217673015443361261844756882055662572384 0.4912915701930960499232980964734451845288 -0.1075070964801611572703166075370972976089 -0.0307717214929756309460540109057546942495 0.3778189272567263889968103285355027765036 -0.3079295227745995067181183912907727062702 -0.4060888786133427519331462463014759123325 0.0793479313728107926717569853281020186841 0.9554394991887852350842535997799132019281 -3.0527615337121236649409183883108198642731 1.3006058155643298590575795969925820827484 -0.1898900740807244746921611522338935174048 0.1874171807996271865714987825413118116558 1.7710561350249003353951593453530222177505 -0.9052301226261958433383369992952793836594 0.9018768260982664708436118417012039572001 -2.0262876431090131035261947545222938060760 -0.6467431869697581880984671443002298474312 -0.4018439932571214456835662076628068462014 -2.5742038173246606369559685845160856842995 -1.1140528358818264642593476310139521956444 -0.5684900478838789128488429014396388083696 0.5280066671306374859184984416060615330935 -0.2141495962577517619962463868432678282261 -0.3915247803633843393100733010214753448963 -0.9061658725543615400255248459870927035809
-0.4066561970140584736377320496103493496776 -0.5404564005058064557474040157103445380926 0.8399015045471284190981009487586561590433 0.4018140561908112307065721324761398136616 1.8939514048516168376323776101344265043736 -1.6708430343368942949666688946308568120003 1.0719139989611319307982739701401442289352 0.1693785052745488683978436483812402002513 -0.3990539283619651822476726010791026055813 1.4217374408486525005912426422582939267159 -0.6901051368975607003264371996920090168715 -1.2916174917917446762771760404575616121292 0.0434685246094724947463205921849294099957 0.5012234301221704102502485511649865657091 0.6569008667989333360992532107047736644745 0.9402326041200129713715227808279450982809 -0.0291054162756627828045896677622295101173 -1.9601992085338102445035701748565770685673 -2.4339258670355867764101276407018303871155 -0.4561285606597531017136759601271478459239 -0.0182928425197913593902576678829063894227 -0.6822454736236784889058526459848508238792 1.4993082576457226195998373441398143768311 0.2277705122176011953705199175601592287421 0.2027676420575263982470914925215765833855 -0.4490230552491451532226562903815647587180 0.7144762904476732456870990972674917429686 0.2238162446301619479260835987588507123291 -0.2467915139679563996111255619325675070286 1.5634576450136961067727270346949808299541 -3.2358524823992573793418614513939246535301 -0.9001784001321568862152844303636811673641 -0.4153599093964784882970775470312219113111 -1.5232290320359516133663646542117930948734 -0.0216535325272199027923925029881502268836 1.2070201320979365711139053018996492028236 2.0299544620730265442887230165069922804832 -2.0444669961728516582866177486721426248550 0.8274893284963348305538488602905999869108 -0.3015535031432829971009823566419072449207 0.0434202484563638163583831897085474338382 0.0945690543198467736818457751724054105580 0.8884135313085560481383140540856402367353 -0.5080335382424964185688054385536815971136 -0.7214243598621873365672740874288138002157 0.8747289014893453451549021337996236979961 0.6896221049182191809023834139225073158741 0.3362863443073383362680317532067419961095 -0.7410282240313716961566115060122683644295 0.5340102289940773516718763858079910278320 0.1676568923427221025068689641557284630835 -1.8966862624222715627553270678617991507053 -1.9717248711149484297067147053894586861134 0.8444520162583996070182479343202430754900 -0.6359560457716113557324888461153022944927 -0.3259286095237448610539843230071710422635 0.1781667439532980401484252297450439073145 -1.6804170644770879405882624268997460603714 -0.4823462250164848308386922326462808996439 -0.4509695194407371543476870101585518568754 1.6376933634772359305031841358868405222893 0.4567802976147106175375256498227827250957 0.0082033174526051459707343127547574113123 -1.4113195231565129894590882031479850411415 1.1115214655183285330508624610956758260727 0.2263744137403249645501546183368191123009 0.4799684981131209782212465597694972530007 -2.2146439720635799908166063687531277537346 -1.7107541227525291382960404007462784647942 0.2241214149331424987376948365636053495109 -0.1106031662339875681899670212260389234871 0.2633615968551810682107827688014367595315 0.6648486959627832870722841107635758817196 -0.4834245232658112012558149217511527240276 -0.3764291474549567029228569481347221881151 -0.2342992899980988197317088861382217146456 -0.1022937495440693900228268375940388068557 -0.6461351419519087979637106400332413613796 -1.5444538722169194322475505032343789935112 -0.3663589879171554875014749086403753608465 -1.1685183447335396600408330414211377501488 -1.9450976294098285546141369195538572967052 -1.0651922765753671917821066017495468258858 -1.0789854632540720746902707105618901550770 2.5080020042279098646531565464101731777191 0.8953677508095075898708614658971782773733 0.5034748544570908368456230164156295359135 -0.7568666087740930636940106523979920893908 0.1265066760549581614814229624244035221636 -0.5438392273339857085900916899845469743013 -0.3038110503281797880603676276223268359900 -1.1610332132716651987180966898449696600437 -0.3280740479268649534283497359865577891469 0.7272540292937735850742342336161527782679 -1.0492003653583776845437114388914778828621 -0.2948208045269113952713269100058823823929 -0.2277079111117125409524675205830135382712 -0.1749013046073610577746393346387776546180 1.3609733724674613064564709929982200264931 0.6781794669077284565261720672424416989088 1.0293554776722400045940730706206522881985 -0.7519481326487371664057945963577367365360 1.0218259093661321568191624464816413819790 -0.6511329258271090214549303709645755589008 0.8986203132578300944999227795051410794258 -0.6071218903014291567998839127540122717619 -0.1215013389855932185446008020335284527391 1.5653480893683116015324685577070340514183 1.4720493451824350206180724853766150772572 -0.1446637790555047597962357031065039336681 -0.9975169054395881529373468765697907656431 0.0105253015679176945701422951628956070635 1.2225120953576626980918717890745028853416 0.2126663748360596295494673313442035578191 -1.0898848433012997549695910493028350174427 -0.8856826172345469982971621902834158390760 -0.3122803112551771897997809901426080614328 0.0647144110187581611537410708479001186788 0.0069417978001164656887134185581089695916 -1.4946258842204915850970792234875261783600 -1.4733662168443497630931915409746579825878 0.7754303773849151593111628244514577090740 2.5223699114241213692366727627813816070557 -1.0835882319108556259834585944190621376038 -1.2466421490878005773339509687502868473530 0.8184616657126096983532193007704336196184 -0.4612679274269203544278639128606300801039 1.8084765310283299477589480375172570347786 1.1874183541841201172672981556388549506664 0.6697148979800792156780175901076290756464 0.0510598897772868848266014651926525402814 1.0871433556172216405855124321533367037773 -0.0447155551703618883707669340310530969873 -0.6701806372887169072072310882504098117352 -2.2276272911591652459151191578712314367294 1.5937851379210024038712845140253193676472 0.2713338600619706331151803624379681423306 0.1297252216463291030201787634723586961627 -3.0535023507713239254712789261247962713242 -0.2638664981369174267200605754624120891094 0.4219177216099283533878860907861962914467 0.2892351522980531330908604559226660057902 2.1365462876093621602535677084233611822128 3.3406762569767534110098949895473197102547 -3.3464026453800479465883199736708775162697 -0.9198178503431004848778229643357917666435 1.4308107422337879022222750791115686297417 1.4812999418080210478620983849395997822285 0.1867566485664993447546322613561642356217 -0.3906888901081789211566785979812266305089
2.4516387195952007438393138727406039834023 -0.0352964340658320982480056215990771306679 1.9021531830836861942657378676813095808029 -0.1194414800502911488955248842103173956275 -0.0011593145660968302672333418712469210732 0.8020947022189841568717838526936247944832 -1.8856209164839103920030538574792444705963 -0.5890762478552611369764235860202461481094 -1.9836634498573151308420392524567432701588 -0.1945218774027635544321412908175261691213 2.9161971861615576528947713086381554603577 0.3204021623472355084771834299317561089993 -0.7876169359640314837633923161774873733521 -1.4613198751544558273707252737949602305889 -0.5223667322335515672548922339046839624643 0.9771140399250642927242438418033998459578 0.6448291729377305658843511082523036748171 -0.7212660820938824324244365016056690365076 0.3915075105076017969452095712767913937569 0.0921872755357888568061852652135712560266 0.5529338894005132454267936736869160085917 -0.1290338706086208153678285270871128886938 -0.1073761360385276225626327573081653099507 -1.3513961888642314068675887028803117573261 0.7224125560225841402584023853705730289221 -1.0714578492581550150930524978321045637131 0.4730282837866923162373211653175530955195 -0.4945239448442877439049425447592511773109 -0.8273304187942087661866708003799431025982 -0.8098969513398772690493387926835566759109 -0.5835947006279136317630218400154262781143 -0.1781207451108081374346880920711555518210 -1.7752425766102517545874661664129234850407 -1.2729069408747373248758094632648862898350 -2.1266444737199616810130464727990329265594 2.4236474281690520982124326110351830720901 1.0016006629947662442958744577481411397457 0.8683345054761176795565802422061096876860 -0.7662577852190558536094044939090963453054 -0.1825207169108740146157288108952343463898 0.4920417891628516837698725794325582683086 0.2948410153875883898955123640917008742690 0.6086823672615775393524017999880015850067 -0.4213843836371786721883836435154080390930 0.6851659052919997217045988691097591072321 -1.4190962214353608494832315045641735196114 0.0374378603076124735760110695537150604650 0.1951343384180636020275301234505604952574 -0.3684078490029286667706287516921292990446 0.4809691882565733656029749454319244250655 0.6683958478255743740348293613351415842772 0.7835061192245713623805158931645564734936 0.2956775360769197669164043418277287855744 -0.6375383100488266618910415672871749848127 1.1226157345878511328862714435672387480736 0.1194411524099539961829563594619685318321 0.8840065233620488793775393787655048072338 0.5276143907085605322393462301988620311022 0.6745917108343224555255801533348858356476 0.3974655038907944915038683575403410941362 0.5198095898230455924604598294536117464304 -0.6101669883746874134544668777380138635635 0.0124938054016646982180560598862939514220 0.7301262017366396683826224034419283270836 0.5446176989176094718203557931701652705669 -1.2783934206802276545289487330592237412930 -1.5414473481515680308717719526612199842930 -0.2108619680508934390861242036407929845154 0.0545858506550608094110010881649941438809 -0.4034227006163965123519687949737999588251 -0.2847102818706958582417598790925694629550 1.3620568869248164123320066209998913109303 0.9186787417823464307886638380296062678099 0.4863131417992466731803347101958934217691 1.1786673472259583395072013445314951241016 -0.0180999798038544990053111405359231866896 -0.9731533818664223067784746490360703319311 -0.3629764882894477850960868181573459878564 -1.0292147157586870598322548175929114222527 -0.8843401531020613770550653498503379523754 -1.4223043074931531748461566166952252388000 1.3015802260010223001529539033072069287300 -1.9281205803226399986272099340567365288734 0.5600249427741533780888971705280710011721 -1.9324896576368146838831307832151651382446 0.2430931624920395217603896753644221462309 -0.2272436815481447547337978676296188496053 3.0446474499851001738193190249148756265640 -2.1369233962215314903687612968496978282928 -1.0801367806170167895629674603696912527084 1.0588498398381316345506775178364478051662 0.3635121662898011529740927016973728314042 -1.0975785274092246801558303559431806206703 0.0845736827750354358546047706113313324749 0.4149263565845396350972862364869797602296 -0.1946283136529065038722308145224815234542 0.1554915006126147691833949693318572826684 0.0733477615532724808167230889921484049410 0.9485447551903949392482218172517605125904 -1.4218122024478974108063766834675334393978 0.0161073457419686136282699351340852444991 0.3302841786051769479293227504967944696546 -0.7371766831111692397371371043846011161804 1.3900899444576064745149324153317138552666 0.2847548153525006897623939039476681500673 0.7713035702422204042960629521985538303852 -1.5441522129829898801745002856478095054626 0.3371972156255665376001218191959196701646 0.5124162051368287285058045199548359960318 -1.5931760741999860808704170267446897923946 -0.8846638558359055659607861343829426914454 -0.8920845294402516278964299090148415416479 -0.9850462919061522271135800110641866922379 -0.6708790077243831362352466385345906019211 -0.6466252536432812725308849621796980500221 -0.0992151544626494324985443995501555036753 -0.6857148340332755998005609399115201085806 -1.9760151577461189109641281902440823614597 1.1707868362672948503444558809860609471798 0.3116633394965154235656257242226274684072 1.2555087543663527860360318300081416964531 0.4029774549803471495046380823623621836305 -1.6261186918495178499455278142704628407955 1.3273555517009874016309822764014825224876 0.1586457743730839142770605576515663415194 0.4642312304647004395086185013497015461326 -0.2405447093005743386395778316000360064209 1.9049881894237377100154162690159864723682 -0.2299584513117436113116553997315349988639 0.2087728933714978196700684520692448131740 0.0351533924745247999821273765519435983151 -1.1361648208676011773121672376873902976513 0.6328361096483074987872896599583327770233 -1.6970487370728553067067423398839309811592 0.4728626034007727407804111408040625974536 -0.1416889883464236277177406009286642074585 -0.6455191407578398932187724312825594097376 1.9739693081281741715571342865587212145329 -0.3729532920026010778258296340936794877052 0.1847458825627674994240834394076955504715 0.1066197381807825750321683244692394509912 0.5421872695761661420377208742138464003801 -1.0477859737682679863723933522123843431473 -0.8019300993231308627429143598419614136219 0.4862269552420535601022777427715482190251 -1.3368964803552914055728706443915143609047 2.8030157090974952005524301057448610663414 0.2306274442935351554062606282968772575259 -2.0998456066287429777617035142611712217331 -1.9412426119502006471861932368483394384384
-0.2547374755776806720675153883348684757948 1.4832968231599075181748048635199666023254 -0.2028011325564811617727656312126782722771 -1.1869515217984176747023639109102077782154 -0.3078224091100547066268688922718865796924 0.3757789812897147085912763486703624948859 -0.0188013582589937992828321711158423568122 -1.5334592184855946328525533317588269710541 -0.6037169070260408609840396820800378918648 0.7287518748236095911252618861908558756113 0.6834602851923353705743124919536057859659 0.5489940857065964685546077816979959607124 2.5030786101921065345266015356173738837242 -0.5882458359732947172915373812429606914520 0.5204552086439803160189399022783618420362 -0.1315667380830345400966052693547680974007 -0.6961669290436571788660558013361878693104 -0.2662451721787625347204198078543413430452 1.5542816962219276888390595559030771255493 -1.4512632656987127788283942209091037511826 -0.0727250101694646156058610131367458961904 0.5022258747521034516481108767038676887751 -0.2342235051801489498224384533386910334229 -0.5654266739005894271130614470166619867086 -0.1822909309275206890532672332483343780041 0.8190801913286024360516535125498194247484 -1.0691328953476857410720413099625147879124 -2.7842737215863517796776704926742240786552 -0.3016643005625530005175960468477569520473 0.4472225760341115852192217516858363524079 0.3647133602757340331557145418628351762891 0.9233576835722442366360951382375787943602 -1.2049209227116317588723859444144181907177 -0.8038246749575811422872106959403026849031 1.3242662354042298300527136234450154006481 -0.1631244695332845495716611594616551883519 -0.4087868831923379131509932449262123554945 0.9895291441431880441470525511249434202909 0.7286171108830945541967594181187450885773 1.5152585821342570149283801583806052803993 -0.4711868387517136325115529871254693716764 -0.8648219161691300671535032051906455308199 0.0162755368073770542713951670066307997331 -2.4845831220764025282221609813859686255455 0.1576824568212434607428207300472422502935 -1.1610652632951408147476968224509619176388 0.3012721140672807162985691320500336587429 -0.3213955967242863032140576251549646258354 1.5593636519701352671773975089308805763721 -0.0851242214319466727889818002950050868094 -0.0074915514947944475410146480953699210659 -1.0960941013533112009525893881800584495068 -0.6339120236190908252993381211126688867807 0.3663615165498120829212780336092691868544 0.0420172995037660229611375939384743105620 1.3224106368954977597240940667688846588135 0.2108603903749184937943539353000232949853 -0.5398949711849355681536621887062210589647 -1.5766012873821575457355947946780361235142 -0.2242843738440819800761261149091296829283 -0.1988387994422071980427091375531745143235 -0.1055039213932583430644029931499972008169 0.8830926301227814967376161803258582949638 0.4253087768731928508536555000318912789226 0.3683908357106390751845026443334063515067 0.0276201327218318394562945883308202610351 0.2380445938258620719452096636814530938864 0.3342540454044147790746421833318891003728 -0.8559507139389678220808832520560827106237 -0.4125595144435990069275987934815930202603 0.8861895904576075899683473835466429591179 -1.2667672196905419568224715476389974355698 1.3736088591261044200564356287941336631775 -0.9693344577581405330235497785906773060560 -1.5220032448645179901092205909662880003452 0.5339512539212644126607187899935524910688 -0.3327277314333629831821781408507376909256 -0.8935708295932922595739000826142728328705 -0.5180516762438197586604360367346089333296 -0.6356364774090431657427302525320556014776 1.6513124339297744480603569172671996057034 1.6314016739068990524685887066880241036415 0.1420597815955374487728590793267358094454 -2.2071571795027167262048806151142343878746 1.7775873777530608599306560790864750742912 -0.5236910432565955453299011423951014876366 0.3028151198763984197626086825039237737656 -1.6106786068410148260454661794938147068024 0.0882287627208107883003407323485589586198 -2.4641981995487678425149624672485515475273 -0.5257509966262052802932203121599741280079 -1.4079334789012831752330612289370037615299 0.2681434659403685860645794036827282980084 0.5864934199608683451643287298793438822031 1.0237946594186464466247343807481229305267 0.6382601963179804771542080743529368191957 -0.7286934729202656502167201324482448399067 1.5660737988180382096459197782678529620171 0.6387062129715935787643843468686100095510 0.3853886215673518744750936093623749911785 -0.7375700022821383150528617989039048552513 -0.6672064896457873262036741834890563040972 0.4103833647414913965434379861108027398586 0.4150786688529918833090448515577008947730 -0.7444010083044969583454530948074534535408 1.7589738607060048103392091434216126799583 2.3160699305611416320971329696476459503174 -1.0033564362603770714343909276067279279232 -0.2242194297668344549201435711438534781337 1.6412748087843624933412911559571512043476 0.8058277043571078213091141151380725204945 0.6357079847601387889710622403072193264961 0.2499141286617375945500185707714990712702 0.7991352614961241274116332533594686537981 -1.6261647093605127167847967939451336860657 -1.3420662323003877958171869977377355098724 0.8935988033915557293695997032045852392912 -0.8489345020697446342339276270649861544371 -0.7326772686493562281029312543978448957205 -0.0405204406238063932765847141581616597250 -0.0605354824174003380843345212269923649728 -2.2614470586880157654263712174724787473679 0.9935599720802730239199718198506161570549 -0.8540197970877756450391871112515218555927 0.2886542340005874840436206341109937056899 0.3800253922838078279866635966754984110594 -0.1040800535276261706840728038514498621225 -0.1592944229176066484043872151232790201902 -1.7984953491350677001747726535541005432606 -1.7054466260260687793248735033557750284672 0.9978669841467849854765859163308050483465 -0.1288569314827160694481023028856725431979 0.0542812093173433846127196034103690180928 -0.1558595683825649280684899622428929433227 -1.4309404650135235659291765841771848499775 -1.5658868825923901724195275164674967527390 -0.6301414632900319556796375763951800763607 1.4448077599338979837284568930044770240784 -1.6167425418235199519045863780775107443333 -0.2715269009750338469189046008978039026260 -0.5652726103562021320314556760422419756651 -1.2339084058834730583953387395013123750687 0.3128952326462970945364361341489711776376 0.3440237547420894048677553200832335278392 -0.4652782902194614877977585365442791953683 0.3166851194832500659970264678122475743294 -0.6458538338816193213887117963167838752270 1.4737742762636862892122735502198338508606 0.2379396111202035646314811856427695602179 0.8638599117073196831384507277107331901789
0.4221025680455008366465108338161371648312 -1.7927593949002955664440150940208695828915 2.2219224327608082525387089845025911927223 -0.1859602433271138055559390522830653935671 -1.8643726505080220334775731316767632961273 0.1951334707144440627768489093796233646572 0.1420512152831848728951058546954300254583 1.5258529854240767686945901004946790635586 -0.9697401483744060302072398371819872409105 0.2760468093246361553916301545541500672698 -1.8453980756597816448305593439727090299129 -1.7654321617261365950923845957731828093529 -1.7527476093264842127439351315842941403389 -1.2525186862386261665847086987923830747604 -1.2769341661615698502174609529902227222919 -1.6130524922166844525861506554065272212029 -0.9070395155496768779812555294483900070190 2.4503953855690570051706345111597329378128 1.2929739376655078331168624572455883026123 -3.4498431298612488582477908494183793663979 2.5906108268128362759341598575701937079430 -1.4770542277053675395137588566285558044910 0.5942065409596738456698972186131868511438 2.7563673053858481765132637519855052232742 0.5450967167261945300893444255052600055933 0.8448022798768295427151997500914148986340 -2.3217078872051879478988212213153019547462 -0.9227392391274692462488360433781053870916 -0.4584233873554151572626835786650190129876 -0.5685399143924217968404377643309999257326 0.7272644576135036675879064205219037830830 -0.9490504292260585339491285594704095274210 -0.1389791061627440316161852251752861775458 0.7828757578809499850791553399176336824894 -0.6853284892342045298008201825723517686129 0.0536931067699617445287962880229315487668 1.8855779461485659975750195371801964938641 -2.0654959509643338044782012730138376355171 0.8971545288245587057573970923840533941984 -0.5310474796213644488318550429539754986763 -0.4606106539012160827617492486751871183515 -0.9658263270779583464786810509394854307175 0.0447088324673863349301150549308658810332 0.2498717522234062127228781946541857905686 -0.4285028131967990039363769483315991237760 0.7735077523570592639146070723654702305794 -0.6451383826060872461738426864030770957470 0.0255789463685951005966767723975863191299 -2.7125761797961813748258919076761230826378 -1.0430222762600387387266209771041758358479 -0.4577718597051723126156730359070934355259 1.8335068718498916950920829549431800842285 -0.0770999971368281217243279002104827668518 -0.1388345993811653522609361743889166973531 -1.7524400060739051543379218855989165604115 1.2519331252219534356129315710859373211861 0.1851667573012852341385325871669920161366 2.8840026765104975758902128291083499789238 -0.4396268449136760958495528939238283783197 -1.4401790991912977180078314631828106939793 -0.6823409508649795895962597569450736045837 0.5149411029235881898102888953872025012970 -0.9250512969025471710082797471841331571341 -1.9807925964797810092221652666921727359295 -0.0943186228389249758929935296691837720573 0.5282027709603963616658006685611326247454 0.6771365211122629679252327150607015937567 -2.0218528716814518908506670413771644234657 -1.0502915244594164256852764083305373787880 -0.3612603308893858056194403616245836019516 0.8173891883084468679143697045219596475363 -0.2494695658138869620579214370081899687648 -0.5273731688933225303372864800621755421162 -0.7250454495604011784237741267133969813585 1.1240207783371467531452481125597842037678 0.4714840907057136210056569325388409197330 0.8229090793468877285121720888128038495779 0.2082631625847732592671235352099756710231 -0.1383155304603669866203574656537966802716 -1.2557513600218772609196093981154263019562 0.7160766462351590977419846240081824362278 0.0928923111458740125012667476767092011869 -0.5740505365324592990106111756176687777042 -0.6432822406639974177622320894442964345217 -0.7747489924633912394824619696009904146194 0.3047728773887205533377198207745095714927 0.9550252689835646568994320659840013831854 -0.1849075744437634893913013911515008658171 -0.0702069218941730882610485764416807796806 0.9682998770040533997871534666046500205994 -0.1589283988308963502245063637019484303892 -2.4003067843376841850044911552686244249344 -1.3478799368574037043089219878311268985271 -1.0702448138609905736728933334234170615673 1.3037912689592523474146901207859627902508 -0.0861248276744621121814304842700948938727 -1.4222475898836075547393420492880977690220 -1.1268044000643009372453207106445915997028 0.9471027668239880847877998348849359899759 0.5371410282796672541749671836441848427057 0.8205156343484940606458621914498507976532 -0.8465220189677101769731848435185384005308 0.6293161964999886004434870301338378340006 -0.6315033106012543084872845611243974417448 0.7619812150221799695870572577405255287886 1.8267860128607589231819474662188440561295 0.1577007516370086126489269418016192503273 0.9898212611896526347265989898005500435829 -0.7697270245535724475516303755284752696753 0.0735853033408731954656545326542982365936 0.3269506835586966642104300717619480565190 2.7474411781782621666536670090863481163979 -0.4558189330080993362237506971723632887006 -0.2192420765108511471197516584652476012707 -1.8311516727908383472822606563568115234375 1.6874606528754207968034961595549248158932 -0.6500702989906442796907981573895085602999 -0.9463553556329297178351112052041571587324 -0.3036400017138077833678266870265360921621 1.1160199874588287993759649907588027417660 0.2121198510133886494521959775738650932908 0.6046941165036576748548213799949735403061 -1.1313939612102770215784630636335350573063 0.7479184232708131485622971013071946799755 0.1021241467165430460983799321184051223099 0.0571304783377163533097942149652226362377 0.7584279420790315251466040535888168960810 0.0840296697613418103189886210202530492097 -0.0644711821313053989879193750311969779432 -1.0298460674449312346467877432587556540966 0.8650507909813882623240033353795297443867 -0.8933733029285169102706731791840866208076 1.1299471938727376763011989169172011315823 -0.8876572776471539638620811274449806660414 0.4156330699649131710238236792065436020494 3.3388418221199471780380463314941152930260 -0.9568151775595931107787350811122450977564 -0.2323518695961938052008122213010210543871 -1.3375787674911949753919770955690182745457 2.0062020967838796181581528799142688512802 1.3013708547362687895088129153009504079819 -0.0559189584982444781724453264359908644110 -0.1925013941892566304847633773533743806183 1.2578259832376321725178058841265738010406 -0.2504224220370787623579644787241704761982 -0.7905644880431941246001770196016877889633 -0.9702879250291005508444186489214189350605 0.4505175936235612521585380818578414618969 -0.2693763005463294946117969175247708335519 0.0513269185890515705628089904166699852794
-0.6712573732496827094706759453401900827885 1.0174031981784965594783898268360644578934 1.1044635841558652078475688540493138134480 1.9295981529368286810921517826500348746777 -0.1367524266503667151884116037763305939734 0.6663790379883951509043527039466425776482 -0.5213443640995840677732076073880307376385 1.2632271082910591086800877747009508311749 -1.0515856874086091377051843664958141744137 1.6953138098161890656712103009340353310108 -0.7166837640049402713415815924236085265875 0.7634268467252095513586596098321024328470 -1.7991198645077619566734483669279143214226 0.0882073922490436562737770032072148751467 -0.1460025574855906005389272195316152647138 -1.1997222410256795921412731331656686961651 0.5689709880875106762232462642714381217957 -0.8676517501185179170875017007347196340561 0.4325917711594708392475183700298657640815 1.9644246061234373890158622089074924588203 0.6550718397426413819317758679972030222416 -0.9605642055799434864127306354930624365807 -1.8973819247572063506623862849664874374866 1.0796203927435727987216296241967938840389 0.3250765326963694357154111003183061257005 -0.6472136863111859206298959179548546671867 0.2306441028318579056222148437882424332201 1.0583439622866315232840861426666378974915 -0.4632071684311451775784007622860372066498 2.1322004818891562294425057189073413610458 0.5186367472107641374279296542226802557707 0.5227296548855521196585982579563278704882 0.0162153747857960335576610333419012022205 -0.5481982415666739605342172581003978848457 1.8494238843645132153170607125503011047840 1.2292936376631014017135612448328174650669 0.0742234143568161613968570122779055964202 1.3414131363014645259568169421982020139694 0.5302844515720984697182416311989072710276 -0.4665100685906550803672132587962551042438 1.4783774905824178524937906331615522503853 -0.9461086175824360289254855160834267735481 -0.1477095985809261657895063990508788265288 -0.4143403723779509051361458205064991489053 -0.4313845937088098825284987469785846769810 0.7430471822370797729817581966926809400320 -0.3708081140905429839982332396175479516387 0.4575590350755265878213151609088527038693 1.0426336768026218670968319202074781060219 -0.1941810367946934789973312263100524432957 0.8149823527528813338349777950497809797525 -0.4457092936478113109899368282640352845192 -2.0068167958352933766263959114439785480499 -0.7757642285580303997960527340183034539223 1.8852022321736090493260462608304806053638 -0.0464255413382690385049045289633795619011 0.8512729259832882977576673511066474020481 -0.9608265777332575252600577186967711895704 -1.0701640444946294294936706137377768754959 -1.6941180267438269435587017142097465693951 -2.2902331630647889681995366117917001247406 0.0643620001392488094715815805102465674281 -0.9228086860421453874181452192715369164944 -0.9823871890966027198288657018565572798252 -1.4730902182378908804594175308011472225189 0.2130633621711397751585792548212339170277 -1.0274248144680688810126412136014550924301 1.0112594562266923325921652576653286814690 2.6359903565386453294649982126429677009583 -1.3115550727768363614700319885741919279099 1.6197579602215708138857053199899382889271 1.1283415216469312447600259474711492657661 1.1994661011942944206509764626389369368553 -0.7081918495597282481313072821649257093668 -0.6911897571731604461575670939055271446705 1.4140657236676812402720315731130540370941 1.3473343894090890060510901093948632478714 0.6366689409102923580263677649782039225101 -1.1347993312585333836040035748737864196301 0.7926522445965267227308004294172860682011 0.5669380925333169507496222649933770298958 1.9202266907757032932124729995848610997200 -0.1854506811268967214623160089104203507304 0.1287051185813912479449783177187782712281 0.0683056996174374597696754563003196381032 0.8315159157161067238206442198134027421474 0.0993017994064389064590159250656142830849 0.4424747143447668729088206873711897060275 0.8104442062998075124724550732935313135386 -0.9430625621998929286604607113986276090145 0.1004547024704812441253665156182250939310 0.4701818531436737780282442145107779651880 0.2781965432642320434908356219239067286253 -0.9352943486411914308931159212079364806414 0.4163813010107239032109305298945400863886 0.2551779508686116693105816466413671150804 -0.1156965160562359873352988870465196669102 -0.4292071162203975331905780876695644110441 -0.8176480004994262085205036783008836209774 1.4616418542863338636550452065421268343925 0.4245652639758999979946452185686212033033 -0.8070137744794827483474364271387457847595 0.0473735978751761571681200280181656125933 -0.0706475747141271093187953056258265860379 -1.6895292999345052908921616108273155987263 -0.8511256624417961047512903860479127615690 2.2180502106276374085780389577848836779594 0.7510599156382031793555142940022051334381 -0.3324902852881080339564334735769079998136 -0.8093243802592275937257682016934268176556 -0.1238678242735400808482992829340219032019 0.9750379303235396921678557191626168787479 -0.5419938969776582071702364373777527362108 0.0631873792569231929050488361099269241095 0.5163461030473975865717761735140811651945 0.8611272321309210164841374535171780735254 0.7186008392232853259073976914805825799704 1.5125959263798709475423720505204983055592 0.5719398707784160151845753716770559549332 -0.3225143830308395687112010818964336067438 -1.3633705477414210793796200960059650242329 -1.1336046977967701998579741484718397259712 -0.1742577196092888192069381148030515760183 2.3297663084156421398063230299158021807671 0.6632107062979576417305338509322609752417 0.1077173299400010081372514036956999916583 -0.0980607720180620978656094166581169702113 -2.0586481954386135484469377843197435140610 -0.8936226324880703897335365581966470927000 -0.9851083263795905597959290389553643763065 1.8064421818842466560539605779922567307949 0.1016007862193960553653937495255377143621 -1.8469985954908176850608469976577907800674 0.9750984521025007900618675193982198834419 -0.3971183178593964968605689591640839353204 0.7137032933059529460351200214063283056021 0.4471822235905000830769040476297959685326 -2.0303098744165009037487834575586020946503 1.3547969186296293653271050061448477208614 0.5102838878254867260864102718187496066093 0.8175189631785489963178292782686185091734 -1.0424117096965084261483980299090035259724 -0.5263693962043545226947571791242808103561 0.0412429456608913586057596489808929618448 1.4287527048206141166986071766586974263191 -0.6666668660269235990867287000583019107580 1.1173225377507174371771725418511778116226 0.1230884604742928933873713503999169915915 -1.8160246725655013744216148552368395030499 -1.5509142686328629689995750595699064433575
-0.2239142239024035363481601734747528098524 -0.4382064273870724946391419507563114166260 -1.2501215276913208995779314136598259210587 -0.0092402869108547131676845154402144544292 1.6041259973352255396861210101633332669735 0.2478214536454629024486706612151465378702 0.1470445019419417131967264822378638200462 -0.9133044318705628716870137395744677633047 -0.0281521954172429290930157463890282087959 -0.9794698176221461327628503568121232092381 -0.5678154761143439088755258126184344291687 -1.6749505471754346785928646568208932876587 0.5856715862744646949877846964227501302958 0.7467339279593306899940330367826391011477 1.0134035914049728255292848189128562808037 -0.0837102989848681339202229878537764307112 0.6753237472951194586556766807916574180126 -1.2863889805269550503652453699032776057720 1.1735137823945538393388687836704775691032 0.5294454041456537751741961983498185873032 1.9217158224936650157133044558577239513397 -0.7089651773625288422309154157119337469339 -1.5592022027248981785874093475285917520523 -0.3363600293710546362824231891863746568561 0.1630179685614848439367818855316727422178 0.0521744533598021698050928307566209696233 0.2309241036958706028148213817985379137099 1.6910064364070922504623695203918032348156 0.6660113645642290469695012689044233411551 -0.7367402790393388078982184197229798883200 -0.6106421940407664727956671413267031311989 0.2533226529944689331408369525888701900840 -0.1594127282641597254109200321181560866535 -0.8971994388332497072369164925476070493460 -0.4583743912065830761193296893907245248556 -0.5716447327757869789621736344997771084309 1.5822706274364599643433848541462793946266 -0.4454454848752463225203257479734020307660 0.7019916567265550577658927977608982473612 -2.7179347393461412707438284996896982192993 0.9580686806108760222855380561668425798416 -1.2478068116541698451271713565802201628685 -1.9815783812226062110539714922197163105011 -0.1518479654186566940587965746090048924088 0.4570352067534116380365105669625336304307 -3.0790165965221691912745427543995901942253 -1.6815006469140667544337475192151032388210 -0.2134440927434611556812171784258680418134 -0.0192500547249236965419161293766592280008 1.4857768860934743582191686073201708495617 -2.3426174454779440381457789044361561536789 1.3538140371210147794300837631453759968281 -0.0245401099497300975715852189296128926799 -0.2831216445162046957406687397451605647802 -0.4681099454036454221572682854457525536418 0.6832204154423986430799686786485835909843 0.6093796613568052134013441900606267154217 1.4907171844666637916532181407092139124870 1.8938628834938364686735212671919725835323 -0.1242983102227121910976492813460936304182 1.0400090724154318344574221555376425385475 -2.0914119029290083595640226121759042143822 0.5165172980271274250085866697190795093775 -1.0167006676605023773873881509643979370594 1.2562668022870293604853486613137647509575 1.0215642036009664472828717407537624239922 -0.1173697752985564113359373550338204950094 1.2080434104724468991065577938570640981197 -0.2136180687772918918021503031923202797771 0.3423064366641329070439780934975715354085 1.1322885628040522121295907709281891584396 -0.2520659826391442592807834444101899862289 1.6381399264545637439738356988527812063694 1.2337346725634106281432877949555404484272 -0.4570851723076346795338054107560310512781 1.4237239185837675670143198658479377627373 0.3234921457435787628398315973754506558180 0.1672908061121747280708405014593154191971 0.9671367542215160151286568179784808307886 1.1254202094766756481192260253010317683220 0.0201798424469885641363564587891232804395 -0.9220588764973218776077601432916708290577 0.1525888191536062532538409186599892564118 0.8612871410632919610961266698723193258047 1.0802519693265049127717247756663709878922 -0.0926827107714611603261900540928763803095 0.1766196562901679867341186991325230337679 0.1852943959170996468532877088364330120385 -1.8749732190966170719548244960606098175049 -0.7362169818976030954971179198764730244875 -0.8131151677171880587380314864276442676783 0.6260117045783663014546505110047291964293 -0.0575323681389738952884904676920996280387 -0.5389246740142392688710515358252450823784 -0.4751451142578793640502965445193694904447 1.8454296222556636486444858746835961937904 1.1515752916491610591265271068550646305084 0.7746667236016905322415482260112185031176 0.2921804831265532587103450623544631525874 1.1621960664571526766764009153121151030064 -0.8077513708515601242865500353218521922827 -0.3940506072978597895684060858911834657192 -0.8673372921773081500873558979947119951248 -0.9387918153011552968578712352609727531672 -0.1990632691728505543338201277947518974543 -0.2374754832325306208584692058138898573816 0.1821576878511309838248877213118248619139 0.5132887530149443655602681246818974614143 0.5047772956949176936802814452676102519035 -1.0796391871408073104277036691200919449329 -0.1724220568061740899157285866749589331448 2.5787599119669586400505068013444542884827 0.2290032234342042893882052112530800513923 -0.2995930416461130563199333209922770038247 0.6799310444859472113421361427754163742065 0.9839858407259205463901707844343036413193 0.7813952091074601868925242342811543494463 -0.7495355896289145336552905973803717643023 1.0065470456468041948738800783758051693439 0.6753562369409146226573170679330360144377 -0.1247105025886568879789351171893940772861 -1.1689407918383070139611845661420375108719 0.1429827971691454979730195873344200663269 -1.8069593507711225743861405135248787701130 -1.0293336038983964542126159358303993940353 0.0092505666111158922626511724729425623082 0.5575905944600962893531459485529921948910 -0.2168007165740916397655979608316556550562 -0.3868585103705063366064109686703886836767 0.8954398952044473336542296237894333899021 0.7911284847029299571730120987922418862581 -0.0125565080638092192721888551432130043395 2.1057466657062238191144842858193442225456 -0.8735483588834281887258725873834919184446 0.5163067400560238384699118796561378985643 -0.7936003131270691346443868496862705796957 -0.4886724882516062518078570064972154796124 1.8410119875397621402868253426277078688145 0.1879258162663937359315724506814149208367 -1.2283889887603767210322303071734495460987 -1.3759324120652218770288754967623390257359 -1.2316797398328027668412687489762902259827 -1.1161141498472326727409154045744799077511 -0.9866958661932844210085136182897258549929 0.0001028149495833659678254573544009531361 -1.1907072020015210256360660423524677753448 -0.3227888872690695687417417047981871291995 0.0094873425991936384538139037658766028471 -0.5070008424457733697821026908059138804674 0.7312359996693181818372408997674938291311
0.9298886656723501786814267688896507024765 0.4458645977822834893800063582602888345718 -0.0807261134672435792802858145478239748627 -0.8391429083399699617729083911399357020855 -0.2152213053432346645532646789433783851564 -1.0094379263191410878164333553286269307137 0.7899557039707655325955215630528982728720 1.5971367633992621382077459202264435589314 -0.5659933803864887202905720187118276953697 -0.3529468009039197773368812249827897176147 0.9760953068860620529534344314015470445156 0.8018901271396789987022657442139461636543 1.0957625179890213562572398586780764162540 -1.8077178534711781932031726682907901704311 -1.1528598766335449443687366510857827961445 1.3670495375380282698785094908089376986027 -2.2131087085400809044699599326122552156448 1.6609043208685225767595738943782635033131 -0.5318842469060023336879794442211277782917 1.4503570711238893409245065413415431976318 0.8120840539543265901301083431462757289410 -1.1420648467383729407487180651514790952206 0.2079349483377063156908093333186116069555 -1.6743146809160620591683255042880773544312 0.4679404382975434484315258032438578084111 -0.4066868708210200633601516528869979083538 -0.8425807010004282560089450271334499120712 -0.4240617058714442610956041335157351568341 -0.5637641083686641962913199677132070064545 -1.3504382873023428324188444094033911824226 -1.3168563646920101728454710610094480216503 0.1049630205501879548490862248399935197085 1.4468364836155309660625789547339081764221 1.3063879498759209951685988926328718662262 1.0845701861663064047291982205933891236782 -0.7814212954050707704567457767552696168423 -1.1155164608053098618256626650691032409668 -0.1547733454666016250644844376438413746655 -0.7102808109345041254201191804895643144846 0.2206521636564700017402174125891178846359 -1.0493357115986863270507001288933679461479 0.6784042804863039677343294897582381963730 0.2561640456863830683786886766029056161642 -0.9715994217707070168543737054278608411551 1.6733563547666978621464295429177582263947 -0.7227177704337635066877965073217637836933 0.4560868813199643323486043300363235175610 -1.7379616273804954218462626158725470304489 1.7965737369915582011259402861469425261021 -1.2118390376337542235773980792146176099777 -1.0924147193684130563440248806728050112724 -0.4834091525205240769125225597235839813948 1.4816418612969555201885896167368628084660 1.3696432306078649698832805370329879224300 -0.6534175491828720927500739890092518180609 0.0603751279336729382296589108136686263606 -1.0381756990931476636319530371110886335373 -0.6687157918902824071949453355045989155769 1.6227723384894305880266074382234364748001 -1.8122181404299713136651917011477053165436 -0.8912100994219208649482766304572578519583 1.1919240918068041423794056754559278488159 1.6288164687189687906965218644472770392895 0.7885513351743946852678845971240662038326 -0.5734214409836487780225411370338406413794 -0.0562269486980125771102834164594241883606 -1.4828702157215689627633992131450213491917 -0.2174076510008377816074442989702220074832 0.3512689827408204679137782022735336795449 -0.3527461637777544734007051374646835029125 1.0242186427596671194351074518635869026184 -0.0405316367430565982488133158767595887184 0.6232222461970562399358186667086556553841 -0.8371609802742109307516216176736634224653 0.1521045653902309835459050191275309771299 -0.2433980859820253639380638333022943697870 0.9936127549820665816326936692348681390285 -0.7487063878357375079630742220615502446890 -0.2546054432174981174696881680574733763933 0.5775042496903068922620150260627269744873 0.4745433919630685504209566261124564334750 1.1141211172630804959737815806875005364418 -1.3285845130763140886642759141977876424789 0.6620221271154796971458722509851213544607 -0.9110820088475323208498934945964720100164 -0.7088883270216940202246291846677195280790 -1.4220512189248193379853546502999961376190 -0.4251288946995761541813863004790619015694 -0.3163353127779018891807538693683454766870 -2.0753217664714069812248453672509640455246 0.1745174918918259987510310793368262238801 2.3339706012570289317409333307296037673950 -0.2485691596742523878926789393517537973821 -0.2684417604524674261234906680329004302621 0.2168842195283224860702375735854730010033 -1.0340708105731144517136499416665174067020 -2.5538818261816107479944548686034977436066 0.5012358940739941592923401003645267337561 0.1278384712230752617845297436360851861537 1.3369778410774335597466233593877404928207 -0.7005960394537024127359359226829838007689 1.2039736595528607310257029894273728132248 0.5805118289638576678513004480919335037470 0.6968006391124248466439894400537014007568 0.6703530498046035290826694108545780181885 1.1926163870322297189119353788555599749088 -0.1143385969118297235125325528315443079919 0.3273137612928426198877218666893895715475 1.8595227658786463997842020035022869706154 -1.1515812658884883035170787479728460311890 0.4685843182013120222784152701933635398746 -1.2799688115193872395281005083234049379826 0.0923138092913406704820289405688527040184 0.2222291753361361754670610935136210173368 0.1625885817746280659346069796811207197607 -0.1836122681139335244271393321469076909125 -1.2022558131982723494957099319435656070709 0.7652255867359614160960745721240527927876 -0.7571631617545808712321786515531130135059 0.3359241397288774133578215241868747398257 -0.2546791465289877098854276482597924768925 0.3721187851433442328463740977895213291049 0.1390107847914150429602386793703772127628 0.1957805884341693170025422432445338927209 1.1563733491162038191646388440858572721481 -1.4882612628715858882344491576077416539192 -1.0458300356450864754265239753294736146927 -0.9526725187067619504688309461926110088825 -2.7120817343195011694945151248248293995857 0.4090664279469742314887525935773737728596 1.1497078812286438687095824207062833011150 -0.1879253745340803416485897514576208777726 1.2687165627792453825861684890696778893471 -2.4278102318147665172887172957416623830795 0.5843288742453615070004957487981300801039 0.3253162536382440683802030889637535437942 -0.7693085727498862880224805849138647317886 0.3352768480346979274031582463067024946213 1.3856059049866684684815254513523541390896 -1.2288435151966561331704497206374071538448 -0.5303484156024509399429689437965862452984 0.4350933465781600673061291217891266569495 -0.2761993454358712685170473832840798422694 -1.2148938931931660967222796898568049073219 0.0712310670706054055445477501962159294635 -0.5257492537100804108618490317894611507654 -1.6343279213838739494235596794169396162033 1.5715769097589962211003467018599621951580 -1.3485689526189150733159749506739899516106 -1.0037423840876309455438786244485527276993
1.8072271379730366902549576479941606521606 0.4175128323707478217308164403220871463418 0.1810938101948272871410949846904259175062 0.1384844876372365030103850358500494621694 -1.6445008982968194466423028643475845456123 -0.0434936654424486757175571938205393962562 0.1754923089955197912370721269326168112457 2.2355540367977311255742733919760212302208 0.1374150457182223006302734802375198341906 -0.0283289357503851806086014875063483486883 -1.6756291404093162089594670760561712086201 1.8407536323603534977877416167757473886013 1.0220017461621018206585631560301408171654 -0.1235503191890537644237468839492066763341 0.0306237970352736220414069379103239043616 -1.3446205800025770038530481542693451046944 2.3994274395585830639276991860242560505867 -0.7243598277920286765407809070893563330173 -0.4530430109179465203439463039103429764509 -0.2409921020110371570055463052995037287474 1.1800893986443845573575117668951861560345 0.1948536150289710278116217523347586393356 -0.0968528413373561103405506855779094621539 1.5760637800034256184034120451542548835278 0.1908033470272017528834851418650941923261 -0.1333689783461054489954733526246855035424 -1.1643872307385054742923102821805514395237 0.1808261775328795506467827181040775030851 -1.9739821156382451050603776820935308933258 -0.3016508156808567209239413386967498809099 -1.0424971676704857248552116288919933140278 -0.4302356864944838488185041569522581994534 -1.0419779358200080832119738261098973453045 0.0361561218776746198799720843908289680257 -0.0658544476449534205153568677815201226622 -1.0127700792348997005376531888032332062721 1.7361709484395095870468139764852821826935 0.1961604226286720598082524702476803213358 1.8188571909029784823275122107588686048985 -1.5751169105761766431328396720346063375473 1.2600700370484940737725310100358910858631 1.1245414125926627146867531337193213403225 0.1227464560014223382555798025350668467581 -0.6102392603663957526549665999482385814190 0.1093233849898092441277341890781826805323 1.8472805566425649637096739752450957894325 0.6287098463033423678680833290854934602976 -0.5261206493622645474772525631124153733253 -0.1265025413683286970023544881769339554012 -2.4264330901044779409403417957946658134460 0.8303286725081090446920484282600227743387 -1.0120234116490878228944438887992873787880 -0.4956437384346335517371073819958837702870 1.0414938535685756004767199556226842105389 -0.6245453182721139029354162630625069141388 -1.5749471032922444102553072298178449273109 -0.4047661333619109735870722488471074029803 0.9570580254996108315879155270522460341454 1.3469648764788910710876734810881316661835 -0.0826687451795661276676696616050321608782 -0.0609289527988175136363757644630823051557 0.7811559172417765761764485432649962604046 -0.6377243043782606646274757622450124472380 1.6671594589199332236972850296297110617161 -2.2902605481830362599282580049475654959679 -1.0175141615242000447949521912960335612297 0.2785906266406783515776623971760272979736 0.7514835953853572503291502471256535500288 0.1384098928651647797405388473634957335889 2.3528763259324212420153799030231311917305 -0.0261507116746336303048092730705320718698 0.1198479797042926175976162994629703462124 0.1549795250783233546698625104909297078848 -0.2641885227110789546856040033162571489811 -0.2499322257209868614058478897277382202446 0.1126487117888457234471388801466673612595 0.9082930142184905131230721053725574165583 -0.4252181273706847619564541673753410577774 -0.6479111827950905233564071750151924788952 -0.7912285951566668806833604321582242846489 -1.4081156458937862385738526427303440868855 0.8706203606261135874433421122375875711441 -0.5971326915644143973338486830471083521843 0.3202298831843307103106610611575888469815 0.1287525957736485315852092981003806926310 0.7570279284379237694224684673827141523361 -0.2260627941056521372775733880189363844693 -0.3692710053830162708621287492860574275255 -1.2520270484618127859732794604497030377388 -0.9058768365031074631943397434952203184366 -0.4744707079646957592622413812932791188359 0.5513692846064006669593027254450134932995 1.3702191631346700706473029640619643032551 -2.1512917139446128267366020736517384648323 0.7083884579760857391761419421527534723282 -0.5850699989469299033828519895905628800392 0.9456258649443032293646638208883814513683 -0.8382644744611350562379925577261019498110 -0.8155778775590806217721251414332073181868 -1.1721290863162068252023573222686536610126 0.1879252780693479729645645193158998154104 3.2042350128626866379022430919576436281204 -0.9947006707443483142228046745003666728735 0.0810294656105505356480378509331785608083 0.5523101650002858464816313244227785617113 -0.9368175346683130788605353700404521077871 -0.2327701839872239608641990571413771249354 0.4052899895911621364064103545388206839561 -2.4193704340456467782871641247766092419624 -0.8144025266046183153534343546198215335608 -0.1038688911082015636777597933360084425658 -1.5609658426729351443640325669548474252224 0.8455327523306007675429896153218578547239 -0.9075043668927514906030751262733247131109 -2.4242381623004507495977577491430565714836 1.0193661963901299305490510960225947201252 0.9278028496344462583422796342347282916307 -0.6539969291071644486024183606787119060755 0.5283657564478633217319725190463941544294 1.6349773890047041291495588666293770074844 0.6433153510552086506990576708631124347448 2.2291159142160812400845770753221586346626 0.0557751593100733258911994028039771365002 -0.6161444725997807791983973402238916605711 -2.6995624055818505659942729835165664553642 1.2301420834831224837557783757802098989487 0.3851955402626087154871470374928321689367 0.3742101601657741305473336979048326611519 1.2189886697017602301684746635146439075470 0.5211841393901424090984164649853482842445 0.9001170883173051917580664849083404988050 -1.9476102365788352521747128776041790843010 -0.3999370049846931451931197898375103250146 -0.7974556892135985508573980951041448861361 0.5292874659770357981258825930126477032900 1.7842896073775900145363948468002490699291 1.9076985122440603959148575086146593093872 -1.0281343753098153293024097365560010075569 0.3057595199145313191735340296872891485691 0.1608636916643009229233030055183917284012 -0.6932216298441589152901087800273671746254 -0.2688445067336181493189428692858200520277 1.6476083300918034080240204275469295680523 -1.7143090809924317330370513445814140141010 -0.3895592882174496174307876117381965741515 -0.1947455603974543314471645771845942363143 0.6225201825534769639602927782107144594193 1.5310612336317945825214792421320453286171 1.3454899246071714280503783811582252383232 -1.4017669822183833616691117640584707260132
1.6854782183308560927770258786040358245373 -1.2432535011328074148195810266770422458649 0.5915968031005987004533608342171646654606 -1.8373017565400318051871408897568471729755 0.6414718159296529664814556781493593007326 -1.3235544926592237580109667760552838444710 -1.1911233070186464377826496274792589247227 0.3710210227448782482895239809295162558556 0.5407685281615788319697912811534479260445 0.4661257921095794953814106520439963787794 -0.6199414352524179605552490102127194404602 0.3457071042210532740845962962339399382472 -0.0486787491502490982098194649552169721574 -2.4621183615641997199929846829036250710487 1.1645982038477553643929240934085100889206 -0.3547149805090025198595071742602158337831 1.3165404926235235727460803900612518191338 -0.4694887946006431334033948132855584844947 1.0037645091577644951286174546112306416035 1.6423909835840120319261359327356331050396 0.2504157489494397981211193382478086277843 0.1826449997804994451744420302929938770831 -0.8627597911534164998315077355073299258947 0.9004751925004542689734421401226427406073 -1.1277448556639160237580199463991448283195 -0.1957028858628707401745572269646800123155 0.8538363706774573236302217082993593066931 0.1757708845462783164848019623605068773031 -2.0544363313687523664441414439352229237556 -0.1209523509183420553192433999356580898166 -2.3745344207610568076916024438105523586273 0.4849963682013148646987588108459021896124 1.1353275450924511513761672176769934594631 -1.0824569940530577305537462962092831730843 0.1522268566530227962285692910882062278688 0.6375649084344895412002074408519547432661 1.1543658727159695764896696346113458275795 0.7322533627180424220526333556335885077715 0.0861941105656286454816950026724953204393 0.0085717790549444776437848503292116220109 -0.2254467608165517666929389406504924409091 1.3670336826177236222434885348775424063206 0.5249665211530021302621662471210584044456 2.1008788468005481497868913720594719052315 -1.0069477239983191108052551498985849320889 -0.1241720629106933121432732036737434100360 0.0567800737600983526642828280728281242773 0.1319080886797111551445027544104959815741 1.0012246721869890730971519587910734117031 0.8755830489385382220390852126001846045256 -0.6342135253042699982728436225443147122860 1.0869636169382947965544872204191051423550 -0.3775902546390146330423931431141681969166 1.6307867257467951738192368793534114956856 -0.8201145170606352063913391248206607997417 -0.3594720490119252542804417771549196913838 0.1910607729566504986440378388579119928181 -2.3926753423164779377430022577755153179169 0.7543455410689748896757578222604934126139 1.3771116092153887766613706844509579241276 -0.5555853641606571802213920818758197128773 1.3027802008273052791764712310396134853363 -0.3496333756352880128837057327473303303123 -1.0195103118899926375462428040918894112110 1.9599142842591272817287517682416364550591 0.7523004138410449570528726326301693916321 1.1199838094830143475633121852297335863113 0.6625196185799068215871443499054294079542 0.4947184206448712595616257203801069408655 0.7593530905647459805507537566882092505693 0.4036553010954539999488588364329189062119 1.2497623385213594282561189174884930253029 0.4116076663966810600392420838034013286233 -0.6333488112027648719859485026972834020853 1.5193650585635243288606943679042160511017 0.6867312187096873410396824510826263576746 -0.5569268995537852706689818660379387438297 0.7234603832606124607096376166737172752619 1.1748085600946025497393065961659885942936 1.7518083069079051217187270594877190887928 -0.2255355266196238106513050070134340785444 -0.0065108952954601164928027934308829571819 -1.4577131129063689574110185276367701590061 0.1737169250572839773738564872473943978548 0.6093221622227961153939190808159764856100 -0.0094375742635106774774955695761491369922 -0.5723428838001154428383188133011572062969 1.9598440986236194127911858231527730822563 0.1884224641323062332531890206155367195606 -0.0927007928229052202695470441540237516165 0.1927290068430830560775035564802237786353 -1.4182602355129974025516048641293309628963 -0.0511394461590388982319410615673405118287 0.1887629645678934875441257190686883404851 -2.6374651543923626206833432661369442939758 0.9203987378996548729404025834810454398394 0.1146675318433230811310252761359151918441 -0.1142679707305644387638210446311859413981 0.4978218702362326442134587978216586634517 -0.8303389933161574587572317796002607792616 -0.3193196819882870296503085683070821687579 -0.6006287033827978349975751370948273688555 0.6866152402983534130953557905741035938263 -0.7478972146947748811385281442198902368546 -0.6768618386572633482956007355824112892151 -1.6204887665780298711126761190826073288918 1.1296537201781988724036409621476195752621 -2.1461652263121369088594292406924068927765 -0.0594958263776057261207341753106447868049 -0.1736798934749034517555088541485019959509 0.3593552650502070400229115421097958460450 1.1543798290628255465151141834212467074394 0.5583919987331081857817594027437735348940 0.9821565905914182437186354945879429578781 1.6334400110441673614758428811910562217236 0.8074989318317560282878275756957009434700 -0.0356853048759751059759715019481518538669 -1.5269983260053632267982948178541846573353 0.5310146718763983919586735282791778445244 -0.2926605232567688896772040152427507564425 -0.7277954478796567761023084131011273711920 -0.7204277639655132237095358505030162632465 -0.2239700847449073717321255116985412314534 0.2930059555180964392384623806719901040196 1.8181038018446709081388235063059255480766 -0.1588167414606081739858467472004122100770 1.1770677008782317596313760077464394271374 3.2166275241771034032467468932736665010452 0.4827307133586550280668348023027647286654 -0.5206195323014385367699219386850018054247 -1.2453836858177453894569453041185624897480 -1.1614804506465474798204695616732351481915 0.1896628248618400514047266369743738323450 -0.2356238526266599409009216969934641383588 0.7581973709512507264562941600161138921976 1.0632543068043001088796017938875593245029 -1.2835674585225935739885017028427682816982 -1.3168805371307892304599818089627660810947 -0.2387388954227281367970192604843759909272 -1.3016524843655017384946859237970784306526 1.0795824132294207231552718440070748329163 1.2944892973657151635791251464979723095894 0.5504461224250922768419513886328786611557 -0.8246476279892078764532925561070442199707 -2.7132410088369214307135734998155385255814 0.5292690534873406571492182592919562011957 -1.0104422247220419261992674364591948688030 -0.4930663881233478540444536974973743781447 -1.2403382893801564446079055414884351193905 1.2444988136028136693767010001465678215027
-0.1256365159209338888679496903932886198163 1.2315374622706578566777579908375628292561 -3.3680520656284098635069312877021729946136 0.5716115537257858703057422644633334130049 0.8832418710868772393496328731998801231384 0.2388502548532390745705811241350602358580 -0.5765293310634745926890332157199736684561 0.0901550576403721687368530979256320279092 -0.8502345999930946973677237110678106546402 -0.5855778011252492643023970231297425925732 -0.2648784693787059052461074770690174773335 -0.5968032020213319688295428022684063762426 0.6130730339322090216569449694361537694931 1.1304313499163027856297958351206034421921 -1.1031144030302999503589944652048870921135 -1.3492101351407808085269834919017739593983 -1.3817095065214677340748039569007232785225 -0.5560857976572665117842575455142650753260 -1.2761987499436373560968149831751361489296 0.6107567390006375385169690162001643329859 0.2750440099322840059592465422610985115170 -0.3099505439428305031412946846103295683861 -1.0031177345270914091912572985165752470493 1.0782873616214156964332460120203904807568 1.2853423296032790990039984535542316734791 -0.1771263610401391797033454622578574344516 0.2060871426771395120702834447001805528998 0.3488099914297296266774139894550899043679 -0.4969574576479875438472788573562866076827 0.4386285528498605201797033714683493599296 -0.2046365820347675335000303675769828259945 0.0709206880936116279556813424278516322374 1.3446334481714639075278228119714185595512 -0.3769328812168670772564382787095382809639 0.2835475099389156428131286702409852296114 -1.6148880517117778499169844508287496864796 -0.8893236922114305942344003597099799662828 0.9332366060269562391127351475006435066462 0.2313135532550074369151360542673501186073 1.3737526412418206156473843293497338891029 -0.3123042668080990846846134445513598620892 -1.5787764154461132459772443326073698699474 0.1274894975458527868195091059533297084272 -0.8008060653165587350343912476091645658016 -2.0047141856151342587111230386653915047646 0.1726825900529903867752778978683636523783 -1.7051122735329615753840926117845810949802 -1.2369076918227281947082474289345555007458 -2.3281918033382735799818874511402100324631 0.7230072308263422176111134831444360315800 -1.0118701392898554747290518207591958343983 0.8897673055267508734900161471159663051367 -0.9598326890293702451373292205971665680408 1.1148002631174578347383885557064786553383 2.0732296588957064287228604371193796396255 0.5790143887624469298813778550538700073957 0.4235848005111331193717205678694881498814 -0.9815395986455671684112189723236951977015 -0.4768653082316589020273056576115777716041 -1.3742592364420582740081044903490692377090 0.2118399942017847314978951089869951829314 -0.1780629111233668349090208948837243951857 0.3861479387513490624250778182613430544734 -1.3289348974321748553251154589815996587276 -0.0202243192631665208436331226948823314160 2.0309346824560292610328815499087795615196 -0.6528363512431734072549716074718162417412 -0.5069488607333003660215808849898166954517 1.1454533093526151343866104070912115275860 -1.7311587318087469089533669830416329205036 -1.9080271791933005598451700279838405549526 1.2739359614818335231234414095524698495865 2.0393479056100867197187653800938278436661 -0.8629398842701737626370572797895874828100 0.5356978518161265023778128124831710010767 -1.2159171201869913847559701025602407753468 0.2192378980658741816078816100343829020858 -0.9438108974085963609468308277428150177002 2.0638599839369726751669986697379499673843 0.5187400731145251908671411911200266331434 -1.4052427726039322664064457057975232601166 1.6820481827397373297827698479522950947285 -1.3150586793106309180245716561330482363701 -0.2505521571442855810474270583654288202524 -1.6070663056113820843506800883915275335312 -1.5757880601577873846963484538719058036804 0.5332322317402029554500586527865380048752 -1.0200700599221441677855182206258177757263 0.1048571197049555370206519455678062513471 0.4268770972463460378065747136133722960949 -0.7407012796114250674506251925777178257704 0.1756155086152466071602873398660449311137 -0.4912778549572028308212168212776305153966 0.4016996429604812735014718327875016257167 0.7895350365598775566056133357051294296980 1.3217293162063019629215432360069826245308 0.2780838861883387358453489923704182729125 -1.5040473131799045880541143560549244284630 0.8373431499483154905050241723074577748775 0.7996027293612988362525584307149983942509 -1.6085251784910155059549197176238521933556 -1.8818036603223353697700304110185243189335 1.9915115932171449930621065504965372383595 2.0062938217237276106175158929545432329178 0.3022785657848326423824403264006832614541 -0.4766389684876489729603576961380895227194 0.3571910920556913282553068711422383785248 -0.6776779977679358024644784563861321657896 1.0154862580026158269674851908348500728607 0.9324791035989044019061111612245440483093 1.3705148242873552710818785271840170025826 -0.4076437156836590913755458132072817534208 -2.0717769988603467190557694266317412257195 -0.5052186018253157495649929842329584062099 1.9362319689733300531742088423925451934338 2.1877141647660218737314608006272464990616 -0.6949029846765585327617031907720956951380 -0.3907614990089903206360588683310197666287 1.1498319707377993026398144138511270284653 0.5401415616675734332474689836089964956045 -1.1844443243411841848455878789536654949188 2.6584671804498851699349870614241808652878 0.6941287050079685272407914453651756048203 -0.8811454811724175328890851233154535293579 0.5411695165522198980312396088265813887119 -0.7085395528017152111388554658333305269480 0.0842984069536206193085092763794818893075 2.4519959383080096593232610757695510983467 0.5031149817715364624959306638629641383886 1.9159933297521682948882926211808808147907 0.4336089168994131104462042003433452919126 -0.5365137256142110677714640587510075420141 -0.7806539859204146836191284819506108760834 1.2141437797531391407090950451674871146679 -0.6653422576640894980926077550975605845451 -0.9655378090151114367500895241391845047474 -1.2316563389495367442094675425323657691479 1.5101273687843583815038073225878179073334 -1.2381229247248848324147729726973921060562 2.3588617947633063742784997884882614016533 -0.9864848465691331558247156863217242062092 -0.7440086837993047375050537084462121129036 -0.0786421754434803305100487591516866814345 -0.5732753988140972811748952153720892965794 1.7005686531120318694121351654757745563984 -0.4213957618926153503302600711322156712413 0.9080730163279682187749131117016077041626 -1.5345599411845800563725106258061714470387 0.3574584566248020234269233696977607905865 0.3223273257341706665712877111218404024839
0.2616470757552030734771619790990371257067 -0.9712035716806265428502342729188967496157 0.5744502310511656606450969775323756039143 0.0988006891445916829441742379458446521312 -0.4724994337769618524269787940284004434943 -0.6112443704615474482366721531434450298548 -0.3603185702650986699246971056709298864007 0.8297634478923795464666568477696273475885 -1.4182689840438171824388291497598402202129 -0.4827152297716493789536684744234662503004 1.6024170094791669871625572341145016252995 -0.8271410260781603129842665111937094479799 -0.3553130056150602400499849409243324771523 -0.1283416999954076209711217870790278539062 -0.0115261608544426005784622191185917472467 -0.3214281988011136181881965967477299273014 -0.7816844464142712611831598223943728953600 -0.7698304312467905141659230139339342713356 1.0993191218549418497474334799335338175297 0.0755732637728254580400388817906787153333 -0.4802664149432347984181035371875623241067 0.1573521967606870408662445015579578466713 -2.3484171066803005700762696505989879369736 0.1944357207477931670513981998738017864525 -0.9438006401136903589232929334684740751982 0.4416581833520963895622912787075620144606 -0.0870473804574552062485182091222668532282 -0.0318425094778914535842417876665422227234 1.0886912907105048553546566836303099989891 -0.1015936415864269470876735113051836378872 -0.3040310542616058153697622401523403823376 0.4198434568321819937430916525045176967978 -1.1402336463293283319586635116138495504856 -1.3833265640416696484749081719201058149338 0.9376129446070737838425657173502258956432 -1.0933202824220278337463696516351774334908 -0.9143789730959152040057347221591044217348 1.5107834472897483379938421421684324741364 -1.5682151863166307048658154599252156913280 1.6503390288264692120634435923420824110508 1.9290882421262773860348715970758348703384 1.7736539174011574093725585044012404978275 0.3822480221545612177891371175064705312252 -0.8914925813455997216649961956136394292116 -2.9033641072163121066296298522502183914185 0.1134366714103420409331945961639576125890 -0.3508346745839153180135383536253357306123 0.1045642363130740715160271747663500718772 -1.3393339789929281646863046262296847999096 0.0570097794523472603533953417809243546799 1.1047489115811792714794137282297015190125 1.1666081993243693215589473766158334910870 1.0315834950277797954498737453832291066647 1.1546080716270878951945633161813020706177 1.5988137372142441350320041237864643335342 0.0199415273146682191229839276047641760670 1.0589101700007583772844554914627224206924 0.7389773338128953206194182712351903319359 -0.1132950293296769717077410177807905711234 1.0197863130666029451987242282484658062458 -0.5595590644236750899054300134594086557627 1.6192458340231878910486784661770798265934 -0.2917551488771357171003728581126779317856 -0.2599360497553512283630539059231523424387 1.0037996280700203222124855528818443417549 -1.7051285796557003049400691452319733798504 -0.2889097522412096830102257172256940975785 0.0744631263462032233491072474862448871136 -0.2313299928925921511435603861173149198294 1.0741581587477642134587085820385254919529 -1.0301123260644684531683878958574496209621 -0.7529673641382270687927302788011729717255 -0.7412248274199914055415661096049007028341 0.0174792429569851880122310916476635611616 1.9486029634044277347726392690674401819706 -1.0767596028051698020533422095468267798424 0.6199418195149558608036954865383449941874 1.3729774641936312029599775996757671236992 -1.5656759221687905903053206202457658946514 0.0575936072524705564013025593794736778364 -1.0734478716911437512493421309045515954494 0.8704494378161637957447283042711205780506 -0.9913598427945262692162486928282305598259 -0.8010988089668387157615825344691984355450 -1.0101636999460892329949501800001598894596 -1.7212866164900821885908044350799173116684 -1.2470611649174556667674096388509497046471 1.3990978329605070484831230714917182922363 -0.5668771012089487415508415324438828974962 -0.0840790712576637011554936407264904119074 1.9153203860183336537659215537132695317268 -3.0767957736956690339980013959575444459915 -0.3541425439520795581671563923009671270847 0.6235455625218295772071996907470747828484 -0.0314320724457948022512177033149782801047 -1.6189564370506237533930971039808355271816 0.2288036009202550069563386614390765316784 0.0963685466109609201179608817255939356983 1.4114789021463289842017729824874550104141 0.0745292910102288153062488618161296471953 0.1377087916891779617589719464376685209572 -1.0136403199803076802254508947953581809998 -0.6382741429941382049761955386202316731215 0.7324053625268142075910304811259265989065 -2.2279430280584029411272695142542943358421 -1.6094501780984868943846777256112545728683 -0.9575144760284799438920799730112776160240 -0.2040772924635509411039890892425319179893 -1.4291422030862586112220924405846744775772 0.0061628131371850129738287904501703451388 -1.1211954884334183191185729810968041419983 1.3629575683982075862132887777988798916340 0.2546745381441486988371991628810064867139 1.8848991550097471403546478541102260351181 0.6395918996009889445630847149004694074392 0.4422985516137417638660167540365364402533 -0.6860367259830968400535766704706475138664 1.0450477628089438475456063315505161881447 0.8140386512485716652420819627877790480852 -1.3421053330578323059540934991673566401005 -0.6720922659206566285305939345562364906073 -1.2201679332966863800180590260424651205540 0.2553009668949433597084919256303692236543 0.3909147293603124628802447659836616367102 1.0256316071417546087474192972877062857151 1.7591266337329756197505048476159572601318 0.7446604233960605334630145080154761672020 -2.6705504047131252143287838407559320330620 1.0741914244937067479668257874436676502228 -0.8831419653127162705530395214736927300692 0.3112210571906221523441615772753721103072 1.6172348496527078065554405839066021144390 -1.4891023152892792769108609718387015163898 -0.9642467682062501044271130012930370867252 1.0375535849982460145923823802149854600430 0.5416354099998750282196624539210461080074 0.8213087025336276436604521222761832177639 -1.1906105978057512917445137645700015127659 1.9388494626221024486056876412476412951946 1.1404744150921317658031739483703859150410 0.8498980681819016114175724396773148328066 -0.2022386643003776240945512654434423893690 -0.7612623262060110862492479100183118134737 -0.4431002058950023192451794784574303776026 -0.5049969064412902497451796079985797405243 -0.0367043213073534393964258981668535852805 -1.1798656308713260099096942212781868875027 -1.1976342263120569597845133102964609861374 -0.4777982328198403516594794382399413734674 1.6296899160059465927474775526206940412521
