-1.36420733451507292244
0.50167898560235679728
0.00377044796205363653
0.69529846918573701142
1.32764037453380656650
-1.56438362505663097757
-1.83230771783121038077
-0.34042664509295139652
-1.99019184238823454436
-0.53912418979818432785
0.73858836180553466555
-0.33746472964695878316
-1.00639335881062730316
-0.60814018419159343587
-1.11835999566788801829
-0.33868716507384710734
0.06887557610134684150
-1.30563794574630054335
-1.00902750834433763139
-0.13347689258526174161
-2.03422319543605478742
-1.57561734363012528881
-0.38131127430673394940
-1.55650391934760001789
-0.30646638468127856969
0.91064518568667496279
-1.44032993454575675152
-0.89545452120788726624
-0.17476700659471358645
-0.27059588653747573828
-1.35583199286552691376
0.14665177105475074582
-0.57849414471059679155
0.06237703731971539628
-0.04958716993730858530
-1.33360760396693911467
-1.66318751601723602285
-1.43028389000610656190
-1.54401596715713740338
-0.50716959750844337051
-0.40155772846304133017
-0.00053440426080874194
1.25656961440555603460
-0.86163505940254225823
-0.32636982351348908793
-0.53920189904540938297
-1.79491547039871068847
-0.81253430780659474664
0.91989335115189319048
0.72219836530398795471
-1.59962523114374421951
-0.48750556915203330233
-0.29377671057611709493
-0.76872617918050623054
-0.23574217494505125825
0.05178729514883038954
-0.37049552533733848270
-1.26618010510140099889
0.42360101410233919061
-2.51456384965859269798
-0.24161277870307432125
-0.95060274671073419217
0.50548689936225243979
-0.86869008931122504436
0.29512489918785300702
0.40191361093475563848
-0.02254508468355600689
-0.98044706160631145409
-0.88746906931501157167
-1.03496855436725265776
-0.48642263766849891393
1.20970424987316049759
-2.29171413707306781404
1.41795925627971564076
0.76142455223063043590
-0.47348303670005670307
0.23036467385082978754
-1.32449820261261153043
-2.30045037746518765687
0.22965315675662503758
0.88048536299299728913
-1.77412728178806466950
-0.98217647783700856579
-0.60118635040222301313
-1.92256800525401083668
-0.03784939095534824854
1.04244399216763250493
-0.42976147367901679219
-0.68684498812991567895
0.16118906336121471834
-0.63454343942907032172
1.55691004475589789280
-1.34081215119218799536
0.11422206713390624377
0.50442013321786427493
-2.92661950902113066064
1.74567346067180118041
-1.33542181038008500593
-0.19482514400667980126
-0.02411733252958428095
0.76903514640125270052
-1.70216768901452453200
-0.35506510380258426984
0.67703562269040018506
-0.20080978072370322951
0.21720730293793213961
-1.60866892683763418326
-0.47712224236256584042
1.45153245874569258866
-1.18451220124923795041
0.87014448934710475481
-2.10075686655173976547
-1.60770568102520017284
-1.29040602047124930429
-0.60112857008834941208
0.64652810616424072343
-0.62137349211447856501
-1.03450294737148063007
-2.16267142638158471613
1.11721710526584017131
-2.25596269598866783213
1.07830135668725102249
0.19338869098441829886
-0.40795559734943803720
-0.84110808259783564900
-1.35433557998912745823
-0.49549679990297040844
-1.76902470519662635695
-1.01299576534140189921
-0.66381491488815869140
-0.56576418563166619435
-0.74362711126658709304
-1.37822187502496995570
0.23212015968602814353
0.50598264878074850071
-1.88013627178407016771
-0.58450273265906282916
1.16574245623988481668
-0.64708739878159271530
-0.45659825767094130988
0.76352592784955086724
0.39164094509418012624
0.10580404841642815361
-0.80911213340781018566
2.35942798250832774798
0.44454988599193218102
0.12498384592618975997
-1.04181420159196336250
-0.93906713381479534064
-1.57514933156357939126
