0.75642165692057550253
-0.22005049192521239365
-0.82242802496165845483
-1.29988933693303554406
0.69521782570679935276
-0.08363050827816780053
-0.28934291735715311766
-0.19473445775756742515
0.24225836280348767016
2.06677212895955486616
-0.90613464041164604179
-0.96382585756700811519
0.37864698868644058871
-1.13690699393753980040
-1.45175775842013243810
0.58757094589427882880
-0.88216975506690264996
0.78898513060897212945
-1.98478156752346812652
-1.31662608669654823679
-0.50891352176359994086
0.96071912381560531369
-0.53787107558538316265
1.61407079394467367628
-1.08540248424736596178
-0.93571730716218282087
-2.43572713160281306699
0.42900692010009122690
-1.63183670726479412849
-1.79572542755973474371
0.92389295968093199107
0.33502019281140021922
0.00063592652602152417
0.18355637538156865940
0.13192242755935948417
0.60014714731710361306
0.76861179293221215669
1.63095737894183523409
-0.11708124292208692274
2.04979090342874314956
0.02542430077943850023
-0.37965526515426878396
-1.59574360217800292894
0.51148300391621781547
-1.59459142362910566426
1.94986877574777617284
-1.01670652072330791604
0.28683204257905647871
1.98920319901884212754
0.41453529228930524608
-1.57232059044474015153
-1.06461829946852137851
-0.38436999912475861008
0.88052646247955490555
2.75354788491386903715
-0.54323319259819824456
-1.25930750025366000600
1.69830546984440777791
-0.68530911003828864914
-1.17665149819393599628
-1.46296224166200672379
-0.70173322824764261529
-0.79857689592501590603
0.07339700451017357186
-0.21956237321776064797
-0.78629870771024890086
-1.36984275326110527260
-0.26173603831430208855
-0.67199601878142589673
0.04340410439434472939
-1.46998526887614566760
0.66862216521350892329
0.94276691944182910987
1.52097354284318275752
-0.69916681418427795158
0.84101485857934088486
1.49733930353901190102
-0.71007029435182678068
-0.19528220956320871404
0.07986382823494597716
-1.64193734706031824189
1.06290250334953517708
0.31973038830305211544
1.00948110376818411815
-0.64490527053327495466
-1.17622114928019660951
-1.02463062626194445492
-0.73574876698115043716
-0.93305598494056840586
0.00564034904956663315
-1.78249853601142427273
0.62776622014148886208
-1.31880207998630982758
-0.22075032441880840239
0.58288341438219481994
0.15652868832649396991
-1.07927520379665353722
-1.15451159733954367148
-1.49281886490238457910
0.75838600175884141041
-2.07175641216204242667
1.58086491331015666084
-0.94761737525319567066
0.30760602637192746567
1.66566804409278379495
1.42878189002374611505
1.69145967910556471736
0.46148462482915142413
-2.16188327554198211899
1.31490403949693601682
-0.06536943187081091511
0.65145400127607877572
0.41365233349086022452
-0.01187065699357431683
-0.10223569840786304874
0.44544975809602049832
0.77753331545636727995
0.11406729696177424216
-0.47823736085771029192
-0.43529339683531870220
1.48105990897681238927
0.53127768027438404541
-0.47165346764376286925
-0.36927933713431793095
-0.41825474297785913969
-0.16822560576218395512
0.15167972856383424296
3.16680435534406301556
0.46197756665313643998
0.07077409546477163305
1.45211688259430293790
-0.29935845901018609538
0.68033416183765083041
-1.38191635335909612792
-1.84201008402930010988
-0.44167226624187205797
-0.46140904737441118533
-0.86347349740810352969
0.40243219572463745370
0.00729108415594661909
2.08288558505431664614
-0.64441123282726331389
0.71126012896924040163
-0.25428007492163900993
-0.46741706137594762893
-0.10462719119428824655
-0.79424000099716751677
-0.33498021216319845417
0.94890755096966883375
1.72095431615922223045
-0.17696299278771449037
-0.98127132302894959359
-0.44208937773995254927
0.52167026742313760135
1.83620471852342403984
-1.11924306612484758539
0.62122131305682715130
0.89187924871991430820
-1.28019547632477159738
-0.33753937209817108656
-0.93749895992867693373
-1.36868605647595997787
-1.94592835350686477192
-1.41220675056037081596
0.48699425290073322659
-2.07016127544569261687
-0.72735703267865459143
1.84178933460585758652
-0.43196007558714288876
0.97793022996958556270
-1.50647861882382660959
-0.23179109817688134387
-1.37411691601668040086
0.67392801791077316942
1.17650113513000342813
0.81052040980062356468
-0.31176328181981721732
0.78546037797718770701
-1.18745524074238151258
-0.18082511551951357953
0.83815576914593226121
0.00763546147621127838
0.60794884555750716704
1.47898196803667736354
-1.00140217701713685194
-1.04964864553610492948
1.75956565376820384117
0.89606149064781326352
0.38025253079697668435
-0.32687345901558667594
-1.43093081247582243343
0.31432729841054557474
2.17862775618207438200
-0.43015078931397221496
-0.15313528679425159051
0.63888272412448054993
0.85999754963518326711
0.65194155350035443153
0.44230699805401890723
-1.98026661795785918763
-0.26327591853138793132
-1.49776479453021238442
0.21979393073727374053
-0.91721191051710249109
0.99202899429091340178
0.12203872173908839049
1.39571130115012898010
-0.19861550906235689307
0.30621664473188486832
-0.27108756288846080906
0.56062820244840783079
0.95189942703118024525
-0.01192838971207424263
0.86102764197383574452
-0.44988540903990353881
1.00354981245384400346
-0.03295545992594876850
1.37411807260630647320
0.83845943567356850945
0.78623622460083397723
-0.51947858115276712709
-0.17013023198962648475
-1.11797979113228285186
0.77535920159235127702
1.26545367613255388406
-0.32707119842816007038
-0.95881932453890494905
1.67059917830701532004
-0.21724069114537439273
-1.14886661730812678073
-1.13039155127027424186
-0.17374033791211185296
-1.29938632021625544155
0.01718373512922887966
-0.20751916684111909595
-1.24853739892537052292
0.21793920391761717470
-1.85857258648336154394
0.29462116922898645699
-1.31053978715915708797
-0.02890059461599141580
0.15695424880835259773
0.50454641304203273755
-0.15256033979399657996
0.09775141004407439382
-1.69886549570589151514
0.17364556423591290257
-1.05341143377041035478
-1.69570353650797067679
-1.34488506346251202039
-0.18961582253593853298
-0.63178412364413871760
-0.21653324746542881862
-0.37967284552746632942
-1.23667026796943635425
0.42387934011424599490
0.99403517371341576503
-3.46930456320431845896
0.88344959317595650461
-0.95054168303546315855
-2.36025160610258222249
0.73279027507682725773
-0.41857131906267902588
0.07120009240466403100
-1.91690666027214673406
-0.08299925886115090690
0.18767087588586581215
-0.30952789762322463485
-1.73965691310703984840
-2.34744943748639300907
0.06131594980890926749
0.59029746383712811131
-0.71915654225362002361
1.60515616778196101855
1.58462497791342715736
0.06195451107420761605
-2.14182073053241328608
1.01176395854190515067
0.22792622049439958953
-2.13158496361815341658
0.77897752956048815776
0.98729143384173612130
-0.24510131960159001197
1.34634247092316083894
-0.01140517127094207474
-0.88317185374677176224
0.72776510615142842031
-0.62218923748446686162
0.11387242300076143298
-1.34523237588932897957
0.18995616890676758626
-0.30146904956070952331
-0.56041556216946630808
0.17704662581463223581
-0.19067807624269877964
-1.64999898848068582424
-0.03412573611583273603
1.07512649608017585301
-0.75771005268178825975
-0.20986809872771902685
