0.61908217734564341406
0.00082177024073392486
0.52538362314921771556
0.15885588727330779424
-0.39777499124510617978
-1.75457788693487470866
-1.30780889801025401731
0.21998628950812773586
-0.14140025211489776202
0.00571352651895115204
0.24898500045333463171
-0.12263734737423410970
-1.60932653802071712335
1.70035501570230884738
-1.04728345142751644303
-0.24942446902343806681
-0.93364317329226964581
-0.58298713166634519300
-0.09817474370927155303
-0.21250368369609540231
-1.69388131053268042869
-1.36611492197646366975
-0.92884984772631851158
1.25916775659669233356
2.08608291124097178226
-0.56045659870018860182
0.52087034081824390430
-1.25960111088712300997
0.66484825958659121703
0.82643727359586582892
-0.51468866668300305989
-0.45682830533266061135
1.06478946437654098389
-1.13689173052318270862
-0.85128982571590383621
0.83857695776409768573
0.09678490001648464014
-0.04948189919648705859
1.84973945426333008513
0.30796159815853535457
1.17717516332749116970
-0.32233446596480791468
-0.48927271550868700611
-0.23571766258883955492
-0.10472432991439596661
0.90267887473162589096
1.83119331895113979236
-1.24362755303372884974
-0.89871226723723729446
0.26087167749234152492
1.42688508693774829261
-0.47245299650654687396
-0.95011202546894146792
-0.71706098567111231645
-0.80471569102432116694
-1.98707874458466249301
-1.29505434118648965480
0.46874732224980358852
-0.38056177066275470589
0.87270708951938968934
0.96443525171091570858
1.45298765473874880172
-1.19237279754852498748
-1.02716778638877759278
0.61433239277834006398
-0.03988431464542981086
-0.11959889100369636150
-0.72532834196630546764
0.01119219367768796956
0.07651865970309654208
0.35897737847318872406
0.74639940285582373480
-0.03665541625144735222
-0.92247087625420309820
-0.62752775362994916986
0.41960009134063647185
-0.23428033035963397035
0.13274166611935261928
-0.72203085739332983906
0.51779943910138326313
1.20154753004290748564
0.57570350431778394285
0.10593395462284188602
0.47875377291098619725
-0.62348623017006576941
1.08512666433195570370
-0.30748445662854256843
0.17915275674259109606
-0.57681617013090502599
-0.48372135863145554469
1.49289439388003075670
-0.47622623029115807025
0.33728388706968553956
-0.22240175163828135307
0.04281544556154206344
-0.34493750275417034423
1.10073890316477007723
-0.53927079763263385814
2.72966281976500146911
1.42825259216259214945
-0.22920339140678538947
-0.53585662637197961633
0.67856451523408656268
1.36142957581444767889
0.09271803645050566423
-0.35674553256341196006
0.77399649192847019830
-0.69669387344325861555
0.47249109391219729082
-1.73908824709398723840
0.82944213857732329576
-0.32696229023107070688
0.41348790571335897193
-0.13470376887219454032
-0.35454292540119447530
0.87132311552787644615
0.77764735058700373838
0.58658627408297370209
-0.33170702052399347881
0.74527127555441841089
-0.00939973440555160779
-0.40034483896802147695
0.67442930204984885556
-0.62389287368225487818
0.66011842927124608771
-1.77594480223746953307
0.48404909520076755403
-1.84231573146258709173
-0.25621417966238546615
-0.74516022882222188173
0.92791562534226312842
0.49989975493791033445
-1.00414456921807615508
-0.05402331773899419348
0.02785269065446713960
0.96818689578864558509
0.95751074188691864819
1.15773949547379673142
2.02454650960785720315
-1.30092526217273785072
1.11529654151652235505
0.03773714678500963982
-0.05708410596421068656
1.18878750969200930321
0.86668039291506437927
0.22889323342729600563
-0.12280265628655334664
-1.51797100843439891626
0.96316791395821943489
-0.09876033575223912286
