-0.37755932922770091276 -0.17746129224560372450 1.57262432359611370458 0.90523979672330479040 -0.60044090127964377945 0.82246079203477673314 -0.58817127852636730267 -1.56898371598114017011 0.52775832188183779969 -0.19591546783004384902 0.08283501295889897365 -0.05787449742222472437 1.10784896339612992655 1.53865397580674168054 -1.44033871421793557843 0.07189387687176199138 -0.13544914922091655374 0.91068826909045541562 -1.50736362693044823047 -0.62767685303205911218 -1.23391771234031311089 0.02274892917014014262 -0.05177890368623046941 -0.13946253878174091900 0.28580072503756615010 3.23390183557208166221 -1.03877617521327003658 0.44598652145911016342 0.03708702128660178177 0.20058685667307213363 -0.40865389892695413998 -0.45487104429148156326 0.38778613484198531935 -0.47901030172600772561 -1.48591800253891936912 -2.25957528069433166706 -1.20910356389269901811 0.26111945864872349032 -1.01214972314624129801 1.93408718042526528436 0.13869999143149375209 -0.34837097909430142506 -0.53175709571680118692 0.76800006133404852271 0.71245072501606987458 1.84051756353260720367 -0.20169025385467914679 -0.60291887621744333359 -0.89375441561333190954 2.09321902389276726097 -0.16459700024286905151 1.17191647174233071205 0.41342434958192619820 -0.31784678762193124824 -0.44693523360155118507 -0.79134762664899804818 1.53820620260122775669 1.31214771426690002265 1.61575793653581811782 -0.67153043337334006324 -1.90198071757913722557 -0.36849107299104044699 -0.27744227905670160172 0.21412075491184687226 0.23585443154400365096 0.65841353773331368071 1.18480007507829343538 -0.62948825002369501735 -0.90776191095791036734 0.10573459823255663970 0.05686968871621107813 2.55130919590726712443 0.36809038472330890546 -1.48662635361038675264 0.26375075432383721097 0.02027072378360296467 0.93947913092210055819 -1.18656599577010490876 -0.88217541371984331544 -1.81085992025629294311 1.75491049519521657984 0.96534051520452845985 1.25070906634641554334 -0.74771046484631142892 -0.07838191390422040439 0.92337689897339736422 0.05234616500225848512 0.81049099065900231942 0.24320894167898757243 -0.11712147164574790437 0.83784233969459509517 0.18351127861335497782 0.59484606580124366193 -0.05417517881735521568 -0.12969432439356518016 -1.02344197960811977843 -0.51034381657073757399 -1.05009757145227000663 0.65368329611859676831 -1.42778723697900189471 0.15525713727096879246 -1.42137022535751023078 -0.64460546737238721970 -0.17799826885517114339 0.28552368646930081919 -0.95277207842735700538 -0.31546504302227779126 -1.69348827224251841095 1.33932786637028944376 -0.43794969984268461438 -0.42384412239668478595 -0.82077888976464552506 1.11490825392249082171 1.17931153251066711540 -0.67944759632267914817 -1.04741332342723714177 1.01090185522097453230 1.34829719147216708919 -0.30430109513486908179 0.05319614229420940171 0.89423540659494760163 0.64392499618334475553 1.10946748708532627603 -0.95185000914254691562 -0.40982359518020011757 -0.67955161179515066738 -0.88744543441185375077 -0.28516161334166839625 0.43450881640110045057 -0.46845150338381613686 -0.54317299098663707202 -0.12941687754105413166 0.94554750771954232391 1.95969565057274008879 -0.00355882063798645129 0.81736332393187960399 -0.17035472913231491932 0.05772736119219708945 -0.21224336525914500040 0.45903257882820952540 -0.65049476917142523558 -0.32328824852125714884 -0.13990106358122533781 1.02313712994848815541 0.35820865212473024242 -0.19180886045804032558 -0.64183283829980686264 1.25407897986119420963 1.19219704070976328936 0.26860717436849917972 -0.47408805445794538480 -0.06016940660805687735 0.18346657182972705979 -0.79868654159612750831 -0.86338332180607701982 -1.36003314955635556949 -1.95332027038722300105 -0.37132657288205284107 1.22320207651039014607 -1.30463724237467371125 0.68617757470486284710 -1.39694165002380166207 0.75645070913977008331 -0.25979576348691435506 -0.69819013744344338157 1.97228821611023819038 -1.77137223986680414356 -0.63493537923815512869 -1.15500345223148892515 2.50915191816040961115 0.45134503153673033449 -1.46441802221587558108 0.13512983876444317755 -1.44088250880231605322 0.42159845292545605755 -1.37332491300908343668 -0.37477958448374831812 0.14631176650302066267 -1.55100512933381740055 -1.03720366877667435901 -1.30877510362885374207 -2.26675392902641537063 1.13200534282444342793 -0.37346496540832085920 0.06449115647308857613 0.61042328967588088684 -1.40709118155589263388 0.95504184030207139866 0.57446596301744901059 -0.16082506268704177543 -0.49848721779383081687 -0.33816258582135966249 1.10944771146042264753 0.47399917074801362071 0.58941118373256506935 -0.09830504285979443924 -0.87828785878376380847 0.21815210805161566743 0.55866357164997781926 -1.02024082400987214925 1.17779978439249388700 0.10811829391134457345 1.13667666026822122838 -1.38704215066767888587 1.28958433741469224998 -1.33555551333122335400 0.89629936140449373294 -1.40745234738583202549 0.49377505575739011334 -0.23612982809164875797 0.66771524232994083903 -0.76058719264969854024 0.17322551042218217732 -1.21329331351711999787 -0.12417897884560717692 0.53674948614170103767 -0.33885384182968891764 1.45393947773123755063 -0.47890016897690795838 1.18828337113465631880 -0.00486366975083753379 -0.94339343233454453497 0.12787653189435943535 -1.32316194908631268312 -0.58535320190259543249 -0.19832862278926877142 -0.22445507594277988583 -0.77769931306390494008 0.41785837808332959575 0.59076826672980298216 -1.05165393155048336737 1.18798935043546438628 -0.10717936546880306448 1.77302485069177895305 -0.14858207476909945921 0.43499210041824037942 -1.16452344784973682579 0.28660378165269595474 -0.08581678190417704744 0.72057620746367023745 -0.23894581616071847163 -0.11670108282184482595 0.84440651363797114559 -0.29395379174449093318 0.68826458849952198982 -0.06699115514656536763 -0.40450457731514011250 1.34963616372927130982 0.09745458858967512294 0.43777026890768910850 -0.66602894063896833643 -1.50557378561969423814 -0.24763101887319974304 -0.45030468602109663401 -0.73803684417345605251 -0.55640311828667210481 1.77285663434064444388 -0.97848602448079768923 -1.64585588329014220754 -0.49743875129576770044 -2.15748923625900523859 0.44200209485033847834 0.73503765912436602736 0.67220788457693758655 -0.78804415059766075302 0.97482378261293156640 -0.06731750435195879567 1.48405721364616649538 -0.47919576430916899223 -0.11410107788097509363 0.27081800073352008118 -1.22280941319725444671 -0.05487786469679020035 -2.16822203160949378287 -0.92730900675957861345 -0.29602155384490802525 -0.08746499390652032191 -1.58452435709129857422 -0.51265073995369070392 0.47526261080992088237 -1.16492680694676309372 -0.09773997379021678866 -0.39701797591363097162 0.54790662841916337733 0.44069080829049056547 -0.00431622959028371382 0.71605438011532229758 -1.11174536508829602255 0.91998325738935216034 2.46613766249734922553 -1.93812203047702369396 2.18333108594472191655 -0.29871158454622381839 -1.16058562672665166460 0.06627075655011220590 -1.89853667657891356235 -0.14230987310721288086 0.78664987982606893180 -0.84633998693976641992 1.60858900298385765204 0.10001646073736607245 -1.03880895896367397846 0.68905413127307846288 -1.59673369739300907710 -0.94899054908293689614 -0.47117518416090731215 1.17856456531473652305 0.50050045355991079621 -0.89104627913524514504 -0.38772063145972235354 -0.63637370350401178953 0.02801096673615627308
0.58124783142531533109 -0.70764133241899640492 -1.14631849274814578976 -0.70216001799044025500 0.92185969057901173684 -2.05540908987923742757 -0.47562841774217584634 0.29624481767793464648 0.44605719992654080386 -0.61212268500047406494 1.16060165575018836570 0.06953333888755863779 1.77198357256399119386 0.19876241127826754784 -1.21643437584986902067 -0.06028853226014867922 0.49859120564719205948 -2.20510600460280814517 -0.99119496655853522871 1.86583035980338562965 1.33501416306785603005 0.23761564840326612758 1.50783674270700696063 0.41953367104934274900 0.62884300711316221122 0.29977092821236661635 -0.70776551010584831669 -0.87206720394554804177 -1.73170229319433444104 -1.30960948249645792174 1.14359751850808311069 0.67277386394274985015 0.30620611587356039163 -0.66610165767902429490 0.80396544242665102242 1.05433964350286379918 -1.77523914115606662456 -0.27491428554469321544 -0.45201398310526286206 -2.36136367979832728636 1.73463092216577385862 0.58370336197063166228 0.02134361777105702601 -2.53432212837074022360 -1.22410077126395200331 -0.45079280640936136848 -0.25195198151321551716 0.40512769823992245133 0.52694205124369419835 -0.52940461120191428801 -0.16292832240179380698 1.30585742414365690856 -1.41555046995700894996 -2.12620024278604713430 1.13297541311941585285 1.04255486430251109731 1.40852311885342595943 -0.31337053318488855558 0.98233645344592068760 -1.78653878714390002003 -1.31520535189066301029 0.45362417909546109973 -1.63839664144941932200 -1.75739603120570864192 -0.22955012028251481349 2.17536336392166296250 0.79576123138145438141 -1.73820080341289817660 1.18387925934071036593 0.99198966115698439250 0.61486403561461810963 0.25158452974178041606 -0.76840137824228793573 0.10851714188264302563 2.08335893123758042478 -0.48845261911718501624 0.53721236576967745791 -1.20332989538267476348 -0.17784189987944026834 -1.60628459058257488934 -0.65140925754770073741 -0.68343798062790417358 0.29213919561590778740 0.38562507843810628350 -0.44345743268232357126 1.57550997611712850777 -0.12491463829103643945 0.83016630249178602341 0.49254484488720456925 -1.48152274402253847363 -0.24465444886351347953 -0.76422219586541151326 -1.99370780989578211262 0.51545586332821458075 -0.34376854676694129642 -1.20338754706868988897 -1.32239974548671934684 -0.58632466161042096076 -1.26600040521649170877 -0.59364133637062088678 -0.41902659551855947484 0.25510322476481084308 -1.03504018755047866307 0.47999213487117869947 -0.27410596492292921278 -0.29483429672705224744 0.73650499589252482746 0.20666564875258672251 0.28060581331125189486 -0.03918143382860626162 -0.82606137447262251161 1.48507695013701157549 -0.54788719004176278382 1.01059393532889907341 0.52450396628457374160 -0.18353590124747073964 -0.49294781246318691847 1.04369239516107281673 -0.82856135070547931587 -0.18976455311781731394 -1.27066177847284422775 -0.01829293845315934156 -0.98778212812673027443 -1.55610698615714082571 0.15301791884219295703 -0.69556297434908809230 0.44462604178165338054 2.51758501102162624008 -1.06439233961266999096 -0.71545140463675116482 1.65647269716639544690 0.34640350443969658567 0.52862299364661469170 -1.00790951274182383202 1.03622050784731278839 -1.50835822743927483458 -1.81338192428416911106 0.56623691769536688145 0.10800758440524892146 0.81620096197510560998 0.01949115132164722444 -0.00427841188250692797 -0.30408801605264013102 -1.80521246480611274876 -0.38331845396309049967 -0.06839314861581363703 0.99765863792668640908 -0.44283911970769873623 -0.76116464528390437305 -0.54614542357071516054 -0.25451235558955193072 0.90832246250693027267 0.99170140181634791610 0.11142345541685672039 -0.30973735385590805969 -2.88607240621878879949 0.07209494344486766515 1.42291857680405686715 -0.44331184953936320081 -0.22491617297481869553 -0.98622874021136008871 0.23477450376875319549 2.54119289356356015119 -0.92653937009967057836 0.31910637101906064172 -0.38799376094075799237 -1.10889826361017296286 0.12762795716453928518 0.38493589217076190634 -0.36480316314434030334 0.12018462708534385919 0.96640618123044197407 0.60197809806493729479 0.62879469564414658400 -0.74722235937179748433 0.54700930109645962141 0.27585398352524875820 0.34647950403260824315 -0.58772951677335782961 -0.33484943836594371902 0.61187689646036180768 0.22555502191514847921 -0.78030230907315778488 0.37244411735311355738 1.46933377917617180586 1.24361211976172802984 -0.39533788733055641451 1.82302540788019107332 -1.13786407122291532978 -1.26840880895597418743 2.10437982965236169974 -0.31279136552163044893 -1.30065813272073982354 0.43984528295302188772 -0.75121974025783466722 -0.72724255033521978397 -0.01256743308447223068 0.77353817117537937431 0.03322414729848004872 -0.80145583203314085807 0.82894930543460254579 -0.92960688311843664433 1.03597286210818984031 0.96385522510115362316 0.93492150836131704406 0.83578549652341982412 -0.57617338876777002277 -1.22894748392289221428 1.59212672765061213909 -0.16841148882849049651 0.07240829667513609680 0.19719109921142979891 -0.58840595317092692085 1.00825328949444847915 0.74951473748419317200 -2.13541160479821989782 0.53778714220916468136 -0.05994722582816159467 1.06873365558488120364 0.07596567420219944855 2.26306808347779986335 0.75673750709847009688 -0.64176883751369739883 -1.29224349196217214164 1.67063085609502959272 -0.76499209549568036870 -2.36118311875379971454 0.23008639532774613490 2.92159065204074686051 0.05079550862985487275 1.38956221793936940401 -0.12684154883775361489 0.52223868598808975694 2.45431282905123859805 1.12371850234533510182 0.91720496183881206065 1.19713346751143689950 -1.06334075159566721069 0.41262343873279844209 0.09016515917910891686 -0.08311096048920293966 0.11903797581932487604 -0.32912767853166435827 -0.41267952365323146147 1.05274864536971501927 -0.93308929683250430021 -0.02063109722238957305 0.31250939842580233163 -1.18234828387281765139 0.64390363867587407931 -2.05056639212072422396 1.97039172971574316762 -0.06917599097659894725 0.38269481345087841273 1.37612132178124557669 3.10644281404664024393 -0.76073420666536406554 -1.17487382861522737798 1.33396242543245913126 -0.39440812146677706185 1.31068314500041860349 -1.20111048871770131896 -0.08259250197611184285 0.04617091326303307541 0.80606793810732679795 1.82525012081992166202 -0.55907523573151707286 0.94489851694161863804 -0.06465827167479898385 0.32061682197202046041 -3.71033881091073292069 1.96438834738700340843 -1.24141784191967174955 -0.06671747888466705856 -0.83086757041241676713 0.53489162168369375205 0.53162808550565510135 0.17935368014607480647 -0.25360747766906660550 -1.25486582607175334303 0.41435148042393582513 0.04616251052780823150 0.79348159788415939531 -0.20768006115744702678 -1.42244295195049486047 0.93501761835199093120 0.91755577993148473848 -0.95686320685224834914 -1.46017556394533087882 0.34033375224998246855 -0.38840801565367749637 -0.15267584816987794794 0.49350977378881827340 0.18033849702591411845 -0.33227728696357272664 0.99583034109015744484 1.37839835456478954079 -1.66193054039737342364 1.06529871439652890075 0.14754453232036507382 2.30642257521136917475 1.41092095380796567206 -0.98431113465067365809 3.13582910150183957754 1.40248936097075005414 -2.68675830890309752519 -1.22709684781673389331 1.08962309743335761247 0.19472459832153393711 -0.53166791106078892248 -0.83853283427761127200 0.04768116104085957929
1.44910399890969077141 1.01740712329186910878 -0.45999340617693040834 -1.45094184059038822099 -0.16033041645541054598 0.22412503070822459295 0.14160726860604866406 0.41461970866395264634 1.21988267348168544224 0.31776118089462757066 -1.13343066483585408477 -0.05993589009399041129 0.29665528784903943960 0.18383484320841322890 -1.02651686271306630260 0.14245387523927996454 0.40726790155008812944 0.77790459060691741211 -0.66221776669684884187 -0.39270336253296872497 0.65603730508886493045 -0.33597353782194544491 -0.20468931736633072527 1.21533205514095454802 -0.52992368755184093843 0.01099422354118287197 0.17903191980776536618 1.30391356548912296098 -1.92126461080575294815 -2.05224728976441106454 -0.00011306159729622591 -0.00474203785582115629 -0.40494956518758828956 0.27351898190176848757 2.05161433684520222442 0.43729669299059781284 0.98800350212947363193 -0.12005354577520059578 1.36304015040017878491 0.58652283891512968506 0.16752416292737606907 -0.22143396659278585803 0.14710681108583745225 -0.10322486939540696793 -0.36134651991402566562 1.19397552842169218934 -0.28349083920688900040 0.20565504864465281032 -0.66770158414493474552 -0.61809609028748468962 1.61898088019569730278 -2.30394394629583443290 -0.16395323190008700975 0.44113209535755115720 0.97889616850802518844 0.83449726402393165081 -0.41336092027802384674 0.78208529570447415935 1.09350123009613553471 0.93559566264270888070 0.39249337041395415682 -0.36167812374698143918 -1.24297683631391486792 0.83154271562095394277 -0.11394471294599690936 -0.21578068317603693593 1.88640864548780728960 -0.21011954495640228213 0.29425388803692648088 0.43418099268608645325 1.29466290486746071764 1.43185804942022798514 -0.40927335089607935759 0.19100328893812934528 -0.48186812724644573214 -1.74868090983207880029 0.20501306654570944366 0.80417046145069326357 0.48398864295390159329 -0.35947017915986873016 0.42971066373334998456 0.15030445908092404661 0.17240143827593185089 0.23307806289499560792 0.48788886742785203543 -0.05382889892226953160 0.26284570305659171741 -0.02823983470778225133 0.25455159578151376198 -2.47380025322636365459 -0.18708207456160269588 -0.28767504587392767057 -0.30460374220769437237 1.14579077912177007548 0.36576810514293839338 -2.21547923882580688471 -0.25909732408186947339 1.04230225077315519222 -0.15126514592527112724 -0.64152665448475332255 -0.33335448819748864091 0.93740947761660808890 -0.18744564506558944461 0.52508438208512475676 -2.19401162407357031014 0.64516732439804225230 -0.96606236418566460156 0.64039335834722688201 -0.62284533718188039852 -0.78244124606948006750 -0.17826384840046480273 0.13529480666703580516 -1.24202248433609807599 0.68492217306941183264 0.50495495802542988972 -0.52518180252412693942 -0.81897632127165242988 -1.64140953237103248696 -2.26445520339111983077 1.51992048341873142725 -0.14272843500105655834 -1.39013125986871788342 0.26032674003473388336 0.14487782302297214088 0.99440389107148718928 -2.38521483405189460569 -0.27373391563784488234 -0.46178981980493016835 0.71950315734252690003 1.18475971977231386845 0.34430471369538750981 0.58392224454537122735 -0.58271001199249472524 -1.88662083647404643649 -1.12109653495600869455 0.72253601851562310188 -0.00729274880125072890 0.44777014827478112124 1.48738120790630845569 -0.22949394645903090084 0.88898444427783163135 0.60118040060348587605 -1.18853107170607397158 1.06498857080607112202 0.80954088685095459965 0.28769032113099018977 0.64074821598576392478 -0.94264824712481909419 -0.69540293671002906262 -0.48761724934678385424 -1.19033826402467823868 -0.12834413577300649023 0.91668269061289298083 0.75283489902060940491 0.33282153208267856170 -1.11463231828107822707 -2.11941861107754059290 -0.41813916046379517866 -1.01848772366674733547 -0.71161044900151992909 -1.08517304990493745898 -2.96080930087621974067 0.01633837800602711693 -0.22940966979936822101 0.69683811484816549076 0.72877997642886960250 -0.56566278025542615637 0.79705530169024618736 -0.47020418588194679010 0.08923880640115966489 1.56663519023783925910 -0.64869846238106243508 -0.85882115767320454935 0.23358632575933810371 0.55791248170594753830 0.72774167064576145147 1.77625953143188120009 -0.74858828259633303226 -1.82812225144662532372 -1.94000151242149243558 -2.91523620148168305377 -0.97726317226875980548 -0.27698165798488577627 1.03293036248851333170 0.05235605002302878147 0.65206527085747845174 0.20817915660736840966 -0.49127390480257160377 0.17045333499156245516 -0.11577591076789055247 1.76185630445738783401 -0.00541155688422770200 0.82313471197023879711 0.92672793091072935834 -0.48796162787914110215 1.38580955837711772283 -1.25971187153147257121 0.40623122486387203134 -0.27346661218288598194 -0.97226637182900199630 -1.37535347404943419924 0.73838646393498030829 -0.57847665788092783590 -0.16127579513658774069 -0.68691245083424801177 -0.28896122718924183159 0.32312691518200831187 1.56308207518443542661 -0.22125852015094446545 -0.57202295345519649228 -0.92111304132287763480 -0.02219766064256766328 -0.18227978592888441356 -0.94498193132056818033 -0.17217424822613960900 -0.62429772436868002927 -1.28417814875517111162 -0.41313820562437431061 -1.78484823322512720090 -0.08469521494891302238 -1.28558081596325868290 2.35291896350553342288 1.24855761071999915579 0.76559071996574268315 0.87496606678363730847 1.44593007421867536522 -1.11908092392246194535 -1.08948697812177530686 -0.64634467745394874605 -0.16394578065231288355 0.43155486740678800084 -0.09593371276686847582 -0.82205977819122233452 0.67993720423572012734 0.04845464827818252856 1.18838237623378129015 0.32721410968284003751 -0.53466479504584596416 -0.80847884172013240178 -0.80454546634046797404 0.69182028327223588082 -1.91928217421729496728 0.89510181484209394576 0.22047662629513389843 0.09257753093650883391 0.48861647363397636701 -0.86668762408359401039 0.92815430644181717845 -1.66316348155951088117 0.73079573487792004460 0.28344944868029581242 -0.37786700410812401607 0.10442259180588223111 2.17006399850439324339 1.72787110680872002533 -0.88146056196524602555 0.52710275665863370875 0.16284369372134771536 0.10439729572057600271 0.81802139470071433269 -0.74332336666435683270 0.96695414503392396188 0.40759821769287929438 0.97673608684740953478 -2.15850348369800837389 -0.10111045422644023006 -0.54277939373114592048 0.24520331677397705361 1.42935967434147959132 -0.05596113251222731289 -0.77999466422182406333 0.01435265181996621571 0.00338692411954300476 1.18080484044278688494 -1.42237143242103303287 -0.09782049158107167242 -0.57559053096605705679 0.36510254923768570290 0.39213742266908530043 -0.23684889019282717726 -0.67600642123941290240 -0.39795084473067576791 -0.65405734877540377958 -1.65074139373535033748 -1.62180597166645856788 -0.21984620218402714520 0.96992728417307239042 -0.31262143457376534439 -0.94718433105990362808 0.67669730846704978511 -0.64347841314081710706 0.57120243376659263213 1.04490917874528888021 0.70053115653033126708 -0.62634436981125185540 2.12652861364018086476 -1.34764911273897114441 -1.50918223083905633786 1.76899998036157701797 0.73536131703909346502 -2.42117542150165965253 0.92403196319473457354 0.03477194260830653028 -1.92308432715449661998 0.70050696461921091451 0.87157046375242297476 1.28963712238653105402 1.85431879677609035006 -0.28354715453675238823 -1.27478777311564694941 -1.66270452525665124455 0.68682796414315216982
0.46586257736591213385 -1.58897712119807454911 1.20971951611406147720 -0.48137519394776923098 -1.63909519157506755604 -3.07011246512017388355 0.91450627929954042550 1.16668043786240249737 -1.52337691941514541405 -0.42498155743240367821 0.52563394054842682568 2.07146083184425799928 1.53518410348892131445 0.85572266589185941310 1.22110750240688248347 0.54310034057484346537 -0.42105954186381411297 -0.05550320824628913324 -0.85598398863094893319 -0.56736533991624960027 -1.74080073737721985339 0.48571982112562611666 1.32938266533495519361 -1.06524513099892170764 0.27429644709622857945 0.68001216707033618203 -0.24373771213207912067 1.41486335730350587525 1.08945991958908772190 1.51610277868195852946 0.45436680111877048027 2.41283902773945690967 0.42153879408536676365 1.92887791047808998535 -0.94975618733888333978 0.22462421514187991267 -0.23207731675042875263 0.24335702953026078221 1.32097704016660744131 0.90197441697122260340 -1.10286770920089782777 1.30508893844365414516 0.42710176401923355405 -0.40327724715015828005 1.11281881672164506547 0.37677744808766977513 -0.39556894093192079831 0.24978082548933749907 -0.19951313678618345926 0.18574953710166597354 -1.08288629250880474864 0.29100506921252139447 -0.21791042966087106891 1.11234024558081823209 1.10280194953537424851 0.12767843298858980172 -0.66060066712828491298 -0.82057384856769544079 0.29630884245368532826 0.36684807489603366015 -1.11713322550366944697 -0.18606633823821722151 0.92872613026929706770 1.01346075169476357303 0.57609754914359001532 -0.83203080057068090625 -1.70557403109087046822 -0.16082184032335705703 -0.10168454987853285665 1.02125902229626697171 0.40620953030262063610 -0.43501590181641525135 1.14754899909917473799 -0.31047777216834576697 -0.56665294116095366039 1.06364839583339110263 1.75260035164627114845 -1.43991019589901481091 -0.01705583971806727550 -0.81522702515303757664 1.26394658677687177217 -0.17265751950906202405 0.69603614580976591597 0.26187216002409718918 0.58109663348426243701 0.55214591259788969868 -0.62416052906986774218 1.56213317694596565133 0.47672475673550895880 -0.22695965876496973501 -2.21063213282932968795 1.88140991434549831318 0.38110485616769862460 -0.65181034085986799820 0.00811274277317713087 0.06629759608317031816 -1.29227838493528945918 0.49637752801965451255 0.64431314814498374943 -0.95077734611605979609 0.68307995850338576460 0.41360788619855204384 0.61107266576651209089 -0.70618104814905269251 -0.42393134420179162669 0.90263387572240860734 -1.25117666300923002787 -0.45161133921043805639 1.12734138678743334161 0.68993339977849454936 -0.42162780495187868190 -0.50523049061833191775 0.15028626230993202828 -0.02665968906930253624 -2.93571758194149712295 1.80938070281342144874 -1.13632789678447343462 1.00407241166569805024 -0.79725928481130214909 -1.38860559726167909211 -0.91580601085002355521 0.55985432947014468485 -0.57110460347230540545 -0.27314203471888581776 0.12342273313346915908 0.28086168411947237677 -0.09326112560673129048 1.24397667329873007347 1.74418401268853151542 -1.53428917464455794040 2.34013529109334861289 -1.64836359222959338844 1.76951993390686346252 1.16208223911271013584 1.47867439823544577493 -0.02116259607635868553 0.25537473294160861759 2.67861627408725855304 -0.15019374472719854152 -0.21901836132362001441 -0.79936549175322291205 -0.17303586917691474167 0.34710672755159527325 -1.05788071275863959642 -0.16094724515013714150 0.75284402225814750498 0.04593258085654221279 -0.29332591247416661684 0.22747073311165255660 -0.42219079747798188285 1.38970285376400770616 1.19564601631618350197 0.28448919183547433098 0.59983501171376774064 0.66755956252132586659 -0.59979746733050964824 0.21872801772756997329 -1.44228989074653912716 -1.43643659145140634159 -1.18027386099742681580 0.60789091083432078566 -0.61610681173084513862 1.95246107995605289176 1.53942121443433688199 0.25540189168914778639 0.51256257624028456199 -1.69392969994858910709 -0.80047624967848851618 1.27874214738569569327 1.33904419764345661292 -0.99883352752804155372 -0.84974919178347740889 1.27972329581077559624 0.90135209379111413952 0.50792260256378685135 0.25310944808872054557 0.56827905292806368820 -1.15135534149135621007 0.76785837859481032019 0.09864335591134933134 1.63588795535948006155 0.54526110869544286430 -0.44040720725579751704 0.47668742041007716725 1.55643862335559224341 1.23408194193735787358 0.92537124876831888809 2.13923429167939493922 0.32807320067540918229 -1.20102048813150252826 -0.78441439605313734162 -1.27702707658290925963 0.32787018187542044112 -1.01228958431690463371 1.39516833065592504859 1.09718180375319618314 0.33090335984442553752 1.31363871324703351817 -0.25703958552373601387 0.70046627925026883066 -0.31398002689874321414 -0.84787330962345441865 -0.32738317900122171356 0.77651151208631652434 -1.08001311228517415941 -0.59706787494882362921 1.11219170108267673136 -1.19600407643251149814 0.61755756801037331449 0.68994004971690903183 0.10424992086280723824 -0.15941042271050287482 1.26720677109578683250 -0.89075962547916698320 -1.32015342804159452328 1.10043480489351841456 0.28605277884518476306 -2.13009218146625567414 0.31455791263766713639 -1.06253242393058555670 0.74489885430172686487 -0.37637091829820817912 -0.83470435808076126616 -0.82582013678066235052 0.17774369444696147546 0.29899035359070302853 -1.03568796858479372780 0.46111018626114053109 0.21191650326997124587 -2.29504721948520673536 0.96673919088444759673 -0.86576842338744375294 1.48806969803428734700 -0.23738097104599939491 -0.97736605703394241473 -0.88338425024776212613 0.56437164816467433326 0.11262580044846182137 -0.98199549214563541799 0.16434736044938497157 -1.01364319982992912017 -1.82796092686570887942 -0.15875233802773258684 0.85152661807317842069 1.14639309108203901744 -0.15606365324671811479 -0.00013838119435939756 -0.10970767192268397749 -2.03371916232656646528 0.05437697528282127435 -0.50072736812329310396 -2.02821616925476355675 -0.06342399331441396504 -1.03354344188889712974 0.18853740606841543070 -0.96990365823578195137 0.27679710156732267867 -0.14516693104700356676 1.25935729695636555725 -1.20193593057660419454 0.41331170805284755954 0.36355428635390812930 -0.39268123769909885068 -0.90889839369266445246 0.23894845257514432668 -0.52625342383161011206 0.34705378876450326819 -0.59822479080354995506 1.29695827506207583824 -0.12185141495958877467 -0.43321070610108131094 -1.04236157169902110553 1.63223170651548477039 -3.24591271945005788169 -0.46769282400109940534 -0.00159262239499308677 1.02735831290997992049 -0.30013457482066874249 -0.02234038719970193182 2.03743092057728647504 0.32359105248470487748 1.05654671637607355805 0.54833677738325525830 -1.37205154894474845584 -0.91137791849249505383 -0.29043416484237338793 1.31346488964679442013 -1.27494212489708202973 1.10475006368768635667 -0.44352322268885335799 0.08854287210078345960 0.56621055683497778510 -1.99129832447095189707 -0.38469239470893334953 -0.78369884878882922763 -2.17912267783327751047 -0.04862675279956129443 -2.28008642043400433508 -0.17994540399478131665 0.22202422761887474767 0.00615914016586353776 -0.51045187497878508065 -1.00724665276954516990 -1.11766917908500063028 1.16615736235386258102 -1.08532941728036580464 -0.15716356659168889687 -0.79312339508564744239 0.61192252808473501791 -0.92333456845686456838 -0.59946889124164381979 0.55265885276023951622
-1.28293253460957168421 -0.37469156520296315049 0.47653592024857038822 0.78172147032633410024 -1.34119403863053610060 0.48514542081916667282 1.22607878694005534292 0.99335142830223366328 -1.42071082402363635389 -0.20080864006561394142 0.34568488714831874242 1.08616902978090101861 1.21035106343193699097 0.15634406720751825581 -0.85664837579258845679 1.03807254834051043701 1.32865932565822530975 -0.37854662367867714101 -0.08753776280824972222 0.09396132070314366924 -1.45068695331298558315 -0.24549446663069185437 -0.28766908370659466376 0.27214660152128605786 -2.55706483638535475578 0.13184314073960057279 -2.18728482141665914185 0.32623311115192410448 -0.73368232694154589257 0.41943690638999259201 -0.25899975202892477899 -0.57302742405013307181 -0.58746601610139481675 -0.46408426238796302021 -1.21331028394777806767 0.11221341234657553065 0.75582601057246956433 0.23967640451538174684 -0.28192717805136702225 0.39253478781866185665 -1.90064222778933977764 -0.34197283966718977632 0.09003969371598306848 0.35528348358054229195 0.66830863322745837074 0.47369947404541978830 -1.65768801741855398291 0.22108907321363382992 0.66211007300463486924 0.91558447494374584075 -0.43769858184633803067 -0.74163068669580012315 -2.48912342852794532533 0.03159702953831111660 0.31258121659947807336 0.20476595877955777736 -1.78958303070438318194 1.34254478626485229675 -0.20375136480547370588 -0.60591320026028183676 0.18801099545324706508 0.12195769570526093784 -0.31216313594153288768 0.19900186959529697628 -1.27119280012201385510 0.25250524138822288966 -1.07477646348749678040 0.68031680158782925627 0.82992346106349235146 -0.14437671086770598183 0.16394860150708714941 -0.80901465182464060710 0.98919660676592713333 -1.27570547169388448516 -0.75891226328414784774 1.19385094940553715404 -1.20588611230777731365 1.08416120194519827180 -0.87328482341863478133 0.51296555459581505421 0.01922886772423932841 -0.89843369861772903739 -0.91238082445092694162 -2.31684300096305628713 0.39244337310009935749 -0.99633419297330405584 -0.48409834922114119982 0.70436262634389068538 -0.25275843380043711006 -0.77206235066564399272 0.09128456070786841736 -0.14685047852219418330 -0.05233711591589146339 1.16146765008845731515 0.38331824853652179952 0.35728381190517982668 -0.99957838600209769631 -1.27728959553966014973 0.55833970667208288052 1.99964116625553089968 -0.41875167116985534399 -1.94363637479269746322 -0.63647458595794026426 2.79167870710180165972 -0.24065572530293394271 -0.23321509578813345853 2.11821301218952662282 -0.04530795915044578959 0.54376482659462077596 0.84153348744307565621 -0.57999259464071550862 0.80174454284628515754 0.83013506573587048099 0.85108327693332408437 0.17589333566362949646 -0.06614867544877175987 -1.82167763058683407351 -1.34696749936575699280 0.47531066722311793304 0.54107038323926126555 0.34816076345150565041 -0.38675231723075509382 -2.24467962118971620100 -0.14974791883974414297 -0.58043607598360857924 0.13778727884521460578 -1.17966217402667816749 1.06841559806322816684 -0.42743822824260713222 -1.41839741275712682977 -1.00906581695363528617 0.85010507607260232810 0.21667449808403418943 0.13691514835415588558 -0.38001513840850109638 -1.44602199957846866418 1.54704755684159067641 0.75020821009149296632 0.21942768563468223464 0.89341779373795304764 1.07857335602968085198 -1.38349664779934178327 -0.36521366208657418673 -2.49119780288259251577 -0.16838161045730082321 0.11556276765125673978 1.99992729141724079334 -1.64431596980522565232 -0.30951007615493347780 2.14447984853598772048 -1.36092641329082275625 1.52411938117700818118 -0.04881744964572696382 -0.08138210254029169810 -1.42608425746630751441 0.74434973533657389222 0.63465131888889236844 0.95000650490376603585 1.17740639525253154574 0.09045014634218433158 -0.87113212470625744910 1.00436146202927001347 1.41890536060774219429 1.42922000058298892533 2.21065975676305104258 1.02453401368152730022 -1.82866663166501641768 -0.79304586485427563947 -0.23153974946838110083 -0.67761796869285251255 -0.99970863505529072857 1.15620401580375231632 1.21350588848602702896 0.37142191026154203204 0.82363023840260030095 0.56955591937263005953 -1.75503007646829134458 1.20173186885672533819 0.08726421417783453149 -0.28488370812411700772 -0.08159692503988116852 -0.59892594907372775914 0.85868368108346670997 -0.50663584555746810079 1.67430561291328539042 -1.68569041845680422931 0.04649273602705628755 -1.02117788203681558734 -0.15461130693250735302 -2.79184200829957918089 0.51591711824848796031 -1.32895533608934557357 0.05264202285996128633 0.71793889702709334788 0.97323748318471137164 0.43667889002762255712 -0.19577302274482202837 -0.94259275008480192248 0.39854603340507255282 -0.44780083378911417213 0.89123730231680675651 -0.98994700262475976427 1.55722773967354211067 0.39943948820538333067 -0.07845817360607217072 2.39664873515717147257 -0.80649543560578706991 0.73794535339695344067 0.25349558273899841510 1.24077348923019403770 -0.45534916077076620367 -0.93358016640239105399 -1.51370484682335093574 0.84268507003933912358 2.23865845887162207006 0.06693741862554197786 0.92262482387826816321 2.12908291993797993413 0.20003589797561843744 -0.22899784478560997192 0.19824974727971900190 2.76901728750345910157 0.58501177500007450760 0.34211872290609768310 0.81064761944125118820 -0.44670794235989202958 -0.61922491319166450552 -1.00510520383485113527 0.09075192658436911919 -0.29177440806137816542 0.07545626051050487171 0.38025928052375734811 -1.60792402041492676901 0.51827468535326204346 1.57556571919780430413 1.06950865069882761205 0.84125316312162634613 2.04600587079364037990 -0.21066518346430365694 -0.03514956865812823156 -1.12175114180361279459 -1.67306567574324405179 1.49054069771276354039 -1.75353011101216704759 2.06897437989940247149 1.77733885768689003903 0.05071580922413013170 0.76152934360073742948 0.59634339940695824112 0.52008330098152644183 1.26844802362275155261 0.48478090368961884726 1.06039734052652256935 1.24983255818493677047 0.80518144086688159256 0.80638835498821459513 2.51504306895250229203 -0.75402269854212200517 0.94160993312490059992 -1.67507100083094240262 -0.18181279262675204000 1.04134784366884103335 -0.17653367956258911309 0.73091148997703192514 -0.84109757931336159853 0.83660279850594077011 -0.68033270836125836478 0.06440303802573014991 0.97753429846861705776 -3.34709628654019208938 -0.98310763399452272271 1.04709744676328586621 -0.51165214216176735373 0.55316167970108176544 0.80122014334337177122 -1.60786802658898864138 0.80951217151296328556 -0.30970126559313498893 -0.95697779632992441279 0.43381231215495247300 0.08150662955589757508 0.55412737570538084242 -0.65174803225729671663 0.57865497381302544166 -0.40291950383560953819 0.57798093217805823762 0.91628360897525185091 1.52237294505798215205 -1.63263268650262216575 1.87064449860119652591 0.42796107085642448586 -0.60359746243556455791 -0.28207160180719725862 0.57990698898183534737 -2.23647428973042927680 -0.60861853702455814830 0.58135865011052145768 -0.25161642264395894797 0.84254467962764223454 -1.91566704467165571657 0.77428116382098022275 1.55747495960975879115 0.16555754255075796899 -2.88312861027783284840 0.83275691842219579097 -0.26535163310776443968 0.69883663851747057638 0.01692490413968074023 0.07889201839587482723 0.05341985682622590881 -1.30254136766177763818 -2.06880120095857567009
0.24638313647666570949 1.28264553096899658335 -0.01115355384103614012 -0.61858748722155099120 2.52381071141994572926 0.53220421492811798014 1.15069795813569086818 -2.16549556176214075265 -0.01129225993622652233 -1.65787199044672273196 0.43047009012138781614 -0.23689292191869196214 0.39225008468836014552 0.06140912206320398026 -0.92602013291374329906 -1.84608334905729853936 -1.17930618443575241372 1.51055995235573492508 1.09546139571265799262 0.12980117379807426525 -0.57578765273553389470 -0.59287696772805575929 0.26036177224625189908 0.50767207227687038973 0.09882047842655423964 1.03276229378224004840 0.42845299350264975935 -2.21503998037585736469 -0.15401283616982544555 0.47232262465558721987 1.80955583099941863523 -0.44824503268545023982 -0.59395609619812750335 0.08693044427637877658 1.46172182815187068350 -0.19997242692034766787 0.42399954553540375457 -0.87327136915078185098 -0.22666033153760578589 0.26258289841665366504 1.79661997384202432038 -1.15134617183263765483 0.80705824753266486304 1.35097814366347734882 1.80375323775173845853 -1.49930095518703132562 1.42412001755721107088 -0.02917361665248927385 -0.22614502912072403928 0.41204445503210412882 -0.65407553133866680461 0.07412702835299776749 -0.68695646861152392937 0.54224967367814869146 0.53935009402642875020 0.19867931982161876614 -0.73027086166274002288 -0.62008548193043622199 -0.25070936052520392812 -2.35698423595406625353 -2.26893602925035509088 1.44455975527257174384 0.79520088689080659083 -0.40347841002345835593 3.13874832416634452770 1.63889990625638404254 1.16791302822715614695 0.22641625368627435466 -1.56589305738079964669 -0.35957943065105479885 -0.75586280364362201656 0.79897841753639275986 -0.37068624502997943315 0.57918679381163229447 0.73467773231935296074 1.55790776207971903844 -0.87233441303563252767 -0.37006415386961999392 0.28388497330466239132 -1.44342465473330650028 -1.79782231177319040683 2.06725845075921998983 0.83277280082432658670 -0.49535841474222386260 1.32646373139395246099 1.78819628264241403670 2.33278102077338456155 -1.55811351931571673290 0.66870288452581261307 -1.16051082223684609573 -0.35144271379997660265 0.47527250978138851911 0.05959173275237684281 -1.43355153671759416589 -1.43474995960591900079 0.53163824409060755904 -1.83989566127339188029 1.57087730401658931534 -0.93456490513367029838 0.52748087359633710758 -0.46575828812622982467 0.27142990749836110043 1.20884730327544387407 0.75590895095650401103 0.74907423835244457688 0.51809137093191637291 -0.35563778267736462224 -1.57858394456054007549 -0.90818501197446865891 0.43354869814533281147 0.30920268025865121908 -2.56576036923665684597 1.73707638256238006136 -0.86963649837376699736 -0.73581319595595218175 -1.18410656751683895926 -0.85230820828066344852 1.50572010084216345582 1.66889920317912987535 0.57023088649202924305 -0.36327045281379971575 0.59836888838233093235 0.10111296485512979992 -1.29869916486427028346 -2.90425788150154629008 -2.18699275709297547010 -0.76071455933125964322 0.67307384712266915550 0.62546056228022528511 -0.97246128531423781105 0.52468486539113534661 -0.25036203725360778316 -0.23078639586299939945 -0.87190141978155599745 0.52613479174123201076 -1.09234364276045892161 -2.08331824713536839511 -0.35560123645082108990 0.55164165410383014798 0.30900772096299844449 1.16565463444982420071 -0.32704364977414701610 0.22721088021539462276 -0.69034170893709756456 0.68627094860281667721 1.38596400351568194154 -1.24755975160358945075 -1.45362327610518748955 -1.47518610989259846278 0.28822305901884526236 -2.16772941332490409749 -1.33898700016398275459 0.59748322233157313832 -1.07275639522129195846 0.08037408821066087394 -1.35930822851064703194 0.79757684203898104869 -0.04804145606474316543 -1.63249784814603060568 -1.77957379861378583996 -2.33283331292348705688 -0.35480599925547651186 -0.91138381937965418089 -1.54115686886612635043 -0.87153296777095756731 0.80199376597419080870 -1.33107245450699762657 -1.22742872139910241813 1.06649598430503766977 0.97668761753224608846 0.34498302510364198259 1.11889805291221966499 0.13249340516674670831 0.96613161156947480190 -0.17614756788429131174 0.22273463139220675555 1.06214877352394898580 -0.18915300971811832564 -1.61400068781601802037 0.16285906175331191226 -0.67394370516437973606 -0.31836907370066630518 0.66546477524953218108 0.44016194011760390037 -0.35914066785387377401 -0.15976210741731047826 0.64772020446820233186 -0.85136081834482846276 -0.89317313876554116359 -0.29936497383094928804 0.49199026507279125520 -1.35878249420444752182 -0.56077718277452059947 0.53367520717492111793 0.81033443033957730517 -1.00690287668481248673 -0.35802506002864292745 -0.81778113684377307102 0.66797891778976470345 0.53712494363355878235 0.31579041946822589138 -0.22405357520228036394 1.11182805177729515655 -1.74064733827598772109 -0.25144732037301387173 -1.38435366759608058373 -1.79790646181908009282 0.68052104933093193750 0.74910816286095982530 -0.40779553100724086345 0.25622360722172199399 -0.96676362099660817506 -0.59818784312721062779 0.43495057709895906806 -1.74973453686561564169 -1.46329447381716870602 0.69325630447356112462 0.17609528280747627216 -0.49640131014662575160 -0.48173230782013864992 -0.13669085652161119815 -0.75245174686337845671 0.11148302695527910477 1.88654554397285822986 -0.33793447824566452686 -0.90498753779598206659 0.43381823737380514894 -0.80436049221779803986 -0.09287745307341596646 1.37782508381068424796 -0.05269370239356814534 1.03270818077489390241 -0.52333970188224665510 -0.51100304345039948561 1.19797797172107145514 -0.36694773762314741861 -0.16039599070254745294 -0.69624716104018857799 1.03804387511529272459 -0.21890666877061915052 0.78904623221500080898 0.77775928646718361925 -1.22317801196424946752 -0.85857673937767486905 0.08193903325020966688 0.26159248720529248988 1.25901996441601493615 -0.43534159162263269538 0.77706688596673167968 0.80099997573699910358 1.02957507093841749146 -2.44080486747208524889 -0.13544156458267381238 -1.75749401052851328409 0.29756610161388569180 -0.47686551924136705294 -1.02262222366431299037 -1.60485705717597015862 -0.32621866636886687196 -0.58968850801530869887 0.71143298698965362625 -0.98192444595210126579 -0.93945955165819017285 0.16568865238244534499 0.11973240459376728595 -0.38121111198319068691 -0.43398724151145601224 -0.47958763875648274810 0.06865474927880955980 -0.72196714333262412833 0.42957454362954472504 0.33810927350937819424 -0.44900401807525547326 -2.39237001052141806667 0.84846400262800247827 -0.18910679703988064748 0.19021848803180155252 -0.78144039640181850448 0.74353150470215945145 1.20054468412207993033 -1.85826338178691763403 -0.51260409207905677231 -1.43101220764038528088 -0.23859684809156520013 0.23862300882032569382 0.21684930976744426490 1.99850083889778806778 0.88585879086694974127 0.74246574810052279325 1.07135145773175377570 0.16390887303569473543 1.00174386695053696528 2.56205113527905981030 1.61679364682360082739 -0.09448755335234117203 -0.54281391393929279143 -1.19462236834574442312 -0.71013738812555093904 0.13243645006410206810 -0.46667079189974658426 -1.83724811374050323032 1.14430346723375242490 -1.29757680034571931671 -1.72535446529358238443 2.07476419119757515830 -1.42280699301325963546 -1.43349610850356157243 -0.32947978363104279964 0.01522036666961821758 0.33280740510512002439 -0.92906993629631728915 -0.20700451750778264826
-0.56571196576256366217 0.80915764196695549870 0.77749373457683224053 -1.37701724743353248748 -1.18937016468207223951 -2.21882051645623024072 -1.56491000525687806721 0.35046095888886930059 -0.53643710529980881407 -1.71622638925547499333 -0.24568949637324696833 1.51045338247137239662 -0.53145092104332780636 -0.11036109192823075065 0.07815458883094184017 -0.81576356751022183200 0.02250462618254459729 -0.21534230509127444408 0.91233719864167073244 1.25953807226119240958 -0.89380019610988559187 0.68098810313781898973 -2.71746610924846887514 0.74651342152163380206 0.45266564535140951797 0.87931158694272804066 -0.13292553219461966663 -0.38670209938115801540 0.51634074291606202323 -0.14142026513044106406 -0.57783915965349141874 1.19472365119379775322 0.40256731659226629993 -1.08042104105308855999 -0.55078447547062237000 -1.38741732563338260320 -0.05894409250319255361 -0.75195713959920595926 0.13473868788109760741 -0.29331634375159104655 0.15193417439079867637 1.61595431235583886220 0.41053775900782418784 1.60317555903650998950 1.07984311309596270334 -0.79114639941133224621 0.07077479119679051800 1.10834362338316361196 -0.74868359191064304259 -0.05631549175023634057 -1.13223435244444514680 -0.96753749665063959462 2.45046374943182687645 -0.71877288297749108992 1.27404293402968971094 -1.30408155648447299235 0.24447166346285995053 2.33614340404776665849 -0.05785868360275661648 0.98584550627346323459 -1.31235971991515643076 -0.32470507003793891432 -0.14087524171496731973 0.49059137536419966663 -1.84649942846942094477 -0.26389079940882154141 -0.61443239399061588824 -1.90442501891941740055 -0.56108796386658843502 1.22425447123217501222 0.20501843583167572715 0.19906665898127487435 -1.16299206781220987317 0.23664513679661136614 0.02570512132585761264 0.88135647178866816098 -1.00321538184315595110 -1.28127472284269017244 -0.36046333392589324784 0.49638286497269484832 2.46683285650212669182 1.08130496477521997889 0.37986524073405647517 0.12457268299194702854 -0.15821438917259922352 -2.12732862144306711372 -0.25783888392564985326 -2.20754681896330895441 -1.53714536784890287713 0.81899055959150290906 0.65891851552980140738 -0.67217230769969937842 0.14010646579130583977 0.88662704371832268269 0.53688263691397319910 0.98415184547476808330 -0.33756379239892786437 0.95136846669664243414 -2.57591055534649271408 -0.03030550378292597852 1.16516563667226158429 0.08531701343682936145 -1.09934178819494610124 0.48120073746202918219 1.14308062913253949411 1.63607718176455341208 -0.68860027118647038069 -0.33580187748466727715 2.24000182039236683806 0.29195524261506772268 0.65674846038996492759 -2.91784559851020119936 1.92508144165465822084 0.32470975889209979792 -2.59412559778159268475 -2.37316458389893680803 0.32083890718851171275 0.48376979711447765098 0.05848731773123281436 0.61519824450885951528 -0.01297695681443527399 -0.52784265580295297582 -0.58347933042841559903 -0.05543883830627720222 1.97254857810464678813 -0.19697900208914934095 0.55873011247285220282 0.52252109602859064807 -1.82642866229001210598 1.25800213291068985200 -0.31101708655043819318 1.10088497756453507215 -0.73644555278550050126 -2.20971447227222927978 -1.48010286240305322103 -0.57331949206879506686 -0.32287904513511184179 -2.28302144179861166151 -1.82259981004753979228 -1.17028417353832159264 1.63809492752122753956 -2.01667333095965073397 1.77666901175956382097 -0.33557886679715387412 -1.23763318103317443430 -2.89044140049671094417 -1.43866741659684471699 -1.08811858764859703541 -0.45266411661414152068 0.08775540052235285271 -0.02082071554002328656 1.17229785961976018527 1.25538548028263208245 1.15720807080220455809 -2.18412690676654852595 -0.87467872457987039247 1.20976943911483836303 -0.47837172777720166073 -0.58430183008094316310 -0.77613312807254231096 0.54608173788325575781 0.15167187703476919802 1.03034604925013018040 -2.29327022948233327782 0.96968321553543102009 -0.64531468037973582774 0.96480130707949041113 0.41033326440539824587 -0.05618719235099458448 -1.81798181932600133592 0.39327806634276291087 -1.35149262812250658961 1.13816835109758796030 -0.84339272966930534103 -0.38978405854718889412 1.34631422815501355927 -1.47545558805872700781 0.70200421303437954279 -1.77801227061568867249 -0.56107710622818596224 -0.12322944253995410380 0.23585684184816882447 -0.12580571622237438079 0.61307517634948138774 1.49960017308977167083 2.18213060371214195854 0.33236378027847690575 -0.78913827672880321185 0.71356810308524920572 0.17083660058805280602 -1.35310562632624442614 -2.46440079508301668199 -0.07552066566005670445 -0.30131645969795289863 -0.49504690158314912374 -1.34459915556567732864 -1.80347834152811903330 0.11166659836278720885 0.30612234447502467694 -1.00619988189662690203 1.15785798958072616571 -1.39218949188108753745 -0.65542167437241971584 0.36963599760473342393 1.02519952237509071047 -0.29524000733956845544 -0.49402929292283109808 0.32707395732817584610 0.82863555033792168913 -1.00955679686152000052 -0.54844893771507141622 1.45331083100175950662 0.55217183140372716466 0.77613943560508069641 -0.52524752106717786937 -2.19751751165144737499 1.06855986012628623172 -1.76606191468077589057 -1.19047441059721426093 1.65998551691818851950 -1.16482060480440252626 0.85680476219639101210 1.30870995497442321742 0.02857441361413764688 -0.53129765450197430354 -0.04335017330753029169 -1.60339395054115585459 0.21955749696714726982 0.07085193144375079299 0.14689358971094923501 -0.73067512175905557914 -0.33304821617430152569 -0.27266218741271341930 1.27023539179965672119 1.67316056222360165506 0.87992128837853311740 -0.13473403111632492601 -1.05880750901383158258 1.19394691204993264044 -1.76536589632484686163 0.59596597635985038011 1.07501760333970564076 -0.71169872538413470053 0.16458285237854661243 0.07237730932167528441 0.72194387909234414291 0.38118911687595113946 0.09118086613729209366 -0.60948331050911352946 0.65389134782943625357 1.40278710747189938601 0.39063938920125823584 -0.90766407581613950395 0.18960555003810014574 -0.49659114263119802368 0.04881734191253050970 1.01555058825064237205 0.72140862643587144731 0.36708005217423789190 -0.64229714287097994241 1.12925270217129525285 0.92022519535272495617 -0.86688411527014719304 -0.35828247868813545285 0.45472517804139755970 -1.56107445198757832650 -2.07502312721006942908 -0.77155878336897065761 1.15902639404794993716 0.16105167606044296091 1.40198781339948408409 -1.95378403747182538552 -1.65693097602998595796 1.20742265914197810517 -0.63338050800343825841 1.04985928770698033752 -0.99009047493289548125 -0.65627700018808821092 -1.29017342534615497840 -0.00022634363453657931 -0.69180422046805778447 -0.06239457570675948500 2.48268365532602564016 0.13109132554816324556 -1.06159824941545255506 0.41942735332496550171 -0.82801970866646534830 -0.21633917343988456894 0.31594924962064196983 -2.27479231749832644383 0.27959231950254692656 -1.00403308827334125652 0.70343237057272545165 -1.83883344783270308298 0.14821384503912571340 -0.04706551278808891736 -0.82935968436389140290 1.00358815902524134422 -0.26064644121065555504 -0.77216193192328153039 -1.80187855050197454077 -0.07446924968879277407 -0.29057194426159921319 -0.04029658468928434822 0.70765797207508129851 -2.00188037109017091808 0.05890422023374771582 -0.12742962652581638072 -0.72995942908253674819 1.27307432374760298721 0.46692260560840503913 0.04921093215887093614
2.35091295074211359406 0.83497694567768709906 -0.25638909245135521608 0.25487664942018267711 -0.83198454523958409457 -0.78369149677367300200 -0.75058878546772700435 -1.08448657171379725384 2.02191724680405071624 -1.10872313717275683409 0.01671833982150286446 0.38636933270814505237 -0.25999798269395646422 -0.37058826117700366387 1.30349749289625505000 0.66106442939158505112 -1.19149090562516124514 1.19004178351413214543 1.28536492183297745839 0.24800773449815802230 -1.18839856452292380595 0.47646195640570943031 0.73618524735010815174 -1.04306301312236682222 -0.61394941190803020703 -0.78694819900339785246 0.60114278543354671136 -0.76364364325798073097 0.37774696805539587086 -1.41872246021654824233 1.76866127631267611164 0.10575492993688383192 0.39338217903374012030 -0.21330534675006534995 2.21687326154204589201 -0.54895243381747749201 -0.14074695715859378287 0.47485286761217182505 -1.22780196384898987461 0.40277175977087625869 1.11575290130416804324 0.73849253748459642299 -0.31940288516340153979 -1.32053368615758714988 0.12453275096168475722 0.96053569267057725689 0.15983032676111358361 0.73940388656214983687 -0.59242476549170386413 1.02355235274874223350 0.42256526030789265391 -0.82057768398193220438 2.61125749580971566743 0.87977825007810905866 -0.22981824952837001663 -0.47711057826512748292 2.11322035017747822394 -1.74013119972099561394 -0.92278972535895553708 0.40995332029544856445 1.10087839768674133900 -1.29818671129966989319 -1.69375097799583462788 0.96453095030478031013 -0.68233405042246231265 0.50270739092807603665 -0.51419766959560386788 -0.73886575101243567865 -0.61157936748872987476 -0.39949514571598321311 -2.84930768951120283461 -0.85189292473579136811 -0.16323357812434605152 -0.17259537842027625199 0.53584081217683732223 -0.26542287218467497389 0.95867700812426948076 0.86204636469892448325 -0.33711847472983152985 -0.54239692108128745307 2.34412553343135066086 -1.87271882304476244840 -0.81028580522396975727 0.58376864023898589195 -0.11203195683241080893 -1.39746929774064398977 -0.51489419572982331186 0.72316900913051718192 -0.17607113326789092245 -0.04347379924469745027 1.18306723199310437344 -0.11842452095201239093 -1.13484865121872324778 -0.03371695306375084578 -0.88750215620204297995 -0.13510766704719082143 0.49453093914781826035 -0.56060656859942026298 -0.00779146531398329338 -2.04321791542192432445 0.22608895922898511466 -0.08333191980778183183 0.39660890916081509294 0.76208648641392462419 1.23833386081735308260 0.42613946477480152408 0.12238297839183957805 -1.08791940815372445428 1.72614923205826253927 0.58127802342394774282 0.28287386568970968037 0.18673274461252140077 0.78679836403206349082 1.16386828843992096161 0.15625316356547139240 -0.77590058001976069946 0.41312562517916573412 0.06554868971010366363 -0.32524106613695069612 0.36329942739984089073 -0.77935314377893460946 0.54308288807631244222 -0.76107806860935867110 2.10413640293043524565 1.00888439291155762589 0.27714037667082008776 0.11856401235406845152 -1.01108931552617664629 0.34141244553449845434 0.27017947085578153388 2.19526165535828265973 0.63975825723261858791 0.18694563782043896460 0.75559270273945888796 1.08047465460852065711 0.98912596217109927110 0.37447821796234598279 1.91913787448999473284 -0.72483214125814976470 -0.85605998804283001125 -0.91926210012899944868 -0.67609257554571433602 0.57242953302252541636 0.68220146497352951442 -0.91925447484676681142 -0.74591142145985434020 1.66163840672733664761 0.35280874736926037816 -0.75914574496029163519 0.24813201567233011957 -0.23777303562310367346 0.87977369740263577924 -0.64658850853917648749 -3.09132430892639042952 0.33036859258751105628 0.27775334177494626076 0.55540289017336053057 -0.06108029710987318561 0.56923417642284257489 -0.55833284512698810875 0.28435612277087057853 1.86161653010839511779 0.74561916976266284784 -1.46650617341879185851 0.99834084126575473039 1.76628386598735875879 1.18734282473736230124 0.79325912584660396298 1.08422136691387249741 2.33992848880021853120 0.60910145556109063225 -0.82290208922289653781 -1.71327660200401421520 -0.58073073149137932614 -0.42747215435376395565 -1.46430454734549408968 -0.49236028963286287974 -1.05053475418739172831 0.23608938902928641723 -1.37962052846406124651 -1.41144466438804760955 -1.62020546537165421874 -2.08502343623480079771 -0.08271033371703445658 -0.20532036151830396209 -0.41268077203709785383 0.19534352178158348456 0.03443855469946490583 -0.05551976792165514568 0.09232914993807074533 -2.05042419774047202097 0.01695194278690052153 -1.38486754062139638677 0.88312955982806584654 0.43827326842622704728 -1.95475583575920852653 1.01291386504307090455 -1.53889666362528965138 0.57597333170243969480 -0.52554731661249132202 1.05433364097122517222 1.00851323019297023365 -0.75237786098414694003 -0.56092068457349419930 1.89283550026733671245 -2.24761693414024987803 -2.28933872839970975477 -1.12573423948785333870 0.10259867283444400188 1.06292922562175262691 0.21716250952486940151 -1.03123781683966764255 -0.67999004176105759534 1.49185266076087352793 -0.05869147066857068051 -1.85412878580850559729 0.26964739065184273326 -0.02982715532092810803 -1.45164150984960027557 1.44797660175333509081 0.82769445146904108146 -1.78194791641952199335 -0.28599734789336284102 0.53350989874942555957 0.49506561567788737177 -0.03432153796294215575 1.06706629348984827210 -0.07590645997688243163 -0.05412441253662305524 -0.42290964127371594161 -0.52081412095754853198 -0.44823492537677506187 0.22277670621145725938 -1.32468195031352564683 -1.23283651026346197099 -0.55717494450285776075 0.32408358550169891199 -1.32028761790997162251 0.10644473059912941404 -1.35096166107324910932 0.05688235234255151901 -0.96840665365117939434 -2.29936435888407020300 -0.57276077184121920727 -1.38125792286273907372 -1.00507673083517756751 -1.39959389484410690052 0.41233306959776921952 0.03741568964617540682 -1.17291258746692772519 1.29002957482121471955 1.22587097637238251480 -1.23216288752478653201 -0.53571551444520137952 0.40703930018618306175 0.82307967051425545701 -0.69930663415513882875 -1.06660170250843711059 -0.79685565007338943211 0.92463371291092699700 -0.74247222868970863541 1.30805750526897401897 -0.74393601574203915838 1.77136450717301618951 1.13500633642092774167 -2.13383151079342425760 -0.19308062974562820169 -2.14182169184574533460 0.00867413346085424940 -0.60584067538175156997 -0.76768118063641432869 1.19556370931530375756 2.10683012005230008157 0.20405178920064018233 1.29203209545297625915 -0.84193927795807110837 -0.58987153115015034111 0.72742740973432773455 -0.49215859741305989505 0.51726799510883747502 -1.16106152227531289611 0.96646378044926617434 1.16571876385630490702 1.39885221265486658915 -0.92573045837704359684 -0.39370892072624269487 0.80805288907372962992 -1.27344928847822269624 -0.67471714261005910629 1.01099264373315511634 -0.29206452024965473546 -0.32725328330919956077 -0.40918668521464085508 -2.48201830962307834483 -0.58004388217698399366 1.49891583684543294730 1.24916378506328595854 -0.55171775691493551985 1.69433975214706133983 -0.10872289875740906440 -0.34793099359085771782 -0.06001360320618492894 0.44738521774541734066 0.07241447341692959505 -0.26785591180298240488 0.14517384351918644070 1.11094365528301741719 -2.11627842061661475270 -1.47240772492674865113 1.30783974906596700549 -0.23183649783311499615 -0.59340966228538838401
0.84332622184691452549 0.76770078807056130188 -0.89115281081626507298 1.13519204382216964966 0.30997447054572685454 1.03158729239913604658 1.04120585659353048769 -2.76288966675016389729 -0.34492607654259505034 -0.84256123279117212110 2.33357819255229914646 1.29238551016236491442 -2.48865668563720676687 -1.17867253724515697044 0.45205185797409791482 -2.66322121889024865382 0.35250295523310515300 -1.23888668668994172961 -1.27472368990079321094 -0.18554452059057649493 2.37750773971748907698 1.24951058281466775846 -1.44234794053687886972 0.72351930493831728697 1.35430685396811489873 0.43693263242669816426 2.19274996755049178532 0.72137416047814917341 0.55664131199408040107 1.38073293238360861324 -0.10492971964089378711 1.04805093344351485385 0.50624323982419661139 1.13815120530783597808 -1.62351862187719553354 0.23411336951320210753 0.61082620585536373525 -0.61569135864821622484 0.39563640511756964502 -2.12092627210590789488 1.06712582951087830985 0.59310213917513732174 1.47389978228333706767 -0.34581567368988186395 -0.58247265464710640259 0.22592478077990527097 0.73558838994577313564 -0.32244057566328876430 -0.05187014712869108396 0.69927488874987131506 0.68551835735847221898 0.48675169549631852606 -1.16081179067791473436 0.09559705009949903687 -0.19505922684192986138 -1.44374939785603340070 -0.48072369743515336316 0.83271656670588545257 0.27017700425501067762 1.13383934120200624562 -2.03861551363864723641 2.41813833163862224040 1.72655447925584781821 -0.79761221005348004187 -0.00941409468741514176 -0.26135530912459015163 -1.24348303239750523908 0.16665203862109245758 0.71882419561833121868 -0.44669516015523469399 0.07605058859258118087 0.03543177520394440866 -1.50803519779868255846 1.14717061979543233363 -0.71509496210189438248 0.10867867087702859363 0.64805478401453053827 -0.17242807876681931489 -2.84213930514973966979 -0.18584768880472554708 1.10353279059345754654 1.62680094827099708255 -2.61415876464136198720 0.15576777411198886036 -0.61350729094595346513 -0.55984612288976509653 -1.46989477040693050647 -0.79757072868629541595 -0.28570513091126248373 -0.20049029045599187082 0.50201062422839237698 0.33845351788857247488 -1.48344936776519498167 0.25003239430307827584 -0.21077093291337986591 -0.13711062571488047412 -0.31949606932342888843 1.33385526793795783362 -1.52182137161419528404 -0.63117048604931846878 -0.92124353033600880902 -0.78804906389849538328 0.67450791065599680074 -0.99268149935540872519 0.97818932447152073806 -0.19367803816276776829 -0.04885834624686302002 1.01924940009318221179 0.73702873143603120365 0.83282652422284497717 0.25538345492762209998 -1.17626074930927404516 0.23361093811820551891 2.70351520602793327086 0.58890247632502235042 0.73830898630843777575 0.78243277261922794530 -0.21498559102637421203 -1.28707063906546914644 0.89038702600782915209 -0.32013352287103891136 1.42325997535510406777 0.76492269984095562219 0.67783430744583395011 -0.77717002295107351362 0.52850159457411627351 0.03856585316765523408 1.86903932961954954983 0.95138063886924706392 0.65469729622287853310 0.91429115714968545170 -1.20243816095743683015 1.56804859362811344070 0.99299474184669045407 0.75938018952998087574 -0.00356968604463375966 1.02382535587268597155 -0.16472054967150076554 0.33897012850901753200 -0.22166064168422836000 0.59959102040901346431 -0.26091604997849027203 -0.84285433392131359209 0.26105475944574790814 -0.04961436952313807991 1.48892226366181446018 0.95463318539474839586 0.08328193959527802059 -0.28941861387337192157 -0.47469067735252601370 0.87790035275977229556 -0.65407094269828047750 -0.52609807495577354253 -0.47732625353138335988 0.42036413687124102312 -0.42891423064683781297 1.31037231808146303891 -0.12549544889971361861 0.48722126596855430680 -0.57908903419963053683 1.33060176987306055807 0.36009522759027395855 1.21972518915840089093 -0.41542431700502641112 0.89135569111971613143 1.18418532173095947257 -1.66308702198751690027 -0.72835451115028138069 0.60764742282827755027 -0.19454280599880413583 0.13086108665266532602 0.41292462961366305230 1.42790995430474065842 -0.05224068759260561134 -0.19346140028469044347 -0.43499822351926231701 -0.06946887562319298270 0.68819576962205708526 -0.96430497105617507536 -1.47181423403867261968 0.02996307919906998976 0.96208436737743807665 -0.39834857648367227867 2.31646270400226983455 0.34037859897242933593 -1.20973607500861657371 0.30248307117153305779 -0.94744961839159080874 -0.59363706181971676035 -1.51311074682211077480 1.35944313155919682679 -0.41394799959967304437 -0.41364476434035124530 0.51293511643233558051 -0.76368521813226131201 0.69274165863398440290 0.11044633915803420132 0.56016183023996024559 0.30753866095450838047 0.01821801694785498901 1.05647418039386797872 0.13446279380478681764 0.32537682518000199394 -0.30396861930300483889 1.61588442401002718718 -1.16202419645741206189 1.29831559965477572050 -1.92598876814963904103 0.63179861429548422880 0.52638019976469296868 0.99127145303282804267 0.61161461282605800172 -0.72694025926065397591 0.99337177561187761654 -0.59164813962562190497 0.31524338894228187691 -0.61608378555647924646 0.41844254050015211588 1.96293901486052657646 -0.26035048665078375230 -1.63242674873889037634 -0.77347179248059216849 -0.04125860530872548643 0.45393738612315631675 1.87128413612232158414 -0.15612756358041393612 -0.15168733026827840860 -0.40831053502785880083 -0.33676883888821534940 -0.33354836413752736446 -0.62036482185979924253 1.42811630300419944994 -0.19814891322164179810 -1.49295893023281256440 0.00756486871865154516 0.10947323643501873092 0.53029953914523453307 -0.06027166691627048462 -0.19062107609482939474 0.96747963662525293671 1.28536521954262261680 1.80406316589782766968 0.18466749059379544695 1.06800401345485829196 1.97204830547635157068 0.91510736087502342340 -0.96642241688940866418 -0.44606600586118322349 -0.54117218735907346439 0.41758772077694378266 0.22090379430977438724 0.04213844762381666054 0.20588338342734816000 1.01674103712657659671 0.99020950391020068349 0.25796606867513138805 1.44844821322042793810 -0.19848301630242526361 0.32292910799246782316 1.52301561458372924918 0.27611009524588880915 -0.14403399285451431999 0.36548245828568642901 -1.03127541795585275786 0.31736693721064235252 -0.17975119223616173314 0.50051166513455347395 0.94820759001365151342 1.66919314090039749843 1.26098458101846500057 -3.10214183365232987200 -0.42853901157563717428 -0.02130514799875135590 -0.18392521174353720914 -0.24005163664573250792 0.59550928559943239193 0.71587906032899228936 1.38225026888151214521 -0.07250609047587659728 1.98113291814172698402 0.44099602803645082671 0.64177341022067113663 0.82284363385470238317 0.23209084298862056595 -0.63800061971565547037 1.87939417681745646327 -0.55587452305884765824 -1.46804786910360829388 -0.62517706575739850905 0.10827119819945311974 0.39709506475133798942 -0.00532749383339403259 0.26266511927356184231 -0.23700472631422384029 1.38163681332544308056 -0.43443090389870403500 0.56482883561011532070 -3.09701767042271836061 0.45881336163954811180 -0.73790663585450477768 0.21154816547368346380 -0.40146578252641240692 -0.39301730116104283130 0.77524386160649172428 -0.48309340378834964014 0.23348034553448809847 -1.51137836981760975696 -1.53458843216299101186 -0.75725637267230061500 -0.29616058760123542548 -0.31794420400305634100 0.88061447023413719215
0.65827416740103072978 -0.41886962777826203252 0.22635598219388231023 -0.04079180622809638196 -0.66296769883774508969 0.12475158658883118978 0.58140240951376342959 0.04378766598638594854 -0.10544291369609673503 -0.07919912005152622558 2.07178197590690071905 0.50691064178342060131 0.01440001158317517037 0.94810338377046843306 0.17533112126591487989 1.44344574498668731799 0.72833783003419905189 0.35596841586825200832 -0.53896687734136761172 0.67308568290725290240 -0.87086774629023477878 -1.36094172490430320721 -1.24004603864729689988 -0.07822456135493398299 0.72965617771465174357 -1.63149612539594301985 0.86604007707367491875 -0.00775588763959104369 0.47899617883410189334 -0.47864597637489325610 -0.06587107373965432611 1.85277132508481789941 -0.72245835985978723581 1.91080475154997864173 0.74059267694757213718 1.37103533234630647897 1.83359244648468355798 -3.01241322085449292345 -0.35578477344717401865 -0.13940743088698212548 -0.64029010251147500110 -0.81778382503189861463 0.16284058600745215939 -0.07578665961612811308 -0.32961783065681726779 -0.76528874838115001911 -0.57804978677921992070 -1.30041778441309485714 -1.46167954332269234285 0.22146179079128866518 -1.38650400881793078867 1.54038569854401785619 -0.06328019672227234993 0.79657579586641980018 -0.87881791260292807522 -0.87839646019147465950 -1.38542384581031008395 1.52844003254270366376 0.88803513843209858081 0.54907176840481275448 0.15251176334917943000 -0.33375189814275196820 -0.42626855530691942775 -0.72007983584919399433 0.26426801000138577802 -1.43582317224033118030 -0.51420268143900083047 -0.15496284904590681974 0.43789651618483355078 -1.50281190417878240950 2.69362442080429387303 -1.55343543644773052215 0.45387025913876632988 0.49084160745027138884 -0.80492087487733443574 -0.13773512559724418458 0.44769440178086528093 -0.38874247206468370841 0.30990622868965139736 -0.40638956383412666584 -0.07944508473713916830 0.58536132089422954206 -1.01771788272596364067 -1.50829454817044084081 1.11809852491889927251 -0.40117352199525418976 -0.44690480820915629012 0.40728280905828168068 1.23002048272986441724 -0.35117349747354364986 -1.31433576844674715467 -1.43635275921090599383 -0.07158763546287850998 1.51201076972849546287 2.47103529639063523859 -0.18635676807215911799 0.74439618723645739617 1.26661003009050121548 0.06917290958356697717 -1.18319142939642585333 -1.40434336519406111066 -0.57167779942376295566 1.05039693408996082091 -1.63556556519615337031 0.91064549188789356560 0.40791410506585418227 -0.03364494240916512946 -1.05143770057839480714 -0.32524774998407979254 -0.48074296427554463751 0.20037769626354548502 -0.63818859925182380710 0.76911180264241818527 0.32714160011247395143 -1.27919877829798211977 1.42531193800931665905 -1.68115803179565537206 -0.52523856131615764831 0.80450162001039926540 -1.12424758706980720824 1.08934104597746950205 -0.57670656253375218725 0.88855645870948873899 0.44418043233061449415 1.37979945015440508271 -1.09544162882178253149 0.70690104517682017526 0.29730297439388636560 -0.84874240675254686295 -0.21508080889114578049 -0.21971372633754732151 0.47620300453281050324 -0.03184611942193468770 0.71167054221860759355 1.44201410756803727331 -2.46372553529801141536 1.12349576314843280223 -0.06608861473046702406 -0.17011113043436901227 0.18192154448405023492 -0.73372167246741137880 1.40870475343042667049 -0.62772695431939828925 0.05074418949871525170 -0.04976515674436929326 1.37667521205405618545 -0.62594327912177372131 -0.92678139170959650261 -0.23135335544360630111 -1.22618083208904438131 0.35956039058883793036 1.87386567244989810099 -1.31419411233227467761 0.21531369771762287613 -0.92390894935494261020 0.61535172745256228044 -1.22490896626638212652 -0.37299781598690678885 -0.06393432648872007795 0.19365287071859507706 1.89295394150233908803 0.17918483842814275642 2.20923280847250236292 -1.06538383380637036169 -0.35064206513155760092 -0.15227370446670876469 1.34514191888193912483 -0.87537025934578227560 -0.09075208677510467059 -1.38197332701242281416 -1.01684199593228097314 -0.42073875724808690313 -0.79885424076114541769 -0.37930271946416055373 0.50524861814053134701 0.68910160338251646994 0.75019210916234002617 -0.51072062359464087677 0.09059774711064427777 0.43659939444538475861 0.76576443263473614742 1.22643461697295030888 -1.48290208639529730306 0.92986161469028982829 0.09551507184253614502 0.40845367661726134090 -1.77632898110838932659 -0.11813005022408326616 0.63015947537265126766 -0.13531948244307179241 -1.00991419992498476788 -1.31361742005287474022 -0.41680648501301248432 0.35237286569689924010 1.98218166769007853034 -2.40116985682921368905 1.57855352849224672696 0.04610549762088662906 0.67625408098412653768 0.40475985775917799891 -0.32808253235354623012 0.46565320242325225486 0.79226008625238586447 0.64724593147039588548 0.91409226517566655179 -1.57842767879549072951 0.34337027846922013596 -0.41613350594837938967 0.57170333240298920607 -0.81578425028807088903 -0.64492261870471667695 1.68530894157069477401 0.24229455989543829952 -0.65309257041345347705 -1.30031425863079874716 -0.29648549446044331068 1.09267509154091757573 0.28813237172597205848 0.07622098226290363598 0.21995787459460836022 -0.39432627606016118493 1.48706022704437357262 0.80035125552568542329 0.77339309485917595577 -1.93880310978864134341 -1.07801156590950020231 0.99854333929469352160 1.12036147887332160344 0.83100065192655425683 0.99922414303693085635 1.63882475335129540461 -1.18519918306214444570 -0.11704329944228548943 -1.54298544719030483741 -0.54715849538353544812 -0.74042929222226483432 1.62672223041807506583 0.33528737992112767063 -0.33057565761997265152 1.48993110197883038559 0.60849126113794960169 1.10757564887657689034 -0.50381015398663986371 0.60328957053892851015 1.35812157968594804380 -0.79687133704823398528 -0.66297931229896989169 -0.55717660111518219068 -0.97648822085370068358 1.88501091253834429651 -0.85414618316381973884 0.23600622207568552890 0.04007091375975765229 -0.44593018110476723148 2.01448232198039134389 0.36099588475589600156 0.42133397251235354952 1.53138227506844870618 0.05699648824270058672 -0.00309115035035560605 0.61132285777950012839 0.16119145478248447789 -0.56651580302649495735 0.02539849121401480461 0.22844092998389162186 0.16606427130284323601 -1.77498679534498826627 -0.86499470697935754160 0.19528743380892110704 0.63820623373445595217 1.86836063777281791154 0.45204534440202676082 0.98323185123496603666 0.65126587535723579059 0.92024782396635507187 1.31229371046109455357 1.35356016383552657523 1.48062510643046918446 -0.33714586755956227337 -0.66253168620653513088 0.10758036311965581133 0.19784323443735207793 -0.14013671276928307829 0.28916102843409580148 1.79671652284985805537 -1.02851141399627055151 0.25775484223799849381 0.53104555631953609396 0.85630884295831677377 0.17538837778642649146 -1.13751663564495952841 -1.79576365444448926567 0.24017794214468840552 0.95857422264681679813 0.18870465548010567636 -1.86689361765037808993 -0.72880444502985053390 -0.37421932093033660749 -0.71545521490788721586 1.20944763554680778661 0.30892765528048199419 -0.37085976405470366668 -2.25897945044251491353 0.71366889021658452830 0.25493908991733293945 -1.30919944854032621606 -0.80065662927980174590 0.44032275310596985518 1.41393664106042837858 0.56649839882716779282 -0.22117168026200464959 1.15331114782172994282
-1.06403074101073746860 0.05436529844436456538 -1.17369017644105744225 0.98934666459542019989 1.21154372967374301950 0.08245301066861532302 0.68668713712797646576 0.07920718560974646105 0.22838343715153525126 -2.27481124844400595109 0.30014621221888132530 -1.09509573859654230077 -1.31702078568570657424 1.17621346205978460908 0.24969279689229428865 0.39136208342183859132 -0.79229715317454474377 -0.50831382500915212042 -0.71610520638331442989 -1.56118753955788580612 1.78048724493360821519 2.17556044934349035458 -1.04040987718117072802 0.86519022394392064434 -0.22526908309778959083 0.43091866344895141117 0.69513691073688943511 -0.34183721492431545785 0.51579204530412348095 0.00779204179591233299 -0.47899662068603621190 -0.57280189025175654027 0.17756514434720477302 -0.62610735379303128489 0.67812944408652919837 1.66406846188757762128 -0.72093972835798569854 -0.60449532416587781203 0.16046434860056674188 1.86879456639163810117 0.63615530514198492806 -0.27212793310174970829 -1.01177580519534049408 0.92087919211766311456 0.50172545896524034514 -1.42750556115448512529 -1.61746357813615282417 1.74516275601309334142 -0.26684660134270210552 2.96274483538296129481 -0.04872231660291372751 0.35925293460908175325 0.59647709899073364515 -0.35011010167778239266 -0.09806272791818608503 -0.14759927023627272824 -0.17045752661269242267 0.14713548129353154481 -0.15381198383705707577 -0.18093674365117326519 0.29376657364369657133 -0.45814741001205971926 -0.88360751152227690053 -1.29833978247519765681 0.65639735595542991753 -0.17813298414099776323 -1.81674796004777605596 1.50859967631393043774 3.10368548305427749412 -0.98447490634951007049 0.38146331492283608311 -0.62209611754449012366 -0.86885890819444344668 0.02566390168003868447 0.68470093864930148264 -0.42604877161316123679 -1.34396009742977673440 1.03522634525263312888 -0.33899204082037509567 -0.15959607411319517989 -1.70176656754813282468 -2.08779052375149687393 0.82108968110299007659 -1.34371372216841011848 0.80737797923837772984 -0.00118329132750213104 -1.35465473055981222572 0.54611387979781522706 -0.53198433721358562298 0.35552943424255811777 0.08171939200764716249 -0.59923989742686079030 1.82217760242648751934 -0.86786423256594991127 1.53283117379520517076 -2.28612900749948533274 -1.13189613952860290702 0.38370890816460934136 0.70098030623414631091 -0.24770576037547228920 -0.28586836891039268949 -0.37750682618458331063 2.00166178681350759305 -1.14469559430969902714 -0.69559038705526321511 -0.48870017946774352291 0.40482228859014479649 0.41859982777858112390 -0.89858147032290591749 -1.46466146066819202787 -0.09641872978029648877 0.08553196935403205303 0.35160381895372000427 0.19097003640356519094 -0.08168593556010218804 -1.52219582330965708117 1.08706346152889166135 -1.23253847228013579951 0.98694765161196296166 -0.70456975507599561848 0.76806913503431040180 -1.54670028943481252526 -0.43831543735951022933 0.32716498729380594224 1.58275667770959094227 -0.04717679024571262703 -0.28085283049390180610 0.17677302970610397903 -2.53849821170623313193 0.24650607187455980673 0.11842394385920898547 -0.36653862916832175012 0.53827646159464170861 -0.66355956128985216225 2.41242612650294452337 -0.96506240465038217735 -0.23411007352452661845 -1.12958937610709031496 0.86461456336584785465 -0.10334393036612347927 1.76068197389068403780 0.12762994518047418580 -1.98806618317296535103 0.61760496162824374267 1.57577694554758696022 -0.58359768517972310242 1.26632464821357104690 -1.66646157190961163863 0.31685087130742328743 -1.17780547430888127280 -0.92057346761751557285 -0.76596099807418127625 1.83827370209365081877 1.09188808826608108049 1.02960448849905761293 0.20415500195303870612 -0.09506065761275314663 0.35034150645711581440 0.81821026752848446950 0.29717772575913381505 -1.60467852491472617871 -0.07597957315184390714 3.05923621658615862984 -0.72445681021821273227 -1.42078565253744093511 1.19355884706934545214 1.09644459909838221101 0.89588365539935665982 -1.41385054682677768767 -0.45816449156323252323 0.16438829035130250733 -1.01125896763171962967 0.63372739320530080409 2.23027332469210248789 0.76286107710914519142 -0.73558855041808124398 -0.21145011709763486540 0.86576567499855383581 1.57989411492640208223 2.30759834745775815890 -0.44932342386249762844 -0.94734715889703624558 -1.21057276841030803105 -0.78897962924443632016 0.60853857284849743881 0.11040378865634370431 -1.54434805105378059054 -0.23261650640895067954 0.73456772882341925257 1.23588851328583060329 1.48584091440621546276 -0.29966675794745145645 0.35398607689132904897 -0.54681459330512249828 1.79743614364697013031 0.45342831267875838286 -1.14449906708172699510 -1.97420029613338554597 1.98377864117248958742 0.56342549534664709832 -0.43028833828974549780 0.00394671381194494544 -0.05326729352417307328 0.59101284913027951617 -0.05666773728753984191 0.25506498466860544339 1.29155658690266017530 -0.20489723186501765384 1.51643207988905270867 -0.25698300714362148911 1.06911452550855945454 -0.40038512660337011173 -0.89923094167212092032 0.75640491431782008735 -0.80314090905378021645 0.60296071899976522168 0.03128906778483939860 -0.09322799579092366784 0.22306857565035098645 -0.85031081016275078532 0.17939538011173611354 -0.09956114952541406105 -0.05721194512193208959 0.24227479270816368317 0.10773934110716554269 -0.19879827501538682721 -0.55117646382968232821 -0.53717808661510835222 0.37484453133963263616 0.91317434748846626480 0.54492152963812512390 0.06900545122517172392 -1.19085789893980131815 0.00750744193516086379 1.09597229919732197523 0.42917027095457099817 -0.57920056652347839954 0.36163817929417257924 0.81047136784459539172 -0.61368571766294921499 -2.57645936070113767968 -0.12788612057417991785 0.80364764614680583854 0.75491364345225586696 0.18868074700561898727 0.62910377075749390752 -0.60105313030919071959 0.64391996863485290170 1.06530358820313697521 0.69570268812780811096 0.33674006777439857707 -1.14428200121491729924 1.26839461229800876119 -0.22581552723523848347 -0.30657342560360256734 0.88128764549113114413 2.01228726344145192328 0.43039892959701292474 0.46687984785409758492 0.39896935513307563159 -1.62003540116657918091 1.31581574846842896953 -0.89131475794140813118 -1.36914628079318556608 -0.57166729837752161547 -0.12767277953279673741 -0.16071187255615501654 0.60586066024108686801 0.38072188876467416563 0.77926597484139337180 0.29545518180576624268 -0.84040037515317445038 0.05325745505641227978 -3.95430989332901328126 0.09341482376294076018 0.25144512069471330884 0.06085564479272078525 0.93444657285666954394 0.54159555228198430488 -0.22333813918638947826 -1.32819122119143151473 1.06933126268239475642 -0.61437209452416707833 0.40144238405579890649 1.58836385053140416446 0.94835470108706210191 0.72314541213253946683 0.71328158187704004956 0.27534214188843519899 -0.24208760828186123848 -0.61097178299808818647 0.17514777920171248349 0.95087422666551435491 0.95722784827429496790 0.86374118753451856190 -0.20202096937671662480 0.40402604335792252632 1.12933321701861455466 -0.04960624753660324016 -0.36791466985822796065 -0.63639928982386806400 -0.63576938772515712017 -0.71027836338262240190 -0.14197968851318459871 0.07828683506948601323 0.21131752134765319218 1.69217619666888330343 -0.25828354384214752271 1.41098182276282813064 -0.39082858380261537024 -0.11602878495742006970 2.26734130796330868307
-0.23307342290981011845 0.46991326072990907692 1.23848908904457344349 -0.01576699147668347151 0.59034573257666778101 0.12737039621222895347 0.85907949698649166415 -0.67345025002306369011 0.30798098589464883990 -0.19092766292577062481 1.52374143239761350443 -0.34696664061961590697 0.32475446349916425870 0.12231185740385581984 0.71960529536579787013 -1.38297852808986432294 0.89508349857512914394 -0.02054970799912107793 -1.01196252611309223113 0.39316778499297472260 -0.55109464192258827975 -0.63382472020128688417 -1.31352091208279064816 -0.64575399465235050478 1.71633351441531734061 0.05223961729492652972 1.04067355927605698085 1.74840996487191557840 -0.37981969280726662896 -0.87236436850228393780 -0.00328121436700420715 1.72348084881436580673 0.19105697362676660189 1.51152613118454115515 -0.36427972685689824495 -0.18387332156215827061 -1.00329996474900307035 0.81830492874054017172 -1.58477470048976476491 1.82140772155044627922 -0.73910184311996529605 0.14170178782469544654 -0.81669996581801163060 -0.81875302000497540700 0.83851350751210818046 -0.88207530036988779365 -0.14279789507908399737 -0.52177774735628501546 0.74539931476214782435 0.29434580834458995424 -1.98830868764850232644 -1.49228271953661639770 -0.96585369949442201332 1.43933154351461634057 -0.06452211305122917961 0.28649858346709899948 -0.78755502916244757294 0.28037300391638181329 -0.04087853416091394299 -1.07412428535719950418 0.31785175292402367830 -0.93504314275791722277 1.94545790018334985305 0.31899820042535387277 -0.96317778232557160756 -0.77005921609209071477 2.22651306629174827734 -0.03948936687708935744 0.18383568145515877257 -0.55290973783147401299 0.41039481742417444066 -1.51725028736926215167 -0.05157205265788652321 -0.19757456470878179133 -1.81178881039493577809 2.37463712138961735576 -0.04235152419618555542 -0.93943913993386696237 -0.60508016393468488925 -0.26740060831058937163 0.54701084452062709307 0.64834736063717313126 0.53087990449578703611 -1.32626368244564418752 -1.43134953831635924892 -0.08128192804688419426 -1.87949220805682326585 -0.53619351891883426653 -0.01748940761204019131 1.76927669813870691584 -1.67048473596329993818 0.50070019798313580850 -1.84574827090912796379 0.44645711675247112815 0.08145760777631876060 -0.89024606236956027594 0.19741100560199040248 -0.10158214155786686461 1.43296779957052011767 1.43039712104983607333 -0.66127465135621965597 1.78096514494804303297 -1.74331187322793068617 1.04683810028638069056 -1.46701640398512700436 1.16114754160040734021 -0.65502471271291518029 -0.48906263316831832810 1.20989563768019858792 -0.34487496501909764568 -2.04172298675076024921 -1.59779574586077632858 -0.47024590009525907286 0.37967006500200878305 -0.91570738765560677486 -0.32255177735696671792 -0.20115750839684151674 -0.88822902122606950392 1.31726222589322339296 -0.13774999056411615928 -1.15732322157119926764 -1.70909867405113291561 -0.50101017038899031686 1.59325183795798919206 -0.23404745629028356202 -1.16047404215181826359 -0.33981661477873337240 0.24286493164354319707 -0.54548793991245025925 0.18327132082889363573 1.49627919444150214723 -0.33088152654063723856 1.66196116223543577384 -1.64522903735269121483 0.31602191341227520160 -0.35889014345616915280 -0.38376662370415326464 0.07022306387924458215 2.09662158359476169522 -1.43626884053195569280 -0.45634387947811211328 -0.59746386122874517444 2.05272547461622156817 -1.17210354288988427562 2.65626545459665086568 1.27992722117135504512 0.07719297390755777699 -0.50368569707025223625 0.51602851132828331249 -1.88277159457166121115 -1.22852272726296352090 -1.70376026380047740361 0.14925232310472161257 -1.11424860655970103807 -1.54404503769901935151 1.26301720719599619436 -1.00732126816088696231 0.38161689342569465877 0.03121917572656166678 1.44337852617332851324 1.61211714714022447126 -1.15736893329162948696 1.67538182265102464363 1.89197578038453961824 -0.63261836037867913429 -0.12418464235845960708 0.12388152352476093643 0.04553162951757685345 -0.10322728261352973056 0.65655361398194089784 0.46409246020421413004 -0.31999730297004774782 0.25121333843227744431 -0.17168760987446293753 0.96462581104113609420 0.33887657496081485808 0.53920132627261230240 0.47252507278820748970 -1.49906237889201876534 0.02449231713051293682 -1.53441747789612770170 0.84949955292441337029 0.25356262450343580728 -0.29433895302233825664 -0.20137716347003287165 -0.43131077791055016935 -0.59339346695717321012 -1.47776790963886628383 0.84234290022699875866 -0.35217678091649873284 0.23433839637071454676 1.20234561694998687287 -1.33457643902616340803 0.44231772739704333652 -0.54319699376539953839 -0.78770161703389640628 0.31487345596734672704 -0.14374242787230009921 -0.74585479406085797294 -1.14269122535654155115 0.00830334209417065740 -2.49428979834595132559 0.28250335399866277619 -0.07506191546322120434 1.10889300715112359974 0.22204723492171948851 -1.12212280996413782397 0.82760002802817023149 0.74743139016500426131 -0.39223397480866301068 -1.08067384546566636061 -1.30375299547567458092 2.83187857531284770118 1.52123864182937840184 -1.00603945701329888784 0.28214496056996263285 -1.05492484162898758626 0.85107898655947966660 2.22424506162649349150 -0.36062943760490406842 -0.38163319624399100194 0.09226281589620323464 1.37507762449152015627 0.69608030691371991505 0.20613038075681117123 1.61446461462278967325 -1.08818959131236425719 0.58448211268144745212 0.25141093716988333062 0.90989549437640737661 -1.17801894075919322269 0.53607783009622544945 2.97959301353598737805 1.20730852658101417418 1.44383935296392729164 0.31207532978588192751 -1.07780212510707440465 0.73050502991272081577 -0.27901425244543259785 1.50748257403808794130 0.79165268702801683265 0.98182532170260961024 -0.87113596017148697825 -1.03442831982982208494 0.21490079636384878947 -0.92107882614186675774 -1.85128555191551336101 0.46358424282979643349 0.13960700159710662249 0.51680664172955192992 -0.62292056655025296319 -0.12086660030482447581 0.48338713033857011458 -0.46802493463397853990 0.07455218451244199906 -1.06823342784613029011 0.19454263783086842010 -1.14251371935924717071 0.56994959422365243373 2.13220483637613211769 -0.01052259521442203659 0.54340574519679618604 -0.55303299821781159995 0.36799692220551089017 -0.16790848889530057830 2.64530023871712183237 -0.24276967479656674787 -0.77726284779782683909 0.24360232192239364424 0.15168906831670370128 0.26532898580238317710 -0.74216951061643643417 -0.41882105138978537040 1.34747370850549397225 0.53075249720827277766 -0.73571472502678170180 -0.47055379316245304899 1.14383439289870914024 -1.53099616377878344764 -2.30980314289546528883 -0.17065535019353980650 1.02452595892562592361 0.71546831307743197215 0.30312836871818660267 3.51695779842067191012 1.53063155240589710004 0.74176779631239719848 0.26019326621363625396 0.57639646084655571379 1.28333702708741337339 -0.87801346460080031964 -1.29474249624659076829 0.62675047466939903806 -0.35056080608055645298 -1.38344745293933901742 -0.67755034793452384445 -2.45952664500677897763 -0.28703536459729100949 0.44142742736604217990 -0.40319035647147638546 -0.47306517361291616774 -0.33882623592586186279 1.59018007182479181871 -1.52579791008615472947 0.55037107407996521680 1.08787998330565316429 0.06316870711396516125 0.08996412539817798260 0.11329932651474119987 -0.31733349795846849117 -0.78149601653570577309 0.54834034933115027854
-1.90650915476984406105 -1.16040905615871126066 -0.77786684912242198831 0.30201396048342410428 -1.20679248406789807468 0.73591934611668907706 0.62463750889241742570 0.43702561330582256893 -0.77070779175364989566 1.21053570733479931576 -0.00657768343028980809 -0.22588089639447433976 -2.81350241477628504327 1.64661492195809988637 -0.96542974069785014724 0.26190463700606353425 1.08481716471840106131 -0.69790677359988362305 1.11394535041360165373 0.12739383544389731862 0.50750002725434972817 -0.10482176616978138017 0.39416700016459943479 0.61879264287338764383 -1.00876409495947938488 0.92702272101914640068 -0.96277278551065115231 -0.73083978597467813554 2.32379037926006226655 0.19512106176235424759 -0.92630832065494728145 2.23996585164089800912 -1.89445252181152890003 0.76973729524598000218 -1.37313666136055534395 -0.18538459279804042623 0.50748514985693515822 -0.29327087611364716091 0.89721417454226914945 0.27064189519099163261 -0.36485939384657617435 -0.29104077783329751483 1.79221511879251904631 0.18806678351741415445 2.49942508328174950449 0.36722944767629533969 0.36724769591946287983 2.09886736149914909788 0.32069338422483267825 1.31660449783319077888 2.09838807857107889632 -0.46343824411855061296 -2.12298182285955583382 0.25265625345687392489 -0.38228715914350652749 1.00259806978927845655 -2.61384116722621406836 0.01165324125092268188 0.23871352936968007197 -0.27878884232885892125 -2.00873044538338163534 1.07803879742422648036 0.56406352719133356910 0.30737291348264278446 0.71900720426119402173 0.23686352050148576365 -0.77587141361500278069 0.25428693080830044870 0.58409561840068791039 1.02930158370617097496 1.08951475494334149019 -0.17047472895378551483 0.13312419556444235469 -0.56371130386923584688 -0.06437478525406964414 -0.21724890786752232286 1.36992194508614129056 0.13877353011039103570 0.87703399799799186543 1.76194692409043462966 0.24862883024442261615 -0.57637615475017744959 -0.11981188715947407863 0.59886327402518180207 -1.53332167501637250950 0.91115584638603597245 0.35189536620022321411 0.24621134418924070508 0.05695628266665801048 -1.36398394135454559262 -2.00662533837326728658 0.61641779033377686048 -0.13618587148903263384 0.21704212960205707117 -1.97041835071773130394 -0.53405572441069892875 0.26288141295895267602 1.67345892665589901505 1.36088943424043784525 -0.34267558920379442844 -1.16919690444670698604 0.60366802788002105196 0.52577713589248231685 -0.00884020417537091825 -0.31116516627299822817 -1.04736225252885528647 2.13104398375107839669 -0.62051302316987377861 0.21340539397314561842 -0.29857040158047126743 -1.14452316080221438988 0.32433586569438727087 -0.56501151274659877632 0.15748180166517702916 -1.13082072789861265427 0.23504071587447114555 -0.16947484745967955622 0.22444309169563578243 1.00445501473944931448 1.00201591814694124238 -1.31625487964664755758 -1.18926937381710473574 0.19431813038717044018 -0.09099094952794396785 1.25917469441491358673 0.14791983014314205591 -0.38471591175086539138 -1.51889337660398560104 2.03222778964671091373 0.17834007544786251165 -0.96997634583885172788 0.37951284205740914990 0.18448153895232108357 -0.23847584260959497904 -0.83477748083704683690 0.74074439266281355554 0.80289017684209373904 -1.96525032480628913945 2.14145140256384403088 -0.34891354472441676871 -1.94447145470816629143 -0.23428944874543294885 0.16354212370081211425 -0.78118272517426012858 1.85414392402771444068 -0.02109434086250811663 -0.34745652197863996502 0.45919488927719398497 -1.38888478135891801912 1.34721422897858977841 0.28399641242701229027 -0.28501574145010399874 0.09041080233677278866 1.74768518652589532891 0.11256452405124491023 1.31065629246142534292 0.21031929281518205177 1.77744158493696313705 -2.57627689078948884926 -0.99930686335211726945 1.64111012175380777123 1.09581009409954699407 -0.61961404808854758652 -1.43342087650904770335 1.57732695119458443678 0.01118738639516812794 0.56276501412009327652 -1.21502421445530761623 0.75059303448034075945 2.95855309094407648018 -1.10173477632829741601 -0.42911873946855699780 0.68650553226711563681 -0.77698316974125203327 0.49528170781450642224 -1.35327291157911044905 -0.43305728463471626632 0.56023161725288539436 -1.07037665854019015121 1.18467036021781124688 0.03719088103576220078 1.24053535232377143416 0.85449589377415791080 -0.11900507938730799096 2.33390632884588233864 -0.86714761221678293701 0.17519705978595984108 1.14591970952120369986 2.25842597314652993035 0.86437722030461983103 0.75264119192186684781 0.51087328409378829353 -1.25974965876175870605 0.00909545430131586917 -0.66451744839512782992 -1.30223296110998165709 -0.00063542708338776733 -1.03117445503677229723 -0.27973311690892016523 1.54374471232571752743 -0.50305201616068562220 -0.61989953751140314253 -0.95610119983191388382 1.33030804490922505146 0.00182751684564765211 -0.73800644359204592426 0.02123860335201264299 0.88836795685571223746 -1.43674631622470871939 1.30396014131635196165 0.38956793789852994792 0.00768857705721572287 -1.12911028242057986937 -0.41412530250983670133 -0.20449522557325663930 0.75337376414915890877 0.69561660590162022189 0.77976099641296880982 -0.47939591363152223025 0.74094804497275190691 -1.04258806552504390552 0.45268668944893164507 0.07430768772466489480 -1.30509056067436191029 -0.58148260642535498643 -0.36963864411359881323 -0.47460583729661093288 1.01162360194978351302 1.78906079014683250250 -0.89499353735681452804 -0.16815042449497488719 0.51230140085133291095 1.73084035760019627759 -0.67028020087345252520 1.33354704210608931980 -1.34532770661361866793 1.15669785940308056382 0.74959933583231508347 0.00976666219907284736 0.26329254025418524776 0.71605848086134105124 1.03898429991741170220 0.80866222809524579418 0.35398024135571226623 0.15997864633901157094 0.76710311531194175227 -0.52611905510082335180 -0.58820037389606094624 0.71789059089500839583 1.92637380816901471192 0.94852629454714321167 0.25700381383289194748 0.34643950045935945070 -0.56566460025923226418 0.02887631270892072541 -0.57350236416347999402 -0.42842310832147101340 0.88697929546190390493 1.00069686393712098393 -0.89051624239388960103 -1.03349990865489194114 1.74332150544769381995 1.58807746308404507118 -1.23960164053692500907 -0.26302960859862201115 -0.04868782542618411979 1.14696310823042457727 0.83531586588325035247 0.31939376361493826417 0.26099660316488443312 1.14446648672333783914 0.93199486016082355722 0.15371152665898410450 1.12042026241686332177 -0.86518626001811693715 0.36017576270238371716 1.17434880450234024885 0.76348678954389570528 0.44882775862629287200 -1.31745539400773070682 0.58344636210523981301 -0.13190684107028635697 -0.55464573205534239975 0.47833025079132052149 0.67163258644515633211 0.86001566117368877240 -0.55692382880236257492 -2.46964645817715044984 0.56259762718071248955 -0.34481600289710928608 0.09365307768235392460 -1.22153669579309998028 -0.82057933672838390127 1.36598006854156439616 -0.01049764049194265407 1.44835185369518693044 0.20587928368605662444 0.59640245381165657435 0.30051109571227274664 2.72507865362426882072 1.18209616719939170082 1.44871590807235839371 1.61651621035213910460 0.29659587657211294864 -1.42928072681856277448 0.75663692837377827249 0.35654451380363144652 1.22458696301874070400 -0.98591001763391328261 1.05400952023937755087 -1.04871291451864268041 -2.42670924774191831830
