-0.03629270467674747952 0.45079229192189657072 1.76229454293231113660 1.67082972628714987451 -0.09100407896297006693 1.30056364074611807702 1.14875094160683444144 1.40416478476762263128 -1.88587009277232597881 -0.10293177058617228314 -0.27343106330681127281 0.25692643391477232306 -1.05309135843158441226 0.38246059548008792817 -1.05945828358890659082 -1.82132187481604090884 1.46227179110640514992 -1.55601135725806782872 -0.83455306055619915551 -0.29966002629386861988 -0.00676996494855500956 -0.02020373702284746983 0.61611588024135521824 -0.82787089395019797244 -0.86017000495067752475 -0.53164640155239240027 -0.83410473566377807408 0.78043058975259349541 1.13936337784317642807 -0.74017170964691580970 1.82055187471054735759 0.13843769344192646820 -0.32330795426299241413 0.62534283975304016945 0.32513361356684949977 -0.04910902588131361990 0.60008657976820445334 0.06333885768677317840 -0.71815920355046225509 -0.96515298224696000062 0.08935848084549095904 -0.50097766033136359454 -1.46414936711542398307 -0.20018079892225240646 0.13487550081637336707 -0.67820524534964443664 -0.45272126362273329425 -0.57409807139936575027 -0.82253589277905025945 -0.63202442001102465685 0.19878620960278001184 0.30795064771175889584 -1.08989342445687675820 1.90795806329208783580 0.50495921305412805324 3.00912726778489192370 -0.96649015632611401383 -1.52652866590212799025 -0.57162503677761500320 -1.50111564427170396385 -0.62288983626562477447 0.71008686391782316338 -1.94195801369096665567 2.28068493866436305950 -0.61168167973472786780 -0.49608573503475422717 -0.40381803313165975933 -0.06196368218325515320 -2.10467956241168874243 1.72407330744952647095 0.26162724487935878903 -1.18613955577002383457 0.27695819282693795449 -0.19188161138572232267 -1.09791670514978489948 0.35461658735480644511 0.77300717653685535602 0.43255465298176115629 -1.90023476228576160274 0.97789878026277810008 -0.49854984680445052492 -0.49151582492901002563 -0.62881626922313282879 0.17953757440503778642 1.32634190362142856401 0.59955472204338544628 1.69198003807736885307 1.34718456404480035893 -1.19838968526338307541 -0.45320127261904591398 1.78688893175279095438 0.13066121771816247010 -0.44633106849256298787 0.92071153378958381364 -0.67493523077970118962 2.23340399450310700402 0.92338804123839435256 0.46749472705845568354 -0.34914023216395140281 -0.14629381440750871546 -0.90751908305622575046 0.63681535048920068220 -0.65643581166096753865 0.99142626943461997779 0.97507159173798108043 -1.40144508478251639261 -0.18586302776825505689 -0.71949511575845637168 -0.84867008186854786533 0.62642061455868769393 -0.37118519531079291474 1.94332901777295474766 -0.97482852007871678701 -0.67445171757538413537 -2.43344583024189820009 0.03021209700026212044 0.05783344215608277744 0.35856551556123716917 -0.44073723715975726689 0.05169015281057238315 -0.79973428356398235106 0.68103510534749434058 0.24638267001230379494 1.06173333750236476014 -0.85890659819800951880 0.78863712085742965208 -0.70092656213979687152 -1.23858221131246781788 0.02468966535597906520 1.37532344876763601427 0.96979357721323977692 1.81520866399526936696 -0.45850477957948926333 -1.00127569121935633412 0.43575964595737137763 -1.72411094902644457250 -2.06194980147065232146 -1.46081934003785263165 0.70763287094010274281 -1.07345941609346540169 1.53536988276065833325 -0.64824686075496495974 1.18342000683833048491 -1.17072838132847545367 -1.80796431655519973525 0.53007777550673917943 -0.80073328793506892698 1.62247806938028782398 0.25306412198042371742 -0.05103404501720366915 -0.83261988296726430203 -0.41931625043747366988 -0.08789182651611818220 -1.13591153060818483844 1.37188382017285026571 -0.34431418186399576076 -0.93051760260266902502 2.66073328774410367004 0.43699709233943750952 0.19042838296218633776 -0.00777111246587888684 0.76627172841713575568 0.39009101348663027808 -0.34640741228126137319 -1.50892671781017861932 0.94774258991040338795 0.28268024722174411867 0.58168951634905607939 0.31586933260704974646 1.15530402546588462087 -1.15514563752762455806 -1.65458903762928577486 -0.48887124201835008286 -0.00709445690783654884 -0.70792451797044753103 -0.11431728031611840257 -1.09611040688869953996 1.08014935424603830683 0.07416655154200857414 -0.59887065648753923242 1.18141562604103400602 0.02353490312609713905 0.20707209690900832411 -0.16034116467592118838 0.00070403204984392884 -0.77776817219632565781 1.63724497444004080116 -1.79736524319187518373 -0.51554554468458635430 0.33910927400359153205 -0.87911349991628395806 0.09202238037167646822 1.30127372840280819410 -0.13310795434500241607 0.65445846033547339093 -1.57255925987401479205 0.91319556895177522726 1.35522375103616266045 -1.46334670803904010050 -1.21036711710913036377 0.54768178346559748260 1.23696331225992195435 -0.85930002307043273913 -1.52324480937095407818 -0.63179832509707245514 1.02840306980827289607 -1.58884630692915473915 -1.13484327031899634441 -0.82114657660911238857 0.22566512158814544531 -0.50687012221071525708 -2.78651245430702632078 0.58136813323630287531 0.63903818568626657992 -0.50789631339158414214 -1.14033649614777865544 -0.33357583798413992238 -0.72694201088084087203 -0.48696423110495740127 -1.14518373623528080252 0.20614281605462042579 -0.01122441502355511940 0.18489991843532779803 -1.18447243751507325094 -0.83319632457341352705 -0.35667402106875611967 1.55791264782150351564 -0.88525479581969535037 0.14610660127893421167 1.41747474774401971409 -0.94320974212862962460 -2.19480235624163277919 -1.53560634433033849078 0.96777566921228830310 0.47960568942011466698 -0.77448886276936212969 -1.24530057565312701762 -1.21420570832744978418 -0.82968231627782962345 0.46227969788551648289 -2.28373045901810556302 0.89774819179176945649 -1.70333767233661648177 -1.46408259293233267151 0.18650105795792040753 -0.30793687023579552342 -2.08710230415951558669 -0.51177428471309227564 0.33374535778106212414 0.37224111655948544097 0.35026534479345394768 0.64066129379967373669 0.75944156120644623620 -1.60061238122406335194 0.16780314376211769023 -0.12481070371549275733 -0.86039735578150078332 -0.55863808697734196329 -0.93973248934565078994 -2.07047907874241055026 -0.07179591773036866909 1.21321747657557055255 0.69088417022498671560 -0.15734634445547768244 0.82419024905567261907 -1.56561531364018291512 0.44944867765409390881 1.03719433999832588711 0.53994975457498084470 0.33340851333432991455 0.10059825624319998494 -1.13179566301851974863 -0.35110968985426987965 -1.73685429927129342254 1.57115916104375608064 0.87847467335088658125 -1.46837491385364260488 -0.69350132977272671564 1.24893597717478632703 1.52330634437819201210 1.42964165417797173241 -0.04213779786543989103 0.45985251608314403615 -0.14490316527456212348 -1.22002351412009124587 -0.26829309933739747818 0.83064924420080288314 2.45895373471680134259 -2.39376262024349806268 0.96789269778627251561 -0.72004646594311327856 -2.73629541666837106106 0.78239085913787309590 -0.93777074307847951840 -0.74646454638984116592 -0.47601198265014321720 -2.35101044406888926019 1.19519960544742898101 0.15605212592304915087 0.64221861541577540677
0.66006740889683102047 -0.19608277394225021029 0.58693279944470511111 -1.72646933366481247774 -0.80944555927751027369 -0.98562523640021881821 -0.29366980856644941955 -0.06073866119066601010 0.73609297640914639338 -0.56392519765260706865 -0.18819965710814864912 0.21925641835727058271 2.14742442072141503928 -0.52483773497718833045 0.64232091581135053460 1.26196413122891892833 -1.49483533877213758956 -1.30865876783952139739 0.25555643337108757684 1.50960428083286424261 0.61296629313428918628 -0.25715145866596411661 -2.96125341547755605021 -0.31948021614836752402 -0.74721965210393070933 -0.26324067372597120817 1.13023222788822286233 -1.62524290458252651526 -0.26462723859914533131 -0.77821700027992402049 1.52128415893742929832 0.54863837357719258403 -0.99674302742462672633 -0.10673504405561587416 1.08982765846959339662 -1.56314393916842364618 -0.04221780814498336809 0.43818755421982613640 -0.50391062883909210068 0.59662518702317868247 -0.62474537306208166587 1.53896847082648768890 -0.74635457248280534515 -0.61087066350989871477 -0.80889193421245320081 -0.45255589238127319485 -1.49502891383031522032 0.85925838496775908126 1.69710607160620963185 -0.21031287847653049039 0.29069695422450336775 0.72236854113254234111 0.17806030716187623564 -0.37487978744108801932 -0.39782848363856027074 1.17741291941838754909 0.45250660785088164806 1.94049951710120560655 1.41178729660657675815 1.78237387349926201807 -1.18384224452423847396 -0.20815645688551498438 0.77603313851996769124 0.50169351066560630148 0.11431759410614956984 0.23494436720869762980 -1.23024587218762126994 2.25967237295103284822 0.70987732485070742516 -0.92831973901909414781 -0.43980011492027648590 -1.04732256414729252292 -0.83640380972274386284 -0.76459242046289366268 -1.70095932904829338916 1.17368886852806220134 0.88884092986636931144 0.00644011833982514794 -0.11475186260580783060 1.03115268091933720562 -0.59060583223437945755 -1.28538345920021357394 0.22025511971704853087 0.02651021608270309748 1.18983934947695102480 -1.08210061183904349136 -0.65094283159586130427 0.72999857694975411881 0.06630299299386063772 -0.34204506484997210247 -0.76451832737113856187 -0.32001121361934004028 2.41689291397289940377 1.61918208301649180214 0.12057481159287884720 -0.12330499845647506507 0.76740194816724727200 -2.07680723908739528483 0.77845498527581225012 -0.28969005659531232855 0.46502765366885312481 -0.06033354938750073310 -0.12623896277827742485 -0.19114792766927879430 -1.55770570162846366813 0.05421590531684904180 1.65748767008034203485 -0.53046106362329215056 -0.00861736348153909273 -1.00714683619023803729 1.97599455176103400156 -0.31222705956107849046 -1.00635833488274162306 0.32007515971494826523 0.02455592734882851638 -0.88634341689284190657 1.05192227111135738760 0.25292333645495218564 -1.86239064171649748580 1.51902802518333657211 0.55945902469972941251 0.72055982907846705121 -0.39897883014126461765 0.13378718568140549050 -0.30001918637602692508 -0.80647451801670821947 0.85596300910403411155 0.21599100668007789605 -0.82406049791941882177 -1.84682690152006068196 -0.26449050856257522168 -1.29545618505633730599 1.51697934298772851847 1.66803399961979392785 0.35892508179897320009 -0.65740724736826250396 1.17882652463691073308 1.24760229282645074278 1.20002638362749380896 -0.13317870173473581041 -1.13864201934776687608 -1.39523743704855984760 -0.13059488625103091164 -1.88594698063629695461 0.66589181797262020357 -1.43980370419610514965 -1.05776240521628484004 -0.08812272432185529192 -0.64364399872623301313 0.81178483569489545690 -0.29444375096773561795 0.80541324973012284882 -0.89481082715929838312 -0.21200084373984420805 -0.55871157796961290476 -0.74077403142830133831 1.99981941391524298268 1.53271267273398970055 -0.36810854430299355666 1.69328369244261311977 0.38892699552205295399 -0.17171248431590893646 -1.09072243121458156700 -0.81055550904657303057 1.54523084270203714397 -1.41298382341618444791 0.19240556281882964518 0.86335397812135739049 1.71678098811818347080 0.87349510243530104070 -1.62241483936789987474 0.14680596434144810303 -0.34682612986866007132 1.04566654882056253584 -0.43749483877026607015 -0.00554511731385019108 0.60848094338494507216 0.55828899491190808746 -0.53299110143533279249 1.11260976497631092208 0.57357599395034519763 -1.64514332476648594827 1.61740458475625326074 0.96319715153551155318 0.39821041827749231734 0.05849721975876181340 0.92385263054860478071 0.86579417919030876583 1.71054406796873070817 -0.00242851311641550027 -0.28391461162315378974 0.60003818124149754798 -0.69313881937419985491 -0.57679659564942409311 -0.19570019796000354129 -1.20351910408494933158 -0.18656812166761291283 1.13809767261642424963 0.97128845179472089733 2.03183122097455193256 -1.29906594351291260203 -1.29838774256810518537 -0.23445203355822930025 -1.90376856304915720308 -1.26761215039692087814 0.02460573734596044337 0.32113857745162693869 0.54353361088484297703 -0.38460239794761980070 1.57634061679770365316 2.32480498657111533944 -0.19621561338714854639 0.38518581061931511655 0.53549547003154474023 -0.29554820229362582795 1.50532552660283536206 1.58136622341039534412 0.92150908374218087893 0.74639447853879492545 0.09200773925136629394 -0.99775708442595745229 0.28132370529495603906 -0.22446953074872977307 1.39156764328254567431 -0.30504560204714509242 -0.68469766938410303592 -0.06413028596522078739 -0.09384925451649368811 0.40490843346835581062 -1.66012202350028159614 -0.86346914238708660783 0.28307989770032132570 -0.47359326292945658210 0.24767339320293044191 0.72923941228684174831 1.05309126724482271520 -0.54495966616335711485 -0.74203013845346110777 0.13472304573155244323 0.01648800622290250845 -0.80461353041046590473 0.88622646090034407074 -0.57581021006350996405 -0.67587629444980112936 -1.01669626042376060049 -2.13637146715187542512 -0.04797558323826252996 1.58763833145564703386 -0.84214680294720412057 -0.82360371351034888932 0.69326648703591631229 0.23955819222780935784 -1.22735132125159251970 -0.09556858156470023069 0.72745157166856500019 -1.00855216900646427192 0.97524947512450721465 0.34279126082897737327 -0.42205586485919682760 0.58882150288979062669 -1.67226506349758907710 -0.36667711371872374615 0.85681559532821238712 -1.60284005745856372727 0.00655635894733924696 -0.00537763022238620884 -0.48489206547491386923 0.24453188404239081799 0.26953298335869330105 0.36241387089403132027 1.60086963230905809930 0.04801335576198485083 0.04810027372323522760 0.62859836282576375677 0.33795134349257799355 1.13162174064793230599 0.95050840487443000182 -0.54468848984384721224 1.25449379080661893582 -0.44395014893430956304 -0.11883933016503668567 2.05651063098096820170 0.21309305478745355078 0.73326041834598099101 -0.77683530218089102970 -0.63566033936318711017 -0.73007734496888909703 0.40416754485217387671 0.64574880252154143179 1.29351731630860689037 -0.01210738231015000797 0.38823472564093369774 0.16517376978689474187 -0.05025017921560613610 -0.37167704647184779398 0.47889598594076326910 0.63274022837990795409 1.73902840375367850889 0.51308787698371793873 0.09297063675245624548
-0.87902357250038176684 0.03348123436398023345 -0.09066397537490138159 0.95392831923630561075 1.64976219228655440752 0.18161824553632327506 0.68793050452353277091 -2.00031858921999150525 1.78781027513922952110 0.10174613978041860407 1.25128559815511208875 1.36969671543239046585 0.72362040644850922355 -0.27127676530959327073 0.09017804931792755552 2.57876512899711585192 -1.11498315973912931476 1.11249151302135751429 -1.38353837820424452332 0.64115749088038043180 -0.58245008964565236909 -0.52730080697729364569 -0.49019477228323732332 -1.22358692215364484035 0.15184214863807257712 2.88481806823878450530 0.29908485430437986574 -0.12441701584436462569 1.47981502285218335935 0.75857677856814798023 0.26717989832893340729 1.18221946568663005550 1.18270267576135390541 -0.95747493077895973190 -1.08171623502221492252 0.58599793714253156640 2.85877596558006130678 -0.29580062107923416059 0.61669535724715518477 0.55584121369016847858 -0.81515631373522223768 0.00111461322678334251 1.26255723902511518553 0.12392474542260835391 -0.97171754988300484968 0.88387125684711476126 0.47848905876684144634 -0.84532596046055485939 1.85614927653266459373 0.76791546535060017931 1.36213726011040270336 0.38890836585347360321 0.70336666623543520060 0.67743170234718919076 -0.63471322773989757859 -0.06934572173646594284 -0.57836544009817547618 0.99188173592564288228 -1.28362302988437293472 -1.63720718273993526282 0.38526334473460838170 -0.28830205110250234357 0.32350016610051501864 -1.43617881776782629899 -0.47187090561312144965 -1.07911962124046234557 -0.69183569080911844207 0.27938936838705102916 0.32207589179498741228 1.11104986301464836451 0.02354973119588971500 0.71470733674820285941 0.07375209961330207731 0.24143292216471645695 0.22971131414826689854 -0.82928932018729295539 0.76794684219055409091 0.30711952503592510055 -2.15777691138590377307 0.29626381464390688647 -0.12008062497997380735 -0.84224387152785373800 0.85879674523294979860 -1.59750477433049864473 -0.24458831352587720454 -1.14669180867067055374 -0.46127082922416545729 -0.77821649610068699410 0.75953637035544008249 0.29232448955276374436 -0.10608876887407174550 0.04273427687206404757 -0.24448563417572843903 -0.66679787892920128201 -1.05734168116240012658 -0.29054145346887161327 -0.28715323194057890133 0.28317615915445598640 1.87683221697150726115 0.84320169934334399109 -0.28485346138134837179 -1.28102919801822134893 0.64603788103978965207 -2.01762215573250891509 0.01799155589100545974 -0.63710607669347152360 -0.75678442060947237469 -0.67895978514677646221 1.41091194545415055117 1.14522829094443312492 -0.20890507108359795962 -1.21210652537286622810 0.37717705858637617933 2.17369076467007760201 -0.47062813786829804652 0.63485503488794148286 1.45334021605086705087 0.31589000977436648698 1.61674842099793614203 0.44122656714528685207 2.44988181561377293960 0.02964047109238412969 1.34392466190144777016 -0.14638603910711409095 2.30119849181178581787 0.33575214068423953062 1.88570288137740282863 0.68532394128110118992 0.77271045351052491945 -1.83648359772073899165 0.89189933661357712058 1.02073607366056196000 -0.81480480683928036001 -1.20670670643088429053 -0.34473427913481213825 0.00905866347002185802 0.78691906436254421831 -0.08412577197784458505 -1.78618755246372429291 -0.87247566782993057899 -0.43817023130389060048 0.18740625295419743868 0.80309917995514346067 0.37358343763619300537 -0.87985745886944211058 0.11477825632415568358 -0.24414942638036052358 -0.18168722541849682828 -1.61060718719575812763 1.23372390450465863054 -0.81309529430067384315 1.20514477258831020912 1.71720803263147359097 0.66677681869153815342 -0.60419528185891380190 0.09092973402142318085 -0.59714547416810770386 -0.62541153341084709805 0.34957756861214933641 2.98331600360258386573 0.26495964452579207071 2.25175955625291690509 -0.71754266170649105838 0.69544138453396875388 0.43536718611348784735 -0.92316358464990833088 0.42876524143735172956 -0.20357611597787964031 1.29424198022230374505 -0.09626623251240735979 -0.11669810815741646359 0.11086459799577293162 -1.36285597632074440000 2.17348256657070182385 1.05112860971107302532 -0.96479313969332325396 2.11411495812609029343 1.59742640425293158657 1.46594013843556547627 1.85834692256068212401 0.25547549828184318299 0.58187970314110293302 0.25796371038700988132 0.48459309423982066534 -0.53772796785340049031 -0.09498300412160790018 0.10748063501585301827 -0.95057518376102900781 0.17459425038628079152 1.18860415702922783687 -0.27409549560721563344 -0.49943648138994128916 2.08429192764127879656 -3.50499953847520373529 -0.29450109134992652482 1.12865753515878708413 0.27529024362145998461 0.53574616956336695850 1.78486706841652131850 2.14453634922256286544 0.01544626004765039043 -0.48724226789018815209 0.99480465824395036822 0.95758221162812040550 -0.47653199199330026348 -1.52099957468732305266 -0.24173496364651306245 -0.14844605298881580202 -1.52159721213176979404 0.17844027611167428971 -1.22153168472869411154 1.72238430614894699744 -0.86505143630337566485 0.65983611916630602323 1.15147256194279501429 -0.21709700403680995406 -0.91717683739615918359 2.66531826813210637184 -0.58813812468406367895 -1.55923426304709722423 0.13401272312643597306 -0.06980071266013047893 0.08867476775294742819 -0.49739286042770453067 -0.74995728666690431030 -0.88572638046917206989 -0.82362282769599326482 -0.23121044200275930880 0.08130579257762100831 -0.73214247179246594310 -0.18357321471625642761 0.14959572225645786925 0.64033706971011272735 -1.05215892725810000741 0.40824461559836494606 1.33890707886958959527 1.33421070091458915385 1.00559989719917464157 -1.32819470470831202391 -1.70064930823405369154 2.39612925962472500530 -0.95332261326016609626 -0.33994180240026872220 0.68377260830204655839 -1.31411866000828236878 1.20800036672229205159 0.69889062593140682811 -1.70371168401104511325 0.18637417599439060067 2.06119502195424653124 0.73483514563483443016 -2.98768857900899842406 0.66415682846259804784 1.09864034787207209831 0.82755500512610613573 -1.66967905798396931694 1.44940695988729206789 -0.55065581210977587734 -0.86245744271586666230 0.06888061031920170163 2.48014615361065748900 -0.72797984053851538810 0.87904845155024780023 -0.09068736958794906822 -0.95075494972547736072 -1.08748980284919638528 0.33770863388034261243 1.20901861354981843277 0.02180512174670328970 0.36762260771252208702 -0.02906438797797951737 0.41718866316219382906 -0.01648231352874944891 -1.04190791043939801064 -1.30033052798793935523 -0.28595179516783286733 0.21542481059989582182 1.11550096527352793352 0.65997330361816985977 0.77217896930723017856 1.40324067389099926828 1.36673589515787563542 1.00017072708844656503 0.87121446140541269898 1.77603863758967284170 0.97700109598361839502 -0.36321038409848244166 -0.28061261422837224799 -0.16942160279698054159 0.43235720842603153624 -0.30483044219046895318 -0.16392581187614643778 -1.40457671782641013714 -0.30137849560418339401 0.33123995934512723283 -1.38438382388110237109 0.14231438641638435860 -0.15969730362166392745 -0.93748873253004172401 -1.93199786055829836329
-0.43907093157970600306 2.39300908270453893678 1.24398851477671867904 -1.37103175412927646981 -0.37552799819938398329 -0.06992592039257339298 -0.79814557458125701128 -0.15309934540854250318 -0.54090734475715918084 1.46315435803367011047 -1.96082483993924272525 2.38980693970865143427 -0.55014468063434729395 -0.75746658812098988101 -0.55905678450626350440 1.06432410384824427396 1.26527958641771731685 1.24629291602223246649 -2.40672470150101558417 0.33322437951813566048 -1.83260731389343467512 0.25426192654994994591 0.59079934812222334450 -1.58306964986835274622 -0.61469973215744910799 -1.22316141358812990880 1.35610532593982502370 -1.38759713841119203259 -1.00716471048685818346 -1.08789534146687705274 0.51752463608661425365 -1.25855860675332431597 -0.46874731798071417321 1.52173082233801371110 0.46949743823508116591 -0.04200310167624932839 -1.44117441953555669443 -0.40330503063850681178 -0.24189228287576758358 1.10797965179398327784 0.85397684256446637630 0.08400676318065375403 0.47676468774147245933 0.23092070180954907266 2.16147136607812218045 0.33549638694953420881 -0.02434104479691841932 -1.44588091169397858771 0.82877939379978704526 0.30854889523934925233 -2.06964699863191370355 1.63037277666958213551 0.45806071031730638543 0.77962110021591046749 1.54627010321726277020 0.18287719946628255840 -1.20152062250788826958 0.36057529227529411253 -0.28110106742804036317 -1.39923010225644239846 0.05458578379082622972 -0.86162491150180797739 -1.04043273886760201385 0.56580616121499338611 1.37672829059051227141 1.45900888315962062869 -1.72961017854579535147 1.13158622926631924344 -1.48775339749493928920 -0.45077582216270628557 -0.09989897543610382069 0.13913612555445620256 0.50289254593093879464 -2.00270504023305484509 1.20030683438441765354 -0.07527631987829806748 -0.62578026295871247431 -0.03453410942748979390 -1.26797498707718947486 -0.20345943852244227634 -1.31280995278683954020 0.54986374448549413252 0.57004113470943307274 -1.22049688557704150149 -0.13472781916241324818 0.51054817274226271806 0.95263557547720367769 -0.67134826364797506315 0.17374391049040924240 1.13915684127441929618 -0.83478181105095128345 -0.10260942222101102073 -1.36507858820816307954 0.80434476723608183679 -0.16910792524893752953 -0.13792224698091096191 0.69431390201701714826 0.00004512778457440142 -1.40421146228094939623 -0.68364743368226488229 -1.20811431542775493675 -2.85710707491161208793 1.74591468931523663422 0.85367102277661000009 -0.36481974755799018162 0.86422845476147058807 0.66788831323301800502 0.18569900223813501361 1.08012792494999332327 0.94106048908475925519 -0.06206664535484101436 0.47025010031256558873 -1.14148765856952216780 0.70025449508842785296 -0.59266697041122873291 -0.67939182038151635368 0.74187974537919842977 0.71433097813036894319 0.12593586762856040506 0.07823229539284315415 -1.00806458341166393922 -0.18718542573010973906 0.66110698286928371026 -1.10126025229599822097 -0.15321703267129638260 0.09786395136892697688 0.97071925616695919903 -0.23101877289189895470 1.00106616285871607985 -0.92371711591725125245 2.95693757505362597726 1.63155857502913748114 0.65615157663836909396 -1.41309232087248015652 -0.62918544127499043128 0.00828192683668558909 -0.91164375254799678849 0.14535447799184531004 -0.68429400776330129297 0.86207640462226686751 -1.33874262003820576616 -0.14728003847698067919 -0.51255597000804897778 0.29458233287190693783 -0.12185786612099058779 -0.49770741350835490113 -0.97204336463971052762 0.57540397594083869670 -0.34794399719794072423 -0.73868600857665944748 -2.70425152811094049454 -0.25091165981006030572 -2.09988564961756285498 -0.08245772522377235736 0.78020893115696399178 -0.06154617664622840517 0.15915043694249420003 0.32832826380006363554 -1.44269064165744098638 1.89888531672022931041 -0.48324512337804953477 -0.04318830377114588059 -0.60285425118703805936 -1.24655604603749825543 -1.55282226984711857476 -0.82602985223531832926 -0.74266089538169188788 -1.28514890856315933121 -1.17826514670710147392 0.98048667487313445612 -0.41764265498060110238 0.69070207340929767881 0.12911987164749530455 -0.56879181600120243267 1.22217496234115952092 0.94740723224713019324 0.42472881760343744739 -1.32204620136494543914 0.48709681767942430985 -0.71017745659458531016 0.01933523564852747748 -0.53508422328231552978 0.25670946472731115406 0.31301006164292549672 2.43997827308868631135 -0.00718863443239199651 -0.22626306590439632105 -0.16433016974936509591 1.19235096903685033887 -0.24043438660342356106 -0.43055404313391432147 -0.57196511470323863069 -0.42798332597655758258 0.12843699615652853785 -1.12638558921844356142 1.07519618985449771920 -1.39437910398557596281 1.18137513210315425738 0.47628684108072338876 -0.44090626023950457713 -0.22700067523312200679 0.20795941006130799766 -1.39012393437069903257 -0.90589579044336110414 -1.39401662411099680483 -0.26942333888689090626 -1.06133867461416930844 0.53282605735220411880 0.39020291254305716766 0.25828747948841485060 1.82739326258156631333 -0.76892805657541529740 -2.18858042668902497141 -0.86802701816085559017 -0.96160572129043109246 0.61542707829049980717 -0.82724590973602407651 0.73759346927770941260 0.07835348264412869690 -0.76284027159216172276 0.10082413818604707423 -0.63796904189948078212 0.25127103300312780831 -1.14765302689706882866 1.17919120275006616971 -0.36315209268148218591 -0.01514002710423805950 -1.05445218740451984729 0.14701414299481371795 -0.36707775494584338194 2.84060943481924876863 -0.91306266048286699455 0.30950410027075608843 -0.85547774304712231874 1.56224787100564643794 1.23153351858737902802 0.48950391658885378243 -0.42754029029480050683 -0.03153417164888640961 0.25159744322679011841 0.46289361752214364110 2.40371350507702485899 -0.36887520030628068168 -1.55105417142242085760 1.32190091855018554412 0.79730900995713938073 -1.11479613741816430128 0.71277368235242510863 0.16931783816427015132 1.41500087840338428791 0.83563459010862728427 0.62653115190628494435 -0.69586155234248259216 0.73778560097900047765 1.13085031536929658813 0.76887806761918919829 -0.56741110572552333480 0.21106945067783805525 2.54326437087481060928 0.40345930596999124429 -0.75375755815945533200 0.89353878845225032101 -0.73132019951209337183 0.36206950126589676486 -0.21439493867717984710 0.57431727942826749089 -1.65724903986099980635 0.98007152941683051139 -1.27674540454849472226 0.14824288116211356559 0.63302736277975668600 1.48527106372016315383 0.92781152380710663063 0.36058692932130259612 -0.34265320612149807733 0.35845392929800584669 -1.39313005782453491754 -0.75446924868242903894 1.84453431984300908475 -0.47823069130072459743 -1.21554403033535307621 0.75167780735253120206 0.33336816954588760487 0.02208389999166418538 0.07937611270772190752 0.13947168426909076211 0.71441365670985301772 -0.70701358419864779314 -1.02889955677343092333 0.36979646633228546726 0.61182390755185023234 -0.33042283613493167449 -1.51188283869722117636 -2.64572742209038569428 0.46835727445848462924 -0.95206873833571392662 0.26301452284918680480 -0.68720238250253951051 0.51573359392784245969 -0.09142309787154229150
1.06722684172451409701 -0.60155596519078202711 -1.14288842627318620870 1.97342220355418396238 0.73426337147356002255 -0.66614964227974504674 -0.13534581101444967399 -0.29447433973573022836 -0.87500768734285772066 -1.04786679396168525003 -0.51216731682745897380 -0.79810468503255049821 -0.09906053286211141673 0.80223363064085362328 -1.44582800930109445225 1.05902243355227332344 0.15636817328193017285 0.42554204851511606700 0.23802051100235552261 1.05886460406676907731 0.72000080213184369793 -1.85357461252895383552 -0.39301726085540378275 -0.65532436815409378372 2.03758718881511313725 -2.70485980209941256902 0.46820038672894453979 0.05727679256243616013 -1.98518752067314219190 -1.12862916979559924080 0.38559765204409779393 -1.72557543450774164562 1.78641473076386891883 -0.81340341454962716838 0.28238023569967385384 0.90163498732240243694 -1.17784662448752519559 -0.48740718098509128176 0.23351227650008657410 -0.85300918454008778369 0.68251021061032712822 0.54262790187599807545 -1.60942260461509212277 1.65496032945449789153 0.32371280660874529600 0.33924612715271440511 0.27010233197188254772 1.53736375861417062794 -1.20610471599063129311 -0.53109149750970752191 -1.69012823987184224173 0.08423329281337116337 -1.57450120931811543556 -1.29881806964190338327 -0.07240764260743287606 -0.66257160115723656713 0.75908291831722018994 -0.52234600941049058598 -0.53323114548203442986 -1.44605904287912134798 -0.94620680509893762000 -0.51922072131862273547 0.13013074082081668714 -0.70553153102671639640 -0.92236031768866766356 -2.31901605127161491993 -0.36403029739060871472 0.34882252005623581859 0.24084893714644045604 -0.64053122054418354381 0.91115001188144073563 -0.52803365577833971667 1.26145212155043440205 1.09395837531967221601 1.05566200002521970447 -0.18429020748701430144 -0.03250065559712854435 0.34723472874635169516 -0.34844354003598260183 -0.49718442866101025812 1.49617164692920123770 1.05984796635288280875 -1.45662261006423565668 -0.21942830433128795997 -0.98167582505431194573 -0.15953998075876632545 -0.12100500901100982865 -1.07636032054579522388 2.33819049117129251769 1.11534975424337279293 0.86264900597863247711 -0.73206215953306386091 -0.08319248917054912484 -0.67054113227157852162 -0.31701233738406753293 0.61261698481717297149 -0.23412200045125267089 -1.15362278582021637874 -0.66724862489002778609 -0.94088173466203250950 -1.28755147074438047738 -0.80432441745454330562 1.22332484898719084931 -1.22789607001982403744 0.58353623697563505868 -0.61237754369588470738 0.33273457618431107052 -1.00756966100752798354 0.08038601773444960241 -1.29906584534297420142 1.24559827200626394017 -1.73521804832317116940 0.15142618309945296562 0.59691433500732216100 1.01657531899074871085 -1.86410977426801349743 1.07391830123514520068 -0.73292513782320500848 -0.49555289754541337333 0.80180765337992077058 -0.30435353444409402046 0.81074059302956957840 -0.15652553884612091517 -0.32026189769646684624 -0.25762184553054578995 0.97239488950412011903 0.27025803860588470950 1.45585116308180850808 -1.24884855007304307328 -0.58791249707467674313 -1.02842157463610717194 -0.90075312672904850331 -2.37479496690013158755 2.93833758084445451075 -1.51359659812579305793 -0.35738668149095670357 -0.80498435899715425901 2.12837841597113097691 0.42788290700192221916 0.71105754530768028321 0.38673745110628016119 1.57026029585412985057 1.40981801268163731145 0.68316079683221220264 0.22685862977624787762 1.21321278535579457625 -0.24506628794747803424 -1.95016952134564869326 0.84613767333149825234 -1.99044028300285269495 -0.09896584122504036019 -0.23103156332867447187 -0.01982562678341651466 -0.21505138485850258667 0.90116367218649617854 1.05520282619119742940 -1.23072372563675225265 1.53059009173261806325 1.70951739615857345456 -0.09214406207818559569 0.61236808933172670599 -0.82750528533466272130 0.31230741355469504583 -0.25926137699505691359 0.62177742635946342542 -0.76760368039697890463 0.10050932594489653260 0.85969363565453038589 -2.30412418789035022826 0.82680304857260844553 -0.45869129541903469471 -1.86236923999592884904 -1.90247743467288321639 -1.71354240937644175524 -1.96136948708809710773 0.07968610856909756623 0.68156436129278452629 -0.69749798913978910964 1.36070888368867914942 0.30260085515008111612 0.30857657114762959694 0.27729150850271716555 0.26691322834417391396 1.37865463602107074514 -2.02935882794990396505 -1.15808097998696357678 0.59183169720959605264 -2.27593414290471729444 -1.18484303203432861373 -1.08901788967087509441 0.31588627477725522708 0.45752324482847767095 -0.51827693427912158164 -0.06900945589289186888 -1.22502907873858180032 -0.76308071395778487300 -0.13293891194432380654 -0.34528029036260993179 0.84164718711486175007 -0.33358716242009428532 0.91556360229732536293 -1.76336246103804872298 1.06754093516141823628 0.06768217571666582111 -0.37910234046648666473 -0.01422646683214777961 -0.57227426232954958785 -0.36019309064156407318 0.80642257754884805188 -0.13993722145477774377 0.12762821209696831315 1.75722504827329739641 0.48743606435297603952 -1.53850658876012147402 -0.09270537998753355935 -1.97372651851722036298 -2.58637249573014615933 -0.45493751133525311969 -1.07776400935575811246 -0.88076481121343097591 0.08806565003596164565 -0.19935395462255608989 -1.91511186995905191566 -0.79635574698187172604 -0.41613307039225189143 2.04333063182668794866 1.03201341816866287715 -0.26534865093421450277 -0.44539764567602935230 -1.00243763852443623641 0.83798520605467419209 0.43774451525721874701 -1.05772793199570047662 -0.35073813951264826150 1.04630129091844836786 -0.74673938710109011296 0.03530273938480567308 2.02635345367294927854 1.63384306458388839367 -2.10647740845553554934 -0.21637712419330956681 -0.60636490351582006397 0.06065392261931929624 0.62891265282560993022 1.39741581921316004866 0.76678878301528119454 -1.42706558206395794919 0.35153753861940739700 -0.52931472986349725751 -0.59941665526514431583 -0.83122743746079086335 -0.07184157155055075072 0.14701590799893760053 -0.85239383258390843956 -0.44005522031994964705 1.11633183709178784859 2.07754320149261495487 -1.50193457034187538568 0.88776847066474762205 1.14927354866784559029 0.20916050502581684523 -1.12485177539117753298 2.08617549616438369142 -1.10973916185136256551 1.59165114636666493730 -0.92382347790399743648 1.46764923636587352185 -0.80638261648549647287 -0.28107119889329601481 0.67345136577763031749 0.95105000254912230861 -1.49729419084579973287 -0.05933624115682636230 -0.74094076713217826846 1.00047876387006939858 1.13747140472221208718 0.84699465684165498036 -1.02049829563593053017 0.15948406813948526328 -0.00414486157917040490 0.46914078223374172660 0.09503894745842117464 -0.27459723437656252676 0.61286426719972963983 -0.41572944429005159739 0.18951630438136829460 0.03937827481954208481 1.09716332662621063321 0.33068328025196752629 0.84959280313960761077 -0.27238207633934236052 -0.40533383314281878906 0.65984618697253138997 2.31206763129186354533 1.85134092636431080159 -0.60171187430009986929 -1.23964735504787459952 -1.99528485274041567088 -2.20993767045265077087 2.28900681062942545907
-0.17797474263959719987 -0.17399719578164715705 0.55494331587154410723 2.16556186711982734394 2.61276623219890735683 0.57911810729547952281 -0.95652142614419888300 0.48377080102227243419 -2.10958941146595835292 2.06076606114757421295 0.50145711336453013818 -0.55083868256197809909 -1.81418905192772239587 0.80052141657142028563 -0.10293806642688874131 0.67708979178069839122 0.77878069815244066465 0.00882186536996004168 -2.13911635158972934789 0.48326307130541867885 -0.77786553077275577550 -0.25755573409993098855 0.68422130828528449076 -1.23142349182399568619 -1.34680404872176961995 -1.40849011819192182493 -0.88561910599931714660 2.01484718402199947107 -0.21042354898498313864 0.27651192169802962795 1.54444639011770568082 0.92974440821712334149 1.58054830693906911421 1.47081634728610266549 -1.28782534537804349561 -0.26482226220286270157 0.39640224945993257633 0.53374263857410075840 0.57409640151833318811 -2.23748868441282100505 1.06566573239877193657 -0.87346940485650514940 0.51277247737777187364 1.23552365048809420500 -0.78377347188152168833 -0.73367329029355288217 1.45117429947645470989 -0.87737412846093532082 1.46172118126762451418 -0.18974949483631350922 -0.22290170941961112705 0.96555575814589778005 -1.76241120023463615496 -0.30915015550617186424 0.85984741103624628966 -2.05671081703213776137 -0.52631996136172876088 -0.58841347525355613968 -1.70837679943565512453 -0.14120785234830421362 0.27060211000908135359 1.13294226434197220499 -0.27384533059113663755 2.56999691476593650208 0.50566016781856559792 -0.96588885322812534362 0.55632593604187186020 0.38152351581919041745 0.77800899704308967841 0.58111869589765952071 -0.07613469081226983959 -0.21307976970650563397 0.73999642484360006467 -1.33935333620016217004 -0.33988531638993163542 -1.63055770898398155744 -0.31628291166840954984 -0.35765691789965803338 -0.63875066043335437804 0.50179064546201390673 -0.36901562459352071910 0.59996700754799059396 2.11323440722954769555 -0.46040133368419622339 0.44494424968936524545 -0.88210446447500756584 -0.05389071340968792923 -0.87536776185409670425 0.16759113028039226978 -1.47756051322974468754 -1.41587023146369461735 -0.61580151432402630007 0.96771934744343202084 -1.29366935842225050379 1.28111134078955224425 -1.13127643596958771255 0.79144682580833802810 -0.39700972055527283811 0.80628399957580654256 -0.25315974942593677532 -0.88613321456887328420 -0.57369307820598736125 -0.47003362807076581875 -0.60848616325166293706 0.20067582834196895369 0.12348632818491996066 0.65425544456333184495 -0.85049479208807821085 1.05083947084137085959 0.08448378284670904348 -0.38205925184445943543 -0.38846908214559311423 -1.01826358421683749178 1.89492681562208553636 0.62836385787069359843 -0.48814275869421086540 -0.15787647832521770064 -1.92347021448486077411 1.75462966316619484175 -0.00267788714946069067 -0.45931368835614760915 0.83634082556426370125 0.23437772065740591909 0.98562504820563756613 -0.02908384300320481300 -1.42309320585602994136 4.32156113597319535558 1.54723650956766278775 0.03208060791710821286 1.98606600008820866066 0.06573281571921069100 -0.49431056224179281688 -0.72681811700927001496 -0.47577469631324120769 0.05746204304535148383 0.11828237184403465887 -0.47822753643507565080 2.47885518517776537450 1.33829419542665672971 0.79737938630422922071 -0.32658334659848470283 0.05147572913945296785 -0.45846499058567957707 1.08908918065282511733 -0.64135473330366277178 0.11994921971741805133 0.00874930470651958704 -0.57006117906882391999 2.18184136004634465777 -0.12366430771157235768 0.35747264883352231069 0.32180071396844012188 0.74224859776478591122 -0.95407128802002805212 2.47553024263817178507 -0.38295577765057436936 1.65228864530077168560 -2.04088401806003849615 0.33736390659354831278 -1.85963041213272428642 -0.76255418513309702888 1.20488903917765211027 -0.28476604347354333990 -0.08822004242199946167 -0.71592504078182672700 -1.57224749098921789958 -1.31914517485388183005 -0.03110610632973008494 -0.85526443500682192145 -0.23231173908572622100 0.92698159378719824364 -1.85502652831747649742 1.04291754323296226303 -0.68086746280630816575 -0.46077885991691402978 -1.05538095340831250546 0.47184091685288304108 -0.70413959290975369765 -0.98213662560778380861 0.92430708908845227167 -0.58024679230586462264 -0.91786585735105596928 -0.37406759385732535339 -1.72030234072133358936 -2.55209431151338206334 2.05288287837836813665 -0.29899679105751719721 -1.16822022797889668588 0.79949496395098840207 -0.69770228975801162896 0.04617033431169988156 0.70186236319665840089 -2.19865902890410058745 -0.09298207068329679414 -0.18207847070222779595 -0.33277569095372222518 0.28235872406040873894 0.99648631971361467663 -1.44215308753447923884 1.20973336777906848027 1.00281681695456903469 -1.58489419285753885269 -0.50268834144202578784 -0.63327910454967883958 0.17147739991256052972 0.75733901310135576246 -2.39461082101541000711 0.32753598483716050982 0.06337840570014705022 1.50655080011873754309 -0.28258180927442166919 0.17340831200336404017 0.23471741458685557724 -0.53951786740630813810 -2.01765395369139488579 1.61624067258050296836 2.39445165443598062538 0.21913497359554803823 2.28537364186772062880 0.57142864916293512056 -0.79080385848690837314 -1.52393527934045436290 0.38436841598763116234 0.91199508148031249721 1.44913970429291150133 1.01939779222538873249 -1.10990398065183737408 -1.57325329151137993655 0.37906251426231268864 -0.14624738115271265770 -1.95815162398782072195 1.11529692161005788975 -0.74759968971874735111 0.65850971117365730834 -0.23745716482972248351 0.47777875950245302095 0.04605704077523675027 0.95573403984053795224 1.20846076840297667054 0.31230134097413742023 -0.55034549300487656254 0.07749238091133640871 0.00639883916785472916 -0.28743580464692269905 -0.10984849318700390386 1.12065006231284591820 -0.38911500614967226008 -0.57214128471238523410 -0.53093729828752533884 1.64811069693530032332 1.54924298094532164605 0.43404170773117917159 0.78761979194634224033 0.68550756335486096038 0.62089449581431077618 -1.26060567097186448926 0.32719220623914829771 -0.25026329330592689271 -0.30123497388146203146 0.26686666886425586265 -1.08820692311932587515 0.66133168507707995598 -0.49052104729288426022 -0.78385313597698125232 1.31077595200885732574 0.33157796618895801766 -0.15386293400919692775 -0.61358441613143821503 -0.73005886945836873103 -0.30813568520870970868 -0.34325217359869736322 -0.02058172189726087051 0.21499625213021483772 -0.67429669402463843220 -0.88294683501637061251 0.08364211539058807876 0.32595930407236950455 -1.94113932750352180534 -0.53447786770304595017 0.54691498585160069901 1.26164145622041745654 -0.92482097201727309077 0.71541854052351305793 1.21542991173764169943 -1.20710420935891438177 -0.14277648993149327783 0.30673271051584721780 0.26988840926596407988 0.60788436192520756141 -1.61116983753889453368 -0.49513098355605300593 0.39856199947585496668 -0.81065881084352531261 -1.06454899228302579672 -0.60066942007474888321 -0.78218125229329837911 -0.76423450013552574056 0.14240063876449401969 -1.33046588464471238211 -0.96147777148189594865
-0.39627449548645199418 -0.92922853837960706080 1.17959665834122540140 -0.66425441378434946227 1.77283212409605561710 -0.44384728962323743984 -0.58803603621929068090 2.22138794826081298339 -1.45034828192101450384 0.37443112137154860308 0.48672365516260618357 -0.28480163227841531759 0.37973949882224500296 1.17849199008261917854 -1.58074174534412525972 -1.34124955125837996839 0.11477034024756876951 -1.90226238103646161370 1.61291871977488487921 -0.13191464072367189986 0.23530046161469300725 -1.68195024733954756613 1.42882898955225456916 0.68752994030482594834 1.73140338786338432442 0.01139275158088339131 -0.01497056470779438604 0.31594734556184905783 1.09133763817482831726 0.59692170586533066512 0.20050020704566204333 0.62716980667649857573 2.85199133913805358276 1.03050555624117645692 -0.41972030173657831620 -1.74452129248659115746 0.13762840750264251910 1.98157179275095973736 -0.13309002069166422921 0.27153029336169626218 -1.13947865264653325212 -1.21967437457324812122 -0.98055523020230905828 -0.16248992541022455605 0.23468284149614285217 0.00181786052596844623 -2.55780334427147293397 0.79916395876460644132 1.13581369152296107750 1.55837940774014693801 -0.22866954334415465211 1.31262608048106077518 0.42869300392749165596 -0.80988392053184854458 -1.82210999680101082276 0.73668965465011260196 0.90057040530354737218 -1.50106565247383927364 -0.58736382493392780280 -1.40317807324469678854 -1.18467174146436016180 -1.04936384900379042762 0.79689136484236511304 -0.54196467702685469092 1.09077317894393899245 0.69633227780696471676 0.16387902757127881248 0.59635800098093239008 -0.08907266258629877032 1.61129484825117863522 0.45042729395493680267 -1.26570159569359308449 -2.07564192483931186928 0.11312730811706844802 0.50474950035225174538 -0.63175311606411610477 -0.69010304828455593107 -1.41299549848315253442 0.50849679750258003352 -0.10594141488111015470 0.16194366635979026703 0.46933805310180459758 -0.55596152348097149787 -0.70337750321663217168 1.28664803917075731832 -1.00838133481957625825 0.36731009958132082582 -2.32079919201022599751 0.96807755396987804630 -0.38139551053791470592 0.06591065700551081152 0.24770649788503681932 0.91767117059754366171 -0.62952994164379383335 -0.47499526177862388954 -0.65446974874524321830 -0.71952456588798097137 0.69370298868948865323 -1.24072167355141815825 -0.57646981112609541054 0.05859877330423435282 -0.77525427289250725682 -0.21226231857496297151 -1.13608054650871981295 0.18440663949218225048 0.79660259920232057151 0.69492989428241358496 0.49292198095387279588 1.68688545266371048292 0.32269495859111158031 -0.47900299126970308228 -0.68957305534941715219 -1.06655143847257205536 -0.17364430480483136754 0.29262018841153653037 1.63898200794083215293 -2.78667338433593991809 -1.12585231317549983032 -0.55790861354690501894 -1.00950192071380406844 0.16183113806807430946 -0.87016177920289572434 -1.04829669049454765606 -0.14269874745250513137 -0.83531670076585440299 -0.08577879907865394726 0.84412683820913425592 0.10755352844604197660 1.30525951954014773904 -1.78736941369246671307 -1.79684704679328155486 0.63352271869644227742 -0.45256410511076300418 0.74421514234769581275 -0.15248948423571914712 -0.84330607893253073382 -0.68006477867712511465 -0.88906697810728052556 1.06785440545789045430 -0.92267717109057378888 -1.23016100980063369796 1.44918656909254006671 0.31275833913001893638 0.31753991873966608273 -1.22105194501203606627 0.44711480066872782979 -3.15881492792909090994 -1.29940777852304600870 1.15645723682109768937 -1.57810669135992087675 0.47973469308774907560 -0.26750897465989803559 -0.40332425550409584103 0.23625738418433664401 -1.07119960052861551425 1.95213194386561883498 0.61536306727147749296 -0.55515777310440350689 1.18794392572196794156 -0.74604597159744201473 -1.90897400685140361531 0.20679983652996389298 -1.03951302331160988501 0.10227426627458370556 -2.60883223553289234076 -0.92650956450354160499 0.49623364727895918902 -2.07568090484351186475 -0.18633288915480419878 -1.40141098225866245208 -1.10598981252997918823 1.67597955105672347109 -1.66268355395389022533 0.30845632182126225818 -0.88691985164251763152 0.20366409809132990372 -0.44304108270517011947 -1.21327273614259012469 -1.22841837281019272687 0.97241184606784925037 -0.55322798510878912204 -0.09381260849257748446 -0.92628331398015750775 -0.48056427774864929336 0.05344844218828524729 1.80710369149583116588 0.89153379220859574339 1.56175930025241171961 -0.75901059789183833448 -0.58045995815688700148 1.43409750740891905885 -0.55980882193183767459 -0.60879786677403313622 0.87248615092078962707 -0.23680375720025048647 0.26698285671055066448 0.05737163521704269353 0.28829022354438382791 0.81325425343503798814 0.31769643247921192097 1.39468076489283321351 -0.40544403883801505284 -0.46188754662792308459 1.28144096111018956918 -1.59017030189494423809 1.65253182300112588798 0.79122179548233173563 -3.74972679584429036126 1.65032052118551586517 -1.23723440162177578117 -1.36964957420534005905 -1.14087958259174926390 1.01528585900886270110 1.26634373539899813821 -0.59670066660044052131 -0.06695090025787443777 -0.28970479913981311837 -0.76046879722767013465 0.30710737498118823030 1.00651265464189521026 -0.67600310337510960412 -0.93411518603472576405 -0.82994282829321142092 1.97624074649251735281 -0.35541445044722730362 -1.02183343737357890113 -0.23175603087689627957 -0.03009567184611788848 -0.45146472305392471025 1.14868185967095159938 1.20148273208984934790 -0.18282276338777023184 -1.85407767486275720792 -0.16965239648425967101 -1.55521385461378214288 -0.07695288905373678934 1.66807486025048889999 0.76074586319451587002 -0.00633198698380614804 -1.44147930198163609639 -1.48390567771927739393 -0.01427544251030896799 0.13482521924251075762 -0.33902344995145516915 1.96361095670313878792 0.15342359085779441741 0.21221659427374797713 -0.06340759599561446302 1.28004121389431535505 0.29449252485018967418 -1.95080833570935419097 0.63065022358801603453 0.03891810717933263247 1.22415222882279373096 -1.82175422293795929995 -2.03116590659748430525 1.36337404281449514620 0.26501350506464910195 -0.00643087327959790400 0.75866311030789934655 1.15666137240002186992 -0.33768112926409293850 0.62741639221151801475 0.38501495717330208590 0.45931888318929814385 2.05832434253550955461 -0.04745587142295583372 -0.76459008498312897029 1.10985680640806050334 1.33670941457227598903 1.96401438854920362687 3.84876706768363563427 0.21276991231350425582 -0.74743469115224980825 0.42878048489644976504 -1.27434854594669522143 1.31095912198573349983 0.00893671616578905169 0.62933427994065616051 -0.67286744238357065750 0.17367442787346082378 -0.80064538448164646045 -0.15797386257038367741 0.14642410307135528269 -1.29549586879463918265 0.12189144147428578047 -0.25566577190211764448 0.08894702643514444673 0.72516511640167946595 -0.91866466410508462737 0.99640715858510497949 -2.34450137158771054757 1.24687420170804807995 1.13809965613798347306 -0.17948131403390815697 1.30796093008646741040 -1.33228532075766326059 -0.20164990176931760213 0.44941304261774689399 1.02567761415501457201
-0.88015633212131871854 1.39137753026813149049 -1.39031137038918517490 -0.97994347108306778527 0.76439463534711959980 0.29065620345003051472 0.10284966824920807604 0.73857362857333286321 0.52518327778229101366 -0.39657960967620126125 -0.60727193332810536219 -0.29554192211837182480 1.30476802585478535157 -0.03926661026083198835 -1.21474602871373971169 0.96635296216962929261 -0.20115909935239770223 -0.46985333033074411224 0.48518190042376313498 1.13232244882132659924 0.42381585683057976244 -0.92779309172370194592 0.08703851503867782169 -0.60628287172905881430 1.05801924758513998803 1.52809252908290793549 -1.50438750538597254547 -0.72989068053888239707 0.93313786215805849533 -0.74306130210401111214 -0.69283252212969959061 0.23041309894075603926 1.04723562778686929420 0.33393794755221017923 -1.71081815706280582212 0.45743988030782339882 -1.21819217739645013765 -1.10309694394935298156 -0.01153072194997403592 -0.01515247101256063898 -0.07623644246149516301 -0.58745772743547663985 -0.61181517636982440944 -1.55045284749134393287 -1.20024183976851506195 -1.24417125595943756089 -0.43746968244922251889 -1.26161036421571548516 0.32869361500819072042 -0.99228580358498830183 0.86019377225051407709 0.39379711784606197256 0.45830280448301213836 1.16933006458221666612 0.09411848073068188048 0.01847814946576473855 1.22397644507572000983 -1.40439624166413556949 -0.78109825481980743600 -0.72208230068459966500 1.05843679817881985983 -0.22091848775067196575 -0.69636464501748651656 1.57495552758291168516 -0.42450305687665434995 2.21442852942942547401 -0.88324817919990650239 0.53181120596326469929 -1.16347425964454309621 -0.47916082862686054655 -1.08071918336325922816 -0.23252454183216525463 0.28569030339193102197 0.28532097215121993150 -0.43256654674392963633 -2.47374383253223761869 -0.03147991576331429092 -1.24605413711710766300 0.32455745565690519161 2.02066655530290928411 0.40896910823198429075 -0.70378926272579334089 -2.64851984235317550187 0.37868521964580142969 0.66358882852476985814 -0.34872473914542967410 -0.44425682570918328951 -0.26605253748666912728 -0.41991043235341207751 0.14612336446325477346 0.81304131358325981704 1.03759933232043177753 -0.23632339584334446925 0.13694351958001849123 0.35337807420110417533 0.43650299499738659526 0.45035149683594249970 1.86823589898035180568 -0.07370583226195270843 -0.59798651888023268697 0.33284548247085349315 -0.46000833527204054718 2.39257774830996039483 -0.58104384190440250268 -0.18516435275704018482 -0.74253845290428688308 -0.16615949393525222821 -0.00823706243496604394 2.13178667482741301953 2.51391244324212692618 -0.02029234568728148502 -0.08986781245925980210 -0.02892684246466826342 0.71736228440873128775 1.84234272499552265145 0.96750232383393008906 0.95208561955437398527 0.12277410134685694254 1.52361953432644137152 -0.18692393474938442943 0.09930354783537617691 -2.24903979274874510352 -1.89607357244804797247 -0.01361905726653090710 1.20143404258828745412 1.44138525208858814253 1.05432511944652573810 1.29606714096467912078 0.47584933757383485187 -1.49543822343457710744 0.00321361185578476760 0.71356879908867665296 0.40090967517027237266 -0.88808403670533953012 0.30676309638753801456 0.63620195190341322089 1.55735232169555715132 -0.43641849951959960086 -0.45236767680408046521 -0.96471337903311271678 0.77463983718773621323 -1.53236712457592672010 -0.79907111617030124329 0.90601008783631642451 -0.99386028939616100075 -0.94016307396046250311 0.99809994546507097013 -0.09725115252110569375 -0.05030799188161983598 1.39798774484863330692 0.43314596357438889251 -0.53706243383892249277 0.73236242765282133504 0.33715242555625712928 0.07019746238337354338 -0.82272177015038605585 -0.82875124985936643451 1.11836042686041747807 -1.71698500401025055950 0.22180735701171841456 0.26068027283602246413 -1.98071282137573345672 0.59202259437922466478 -0.74044038228729391893 -0.48403663868211399546 -1.26506224707494174808 -0.51947251914174896736 0.37186920119366018156 -0.77636919748257804397 -1.29376078670456085007 -1.35799399263365949686 -0.40388590211889119352 -0.25392491962988766874 -0.18348980048475696525 -0.46570365497716625924 -0.02197826567375227996 -1.50786679593656214315 0.29273259220446740114 -0.05777102917997292697 -1.28764769591990679842 0.61086044026600139212 -0.92114324999927110760 0.50207478961579987686 0.14575585401064936053 1.06241445713352056224 -0.16753304136838592653 -2.08465557304153614737 2.64296946470122140482 -1.65694081317333696823 0.47771108242973264746 -0.55419038856080649058 -0.30384781809359795446 -0.97153441522247663276 0.28348085761495239732 -0.26005430950829006020 -0.16268871752693550570 0.15243244959535656724 0.40427097536404155154 -0.95454480583228840107 -0.87935429619020788472 -0.35079917602989024727 -0.76673891204783850561 0.59420828305209649756 -0.30822654073278965559 1.53551754986999955399 0.31394927095125907401 -0.99448476577063626980 -0.77487254530092741778 -0.68541363438666136343 -2.45655179208487073339 -0.99432001010516657402 1.07723603552261781857 1.79991536451584344114 -0.02575864420869147450 0.56305599751976898037 0.47405163753004692095 0.95069740527173729472 -0.55880339477694362937 -0.44261955157206733791 -0.71968738687856259606 -0.16076061062933802437 -1.62457128680218754191 0.38784788809122916486 -0.79020747302415661473 -0.18536706463704022418 -1.15338867801569167071 0.23397510759723583185 0.46427534750381421746 -0.03605271065283355281 0.69375255043413086575 -1.25425518946711411772 3.18118495132267664616 -1.61328424465772379826 0.38580880513436222046 -1.47766885056923791275 -0.10983086221256646575 -1.24688216006682961456 0.44360516427383928084 0.12962720035167013544 -0.39157757093078149335 -1.32818504241887258566 1.07579856813488694556 -0.82167965750211569009 -0.02161890295861701103 3.21011649837922785622 1.33641262033059193826 0.50863072928677321993 -1.02604837570513063305 0.51498718231448992189 1.25576388495778767940 0.41412767517802623329 -1.77114352314402623279 0.88024770380990546847 -0.73396455875065014229 -0.79388004285196644982 -2.01612154236404839125 -0.04531957408001308779 0.93867811525158795227 0.20038731832743753025 0.07312298153230167852 0.62239457229920747139 0.02392239615466152519 -1.35529640432216469392 -1.35367772750383674740 -0.28478556708482394288 0.98648490988202020002 0.60843289771606645644 -0.40010354604412279311 0.42068569962022617226 -0.55937316448706952965 -1.46794514064637504624 -2.57878577498764727238 0.07324636757985245050 -1.07227155488565495389 2.88193900277741610338 -1.48666463781259095001 1.61429120584507623803 0.35986777652276624728 -0.39412189222095306285 0.79544651637572016956 -1.56611365872941865618 0.43276538580695972369 -0.16328977027659133392 0.18732310310390437591 -1.36417261934590694494 1.58902005405153046169 -0.91722053185969532052 -0.12177249321956651329 -0.02643575251979406182 -0.76130439758861656596 -0.11513100163794258435 -0.72848159679296586866 1.06415682064386918348 -0.42227826030366860666 -0.00120780503434870590 0.97840897569590890015 -1.28294021196767360493 0.92251921706433681614 1.13627508961739209781 1.24330007924340080194
-0.18501577231244992205 0.61192126352994713478 -0.10132289093942330183 -0.02589510996362455464 1.28885933288652632100 0.57882860264190294508 -0.46834986743072770654 0.42536639390600233801 -0.60960914556349055093 2.02330607917679383689 -1.59832951946069545812 0.34231019893392111708 0.66232955864578946237 0.16003695650362562142 0.29846810093425718557 0.74546539670913414266 -1.03905563538247469602 -0.00309178785877423437 -0.86871802150399513032 -0.03142877746672244343 0.80875474520770762599 2.07009138845610252133 -0.69026441248159953190 -1.00708414535705514936 0.83652546776001046602 -2.69284770039710075196 -0.14070103782489573607 -0.39374821487144173737 -1.44457985206799066624 -0.31912404295091195694 2.34697055177870117504 0.33322575992663838740 -1.55628960103119684533 1.02556561204720497749 -0.46180103906536146274 -0.60027761397621481887 -1.37926505768877660785 -1.10908955448695878410 0.45316004316064673052 -0.49299373985471428572 -1.78466114155638044814 -1.45661710196269189588 0.79623835359611461193 -0.27512766185109033268 2.54517339868025871397 -1.00184476035343905664 1.35413163218725651760 1.14529030834478362522 1.13884971327635220462 0.18465364730820338357 0.82244873739586621397 1.58971901744874721807 -0.51636574809551594178 -2.75200738160195346182 -0.03655339575043296124 -2.36441318697043367791 0.28832220664382068875 0.10193461330085536176 -0.38035453470523494790 -1.57761875160218223435 1.31683496178429826351 1.05809568463855341314 -0.49724994448812631642 0.52882389639434079776 1.24940661172757216946 -0.81659012691702836939 2.08270328451325559271 -1.63838740500421886637 -1.41220527662211892128 1.01916093538259588946 0.74745223298260454747 0.79866118348077763667 -0.23911971893290823177 -0.62623505801484680156 1.06146551516505294188 -1.44679434671118745115 0.47669075135922833741 1.28676697238485271413 -0.86172179813696003770 0.10583374654898379530 -0.82283903582238104857 -0.95933774099616708764 0.10020208360436068384 1.19838389449044568913 -0.11856892220386253123 -0.62653238428040358698 0.11832504693744584634 0.35752471349116388133 0.12422602028355968218 -0.37987110603233226191 -0.16301402756269714467 1.46442840181875832961 -0.46661216143710998461 0.11309975595826071704 -0.42903774534771749183 -1.03927774274446882430 -0.20936830843760173559 0.34138410046162742661 0.98801477750736332872 0.40068125016236544322 0.28060800211345943156 -0.98228865003869580974 -1.51236585042348714580 2.36856981211928552256 1.92404871553146628038 0.47311627104139397648 -0.56458883405591397953 0.18581344907330624161 -0.80429252877707024805 -1.50263368334264257875 -0.43914615153981578777 1.07012890685341899299 0.86904144821101902973 -0.36861983734586833972 -1.36561185316856881222 0.29857792923023568354 1.10848791007408387088 0.10197692852472625691 -1.01882858602477743837 0.17774275439322795300 0.05866585047413047649 -0.94695979211107406126 -2.52272588336852576774 -0.50532783273374293209 -1.03103704974405352424 -2.30610485607076709513 -0.68603900151343144564 -0.39153498007485804111 0.16679911860222215725 0.23078356701312457977 0.21427343380599411793 0.79483991994829839012 -1.34178129438747828495 0.35569256097292062391 0.25174675348026231969 -2.20934058634903252027 -0.71672550738755691491 -0.65837062648929345343 -1.27152322325138933401 -0.53294313776671531357 -0.88327980468989097940 1.06836665029053001774 0.27742278819233945342 1.17223124490929286878 0.55241239014421572584 0.41158752760329370135 0.16934176596067843090 0.73488830168671215315 0.19948500735263813288 0.35934491669220397503 -0.74574835241451931100 -0.95712831858745350821 0.17571415703015955123 0.27812511584740534643 -0.44109150213037745525 -2.42581074934168094970 0.66096512359694359340 -0.76176167644413406155 0.24182037499923209056 -0.19267566749811876337 0.13659033165068620863 -0.49255802326338565811 0.82409276299028300095 0.79476574516925468927 -1.14273548627482290918 -0.73152787394432772228 0.88125287164701904263 -0.21607706675897792037 0.63075830698856460987 -0.94944100905688222358 -1.87166171999521058211 -1.03443628085814132156 -1.31543900105280830992 -0.61666225850100597761 -0.66936638459207753460 -1.82212901927779813427 0.71476178301646209334 0.67306365299918913259 2.53584300656566608012 1.09247296887630818141 0.07587136146927787872 0.08138219034014890219 -0.99609123112921216237 0.95893037037068074024 -0.98859746391852432179 0.61335935462955337716 0.91221704335204722991 0.90573048012752754854 -0.73918881925618884488 -0.39166650513996115190 -0.77872835539872631294 1.11320338627867898573 -0.04493858145516503588 0.98194749168687456287 -0.94709808384825933114 -0.74468544863380947696 -1.55147708601985589993 -0.55020635343493307090 -0.15476160479776507328 -0.53327927567680022403 1.07907420404667631075 0.47665189033587362921 1.45451416913922826346 0.36350881067787088607 -0.15347364283852490963 0.51712774771273894991 0.60704731502119813058 -0.41031767520274703420 -0.03751815982569099706 1.33981428861651030715 1.96207499986973532557 0.13108196015505732546 0.15425016163186416884 -0.54677811228282613421 -0.88638460739814228795 0.61702861074554016252 -0.66160476151572555903 -0.42372216612088037246 -2.61021441419560229491 -0.15238640574412154471 0.04025589365816980431 0.27542837371474981900 0.41426203858263466184 0.97844745814801414863 0.37125105488462317727 -2.18642437521790178323 0.33533115094006149537 -1.65718054735928976839 -0.79949250842125563210 0.58070242476295830247 0.10978625996854238234 -0.39586985767191629204 -0.48094363789468652648 0.31857443022940062916 0.43138864344064054013 -0.37302880701818441622 -3.05241586059148994892 -0.39546992211785331195 0.83678812734030161291 0.45398658693603594072 0.38063465340941787796 2.75353085021733123838 -0.76103049447067727673 1.02886053824867240714 0.84741359677974281706 0.41142364872564179956 -1.19690780919606831745 1.50233111816153286355 0.35296397080045688321 -0.56449079056189732650 -0.26249120802124153995 1.33105630748336767333 1.15135587544123052517 -0.10642923488456218495 1.01286476775968825592 -1.92653156087343901959 -0.14966452773678612376 0.02118261217845543096 0.97473390190690445412 -0.94561301670954867049 -0.12530642580673628794 -1.22369499939177472925 0.00286080101166681210 1.83028319221351742918 0.02043999679171863357 0.58836719744017851319 1.32026579079032946318 0.68137917340693598955 -0.56104889605524366214 -0.25742911263612938688 0.09156300674581918653 -0.47921998778151436715 -1.78206085165267102965 -0.79823874950395101724 -0.40121237094766726283 1.11039056581049488948 0.08719723054194657152 0.19302091576624444413 -1.17580565960499727751 1.48963100609737253421 1.22119010337841982228 1.63016498552511168718 -0.67197937721938449940 -1.26693884401575718179 1.68009123282790384657 0.41971458268084266274 0.84639207374528391270 0.29383298541463287457 -0.80681795364091768441 0.10333156573535666467 0.34333467736623246580 -0.85026945372465900785 -1.65495858620167068942 -0.44335968686403609551 2.07655790468772627477 -1.38117096238156000787 -1.54097204147485289383 0.31514651617020239538 1.28445821363975309914 1.80074123223704929408
-0.60870156562039179349 1.40785590634417223654 0.52825814468929033207 1.72179827604450186307 0.60953714748635756671 0.41014196580083939203 0.02623183560832953107 1.40105572544991630046 -0.27185789706989565984 0.87240415562011186523 0.14636892943115020760 -1.32058175264754984468 -0.61175550713245119283 0.29479215659274848882 0.12815687608270276421 2.78937342787371056474 0.39008156625331830147 -1.54436557140662089616 -1.27355879010462169632 0.43165937273141702368 0.67013670374281497644 -0.94240389435901084081 -0.58090157773310202582 -0.74003547981867212613 0.28643655551182312102 -1.15106054580673444754 0.45320981162171686263 0.25489236567148743084 -2.14465298961698236369 1.79103716881923014093 0.67040463553473617075 -1.09903049119770490627 0.14810472107741021186 -0.59511030323798141950 0.87281234292973497446 0.85770533674033355709 1.94718865493791337684 0.05028618343057846690 -0.47487436776504377001 0.33529580525800078972 -0.48045110949422570323 0.97883012028226612511 0.89284623021394837750 1.14330040120185572050 -0.48110483442112395025 0.27591420144323564045 0.21629131340320920107 0.52248227270069547146 0.39052187403394356124 -1.11234413780108964964 1.62731752740997315243 -0.57321601552112999567 -0.85384794522004514583 -1.76264129044488582210 0.24282892613254905556 0.32314914808173855754 -0.69274685633095778314 -1.46552275545145538338 0.33526706249035437279 0.27765093460769518785 -0.42749693579846714808 1.96364082719828081380 -2.10098589945235136867 0.67443518808214197868 1.82485486522404727339 -0.91277190674402430837 0.19365452900455815133 -0.79368126849858455785 -0.32414116663280373443 -1.62365019363333207281 -1.52597179864330345644 -1.17993063171067036343 -0.36954271653182463320 -0.55634192496943912776 0.02123336995430560870 -0.71951675420450234011 -0.66662556261256744605 -1.82503453139180527032 -0.67777936422968776409 0.37556630057204737350 -0.80922885560291801799 -1.52738672152577859009 -0.51598107198795628570 0.78465056659734899736 1.02190219446565477845 -0.80731987500583402007 0.37927755204002300271 -0.55451504336200485579 -0.41645663148166428558 -0.84765528027306147330 0.12697912802518729336 0.64621565970026895176 0.73657674712801413097 -1.25977959708356412882 -0.19190445263631653039 0.68171676527830504799 0.34705193597722183707 -0.59645306740252657107 -0.32158812185099272529 1.14625173266804281091 -0.70443619485009201231 0.17886215871034624736 -0.54166614535664658892 0.70405137746836188306 0.15329037346392837549 0.47872066942590202343 -0.39917352508243403308 0.98416313683620493258 0.48340210602640348858 1.25977277672935095154 -0.82229789676362952111 -0.55469854023354192574 1.25625895657781194714 2.01551966685692018899 0.54076687920324817416 -0.47592252818946267912 -0.06440711937544942034 -1.73895199968561908754 -1.68888447392683183068 0.78746386976529481050 0.34717257344853241774 1.05063677301582147905 0.09107478619855219337 0.67023117696177048064 -0.40413804245358569966 0.43807584801269072727 1.87130314082479087823 1.64374710405988322393 -0.44813411636401651039 0.84015695704092396845 -0.97782363385742554485 0.32477892044214295986 0.01861766898968438694 0.03364299650869689851 -0.95394089607517429386 -2.33989640465292358940 0.39488153311559681669 0.06031087940522417840 0.06230069040473292658 -1.02799212909049342279 -1.10251173794558998686 0.35094310764270142400 1.69870818754477248547 0.78718057721104561786 -0.27385282591909421157 0.56061712469651148183 -1.22137679074180360850 0.41083691553038093058 -1.33305540239419206827 -1.14866309660589838160 -0.08354863072525649248 0.40804234422678481442 -0.47810188800859210190 0.46800437919922177610 -1.41747213040886066437 -0.25749763695346999937 0.86510385693633251591 1.80085388026292347874 0.57567130874070726598 -2.29187688777890752334 0.69492336215849559444 0.16952838915404774833 0.93125230480462828364 0.79882840196320836768 1.25548713064391082028 0.43358936732069364162 0.22304687981410198372 -0.85935430706262339040 -0.13005558108468484591 0.51085799594254777123 -0.30380324722616408595 -0.07481086364519623499 0.70698424674129967116 -0.56450829678983316384 0.79783396105459658543 2.11672244452675561988 0.49518361456109855068 -0.45288519755554790258 -1.35944371757370507936 0.18554873265964560991 -0.98284060231295722332 0.41215868348162576495 0.35807585529934871094 0.22969474998800187837 0.68187084983949519668 -0.64382467185787639607 0.21195323051064574038 -0.47391534368974991276 1.11950716196369692845 -0.54821654867039337766 -0.31307153021306671770 -0.36822563566867472229 -1.79546057519991353324 1.71665175013015858241 -0.57980356139238642399 -0.44506984501730956216 1.09619522807981351065 0.19954829626541079057 0.20677471868670127542 0.18731252170814668978 -0.60839876064197917493 2.24965978485490580852 -0.06239507371263787461 1.47377288226621039335 -0.48555873502289914612 -0.91864099603858584420 -2.41297993333588678411 0.49775530381307325767 -0.10005629266273841083 -0.49815379040610091588 -0.11342450710545909365 -1.66872450137255379232 0.99309582548783803535 0.23359797814191532450 0.26862938654903323332 -0.69798780231587964629 0.68179883809284347329 -1.72387784592089610136 -0.83448308847341512440 -0.44511027810308695374 -2.27009578438767301023 0.22351040758234588801 -1.32242584576970800825 -0.26483095612790091833 -0.26220467168780253742 -1.08928746385192121160 -0.10592735317199965250 -1.05280853818036712610 0.29366345150523642804 2.00283383681283178035 -1.24455815180857354285 0.80599564954867308764 -0.82481076724050816917 -0.11568991995868890821 1.23135444607046196097 -0.60600965149986585345 -1.27492852964782454883 -1.14279336302153211591 1.21941065731866138400 -0.31179581241289044957 -0.39033017637504707764 -0.23311707975003706506 1.69344560481009032138 -0.72189022779348854808 -0.36858420015247239654 0.49666620130436001102 0.72794588627782497170 -0.02413790358999452421 0.35152074196723193111 -0.95692187920360938236 0.93450979138193279727 0.48339374385837430292 -0.58143104064516726304 -1.32671590298723263146 -0.28445678481463909648 -0.04024999065678869919 -0.63131938250708541371 -0.10885191377213565556 0.18380023767009415203 -0.65060886563869313459 1.19660875097176644388 -1.28169106159941681433 0.02265625454754123871 -0.80745530484708527563 -0.18492426917887180848 -0.47301585274780233448 1.52891579420438317172 -0.01622321442606032213 0.77561072853894630352 0.41920155655478513745 0.86379661295569998281 0.34406001447459971798 0.33781991039068248739 -0.36801497818018108488 1.14698854693284846284 0.20496476642895811171 -2.13566234393318943319 -1.73509149265506712467 -0.40689770093720017963 0.42001568079287859847 2.48165625518603416566 0.96768104095096230122 0.27513582010805559541 -0.02588537645684156618 -0.25516239531035617150 0.85391177917330329805 0.81844407111053008030 1.96792878240843882587 -1.25786376185717085896 1.05648569268364944662 -1.02744002355041530450 -1.43455387073710438628 0.52272317985499705539 -0.81097312740947025134 0.94918384545955281073 0.23341957050756056979 1.81336600841108919191 -0.76139762001595256979 0.99943177742881073033 1.65440188330706128284
-1.92083894646648833948 0.27239648806770161427 -0.17218311832245153381 -0.38054233092970041197 -2.06216717401058735604 0.88049110742627989534 -0.04891319093358018066 -1.89159082526445598837 -0.35445207732363853692 1.52036813938005921365 0.09779377172765263415 0.53304756753171855799 0.53610991509948102696 0.73583761156364024814 1.34662490003373891412 -0.14091344949560402622 0.89215331815555554140 -0.04374312899709841690 -0.38620263799288401252 0.68485038048683111178 0.82564213226762828146 0.08506025737525522989 2.11807634302630232170 1.13066565093026771827 0.96121534317184420537 -1.59283130496537261855 -0.90562830101060853849 0.90836106045639219975 -0.76958215325115797434 0.79146619342995638835 2.73533579761185929868 -0.40565485055124089753 1.53380370235236340726 0.81455576907944249321 1.40585540049356327863 -0.40993866009893842328 0.99593579606689608408 0.34121390148340857706 1.19918112294053602618 -1.39737682601766133317 0.23243536736195039016 -1.18468219015886178092 -0.06599734536859980238 0.63982038137658314714 -0.20135539378679620515 -0.36856667385194702424 -0.77143701587190638413 -1.01421573454891955635 0.84964168314445198682 -0.44182402602076814579 1.14417309349505336158 -0.73661930400776276517 -0.59188378610458591833 0.78556787986687637293 -1.10759642994305096408 0.81276203424629789307 -0.23065984538269529436 0.15811036737604730606 1.63334997407323134766 0.78530782730071069242 1.33160548814853885169 0.11162311530371607504 2.61343332018784124671 0.21766748531321072901 1.93672637279646409070 -0.70640891635137437188 -0.59600668922625799073 -1.12373688550538397557 -0.02066571130131414705 0.34230800036373787432 0.40809325527723439020 0.58621353826017652544 0.50480370893167791913 1.84070227897378346782 -0.50259796218320518246 -0.23576928452489542831 0.46563473669458593784 0.78458346548534196874 1.23269330861435677527 -0.59132996900115630812 -0.96304657018886796749 0.39358622267167925335 0.93922166604813828172 -0.97389227453336635332 -0.85965823472833258201 -0.08630712722409127069 0.53617956966020230425 -1.94562504090674015522 0.99394147211411210119 -1.32587738485236283914 -0.09517215543692801594 -1.97461550432993804272 0.42412824281268157733 -0.30408020718166928198 -1.12767942246996888400 -0.98418126068420186403 -0.81333901234108918477 -0.74412477216980776884 -0.96843528315260030137 1.09435972099414224878 1.27021969808178125660 -1.39269304636002066999 0.63960095397371463655 0.45070701274174279627 -1.92457583238553531224 0.75352780188741796952 0.52621420419571129923 -0.18733143343935287906 -0.52159737830096442046 -1.04679917910070963138 1.26226039257280553407 -0.29898436124210009401 -1.78223529656388546272 -0.23266370034440933545 0.45146852763527189900 0.20822048389666444890 1.08985724469154399152 1.81012939963522900833 0.75757130960060814484 1.07395645766662273246 -0.90729733538449686137 -0.13477349325931337054 -0.42471718163322896844 -0.66704487648975430147 -1.10817208478617135192 0.90917460814677353298 0.14324903454183673945 -0.96581663685722385360 -0.77125759563019158360 -1.10801233679177091318 -0.02057489962524448532 0.07730980667180641086 0.45634548203830288537 0.24755001465873316402 -0.29377562526708855817 -0.25862465309753018827 -0.35544029417358669054 -0.95835543290583891096 1.42852553025669193332 1.06733694688110203330 -0.26740741817752144982 0.56770632236994655884 0.44586232087777816213 -0.12673362268639362660 0.19445905766548224336 -1.17638680506131421133 0.55731376127028087186 1.20130728714256407308 -0.54332347234344635645 -0.40850058867638744386 -1.34024846930331054118 -0.17744784788144640775 0.49867864306282994047 0.76773227343241334797 -0.51117585413295940633 -1.03414967414673641954 -0.68913121797336329699 -1.23577914001861155491 0.20251097677193247160 1.25396703826836564133 1.37997526401890469039 0.07979453955642429319 -2.17819690720728553757 -0.29562503752996266426 -0.19953379611812838146 0.48735311888244120526 -1.03073033456571550026 -0.26846781061854263495 0.06707543969667820183 0.55397263041903466174 -0.71946532786560701833 0.35066452935001873881 0.51157038178526448302 -1.29100984476707458803 -1.69126521772390425724 -0.94585506199841506980 -1.12398181577015199295 1.06714467649018018847 1.91100055614005714943 0.55403267107196296770 -1.26801725577026003222 0.19252030271237974279 1.03368512275672985723 1.45745670987194220203 -0.28401360032970596192 -0.48870359477276748006 0.02317850819653964958 -1.51478583502867736321 -1.48065940714048283056 -0.46778235267117512786 -1.19192519549352970998 0.14266102135903160897 0.85042105629446751447 1.40210045013412720749 -0.54625402079689333590 1.56420956453561998956 1.40485735383969734258 -0.09966043763541800049 -0.19207414134971872999 -0.98539900763209009593 -0.77358451411476925053 0.62264613819541192452 0.16260924852061181545 -0.81269490619034501222 1.40061308229513747925 1.58823409393772196907 -0.38391767863233838831 1.12178166809545531990 1.62442863511570467772 2.03230627395377849709 -1.52682217641401929420 0.54852514215576431145 0.76804517100495550697 -0.66563229742584295590 0.10444532005601372959 -1.75811435186546205500 1.71021673971420562488 -0.96401412162830057984 -0.85465980925314100070 -0.26907991485227056305 1.44569282074636995539 -0.20395727275339728402 0.68709225052180189497 0.62236083063084901568 0.62515185080925084193 -0.57138950645507724513 -0.40568435996635127117 0.43483267375336615013 0.05504634552643802858 -1.07996419441779978321 1.55940536499118076463 -1.20278352143810596253 -0.89289779347596176517 -1.89859925751308589170 1.59850292857047460160 0.59032649904817480202 -1.29485204624717797905 0.20395981301511117989 0.64497718388382185850 -0.36692516123118573690 0.60171345554263011568 1.14304917705513187087 -0.27245269032981234147 -0.57130590315706231141 0.01122514787216884712 -0.26839247973930302482 -0.59890334760219798849 -1.05886781181209821412 0.72705653663256264441 1.15062096868827534735 -0.09399206427957944310 0.77092009574942066408 -1.11771023759980225876 -0.68451870793001234894 -0.57287655714754015523 0.63451196186537828225 -1.94001361850393716502 0.15420176523864001505 -0.14447793016537521793 1.24795193094885248364 -1.20867109582996645756 0.73612515715746396072 -0.57727761084215156728 1.19114820919720232340 0.41304298284751883585 -1.59538632058378371248 -0.14778110875494518406 0.19017808132829475132 -2.11041576049994450415 -0.41677813315705747321 0.27913364961811232279 -0.55230543105141605142 -0.40882380355516029224 -0.70404715136405948694 0.92924530951633521614 0.82181826284027570395 0.57276195063640411576 -1.64795669378982867492 -0.07384249632099283700 0.97778711737539114601 1.34407356779296982552 -0.65340992662879293640 -0.91737352730997523409 0.04578081425356711476 2.32962120483083579003 -1.01410915299005610635 -0.61172437155758885297 1.23721551774744131791 -0.14595478550369392345 -0.65083360023834013752 0.27655703130184666749 1.35082267718989168515 0.59972134366292662033 -0.63074769210646119966 1.33108874566246560001 0.29140250549346563558 -1.09638778957530402813 -1.06383982166070922837 -0.99032375179434617429 0.14017211055263284480
-0.56398087275829666964 1.64590922109407000740 0.74972909754971528429 0.56705935430491327676 0.40524877043110657526 0.09916095198118972387 0.52727923443024804495 -0.54619029498977411663 0.84023297006681996191 -0.99652436542519451379 -0.82149279748919001864 -0.12800967714377309292 1.04408407677357573107 0.55251200844941761314 -1.02329133477001787966 0.94650587199892188828 -0.60107393614676185578 -0.76959342426989518771 0.19339285168711464746 -0.44800864581145061205 -0.16753705324361681250 -0.21375168363339355770 -0.70258868191871481912 -1.35828546224127788555 0.85952023732891480456 0.64424152897173359023 -0.31366029413415230653 0.31716624740162890905 -0.00388593247484226743 -0.71813088375507172501 -0.02713273838433422416 0.11265364988115164624 -0.62094171157265132255 0.24493819522420123835 0.10403019879981420526 0.45778754529553777886 -1.27104793651381031694 0.46353512707096761192 -1.07556072190641538455 -0.85944000855742030964 -0.94115436321056544777 0.78229263519874614463 1.40682233876737416978 0.58086673492987228595 -0.46271014146848460369 -0.36409153665686938561 0.79768321434572841966 -1.49655541566875993631 -1.23034167735306709801 -0.27662013054564210668 -0.90279333184343868446 -1.48166866308437383815 1.70945059042431157792 -0.62937292982188253188 0.49764090572799751788 -0.13164876980962020303 -0.78049302565739853144 -2.06807582688901359091 -1.08108233741178261234 -1.60358713410117026399 0.42244639046173548813 -1.36619623117454147554 0.75133043198081750358 0.55365521343867962756 -1.28849778162322747832 -0.68461613591955827740 -2.69721092424848007951 -0.77620609809269358603 0.77644361898267821864 -0.09188856032349497494 -0.04415099336836354749 -1.07787628461519124912 1.04046536591914717818 -0.26838513846012357345 1.64706722187410825597 -0.42901850741493158248 1.29770376160512257435 0.88935842458534974941 1.24045080752872971530 -1.09767520162353693358 -2.21045835341577712185 1.05220528364611265459 -0.40195418846953145930 0.70305418084865600736 1.72526063205196211747 -2.27929682723170135006 -3.85145781178053070448 -1.22903792789780674788 0.38958621210798949352 -1.46785948623455175799 -2.40521631480244213463 1.49781453810917852820 1.10965216737179894757 -0.40317569986656892622 0.75167127332847893939 -0.45697410434622998121 1.58573429745355620746 -0.34951637593954137939 0.09906690202392438860 0.29641342534084857974 0.46642105307391396041 -0.64271624742894373217 0.22704308018220287213 0.37854912983460869969 0.39931273988611737380 0.03296120078082342975 -0.55208248136568249809 0.68924757273300074623 -0.59335093267157446029 -0.15613600375932654152 0.23465246711468223939 -0.95508622880966964619 -0.47327344877417926172 -0.39600654482102948251 -1.33599975427483919077 -0.95471139415050598753 -0.79173066537127756437 1.42123220561096252901 -0.48573955695558201917 0.14938463002833343718 -0.37511751603410237177 -0.46612171230126658861 0.51562552700919039861 -0.68071432846025348162 -1.11956913687485970499 -0.21713160921420715521 -0.43554512895810582052 -0.22851801643692462584 1.00978208132564706290 -0.40553239458375478499 -0.86293369978908107676 1.44775070317081588911 -0.90051732711463994274 0.69686280348197149337 0.22324888065884229693 -1.46198838000729458564 2.09636504831144510064 0.88560139515840430313 -1.17031907227044906783 -0.79847465542249651538 0.82172497480633310829 1.10558544535976821521 -0.48318693501310266969 2.06374091428933859049 -1.10274722255795154524 -0.65031789251498162141 0.09703037453127749679 -1.41898609317514390327 -0.60032627456878817629 1.94810326677984191335 0.46169451777343639698 -0.52407080098493419307 0.42218803558230683093 0.52916633800706924795 -0.49083720102592043322 -1.36871399502241097856 -0.19170922921598626543 -0.82848436031087613340 0.82464992363237610284 0.07518343189420524653 -0.18646775785381178303 -0.25648171531466057438 0.15397609649722293623 -1.18318809325480156502 -0.03274890754974883050 1.12919587401635657109 0.49462331520963120912 0.45626830649371419302 0.26050036347445321150 -0.70929727795739894169 -0.15659594848337440864 -0.01497947412784979802 0.25761418904329785873 -0.00151041111845050995 0.31499369709295083064 -0.03402080433474755083 0.05751603320004392006 -1.60203410522872302657 0.35866715708179197630 -0.17849541737954766063 -0.28584562867212043313 -0.46529792086661042605 -0.50288523630981252222 0.99546104215487651867 0.14603245613219967280 -0.59836304747251267688 1.21700277705039305864 -0.25180208872532378050 -0.24609185825749138599 0.67429278376689971708 1.48912399693231378706 -2.16354051384319179263 -1.39850858771283226289 -2.70483733909866375100 -0.72828187277386380316 1.04475644284065127820 0.15603627886997692431 0.40654746709620692702 0.11260042022601406131 0.46607252510316754535 -0.66752318120102127619 0.10388201112676383187 -0.96161157995154367129 -0.16755785500997819049 1.80700648435614641407 -0.33583817519812830810 -2.22227695646501377524 -1.04781303857675056612 -0.39372185745388937894 -2.01850090480548027827 0.69385900699977154371 -1.68959780524723646167 -0.99133281913921300621 0.03176506317239273514 0.88563394222104052655 -0.21556873822895136761 0.16642956305453124322 1.48435439137935332177 0.57281030993579273858 -2.03854039952931342938 1.84502357227355973102 -0.31949806751561993234 0.00698162173497466742 2.26669446440007593679 1.43038804200498725905 -0.31457617987473968091 0.10764792739706230407 0.32766153650210966264 1.27306295155323545565 0.26422073325065753568 -2.59631743825971161854 0.51389899821514251066 0.79367501503210369229 0.07515607453272198091 -0.80611510974089628512 0.49518679828220357741 1.06167680820680909726 0.35950359258398301154 -1.21096107799185759291 2.02922611463234048301 0.86778514332069822679 -0.52053034363151651220 0.05024254653182372993 -1.08822471000015985609 -1.33891502240651583122 0.35953584236807828445 -1.16206696915833784800 1.21941859989162049160 0.04811253282110328905 -0.60137653767357546197 -0.99088686441597206844 0.37253995350196783543 -0.01856678939381767660 -1.67639442289428020061 -0.35977384169689685667 -1.79166790992459112886 -0.75936943510970944526 0.27229312067778882467 0.55296146031913873120 -2.24064960474458008122 0.51146305904197575387 -0.11838721778659226647 -2.13426238961503722535 1.43241476464691896986 -0.45815781622115808736 0.22319823518569564813 0.04056079856664906308 0.24193449101168099102 0.12963510736514674559 0.60370628043928531437 -2.75359406663642758417 0.00426472056047731609 0.90509600280363722291 0.01989291088790148473 0.10585688147285605976 0.26502355435129548722 0.95784899892456476511 -0.36146271286594744421 -0.11077587606099605078 -0.00439725189816387880 -1.31455555747204799744 0.05711896954684629601 0.15960228793336611597 0.39666515835805965517 -0.36626758439896756059 0.76913281959772217267 -0.68793236175791117049 -1.37460055429093874757 -2.52967636648442928404 0.68918503399217589944 -0.64497802792675273942 -1.67222547908933871774 -0.44576423143033727658 0.79552709951528777221 -0.17064481098035813589 -2.80585329023250507063 -1.32349809320400146895 0.37653403304911114979 -0.61166021908412337993 -0.12926396713309371012
0.40684743101957415723 0.00622498725189190270 0.21832598957128623862 0.01874060150678302783 -0.75670323558741159342 0.31099980495522083768 0.26309433822671024483 0.42425960505884430241 1.67028086361887817546 1.68810373049402961954 -1.07759348865869397649 1.08519358123320630582 1.15127712410832483414 0.36202646212726308228 0.72263819878377799633 0.58102534406147754442 1.53284336684547839447 -0.29951104767947567264 0.44245067480526623083 0.22187584259510459428 1.30301182203625387501 -0.05889944197066324799 2.22321430806214870302 0.62617842942495971492 0.20685527647608831225 -0.18781693622301523505 0.24696368070914093140 1.09770034454981613159 -1.20214706819359262724 0.15349461070907743920 0.51964996761791337754 -0.47201707946402249316 1.62443045321319212704 -0.99829543676101950567 0.22482887679352292487 -2.32080899805996310192 -1.24721036410630081726 -0.95241954955441243680 -0.02271071764679517477 0.15530511487472942189 0.22957256196333275522 1.20653583531006836083 -0.42949866888785764862 -0.67612629833977744287 0.24242945320586245517 -0.43940407136476539174 -0.26550997974505102794 -0.84373097622703419063 -0.56608687655702683017 -0.21202657557970541746 -0.49201802901844959859 -0.61226498162109532775 1.50015569298761231032 0.62054454858334595624 0.73184886261313830680 1.08710644425162961113 1.56019953225729701707 -0.91271527053160217413 0.54061370169250222428 1.44485414769907527521 -0.99416198551226631075 -1.32182187601508660535 -0.77209823400046451169 -1.74900608162462667394 1.49238641044929121193 1.67031120184287273922 0.92587183102027847958 0.71448274821348811692 2.26032609486690549971 -0.09411402483253049345 -0.26753168799847593107 0.04583967370569488192 2.07275845186503548945 -0.30216966176251203180 -0.43527478888265880297 0.24742782491091463992 0.06315149351950087586 -0.35924303744378632830 0.45577246809863980470 2.00862902852321889569 -0.09978121004153610307 0.37893614959316951341 -1.81158547580120021792 -0.35397043374290143580 0.16113530685021631994 -0.79715205709347936036 -0.87098356137796661969 0.10377019102405551920 0.09102258089985527933 0.45831062569503860926 0.80445793066742377064 1.93818817994121217474 -0.10290515123803631314 -0.24997308466448309172 0.25776742747391034882 1.88905692320050166977 0.17664980440834346376 -0.58194374117255309731 0.29842513963518457754 0.27114056221132093460 -0.15128823803148502836 -0.17685525293569517857 2.49455847935570496077 1.13974514330478271518 -0.18113474854045724660 -1.58788804296811969508 1.86429557041704896392 0.36098903698301104681 0.15097976944353921902 0.45217645893082758501 -0.83931565807411645519 1.32472588408200619980 0.54127249930047205417 0.83162121095978414065 0.73447756933322294604 0.75280898480848446042 1.18966063162102364537 -0.78195224692353548779 1.01089078540877830292 0.25268810328669599752 0.29825805022866491711 0.53943754375898722575 0.80372343170526772127 -0.88927208448081040970 -0.34434044776688721434 -0.43448357899065004339 -1.01550437866088061334 -1.40466910670806899297 0.52326153417290977021 1.48010494749624732513 -1.24442565046195929845 0.62441055629299113683 -0.83762856807145613658 0.37922299049341551269 -0.61285114112134941866 0.43813212458597072807 -0.01359694261706635536 0.32086823366319350281 2.46139092612768362045 -1.45252360943625657974 -0.29558115478073054838 -0.94975680370061843494 0.37568703104789147318 -0.85264559332613765186 0.77858245431097605760 0.62277187048263693558 -1.01608931015711956292 -0.19630443988316537141 0.18513938148542827267 -0.52061234245336274196 -0.31012040932058565490 -1.13543765537515883857 -0.11206761569279813373 2.64103027352169039688 0.62611302953946712524 -0.97357834975671997402 -0.75385202364886327864 0.65466039891364080638 -1.12967877964799123802 1.26657191564066162748 0.91756874768794927100 -0.22506220856958200627 1.47276289706216312325 2.96722812399237456660 -0.68896914116024665642 0.96189807346779476749 0.32753320641815208969 -0.81731545390375603954 1.43270770036123451519 -0.08982860549194826572 -0.61677699717290712655 0.36900916254466281652 -0.95725397390040478651 -0.98483267696069221042 0.18968802906776172090 2.16298067089515066996 -1.24984001220692553247 0.42912103819936708859 -0.47316817283602591315 0.17560843184102428727 -0.33821281400952496465 -0.39759825980185953265 0.69106086282355194683 -0.69679370239783045005 0.22335443032805149532 1.61266817709008614123 -0.79773724033196968808 -0.81161510416253157540 0.45308245679361464076 0.58069924281104545738 -0.71883439667224680036 0.93932857143098091868 0.49739425542040832662 1.14610928187618821283 0.99475793756063513040 0.34018057874852863920 -1.71715577591075851949 -1.48359598612850818178 -1.77201995366621734007 0.64728842214039861158 -1.69252274150957515708 -0.31079580906376153004 -1.13422263587446914279 0.34654670361536799028 -0.80528613991773478897 -0.65275497456060560530 -1.14588600016636177337 0.02804312867909336537 0.14912648630265029626 0.00833404957133340729 0.96542227793963775184 0.11064755916959961857 -0.67971556316318149094 0.04546656342102338433 2.14325853961018575333 -1.30059303059132269631 0.42287370648381156224 -1.43718112720528079507 0.82320919032584694008 0.44252406734463234361 3.05041514351185760745 -0.07307915542462957437 0.22745846889266249646 0.04146554746255159268 1.66057309269882291680 -1.04978582614617566016 0.13351024438443509501 -1.00500437632306738323 -0.49490869067917708790 1.44193019792257626221 0.85212258685513919687 0.41232706177332328901 2.63079940451513794031 -1.06584274743964213528 -0.91996059820916753491 -0.21116718794058420006 0.19271424423879254806 -2.10973627804806085351 0.33211586007293958378 -0.66171782632705322680 -0.02116471241595979311 -0.49547485304237720571 1.29179289972784183682 0.44680480222664176182 -1.47844046262748052278 -0.98266644245239764821 0.05665468681476981683 0.81723848592980818939 0.14585513238482789022 -0.52353777967033388041 0.08009753182108364511 -0.90304422498874459269 -0.17204753190607519064 -0.10442297431487243542 0.69248114782993053229 -1.65024182988451206811 -1.27788995629872004223 -0.31193654534075415663 0.11110840029504143178 -0.19362793901417693632 0.10196703385233317485 1.63173267636067831354 0.34751117242524898199 -0.11459127559273131480 -1.14802473566535789828 0.53119084491721602070 -2.70823416513527970295 1.00515672119891963376 0.91766039153298828435 -1.09822085651007506080 -0.04702861584419516100 -1.97356269648614435219 -0.37162268497318950988 0.37339483061925565766 0.65376943736884285396 0.45743163861678148852 -0.43548867581115380254 0.09889950255547386160 1.11922257381794887365 0.95962770831466059906 0.29229970954611017575 2.10096912258889778613 -1.25515304076155831403 -0.36151186737191753906 1.21546856129954261583 0.66299240372685985800 -0.25623168984331690101 0.97892295463662204469 0.36476511554307977647 -1.09991414560708444803 0.20302533085273172242 0.87013149932764166650 -0.78597287557476391839 -0.23950343869439316702 -0.01154599073907277597 -0.53737110500067930552 -1.57977157406079826707 -0.27722646032476583322 1.74681226809084577667 -1.00568785467821930624
-0.85648325744978892615 -0.18924557125241678324 1.37215576875743194840 -0.71532784611037047995 0.15035793645409331609 0.61381593972889147981 1.34623481139735212686 -0.41643718317548222840 -2.69334132088657396409 1.47199792972855747486 -1.44565408853399524070 0.46219822892484446752 -0.76240777778106694207 -0.25107955403189097243 0.43823114324812489917 0.51082546566095143881 -1.11891474188427886283 1.41567748408913196556 -1.79905093849650876692 0.65830739562525386610 -0.87752475721075529069 -1.78553803144953926463 0.06921653786470978453 -0.18624920048992216204 -0.91795709144112547229 1.87943609203577866040 0.64043590549551787650 -0.93639039022964154491 0.12551820673851557530 -1.17360802127531793637 0.35897891118477642802 -0.50206794582743530242 -0.75479409504938499431 0.27017013807994993968 1.95650104362349730458 -1.08904584956614325364 1.83044638295994954724 -0.13674786803787142286 0.05916583716086146888 -1.24581438001181976638 -0.00639739793308195630 -1.04381677942686024174 -0.31167174369278238810 -0.04183297380594976078 0.38475549602818231998 0.35910930791657996730 -0.11526605179580817762 1.50739793412741707179 -0.77138356110696038037 -1.02462570755907833586 0.66907724708336435704 -0.69698438277239394001 -0.60767302422201263656 0.30707991787588323485 1.08624574357497039045 0.70131383409551129038 -0.10427866327918040856 2.63088020393654309359 0.89550396774191942662 -0.36452572379830183724 0.82159969954054290486 0.05263868380513526263 -0.30273359093530061159 0.97515629184743302105 0.80502236795944526193 -0.47338369934512997128 0.15149117890131125197 -0.31110760282864191595 -0.86551877270859001179 1.03720321684864846823 -0.30782201761336758228 0.80481885663788066410 -0.34610459057516135273 -0.64735675582506402304 -1.17227667599583096347 -2.26942614589453794949 -0.00789780400156146409 0.28567550012907244605 1.34712977071264239370 -1.44898493632537261888 -2.49023783535037823711 -1.29696091336184671228 -0.47671556714714918845 -1.94253875366330497343 1.43896471580726248440 -0.60683191790557577949 1.00763405847523745962 0.98957792574402803076 -0.88446588102568590717 -0.79774687065695515376 -0.73882579311444440684 -0.31169019677715653627 -1.54005555948996031290 -0.42755526962935053170 -0.33076479198037062046 0.67379871995322049294 -1.53017509187330280618 -0.82688603720328468505 -1.06694206398081536946 -0.26332583938705966808 -1.34387265736985184184 -0.03037431037860095079 0.63748307147521920957 1.90648432664004996440 -1.17995308604906368188 1.20161743265226661492 0.48181805239937075536 -0.48324129518302227915 0.42970796682182216264 -1.18619754754128248209 0.10121099694877791486 -0.60969716247711225332 -0.17499159673240607948 0.27393307384426079931 -1.03930780969548974824 0.84542099116836955108 1.24648490379138188189 0.70861185346793387207 -1.42513691699840272520 0.21449352171345067997 0.94794161376888108617 -0.32703446517432027685 1.00682460782280380762 1.00840853130920260483 0.75537872123026172932 -1.50408880761517771418 -2.07083533183447254800 -0.23115087404924922199 -0.14789070274705570784 -0.06914842883994988532 -0.79814964377495700720 0.80664631630911343141 0.17102392267520566405 -0.56652586779135971629 -1.45982950714071435527 1.20675943902200666358 0.46132529188564780354 0.91789179630214534633 0.92762449174017236331 -1.36840272223105374749 1.08556881874098820617 -1.44144794429239286870 -0.19851848679490477489 -0.64121414584916680557 0.88901338297644427744 -0.78557614170845513346 0.39111281903057570908 -0.33356845891071434940 -1.84520949734718664459 0.54922156549618106336 0.89217244093792991144 -0.58013582501271321323 -0.21678849670206773448 -0.02663532781485634937 1.20661190488881642224 0.65495934031290048427 1.56124133778811180484 -0.54948422089791770784 -1.09213558832521395736 1.16526668620302475965 -0.31594949571291386370 0.91756157539823124392 -0.79341043528363952575 1.80246911894331751647 -1.22036291051705148014 -1.22999539175365302235 0.76381103519914372857 -1.82746504308527413230 -0.84098626062494696853 1.07346297507676879945 -0.23516972766484242618 0.24620722380111437211 -2.36704186559752249863 -0.49916199126087035243 1.52035739869995567553 2.53674811703255853601 0.03926307742307871135 -1.43713543818940769903 0.42489027872446338829 -2.04157735119936578627 -3.05510912622242702952 1.34357730924937368577 0.34800457291169145657 1.13557372059584404944 0.54256794227806759423 0.13459342197212559311 -1.55027575767919345573 -0.29558369805207329595 -0.77288235296385521256 -0.50026044216008946908 -1.49259431168528178269 0.27653038787936712328 0.44819937125816977641 0.77289606619834827494 1.51667433919723548819 0.06812690819177347201 0.18708707787867176475 0.92903225887390938897 -1.53674940735558274163 -0.61370293237395445729 0.30242375784308139774 1.27156313963463141192 0.98584080558454179055 0.16838710489095209955 -1.06907743781409059203 -0.64459186163710191497 -0.27381785167829264527 0.07919456689316339837 -0.06483131349033263713 0.83308772566888744660 0.06240978931411702429 0.09766498753535120259 -1.26222131434383322279 0.08106161725636464033 0.65142993608256427596 0.88438191895651463437 -0.32683268067883231023 -1.17756151288679333788 -0.97270109872302523701 1.15653205804868153272 1.05458293506656053395 0.57655959444101756439 0.86241317297221242733 -0.78455310286975632472 -0.63603400792581710199 -0.47200934430878282999 -0.20270269584656405715 -0.12786956373648550311 -1.08472028476037274380 1.06006552870325476690 0.75707756411170012978 0.63860075203455790582 0.13510051205788237150 -0.86505123866483790707 0.69814989699862051165 -1.07021068262950391770 -0.43517844380948933480 0.92256886270940008377 0.59888354000418742018 0.46613290273946272890 0.28545754905956394198 -0.75262145453644557769 0.83698560249430464797 0.57513046131576162079 -0.35042936009975506062 1.54053215956945677156 -0.46731319690599437688 0.82816591603146527678 -0.21068644194133073766 -0.72706370726974800522 -1.79339340866278984521 -1.61904188277324512235 2.13315460531349287976 0.07856129339292829139 0.28476875094489007001 -1.10151819225193592366 -0.54712656338176568482 0.14540845681868050376 -0.86133475317193441967 -0.45933002100296049797 1.05110930070549013493 0.48009903807080206439 -1.83871043920061683075 -0.64728819132165194006 0.32817629380788376769 2.00753292385751391791 0.44825805560124565297 -0.34282773256449722288 0.11172744638958674590 -0.31475474326043229034 -1.75743615961629240374 -0.61823660048397977018 -1.11350727434731533450 1.07553373872622781704 -0.36607841858848977346 0.94328313672746000318 -1.20859838407483732858 -0.42572978485628265588 -1.08426898183052489166 -1.14468774622801161556 0.83285977912798725420 0.11172076784287769680 1.82203074977968237924 -0.00813105714834854582 1.12776088489361314693 -0.38521909191575887110 -0.33919899470890341187 -1.99160013887307418834 0.18376819882373460202 0.77651845062610280745 0.74132027818678736253 -0.39992329857004160765 0.12353041918925063147 0.61856262629213298876 -2.15339965534807031844 1.19410234608746934626 0.72334500387596478710 -0.68118001050972176724 -0.17696292972686791800 0.73412871282932634642
