-0.03317408999520148061 1.43168747861342238181 0.94708245206146113304 0.25142237884282375715 1.59842351519744441113 1.76884037366687540960 -0.05044369746162755130 -0.52779601444119184084 0.46421219791087570128 -1.52142920999557995643 -1.23527013252240291941 1.17565773447701160670 0.30737662927982661865 -0.67158155593668611427 -0.04570421258069567311 -0.27828499482344565275 -0.27312489760588748444 0.34218916436342006193 0.09163509612401592175 -1.51876385848918316057 1.20932324962989179440 -1.69189238918056106264 -0.18034673619585203652 0.60732296901576199311 -1.38216390310026215893 1.19492936241377711859 1.76956310407705030840 -0.57503328862517144593 -0.21114441593161273336 -1.25423987451062624032 -1.83798907789811982738 -1.35364235851255099163 1.13345204792299991681 -0.47668775865923279644 1.68493573827750386940 0.02695128097610712675 -0.94721076137167237174 1.29856013803846082055 -0.51189327476975665654 -0.32864905678449740645 -0.66471621022350857455 -0.89044340627862017534 0.88766703480627884293 -0.33411491885741445573 0.99312311935109565120 -0.83147934925325139854 0.71384154576209046805 -1.35901080608773705549 -1.26276601687151313058 0.30825918836925297883 0.14596408849784389683 -0.39706360151524239255 -1.67046961116620273913 -0.73313035569562035043 -0.44212092384527224009 0.49759230313495461662 1.41973937670281724621 -0.43582559294540662576 -0.17528224645577444862 0.25718056167312458582 -0.64046306446699408088 1.52609219923727401635 1.31036561394174055906 0.09010059427384135844 0.71405206842335300355 -0.25425426633216685612 -0.36586322656791125940 -0.90686294221407826033 1.25161675544509765068 1.26405759999362432566 0.59282039099634242785 -2.56038271623720925518 0.35606856222035448978 -0.45812933262638766418 1.00004780834763074004 0.13308142287528124115 -0.97761588173160085535 0.41696443171752850532 -2.21639897470920432809 0.28542441938241658317 1.74882163512034294328 1.11996346732412210834 1.90344969012343412373 -0.86501695373818221491 0.59064154974921567742 1.74362648734095837533 -0.11154763113727801660 -1.77023501094445379067 0.70212681213653072021 -0.68277166509557407625 -0.06314720882109564615 0.16317625213265360418 0.18850756714574198880 -1.73563960015489415767 1.52258515279329098568 2.75074339130719947022 -0.27090470598713400907 0.46019063308043489657 -0.70181848364671672869 -0.57419208374678021300 2.31313807296752838027 0.71040515138572324361 -0.63467996284580618926 -0.91663651803141654728 -1.12593265314190782433 -1.38987304998535043943 -0.09953984736324654470 0.40024902307720799932 -1.91583446724239570003 -0.93245414970065754190 1.09531147987682220268 -1.15637845208234790739 1.28837023394832539402 1.22229832766032764368 -0.69100833808329431562 0.24861105664975277629 0.55542514325912029083 0.58310561178761710632 1.73897713288056587899 -0.06769674381768187033 0.99269835808861384141 0.38739534707954426107 0.35927703239655101042 -1.02399894268717828183 1.98984973571271539505 -0.42296834516922826586 1.46393084078633273215 -1.18316352332625118748 2.28317160119662831974 -1.19317443707114190232 0.17310722442298179247 0.35625490633622991510 -2.46007113320702686110 -0.07334370644012508378 -0.59402926942342593186 -1.23492344442974144592 1.83094335729175972105 0.55929954880498955472 1.16076270205118037282 -0.60930954223675160009 -0.47915776420219924336 -1.21253951827327077773 0.95338148222351215555 0.52679314361766316210 -0.81298703863127019797 1.02017900165667874113 -0.51330167820870220563 -1.45989636766652641775 0.00040587435559449880 -0.93301579306346849041
-1.90326736559689901895 -0.65273578401472664989 0.41767466792405238962 -0.30744814602141645743 -0.50100994129131459776 -0.74976526397060316853 -0.96681122348123793575 -1.26682043072946459716 -2.08021733583854206984 0.19616083715949800270 0.49862188139449631352 -1.04141303217552660954 -0.09178835912823410381 -0.34187535947377339918 -0.37581191716957496052 -2.18794087461946951123 -0.75202676621458930395 1.76421284109510589921 0.85181605705799845474 -1.13513227871531952040 -0.03897206834282759130 0.12795547095907547352 -0.00062427434619591131 0.35494496488133153722 -1.72918079925288425969 -0.51390734475084198785 1.63570255792985363996 0.25809806863330453375 -0.26963731171539428999 0.90640642229540779873 -0.56485832934608493083 -1.24469289737777688565 -1.21859682872289631916 -0.18931901226510819414 1.55971943401577939348 0.07711534270376239897 -0.25855395815134585291 0.26261024052470471890 -1.06928407452319040871 -0.02832198700969844676 -0.02824937558179560840 -0.66483526459309782997 1.31431572957727782480 0.98925758533962449004 0.85549676249079342760 -2.38077032952095368756 0.12634114954436226341 -0.72929257223358556761 0.57301066242003118045 0.04223393780888352184 0.48236519970330565821 -2.13916010578020499011 -0.56501158586416033724 -0.81847640833947754579 -1.83380943952467245772 -1.27633624927215438838 -0.23930142816675831208 0.70490340664742368038 2.20110176871850793390 0.36346528803093652860 -0.01396558996271857374 0.18468833290021877125 -2.06598084667964032590 -1.07291999945700711194 -1.18773619177727240981 -0.71105477755741752777 -1.22704413002923073961 0.44973562996183619189 -0.45258473780023733557 1.54348560427166536790 -0.67089624020138238780 -1.13080114756115612806 1.40009311408923164954 0.30402297689190732610 -0.06703164211293959063 -1.15727329181211047171 0.39733008106143646865 -0.56096357171301525213 0.77261455374675336305 -0.43357626501027507482 1.99099031237241330672 -0.99452272821154841242 -2.28347911687283655624 -0.05584891014625054800 0.57421118989039754421 0.55566873222026036405 -0.79266001165462351974 -1.54300062782780322834 0.43066914069796125020 -0.44640031078444986079 -1.31656718237442005304 -0.55158298201210553824 -2.50024591489344549800 0.24069052292404261029 0.33950250903491469012 -1.16468869306314148915 0.40918196711464449589 1.23838709655200029935 0.71130488322854057426 -0.91063852760665120467 -0.20555323040237222232 0.65761332919706794176 0.26635465258896190432 -0.47700341908391713508 -0.51302381223909221397 0.53814680642578560654 -0.54788648913950843689 0.42096296262018295664 -0.90111272144076737245 -1.78978564561742992112 2.21705263619926862262 -0.54139402151018578557 0.30294093387411463736 0.11750237492702636510 -0.77601026792405514154 -0.63934588325505736783 1.08062496301293387013 -1.26039504807440572165 2.24976309438140154029 0.71534454306357853071 0.41807902888717457524 -0.88194234957636796768 0.69931193916395251176 -0.15380869689567580605 0.49028864920158604646 -0.42626729050995582071 1.34969764643825818062 -0.09885716142366127168 0.37128255221201161840 1.73462026513490252810 0.03134175988444798389 -0.38546698554870517661 0.54216656247876393593 0.09345213647571573579 2.73323469318819878282 -1.24784939391734117642 0.86765479727626293460 -0.50358013267389789558 0.15833957283492461343 -0.39863047712407373435 -0.62228852343959817350 -0.76614307490763777775 -1.01813385806945899681 2.37247495670325170281 0.18178454490182202608 1.31388654338547161693 -1.24903623083909209868 -0.11971823685887686417 1.03666744478672989693 0.21679014416991485015
-0.58180991219874234055 0.26381168665004589569 0.46374800283232492371 0.37095573354686361967 -2.01086757287601836097 -0.61678184212169773204 -0.90774525936026373429 -1.95521564320773943990 -0.37246046618343098267 -1.22124993769990730641 -0.63065082210704803689 1.18749732992374812390 -0.07418530059701775037 0.48253335237269007196 1.42233124437344615743 -0.28347877888202593910 -0.89128514513188450419 -0.50850753674601367749 1.07686169463161252047 -0.16821177431378117606 0.26858834064077841131 -1.29742694054471230380 1.34887820138346858911 -0.03165785382047824753 1.45840208660127612639 -0.12135462586645912042 0.06374578240090450487 -1.63298644661215952567 0.14072854930403325135 -1.45996873902172374926 -0.36152962594318815981 -1.88086100644675524585 1.73204225359985053423 0.66294168309636170022 1.12557483902269095388 0.08596513847668187103 0.11027746850506657539 -1.09191067766897220714 1.15641307312417329634 0.18369778561626029512 -2.32824597037345748518 -0.21003088782114573418 1.03253042888555923717 -1.53421143231755530145 -2.58818131305368970274 -0.44544798576070593343 -0.45087767602557482505 0.32599378844573484448 -0.42817913711958854872 -0.96143155276204106396 0.15447883776602872041 -0.87088228820637114680 0.39234313876991372405 -1.77236630821278962067 0.00008773165272803734 -1.20631134546546214814 -0.24728200854118015384 -0.02569988846334962315 1.42080237361049133149 -0.02206898896148116324 -1.07600891904720041836 -0.58587799082394498296 -0.46981724370001770597 -0.56615923091740971707 -0.42020016703002005531 2.04353350523418120233 -1.28863688211885296653 -0.01400298661471152499 -0.37688578388264470931 -0.97124634786267116660 -1.76032531412430226503 -0.41076520601294286283 -1.71139202836943971064 1.10151582264816072509 0.40108043289406547505 0.05661110879795765161 -1.67351106965229212697 0.89398776780741995296 -0.40818464795560521763 -0.63504961912304380700 1.01239390758503655654 -0.98780558835821707930 1.06516820778500953537 2.26662816744204986819 2.49776902271375211839 1.31112316330404321540 0.40785084020537243354 -2.02221419684094438907 -0.54870841264285796779 0.42204715881953802636 1.17694070454768051626 0.84147405714949607969 -1.30837538777982853588 0.53538535682063370658 1.36281598028067763018 1.17233324955827700187 0.47005213612146651281 1.78204474410824720287 -2.94949434992669479172 0.25829702692447359391 0.09163492735741339545 -1.26637349404705745748 -0.67907963543703886433 -0.22895777475926440414 0.57697890659469908137 -0.13714427141427940060 -0.10734003764745757292 1.37550184078762471884 0.62929679848683861554 1.17355366660087767627 -1.77808718677231181182 -0.01690868751788312391 -0.40321714549090931223 0.70066644300443448046 0.67495516075257033783 1.43613345275844372928 1.28635549225688650132 1.85195805046047867748 -0.52958305343651457253 -0.51031175441263132431 -1.17423033936615905937 0.13576997777074265028 0.22005351908730388932 -0.02151385207221167412 -0.36858189832277693521 0.35374710201785652952 0.35646244471656163277 -1.33372706569506060958 1.34128715579077084641 -0.74306950161495788354 -0.41076932288681333727 0.74173949144453543703 -0.92436458257292875018 0.85397087843856744893 -0.95920687023142825467 1.91066654474152741727 0.71933479520649068473 -1.55706504173314042028 0.25230778382416585437 0.21167541790972696503 -0.10585827413473197778 1.74036668132511840312 0.50562757583096629155 0.68671222671530163240 -0.52372790946774783194 -0.76573193236864900424 -0.23201281695328565546 0.56730386062719151408 -0.06265395712788961180 1.18756221149279950211
0.55056537153099893711 -0.13512550984706286905 -1.29281276988510374082 0.07137527553749571652 0.99526899720681638595 2.32885537501675443650 -0.29489627809573365491 -0.90533457374577419596 0.62394654316271647154 0.40123904004060645390 -0.15931380773480002810 -1.75331403130958807246 -0.93774302428079125971 -0.49254500733465012008 -0.25302364299644258816 -1.07638428432266297641 -1.14950322316704478531 0.03450761550828605057 -0.29428933625134623409 0.81242223070707675348 0.22584159300299974649 -2.02608323684218882832 0.98563178004601526006 -1.15503951126053316933 0.54019609693615822099 1.05161475166319573482 0.74101164626863014195 0.00338816975261794443 0.24947171148143920671 1.74656206583664475041 -2.12674062048233469824 -1.51509300516866773911 0.32281065233048156227 0.93742047905703174138 -0.40361473064405711808 -0.28460977726378672292 -0.38078328466092109528 0.89677022725585564533 -0.29698540039364568210 1.33573564603364203229 -0.19814280802998315845 0.88572824303792896394 0.32816163708222373385 0.05925622381281846901 -3.42315667964548575597 -0.68771542405800600850 -0.48591297792834481362 1.39430881922415550456 0.72419405496027755564 0.69694788855518918780 0.83076235697214972920 -0.56362859436603274244 0.57897787100722797327 -0.23347565999462593922 -1.76803019958693652391 1.45114833201425130760 0.80735314546216740972 1.25262942152115153149 0.50338704724735727769 0.45509451871405176560 -1.63854084292998636307 -0.60113006925266676550 0.10500976306259414417 -1.27380800859579679241 1.92240513000684765110 0.02469699856660399068 -0.59449868177529763269 -0.24581057861174093748 0.58084058625806045395 -0.32006604310219843867 -0.49157228515121709211 0.27320091707075278009 -0.41326053462900658175 2.01861749591679418003 -1.68143265312745970874 -0.77620100370057942829 0.29472569579192520184 -0.25684827248087555018 0.61214656348419582699 -1.03775935647057893085 -2.00033063213611184139 1.29226542338455141490 1.44183697268920574253 -0.51445952746689782575 -0.01779865013938382659 -0.32729698099701132197 0.35343231898436816563 -1.32484008433743216671 1.44831943137753893502 0.09706478552439490315 -1.37791278036539410756 -0.91753797196068853648 -1.03228896876982956243 0.40859985728644959702 -1.69393850090909947603 0.82646097984105448830 0.98815301405820854530 0.21941476193634679159 0.59883986067541949971 -0.90549020108164712806 0.06171643561308006593 -0.35104895071982572530 -1.42515913125957327523 -1.59630351431737582679 -0.60121807579419583867 0.54076109937048655318 0.53950529926818191484 -0.35176657918634213207 0.96817900613112650721 0.50318355724334529189 -0.12275822090799148878 0.85641773408039878479 0.63991641111367503214 -0.01503962275202816792 0.60161371872182167753 -0.79228327551409705176 0.64091639878369199845 -0.37778041528787986714 -1.43001815561515499553 -0.71642215885248805574 0.23550839485859809130 -1.19163690779622877258 0.48381588621421678376 -0.26888987684886539453 0.11963348741676804732 0.49852723434915280354 -0.14103557114187731392 -0.09467223748028334718 0.46236477785371488114 -0.26824382180600336856 -0.48371171905871895857 0.09881196728433493115 0.91570814453465665395 -3.03034190321735996676 1.37869608607072446915 -0.18616425551949480899 0.20766713706151043728 1.62663717421893738724 -0.94503803259845386986 0.89495001798378792657 -2.08361018403222120199 -0.55244686806748055652 -0.46374185552687402501 -2.57306399581319844572 -1.10996575514957074304 -0.60843330410916107720 0.52189901500989321903 -0.13695373404863078748 -0.46927641680205750552 -1.02448363431362765574
-0.30221249972063674027 -0.38055492272000795984 1.04492664156298054046 0.15518343978484172574 1.77147825982301365677 -1.48778587385024518852 0.89157144238262198144 0.08219142209136132138 -0.28643432904451077148 1.36127000804478370810 -0.47405706864068464235 -1.27877902922735420255 0.02641485132764430366 0.60668512289393905501 0.51615588292250591529 0.90934029612218592042 0.02045658383472504296 -1.85466784172867837910 -2.32144349854683884615 -0.33140426188062144242 0.09204385459036643069 -0.85781746600260688762 1.73866593331529273314 0.51434168983568118172 0.22686822189583108478 -0.56689251239197258059 0.55362754024592675250 0.23912945783807537659 -0.45220462304459424496 1.70595301004895394392 -3.33309719627474088099 -0.83174710933277407054 -0.52747395027138221923 -1.43545417494766747168 -0.10879793658655753652 1.11557497134361560676 1.89340964194341321303 -1.90443960402080336713 0.85128191789897145192 -0.43917882290533072354 -0.22456210622994096648 0.11190043130843348174 0.93144627283659231498 -0.52403834093794543492 -0.82602053267402386627 0.90364699905144707515 0.81265854596776709862 0.20873524885129482453 -0.65733450052103348238 0.27584829010617806233 0.15413892249407196156 -1.89183038134330883118 -1.90415450114965256745 0.88618850120283587657 -0.69865348679117722508 -0.39268415951268487163 0.07425719571444856781 -1.39147967015687701320 -0.44778365267378400505 -0.36409654377160755034 1.66234769957753836245 0.31324544485850408515 0.29543556980796742417 -1.34485129385446877670 1.09217497479279312955 0.28471589357137799814 0.75924803246051597583 -2.11007622685732831869 -1.75531542832365583529 0.17772529030037709230 0.00787787977224158054 0.24065988744858715642 0.76022527265215888992 -0.15956944414563961621 -0.36488522454278526919 -0.19352752058112929201 -0.34468752678235531350 -0.85926944154252349328 -1.61430797374934709154 -0.06711346082134331259 -1.28709655538775469275 -1.74247857969478991969 -1.05641735530696045942 -1.04209451698615751525 2.49240580069931150220 0.83287121751956316729 0.64911764734423671452 -0.63807393485124508370 0.18237207358529933243 -0.23872771846303028620 -0.30981323244234892922 -1.13596053945420005782 -0.25452631033543832162 0.85196841487433583318 -0.91493162763586333153 -0.33802120424584147784 -0.46759023736025717710 -0.29741879702190893164 1.42268123629532827756 0.58741652929129306582 1.12374294548260422744 -0.76157939774674310307 1.05442642851285395267 -0.57551901726617471500 0.81175532810752859536 -0.17645868917550253108 -0.24099014788473382964 1.71893384849641650547 1.64132583704762224919 -0.03116442897704970599 -1.02058336085592404885 0.21664819181822464467 1.46625444461641740723 0.31353411450068852107 -1.15067106097764759731 -0.96792956394080609250 -0.27967195147424955826 -0.04569212690540970512 -0.02626965031794414179 -1.76884924435720813918 -1.38156716979027427428 0.68562654127701627704 2.71270524775695465181 -1.08605179039711141620 -0.90159885093562663894 0.94443573561613969325 -0.47989288881205799386 1.75396682413673388190 1.01148756195622735454 0.73589198786767029414 -0.12363204246683856535 1.11933222609271210146 0.02757091551865883949 -0.59920880136012777406 -2.23018715856969818034 1.37503039954323824645 0.40007719402060620828 0.21728108611492996660 -2.88409915756844581480 -0.28159549358993746226 0.51713088953923513902 0.42161511071166868359 2.06191441904087113812 3.25022580995513488133 -3.21300952558765473555 -1.08431002380542285124 1.42311040508543684702 1.35355926524893344087 -0.02580627631932607552 -0.36401073888039242599
1.62579850192243458018 -0.22338073178373346606 2.19288572267107673142 -0.10076978001051088707 0.09179150734588742422 0.84294365517878366845 -1.63891737331808240441 -0.54298061187609725220 -1.58146733403894201864 0.02175822272279029357 2.61495436356461308236 0.63801635790366773016 -0.97358592580549829787 -1.14995235398349837652 -0.56214312419458034586 1.19519955421736745471 0.26104296390188247434 -0.62098808162411567313 0.19075771536824456809 -0.23883057483004474508 0.44985456994277278620 0.01081250484701368024 -0.08898013477582536468 -1.24540798461045487677 0.51314459652416166691 -1.00791433516476658383 0.14152224506316271602 -0.42830560923731081369 -1.22484967704258229659 -0.60343147843866240532 -0.66057833669880761107 0.11747743900725640676 -1.56483454372155650347 -1.52373598871519888576 -2.05059846011829094437 2.27452639805461265254 0.87894774614715753813 0.77988689772287378421 -0.78398203637345731387 -0.48849907393726577087 0.73788671688842832896 0.35167604684869263609 0.62679059158656291739 -0.05970336802881849592 0.94253133433260261054 -1.17630385188018604659 -0.14467098846513465338 -0.07695919708579089524 -0.65083913553746264302 0.44584599224735316225 0.60854367944068443741 1.09188143225044043128 0.38406552764330809113 -0.82809597380016763957 0.96429071603328631035 -0.07198740810717926819 0.71590297267707070361 0.03943893610955720441 0.32288318693512874091 0.02231010148767470849 0.53503594189961045657 -0.60095449301092707106 -0.15852809453624533420 1.19250121130114306034 0.13006284393306946634 -1.04076474182696121495 -1.20246057663653016512 -0.01131800479016324690 -0.05057711643735643414 -0.01110334684596533429 -0.68924065423154123877 1.11259303130210263078 0.91113619212857466234 0.24310956449599502305 1.15982113147890752991 0.12141498765857808295 -1.09511418450287445481 -0.43683662067616468860 -1.18395313626336218249 -0.91206047710952542484 -1.24563805719067843825 1.28952290209646314167 -1.21300107151192015920 0.54036919968209018439 -1.81855016366793353910 0.07961627969291289186 -0.73364702804462167407 2.54264566026208926885 -1.82327386279847880601 -1.07842592181406526919 1.20331709470547165708 0.26668500615892332117 -1.07888424145448791336 0.36027450854751169596 0.34884465591710522858 -0.20681222142900482219 0.52974699597454955047 0.36295651389267175047 0.56399560708406892839 -1.26299789031874287737 0.19320427514440982608 0.33100804658766347366 -0.95790856534165158553 1.13828336394393381248 0.25570595895898445837 0.61517105165177099479 -1.50522040733117279387 0.43035538783693466636 0.19100193687128286246 -1.60116772373821558695 -0.61054786562095053615 -1.17606611879021327738 -1.05625246887274637508 -0.95616500602907505968 -0.94188838492039717032 0.28718219142945217159 -0.96762039033741675809 -1.83280875890065009237 1.42042751591202320860 0.27364402093217038425 1.32303283956165529389 0.73008307920666681845 -1.19191567112701757303 0.75786831752278394081 0.27453528522982162396 0.61746255529447524601 -0.04678456189518320069 1.94548116201098419964 -0.24644102638109205428 0.10049402699131433636 0.18846445843947173815 -0.59498658546684835002 0.40737424074619049685 -1.45968605911709681244 0.40026917436963149743 -0.13342280131207653882 -0.50683374522264490469 1.77745714656293274381 -0.59217524812966904069 0.25981497768427841422 0.29343435588678384862 0.63452480530992183549 -0.87819711840830561034 -0.97657446888649912520 0.21692829529315652004 -1.36135455502056146315 2.67104492451311781309 0.03943199704034681258 -1.51260901585153684223 -2.04278818834527564618
-0.33708603129243969176 1.41939630642103464808 -0.17008849877023160535 -1.42101340694615152493 -0.30770899805764401203 0.33819305488626666412 -0.00433874511339900782 -1.43593196690487734379 -0.51142928840139711966 0.74552826214168377295 0.66836964402666532159 0.59845294169779694737 2.31789325593497030908 -0.30793051638634461042 0.38493985295503452271 -0.18735941222260171779 -0.74829172468339522073 -0.27465990936960754665 1.45449573165533019292 -1.35108111123649177188 0.02940115869846534474 0.45667051131863073410 -0.06571401850617228368 -0.65043563606470145011 -0.31178966936335988924 0.69036198014193528305 -1.08535063018840371996 -2.68985533528749787280 -0.31985296657194550729 0.43084204980178075761 0.24680265770793205493 0.95570426427825683202 -1.03211341159430558534 -0.65347609968360520494 1.54337060194119080059 -0.42357038740786662201 -0.32910258880824611039 1.04940555381422573333 0.77682846886951695264 1.37734184984265084495 -0.73683030387689552043 -0.82022493709717647636 -0.05624150190230727681 -2.51439575361057343628 -0.03302401018040716785 -1.07769661644443148774 0.37154291445157339169 -0.26803602737735082728 1.61945048962746884769 -0.09396306935157613949 0.00608349637368098273 -1.31167357404300588541 -0.73132587239982904670 0.31573607564737915521 0.01818643521003075400 1.14136965276380109025 0.29695289131508634251 -0.41618537532140964519 -1.61702733802860154633 -0.21063174159045072731 -0.40970084259081746003 -0.31317555025955307046 0.83906989084150729319 0.46206274886385961809 0.49705367844827114121 0.11896070361206750876 0.21282338944386261503 0.47952238832717758443 -0.74542405984616522119 -0.24864190063456562130 0.76777001559700852606 -1.16540548588789638629 1.34779316401048454566 -1.01722624769756531116 -1.49640459813044501836 0.53173440517227077429 -0.32368029930489866652 -0.81832724591174865747 -0.54408627336563464283 -0.59806060396672711121 1.63760423608965544062 1.44063161991186006183 -0.02621013113468790429 -2.16702902654394380377 1.66543220476070219505 -0.57695191504313059205 0.23517424977191425661 -1.53257772316902785015 -0.07277567549985702877 -2.47768528381257668869 -0.44415878684554488398 -1.28826461899618216478 0.33387269937520669405 0.74249827350060848552 1.18626960515222568127 0.70055930420204837183 -0.64186627739083945698 1.66714561932070881589 0.66421798189062153384 0.28783014057077704884 -0.72280487010603200471 -0.61858531978395592255 0.56728774575006180036 0.45385901694844987819 -0.74292241083553323122 1.79982300309497711410 2.36574150429254492778 -0.98680161007586986166 -0.12426562661804094190 1.66547481477052694565 0.78805878697605791228 0.58028081806301845536 0.28321105434608484508 0.87680269762544005285 -1.56498228594998667340 -1.47276018268408459555 0.83462965092511176568 -0.89940292851001646390 -0.80291732815846195148 0.10605802971669626988 -0.00341172152232256014 -2.34904580589857303607 0.87341222693145259548 -0.71508777508749832297 0.34990003070460723444 0.37836505180718504882 -0.14540845747736508287 -0.22033032361814966493 -1.84930285773155578255 -1.68609297454402207173 0.80641158482805264107 -0.17615982015050701825 0.01188330927141564332 -0.23763114056881434744 -1.50067200592104299517 -1.52573082964889361612 -0.73911786908414922603 1.44412261202393366055 -1.48238582443397426402 -0.14433521296894064045 -0.61809472977237756020 -1.32652305684403870600 0.33608983205220838153 0.23862427249105042093 -0.49835689118751247406 0.27975485877033423598 -0.72574181200540632819 1.50567461758690646079 0.22495723935037656438 0.94350180805766548087
0.40040525656264469578 -1.76289122576036505485 2.33317746538841586101 -0.29198537672594904180 -1.60983332277571578039 0.37186844882302488857 0.21579510472205221117 1.27173402679580194174 -0.94711409938873580838 0.24522426337971789390 -1.54403210460627948741 -1.40582048353815536323 -1.57993169139064559836 -1.05061682007976164854 -0.88742409877161032572 -1.04206634815675824868 -0.92790800822096208833 2.23763680363448536070 1.34977400378859302421 -3.04256448748177543706 2.43137999109490010596 -1.22188562820616475335 0.75043231055694459286 2.09206804051187189586 0.74547512641136881584 0.69157250976894146799 -1.95726597495028853402 -1.06329780290949171828 0.05456942081925487964 -0.73736599985868345186 1.01576675959026108131 -0.76973237718930043183 -0.22954887464268181052 0.19513781980323163801 -0.38230503897839979155 0.06669159794035178779 1.85120674527677619992 -2.20493530478168109354 0.66512724442829906923 -0.42152574868367659322 -0.23866812117400224014 -1.00682196477683860714 -0.12904628012834348794 0.37455345499116826646 0.08187379961273465179 0.68846050933376223835 -0.57376749248021341465 0.05981730065742739411 -2.55196458546077753482 -0.92573668861290314691 -0.40774080741331236721 1.36470245056863004329 0.11776986274305650815 0.59001570021476534844 -1.70976761592361947706 1.52390891880148982018 0.07320198514242107213 2.51686971782945789755 -0.23488257727237826789 -1.68914891170603831405 -0.64716556449565953990 0.49122763147990750054 -1.26160125498200503813 -2.00766624277248029173 0.11669035112915340791 0.36595965074177622123 0.42354398987337549265 -1.37949245578192325468 -1.29475990639120830394 -0.36968356435361038326 0.66129330550464637817 -0.26462318818236285622 -0.59929412823340699745 -0.87749533521791844848 1.31399748809741145905 0.49682371454218032802 0.65393268704102502920 0.48688347594669095786 -0.75316206820556652612 -1.40660869897725704369 0.12892051692812633856 -0.01313642773805991787 -0.65796883245832771259 -0.67854412276807929416 -0.62661205490550198061 0.23849086364818747330 0.59974375581590744222 -0.54030638271053210708 -0.27161995734864813334 1.08191042956713623369 -0.31638928614195122035 -1.95225215470295854203 -1.54870391903575499448 -1.05676026057914662637 0.84918317686691713320 0.36187663481505882856 -0.88077902139644548285 -1.01674469704926928593 1.05580841525361779354 0.46966846349251945014 1.20579468069592810053 -0.82487227501706861243 0.61462899047540531239 -0.50897016471187617181 0.88544077657789943547 1.38426230968815788813 0.10601728235425775249 1.18102461499485245078 -0.81710366913362275643 -0.34842493554461106964 0.02603119292727751333 2.38851122037618512906 -0.16785677878864840862 -0.31593789220699142195 -1.82630046722493322164 1.61263608715505513125 -0.76501304129769387430 -0.69511687242128272768 -0.78049862615582754621 0.87775935909921432021 0.05635004457181972543 0.60299737775897288561 -1.05385466631560453798 0.78920608984190621094 0.33984926533816617322 -0.01394770007031393214 0.94737110189133155735 0.07253819257418286925 -0.44133716026416630607 -1.07296561444094518123 1.02343848987572583198 -0.64324896611202819763 1.05689124902177278287 -0.80481270942630245280 0.54466140652099004349 2.96142084727423382517 -0.74346532789480845871 0.08426207443905298078 -1.59113094376869712576 2.27189491559275724697 1.42320994683119494972 -0.12396035196255876520 -0.08953093837722496395 1.33521103819337216834 -0.26936981979228563633 -0.59544711050589393952 -0.92118460699149262716 0.12334323851752933277 -0.36879997392759467090 -0.02079998484170217030
-0.63792442033870966345 0.92865517652274287563 1.27383034852857357500 2.20443666200735544081 -0.18958995495132863196 0.77774344878758627786 -0.51242846972746014522 1.19447597376221437138 -1.07342810807023680830 1.68010434248634821230 -0.75357451231573879813 0.82539485768267117916 -1.72593125874607622450 -0.12041527648042148202 -0.07997818355963184911 -1.01347598504614255788 0.56343197552794888061 -0.76211373851015673520 0.40405100764299684002 2.00033922157148236209 0.56678605005028059871 -1.05808952694157687446 -1.69162293063989199737 1.07108706596489144935 0.34194920542359114046 -0.65770491501489580788 0.08079241452112476130 1.10401748577447178512 -0.53961582091738091727 2.16182881484912048364 0.72287633717131438704 0.55791773494410712431 0.27242489752915410861 -0.36183019288984330508 1.80845447678460824470 1.32115849010704389244 0.04971571256303911751 1.26023049924416197243 0.49680562238213749060 -0.27933627990259568552 1.34528982409215713822 -0.95839078582113934601 -0.15923320996982084918 -0.34417213454833212039 -0.33072582375395909171 0.64920181950497835022 -0.48389355501661568404 0.30730216610994370852 1.16126923355401134863 -0.13836921424825576743 0.76322139029863567128 -0.32079800166444277787 -2.14897756871259959510 -0.60327758820930887929 1.82181349778347723145 -0.12107383571038039805 1.06839241233203741110 -0.99561112034244192426 -0.98028144531346628199 -1.70628697080714020196 -2.14904228924722584537 0.07886709242838782496 -0.83711698026794478800 -0.78144814482299451708 -1.36078224600517283527 0.13614353615426350030 -1.15912872058537508302 0.95792095270221222503 2.64555282919590917246 -1.24398475444968825698 1.57813051912222390705 1.15318536374667690581 1.19123568314964067838 -0.56531056348418085022 -0.56798574384249389535 1.32292780865481218733 1.36132457115179450469 0.53679645044761314931 -1.13857652690674426843 0.93030962863987287648 0.43840453928150224794 1.90382508263398553261 -0.16417220234767479492 -0.20965488357291350852 0.00088077851427334302 0.52278382854825578008 -0.02492833812499601481 0.38453515383613912082 0.73734555047293137697 -0.90303444634992435791 0.09959326320304780211 0.58810858257435050245 0.26803020925446702227 -0.65562958564629647551 0.48144794335614493619 0.29413729669242461018 0.00018113737565177992 -0.25387009883655620168 -0.95845828073866168317 1.51140941997222610915 0.56118169271275830656 -0.85677702223282636851 0.00277113748293071442 -0.10923344679656649125 -1.69731481791344673837 -0.73873515808654088843 2.26108190575025469471 0.73157986054417112332 -0.38983952863007675926 -0.83302776281478851939 -0.14260185178417406071 0.96616273451233714020 -0.48883436621987474968 0.04728770844378277910 0.56925443029224953584 1.08740500593244071581 0.63996716349322158024 1.47804648033551488950 0.50750934378115053480 -0.22727070848662989100 -1.54373540597743175162 -1.02802120190936019384 -0.22160666958909253088 2.15170682435528570764 0.50237317187625218917 0.25398310821386210767 -0.22570157516275388132 -2.14684990391855956560 -0.84440872002353506431 -1.01786858334219054711 1.83987386161971744336 0.07877545837081210978 -1.95913016378646132054 0.72386531040695856198 -0.13771984573303464039 0.62393949251845992610 0.51310579557091218206 -1.93752595503414459799 1.38811546120739337518 0.50553431905083012765 0.75346576838686030175 -1.14227814211995482019 -0.45696551080800423827 -0.06886757071829308074 1.38910394030908812546 -0.60597621325063655284 1.17537635373680782180 0.33511810162493255172 -1.89098818983914496172 -1.48304116476876379771
-0.14445486710677371556 -0.19653551413308309459 -1.27781592095266094411 -0.35203691579021556546 1.88562766915965962511 0.39937448283976412222 0.24392683628512906724 -0.88932829173045757631 0.01174994071502066285 -0.71925694888771096736 -0.86637197147901423566 -1.23547708085179719362 0.61996098228938167907 0.60967748486023309873 0.46156024623409075414 -0.02104516488158318308 0.55269460023795413672 -1.01718350489492359578 1.42768620534647072695 0.54092299859302594989 1.96868512202757717233 -0.63274240540970982938 -1.68022187456759364288 -0.12845942475287436269 0.40169110486811310246 0.08520346071117025633 0.29164058026651135114 1.37438668660220764117 0.65780826357487631739 -0.39446704800163062687 -0.72310667889873925240 0.15207378688846576176 0.08094801199500081812 -0.85623852612210915591 -0.45219467100466748111 -0.80340353443283751833 1.60670463955282416535 -0.38524076325346778837 0.83352693744781591878 -2.74643425085443171341 0.74686576745612476280 -1.39615467525805558857 -1.96092933341058883734 0.09442102834551518997 0.42191390672967538089 -2.97708757478427532561 -1.48825201935478013127 -0.21013732474624327584 0.20003428323593275273 1.19876713968745307604 -2.33293067902936357427 1.36210594084460301367 0.20946675338425960189 -0.21476078280314708779 -0.25076873221863743568 0.56868967938255610139 0.71969671693496484188 1.73799126921003921353 1.70199361037541607722 -0.04255598052441083440 0.99720755253401194285 -2.21143562280362582229 0.54089239825706991738 -0.99829102870392860680 1.10994176880035722021 0.91627670775957392735 -0.28644202701376847431 1.22884509557043686279 -0.20063079466800703976 0.40309990092988112753 1.06819954633419089696 -0.20666961482549003892 1.80478806829853888338 1.05646158267426559796 -0.65954691011848554094 1.51188087747222077439 0.22639645431503160888 0.44653942161084692053 0.96401819029108792858 1.55390539029751040268 0.13436328811453601695 -0.97153634691862789108 0.02641764043920943883 0.89887676431733198879 0.73941077593861326278 -0.17257334055708609122 -0.12604493612759781751 0.14174379483237639632 -1.77679412970637828906 -0.45964562966199340455 -0.38771597997769569055 0.38994838862203623497 0.25802784931126920842 -0.43907415188281173624 -0.58983951837029446885 1.81261409808951023948 1.34381809002130059305 0.75680692984892117270 0.03105627194382816481 0.88936516766419182467 -0.87017566019599879024 -0.39796917173696572112 -0.67048096032917114950 -0.84151608786372911197 -0.31346148469463386288 -0.05358328244721683592 0.08790873089346551428 0.76440623660886586332 0.47732782370950943562 -1.29118110677047370771 -0.12438848017133320722 2.44169711535121702894 -0.05439050281310243984 0.38383115660772659794 0.46687608717712458795 0.90235203062897495485 0.95777463511810356778 -0.86263663998998951765 0.91908475200482842027 0.47602320030717698573 -0.24494136811891953354 -1.15044095456465877980 0.32215257640343497592 -1.91603959435296422598 -0.84771393410691653347 0.01027572106017046911 0.53518116095376777608 -0.10581234236972290874 -0.52069677901602517966 0.85693995461300176419 0.73698003679945456312 -0.04007095153856515823 1.74056222406918004175 -0.46888336096854998924 0.18747380983105133012 -0.90900529343256764037 0.12730763671266071002 1.73284496198576576376 0.04925381267189225809 -1.20557498510041827267 -1.37427744353199443594 -1.00736085501862171476 -0.89876409173422566745 -0.72111180834518473493 0.37256084509549763917 -0.97386475203982136861 -0.21578582577470728499 -0.29941842303185883800 -0.23926751180795613472 0.70039635076888973053
0.98306881739064455594 0.52800848905909891773 -0.12343362135785268530 -0.72142182336433824386 -0.21540908088497043305 -1.03214836536992393690 0.68776918917486840055 1.59829080911945653476 -0.24992947839415205480 -0.47074233653668728916 0.76281365902196773821 0.75965464921027592293 1.17347473323027773340 -1.63577944994715940297 -0.87734301279494608661 1.09662910062765583952 -2.08504419145310793127 1.42046069456343926340 -0.54592554504765011814 1.62031444655873158034 0.87889799388462497287 -1.03657618826227659881 0.33883304348647746984 -2.00558027092827284577 0.20644227303052611888 -0.28265539291626967655 -0.95680928994083169759 -0.71222454829696435485 -0.58158114179914233155 -1.08210931744293925583 -1.24176234674425534088 0.06921469676966827966 1.49457021260589972833 1.34078057845437981221 1.25892798183688325864 -0.73325822738645107801 -1.22722982763920795968 -0.14287721883943865775 -0.49333796869443125033 0.62102295300436016756 -1.05360870810581408463 0.69923585833743961970 0.27994120859542565016 -0.80683369122767301107 1.81375928459302526718 -0.64135660438274555428 0.36787067121282679416 -1.46281659134607378014 1.48878751842401979566 -1.23858181960383917364 -1.00021842510607372745 -0.44232610105538888723 1.61780768612729675127 1.43130039277281206900 -0.51673068717700076924 0.01036902192753058789 -0.91185801939336452726 -0.72424026836461019574 1.71544856137093648663 -1.86246168157033742396 -0.86137852106688905796 1.33434514875475507267 1.58967874414863130639 0.60382912337090643984 -0.41498632793643519534 0.20743205386271029722 -1.58314098166945838031 -0.04755114228179115748 0.55193036997145961120 -0.43725853449878965273 1.21020778565232811630 -0.27075707842333324171 0.53052908051386649113 -0.80446905753143027606 0.21046417768702788131 -0.27050700541996741677 1.04233765307754744356 -0.57963428911360226348 -0.05529400975825367326 0.55307309626389600243 0.64329917621408594375 0.80973324743607644205 -1.22019827260447510930 0.54905780893418587585 -1.03177833441282440496 -0.42585003593459463955 -1.08922988779415885752 -0.51772689925367876285 -0.01757328484733055446 -1.91728418762386199070 0.01638597361576429531 2.18471546723169307569 -0.16144320202474365944 -0.60464170266416283894 0.21451236094477740823 -1.15315450412792830370 -2.50540000486536218460 0.25901992332594037105 0.20434793788977426154 1.22242022680519935030 -0.65314372641801576869 1.31686488796048384309 0.95642009310261166810 1.00570048337708328745 0.83254167481859298050 1.16861398591141618653 -0.11319843740812460253 0.26912400870665087460 1.97836588570097426931 -1.27246161746184704988 0.61529816178467111598 -1.06254967975006198166 0.17497194111544436823 0.39541512470197887064 0.39016976726451124691 0.04337796037867337057 -1.20303983392285784859 0.58631637806937808577 -0.64478877146436630596 0.44520983166843441925 -0.31784155458598933874 0.16890960842553923160 0.09886067013916792490 0.23661460589132471410 1.24797207464879034156 -1.56217995602981485348 -0.93740223404488043357 -0.79078756085701851219 -2.45409123129162098920 0.31293630426483204365 1.30535848508382068545 -0.22073572034505797856 1.41824507406354749506 -2.21289336955248483463 0.50212212969776104377 0.49987957725337639481 -0.91973286323128067288 0.37836374342634343515 1.56115937863728593271 -1.05767058879450592812 -0.50043985744500729673 0.46846565656021177393 -0.47068438375117110928 -1.08158494337616395420 0.33684454193938662137 -0.75451432205563340183 -1.35210371062363376993 1.61173124243642984510 -1.31156440877721602867 -1.02198004547939613751
1.88512992763578113298 0.33812189211069904049 0.20761266090911995041 0.21516168032516327924 -1.81964017538585021150 -0.22206796093848618634 0.25096083480562325629 1.88953798159593544526 0.36045244523728781072 0.42435100682941562233 -1.27033913648779162031 2.09014085157715712171 0.79851252637299774406 -0.28734944097612868941 0.15240344978673464604 -1.02912044706640193326 2.28046977575039155894 -0.74817845745814093306 -0.20654834572452479557 -0.29870863971934069614 1.16487440986316403979 0.15224835253862140094 0.19623039350521942481 1.37482876328533110133 0.24956176921079895048 -0.16121874671283606406 -0.90446719853190937766 0.31157049823135352096 -2.08056494921500645390 -0.46197442794511361930 -1.22367298867855534006 -0.64085447346890656029 -0.89797546683923257227 0.05622115029727413338 -0.04704439174439721538 -1.15405858485589996043 1.53159588157260739827 0.18773232549884472098 1.75498529034415562400 -1.39355903871972008901 1.49637802719672663443 0.98517860744039420506 -0.03045329765379147652 -0.32636480207352586147 -0.09508580200501204338 1.90272137161575938258 0.60469759887324814329 -0.32666465018687590449 -0.10606598950548654092 -2.07679988078930888307 0.94624533100334573543 -0.97743491787183967023 -0.46684339430067089971 0.92987553614438422933 -0.29718109935198899763 -1.63351511459282194849 -0.41725023685721407407 0.97502629055347644904 1.41969545826850729320 0.15078070347877903234 -0.27236157141926814473 0.52645666949798497480 -0.52931812831607838454 1.54523256665066388571 -2.32884617145671191096 -1.26977587165760752441 0.29148793266982281347 0.75736350569028199065 0.31312453491948111228 2.44529648008132483028 -0.32786993346153076034 0.24949831381730375179 -0.00342323603199441630 -0.24442472672293460989 -0.08393750665951263401 0.08818934629262803471 1.13430412478906972318 -0.48151873525351812644 -0.62615765836740344685 -0.59202243568780266170 -1.42442678198837757719 0.63346358681433811988 -0.45597900274522895625 0.56317569378693632665 0.26999235931690862555 0.80583693501513176116 -0.05427166892393602698 -0.51044689566422862814 -1.21878965066541655737 -0.53853047773280515731 -0.63813370673430536151 0.80119753332862830852 1.17646896825718494384 -1.97957466599386200379 0.73527283361298378939 -0.56979313156175204202 0.93291260159158428955 -0.78737095988992011897 -0.83095772084543806368 -1.22154430707679195756 0.32411244164964708725 2.92127562875223700800 -1.16344166954000405312 -0.03733131617194633545 0.27081868443706080818 -1.30758018881766835406 -0.40907402369596118641 0.54300105113923258227 -2.59918692628070724382 -0.69563041758798782599 0.07229118591941574579 -1.36603097294246578208 0.73561078819889236247 -0.69723788553608545548 -2.21018349748521991671 1.06162939405388856429 0.93455667136285247576 -0.47262704703564717423 0.53621453265382368336 1.58425084604182786485 0.61827330445756356614 2.02730624212156307351 -0.01033827169179464024 -0.65406261977684032605 -2.66186273268065543007 1.15698712293218597402 0.15497939349916589613 0.28354538499122505790 1.14675657089818283652 0.58216082285351944403 0.98451311510045258490 -1.75572118041683689071 -0.57917690000655408511 -1.10749622047415452464 0.78427379527581309038 1.72299736521057544891 1.89439578764207139372 -1.15984060051786208589 0.36273625312006813060 0.18842138859653551064 -0.65111164920352715413 -0.23349076396107049103 1.30462885638163750279 -1.75985276912180022002 -0.23993514280973765596 -0.02348310093668420223 0.66800948840874485590 1.30160537648312701897 1.50723801560817771694 -1.42512320831035377289
1.69360513657757971728 -0.95091975522579563762 0.50381474205719378734 -1.72723212409921855759 0.92658936048519746631 -1.31439505714911586409 -1.22692014577404040487 0.30462904756385955629 0.37765614836319305603 0.54293797098805018919 -0.68983042427034968469 0.20492258546601641034 -0.21364127603554303181 -2.26416538555584390124 0.98631429533660608389 -0.21595893976404745285 1.45601446612161233851 -0.48202900721818009444 0.67196479684142174094 1.45216993927427950872 0.36895138211612565904 0.37095266887717148752 -1.04592524170630607472 0.64776278897849248750 -1.07236214026639276042 -0.24101248460367644122 0.98690390809536121530 0.28264976866989260929 -1.86260792210442072125 0.00776741432372988257 -2.32526673328224120496 0.62321485042199020743 1.48010018518662711529 -0.84048695579420951152 0.22921954424290602592 0.15841690567923827349 1.06408273331371305837 0.47261247085624558117 0.03100740067974426875 -0.19941738009695283984 -0.01961379038300821442 1.16408388077067215249 0.51554734668032797806 2.13737584274517899985 -1.31804185956137187574 -0.18858363862118585064 -0.19238261353705210510 0.13946627494928476310 0.80997447654910526005 1.02599672637027250488 -0.61842274739150837615 1.04842707057847017715 -0.10720137073867874733 1.07866797244054812843 -1.02344313121681573797 -0.67708548854369932091 0.15003798541947138689 -1.99931607614812878460 0.59487617179663687672 1.25602184159166463395 -0.34747056820214056172 0.91999471675483390776 -0.55922086933818904164 -0.74422830273279994007 2.12492419649365960055 0.91576980168460986320 1.06866709474886789621 0.51468799842528789590 0.67996470509640860591 0.85340385531133411412 0.30846763375083346981 1.26135526922462259947 0.30445497829796253075 -0.46855489020480345363 1.35599677876443824864 0.50291506307545141841 -0.17183029767180582614 1.02838983202026024166 1.11198538741239350003 1.58071676466171395781 -0.40504690417934335889 -0.16088186700496448500 -1.12084830093035892062 -0.04824437983469353347 0.59847767611972191304 -0.00754796932976397467 -0.34579588755088219720 1.70372718053076788181 0.09592501160692448736 -0.02230204593913978281 -0.08186104660900475616 -1.39538685726836897416 0.15326591979771578278 0.45224499486282754290 -2.52474402078759618817 0.67184820853065618795 0.14017241090761278777 0.07533313337576605373 0.51696007639673158263 -0.83602594394931795119 -0.26696581418729375956 -0.67051140240533080306 0.52047615829104465490 -0.71636491081029196604 -0.66345963120719264605 -1.17497033226954039620 0.97965321463317289741 -2.03599525675387749146 0.03462229671898093414 -0.35588338216162868077 -0.09610394132069059736 0.97514834623358137566 0.34658155184694200424 1.05094763275929969915 1.65231724578660488234 0.76324742458961414293 0.03611694379945450811 -1.49780124411930848360 0.26682579199518574598 -0.22891141781378804287 -0.78817710195048584776 -0.84711966705649233145 -0.31867794605880678249 -0.06070243855343248479 1.59733844128350299663 -0.01499967914647291553 0.88939213456611021513 3.25212857757197992825 0.51260424467346199506 -0.49641397746830900894 -1.19215512428796688305 -0.87083733079353498052 -0.12539947764669062691 0.01286567830000973599 0.68990604180635628495 0.99052893769169425564 -0.90969613639475754852 -0.81513261413858240090 -0.33359023966142703488 -1.17773302202153917762 1.25411984453794489447 1.30696312785185275729 0.19430167935849132488 -0.79221030277019621746 -2.73025918891713104131 0.32185263463139163198 -0.92904459111315984554 -0.49762558459722378013 -1.13189969371950915900 1.53043261033318445108
-0.04822606788520129167 0.87012044664238286096 -3.10887956210842819615 0.10185762625774598400 1.12247679603568362161 0.39508263736088589102 -0.66794869096145337295 0.04703986418141126169 -0.87884219889230419387 -0.31032364462117884019 -0.20491540786351919445 -0.65793249476794535280 0.42132577378568408788 1.04006463347370292638 -0.97946161750554527892 -1.45487350667270032289 -1.44435917185139639507 -0.41182080667280968056 -1.24299404522233469805 0.48226556651736290915 0.20070302498983319528 -0.66856651062018090936 -0.77825035075290693865 0.89949461578925471450 1.10845671206017115651 -0.87808637447581594504 0.23878105626612095014 0.20715387181961888996 -0.66487030788820900007 0.57474989114220531583 -0.14987929152811874101 0.17481065650178614912 0.92098449388455416731 -0.35255783212008784400 0.45195407793897202087 -1.24407066629992124618 -0.81216989077116630291 0.65018099081047042720 0.01025023869141155133 0.78990999180263654633 0.26590292579026347797 -1.64315659769569921700 0.02507739758893537049 -0.79175125145496361156 -1.81746285042192545767 -0.00639650160959443284 -1.37758186609927602007 -1.49846478789568604562 -1.99982716101987079149 0.90478427491116375503 -1.10437462069202818604 0.73822621868276405710 -0.89891093947508959872 1.34853252731759454264 1.75596470388051484335 0.27288316532235029621 0.58318845544900055344 -0.51836398629509961022 -0.60566686519282808554 -1.43074965465006509469 0.02156341164032394078 -0.06220740320993310007 0.59288899305065867473 -0.91933026965907826966 0.00129278157836375989 1.89933866291500574874 -0.79595892648052735119 -0.37313522282713434963 0.83223097250969724215 -1.45463977307502823066 -1.85999431963876826757 1.48141782815414702057 2.26245163199427246070 -0.90107797507204834275 0.48118150109919233248 -0.93741895196959401648 0.33590543867529698563 -1.32971705978348642141 2.00792179190135255951 0.58497193939587777134 -1.20766812723980043742 1.60428594425405246504 -1.35651568313339909722 -0.15988250112352261900 -1.84420182901978768619 -1.52855513581519675270 0.53225936625446523820 -0.87580902408698335648 0.09104998627849739123 0.23879380429688745746 -0.15036165909349186176 0.33351758607467130169 -0.32474307964942261684 0.06207633860032617246 0.67107440856397715390 1.20170560481413879472 -0.37000533285179060261 -1.46972635748827973323 0.96775465888161504857 0.56672501986085788150 -1.53752391570719892933 -1.57762937710660589019 1.58457251208551230803 1.93180139804913308943 0.33318160891179482430 -0.58261206760264816484 0.29178606291409708851 -0.61953731545405354986 1.18793594816040815054 0.96309681405721681013 1.23991854481483199102 -0.55001168218148299704 -2.21896717752153849190 -0.77353253625059492649 1.67723792058771037361 2.06377023330149445002 -0.32401773847145287633 -0.34056581927369267149 1.09241409841538761327 0.82863148618393323019 -0.91049471034200524233 2.60731754486964506512 0.85687567568481315394 -0.91192054630195817921 0.60046544752158725888 -0.80347745709193219010 0.37817635879694183609 2.31886420409485749516 0.36159588082480731419 1.87493071074107553464 0.53317410119105435040 -0.52940189051938690845 -0.64662296061778756773 1.16972590756207894813 -0.55668717778030540888 -0.83863739887482391389 -0.85949968917594088413 1.48418574059799923681 -1.27936952810003656822 2.18567976425650378758 -0.98004204274481021564 -0.29816991308113593995 -0.01669539428418451849 -0.24247131814652081450 1.66583180362053617785 0.13835956697388998582 1.09337742273022975326 -1.61776490465423150589 -0.16994270876955785976 0.25638210016285695181
0.38185183931062283147 -1.13900699653864889704 0.82227070382833900020 0.30496081794347823513 -0.52298641321374361723 -0.44920103582390302766 -0.30115274974636768723 0.58881820092994396898 -1.43571804569663119544 -0.30521154155433294353 1.17232682795288445377 -0.86693293773426716164 -0.33392356441594200911 -0.31511141340473852734 0.01484008685150620989 0.00007321331157486358 -0.52346632552143768091 -1.15954356841160177716 1.18637921327207562783 -0.06879546950494817847 -0.35932749879427539064 0.23984631973520451065 -2.26458674581418994975 -0.14333426160100187774 -0.89140264517990930315 0.32215350973044315497 -0.06291999544208862205 -0.14808414408517103777 0.92537061495789108001 0.13177879893599603323 -0.23060524110427646494 0.56651338401696682556 -1.40111143033866203389 -1.28286979086643304626 0.72639080270825595598 -0.80811526310474857127 -0.77022224129637451018 1.53501944637467713228 -1.56563480871190097155 1.57555540252621351094 1.55361112057304784351 1.34249350926510069293 0.11806850709976349223 -0.90395925392823062161 -2.98006150507697897822 0.32423011100932325190 -0.04122893333746965178 -0.05568150829763067466 -1.22487764446296254484 0.16837494639377958983 1.15972941809565877058 1.41225239399751445468 1.18397591189628337283 1.10338563597533023675 1.30684736868072293170 0.02463213169618858750 1.18273940938798127753 1.03860679337078654072 0.14241894962730775043 0.87019423176443710943 -0.57321266273461501939 1.75334377076731717793 -0.67821049077951578443 -0.25284369787417865227 1.26606271924625235492 -1.62205983987819624126 -0.47866493716273511572 0.11887202876638236493 -0.38547020781884328011 0.91273719513782947121 -0.99335639858190227791 -0.98143644084415671003 -0.52773187816678102102 -0.40791330637374817458 1.93720148235252342950 -1.02341453853630315329 0.56972119271718413280 1.24233281129609607341 -1.64720933275165370979 -0.11131251803829288194 -0.78583127968885058134 0.34820008311234929010 -0.74631782478717290097 -0.85866181109650019376 -0.86380625959917667345 -1.62513952613180845397 -0.83751512065467703660 0.61658113267525016532 -0.44244903512407163237 -0.16607766005361337958 1.81600882318680945104 -2.54740276568530354950 -0.38598395716926969801 0.65494490589347098553 0.23969386213253524032 -1.77063678129651469462 0.36111283337330740695 0.21003989376708417924 1.33773220969073403097 0.06754449618204477757 0.28033549047244299413 -1.20108800451790775909 -0.54232228827432171769 0.96978846389541839557 -1.66582836298922964957 -1.65457423520089585978 -1.00203274190470614791 -0.03691860914704987034 -1.23353051414888548187 0.23393103845862503465 -0.98574956274537162138 1.26830600765277390352 0.19616489162952416292 1.65924826992644192103 0.56996208880939913666 0.52903799162018150248 -0.65749949916942274086 1.01185621447618401270 0.97482925835288669614 -1.40191018175919701605 -0.69796724397648834959 -1.13678746166483701785 0.50138413306386042656 0.08838389443522103039 1.15883504863152331232 1.74522995113807932732 0.95065039950900576127 -2.60966762758923831456 0.94153236467931011866 -0.69839644014677604300 0.22077640998660416627 1.33383867939691858062 -1.57398271153847391091 -0.98384215740883307344 1.18230369149259928463 0.65929881316214244968 0.91218560861674702345 -1.04076630246881318698 1.69981721264033258656 1.13055526193652133848 0.86258033014914647918 -0.19315633038153445789 -0.69803538914337626142 -0.68722942801903086352 -0.29883311463264089491 0.08035098274692947795 -0.91644581383200274249 -0.72186772268246712780 -0.42740894105331983521 1.57353476040269968372
0.31502932663873312036 -0.61987011778745571000 0.43324059603630576953 -0.27070240801572464928 1.21753222285099615974 -0.97877939808841796232 1.95647081183234372581 -1.59230261156918917465 -0.62019374154322393089 0.20783371973472936078 0.24439138773623117484 -0.56382743914075972302 -0.31345239147969350402 0.59890551643346234822 -0.42169224752901013353 -1.00561579469572937029 2.17442379654984430104 -0.56711948898449482392 -0.63099454114064035259 0.28914114973044491297 -0.41775002125951005150 -0.67762271365674187074 2.26964034514582424507 -1.61460391147077420015 -0.42239324407398431971 -0.23838746482897293921 -0.77878846463855755378 0.39793866509256270447 -0.34235919038305928641 0.98061129751207409821 -1.35765727903827038148 -0.19351140542462452743 1.54026300916700464860 -1.27409541803506232149 1.24514778431427286520 0.99612275269995909088 -0.47808629102567040681 -1.61511194383101575056 -2.19299447120083623730 0.89528988457251490463 -1.02907326168867196969 -0.20454953307148401875 0.60974684943706924933 -0.33189834583162980408 0.39598797565890286876 0.05202681572836823781 0.14419645683762152832 -0.37612979732173729142 1.39790145152999678579 -1.42729035517173818981 -0.91133764324920740751 -0.05369184826165625951 0.11139881992570509206 -0.09122850579729090137 -1.01317408256997842919 0.63647140006151625702 0.93041328778044007919 -0.35154845308720039654 1.14982489176365176853 -0.04025736845387741653 0.99438508552308635391 -1.43805186568070930697 0.67170545818440152708 -1.10661188606669691481 0.90532215899647217050 0.30558314077648746077 -1.36859537371502515413 -0.98550811515032521459 -1.21936487879000554635 -0.51584634282384977944 0.39104002981656194038 -0.09693164186797972870 -0.94664845615430115444 -0.21841965348403402647 -0.04248338011804807246 0.72049691309641250569 -0.27628183946414508476 2.11650831127209793081 0.09695001583268300638 1.49978191904630620002 -0.60321442388461843365 0.65221961214763446435 -1.34400488785922056501 -0.77288110767416939861 -0.14322035788633619147 -0.60668431350570606320 -0.23490647967974517818 -1.41266580318065781974 -0.67260022942958042069 -1.32554373952445181395 -0.04604478814336915304 -0.04757212674834175592 0.73037319528214006414 0.46022609390113888850 2.88383726725215527864 0.32588755238741001774 -1.04276578535085184818 -1.41393898313647281562 1.29054102161498263079 0.38550492557943571992 0.48172211138210191406 0.69828852085827386453 -0.14665521884975613043 -1.57997631518489778379 1.55353198037727424641 1.10051473692810120042 -1.79071598199818193820 2.66294948597032510307 -1.52092220113090603739 -0.39406989150851956527 -1.72866380449969025968 1.50056531832751938182 -2.24549866061804470618 -1.72195504648575203888 0.50834918025945585729 0.88204725992529753320 0.14950273648081552347 1.09993021441313221231 -0.45018931362133091101 0.93566880156927145773 1.64765308001387933423 1.19029600545934499678 0.45131064368910472906 0.37549802124923697955 -0.19844708136361263739 0.20338984742077051426 0.60038796031014485255 0.28719865123753551828 0.15774805291237559146 -0.44667110234054463458 -0.84230909875790904717 -1.05031665947570895803 1.36786620500247857457 0.28781497390759086530 1.18223866348961381689 -1.60755236482713659285 -1.25373649686226196209 2.14308063390740155540 0.67457574420658039660 -3.33194850023104827130 -0.97436313277878849881 -0.16817432195528436711 -0.30700077750243015551 -0.45653951415199367503 2.70877136308683885701 -0.23609649729978540722 1.24846705792435308524 0.71081984645280993362 -0.06091050163831446262 -0.18147282131566808139
0.78208708525970960235 0.99787403498284843462 -0.26978531650206338810 -0.70480511568055392857 -1.28889214008347097185 -0.24820488298789972204 -0.38997629206373696231 -0.08573180804483639117 -0.55696220895833925546 -0.01355077460208350092 -1.68782738713155255894 -1.89710193708674301760 1.11927286289079108705 -1.93973466101840341658 2.59716758938299241422 1.78641879399174441367 0.53856242007948851303 1.85507836182991203700 0.23350676685674251476 0.52453522751431980176 0.68404887571207451114 1.36885920014536210942 -0.07283711686210848912 -1.11469153177258561982 -0.57314639052563132182 0.94486182449976818809 0.75502627088935914124 -0.92847045602987765545 0.97535006304744276129 1.56428256770585383251 -0.61466086109168072138 -2.39415020530435995738 1.11986062931419594335 -0.54539622124198572362 -0.84132152798766601798 -0.16201390813101604338 0.02251932224077854081 0.62280838299727370178 0.42972555721301969323 1.42832739656108498316 -2.13938097468451271510 2.42470660448797703523 -0.67909447794092137052 1.91637021389893225098 -0.48948920530217454594 0.34904519603055456090 -2.01688301444175310806 0.81366928426314766298 -0.35198649477659493812 -1.14380774708934729311 -1.60105571798808643535 0.17918252829060127285 0.06559115973485653284 -1.54303160074390111056 -0.46355708395790767851 0.40211294397746261131 -2.37528007099110771705 -0.63748766693496683455 -2.22960609121000086219 0.99941174454413606032 -1.49691118236047993051 -0.88429154570004953051 -0.82190516064067120627 0.57669544573906728058 1.82227259201118907406 -1.19513584370214198671 0.85486371840418595713 1.86261366450758791835 -0.46962969673869819909 -0.45552083840336254905 1.04194030890018041191 -0.12570535953201081303 -1.09154127662611033500 -0.93566607470198848162 -1.97232779280450776227 -1.37273667179077007994 0.11871750137163229744 -1.75852561375197979920 -1.27119386296138814352 -0.38455279450308854639 0.06898421452684229405 1.33325956347037610783 0.86513432508725540693 -0.90908924508629573857 -1.57837298218896382451 1.40565882047012835621 1.24569313415298466019 -0.17440174267670788266 -1.09482808499942518843 -0.38969731333161145015 -0.17148624578534166218 0.19886672203138749948 -1.42451930116966396511 0.93777005152423476009 0.13270473850059411047 -0.28124257259443763424 0.50028283492298386559 -0.68905301951221242795 -0.30449123386698406790 -0.71471212017404639472 1.75240024457803844626 1.22163055711931578529 -0.50101917694388031776 0.49614612105231797878 1.82165849715351058080 1.40972203250454652945 -0.26869518909076206548 0.13398465322319796922 1.75239710374526747039 -0.47257570269482868097 0.35919809209985914533 -1.26494853270189078209 -0.04901152320085308545 1.05481795140722045545 -0.28738748809982600507 0.69307173050722337138 0.97307823305294471883 3.01073431280223324791 -0.38015565299393355714 -0.94449557060080879811 0.50186854644198763964 0.92815968201593412878 0.28677766980295993360 0.97451326852599995387 0.33117308754712754260 0.43471906428334461392 -0.30814825314856453264 0.13077775255043141978 -0.14974257276907088077 -0.65801059086679281052 -1.16308029832006720738 0.47318324451201032588 0.33046813191231433349 1.63662535539950804164 -1.53149279304019891867 -0.50175717729715674231 1.50112882700267369351 0.79465535006946830254 -1.68864682850152081350 0.39848725564815729028 -2.15008461548856999457 -0.93444944312124855745 0.05943943735158999098 0.66034322543189416521 -0.28466806632637675634 -1.00832470617566638538 -2.06909476784110069048 0.70274324864019743764 -2.40124761634588113068 0.58233939478125362754
-0.41004757405894198818 2.22847633101568298741 2.41924116118797671859 1.45907484817783994480 0.40526682922074125370 0.46936786788175688390 -1.14264883518349624758 2.04049364958251278068 1.37054987380031856326 -0.63044383076208121430 0.14359867158493497263 -1.57577181402912058772 -0.24033258173592608742 -0.05596171838018489803 0.15955627768455110660 0.28724297304711843282 0.63283100898343036533 -0.47380910845045914881 1.25776587729759592449 -0.36122840386073434837 -1.04263119835955575532 -2.07792699159250116026 -0.00280387056254356552 -1.22668568586268800225 0.63265528724411668193 0.39194999846651890074 0.92206397816564389380 1.56251545410431735839 -0.18889342555506405397 -1.76364578023225893055 -0.90523604682044833680 -1.28919274183513277166 -0.73841294801502010969 0.24591956520175506373 0.87221768395591126044 -1.51155589100281839698 -0.07283644457867123612 -0.30213449368559558428 -0.59573911007979574173 0.77997405722911239412 1.01512005570895547102 -0.37945105553911395724 -0.26173514441818479526 1.24317282963921615924 0.51535994199982648745 -0.34744429176940605508 0.50452673180720641888 0.60610114083382049532 -0.04812670825717308559 -1.05935706752505143236 1.26270089391374318311 -0.23323603569754089437 -0.52650929711719074433 -1.62268531186034148384 0.22321690563920995598 -0.46821624312369009013 1.29264292917308543096 0.33846123662087945760 0.32428879817708733402 -0.90386983001878928867 0.50799101699680870858 -0.19634590771662294162 2.24737485507419432196 1.59852223927560999073 -0.48439168696169931927 -0.66205651342103166712 1.66367923797304828604 -1.94464036452388944198 -0.79455460724302306996 -1.31508234019883341048 0.30341560082276947119 1.58038561476280281504 1.06849078742958258914 0.96179243598176800134 -1.04255355960049511665 0.67241504720669520445 -1.64715609786008831961 0.90452930322257951712 -0.77600663018032278728 1.29194196524120408220 -0.19723506682458502581 -0.13977373224643555027 0.32932390888964446773 -0.00121866195214579060 -0.78425793697850387787 -0.45485625801059953455 0.69704997785308087099 -0.64653618052541117489 -0.39088048331674207780 0.10988658128909002676 -0.59053722707411848702 -0.85379982663550735289 1.81569573025207464667 0.80306008021782349093 1.21851425842777927322 -0.76576339142394145298 -0.29911696543388899272 1.36084673829840707704 0.07039835128280982901 0.58663189473020072029 -1.81287270445521975226 0.47671884396926972327 -0.72749156449716134709 -0.41843658225566399134 1.36910500097621468107 -1.19467850323714697147 0.56609613402823166783 0.19375114239702423413 0.93373269709588391230 1.32086082959727613151 -1.33112306429719562395 -1.90327123338760006988 1.39686959198438542806 -0.78869287100055984752 -0.91090482783339321582 0.29614238317154895075 0.74836550555835412712 -0.31095510541032594931 -1.31324256115370663345 -0.22575119652838526729 -2.01215075525142506052 0.51617178656051176944 -0.09948101515108342952 2.11079166253686834054 0.51102115586391771984 1.64114425624275095394 2.98447955394769159909 1.99350198966674718726 1.18087453170082135046 -0.62018693021310422608 -1.53401081139499972927 0.95860930801667043610 0.94067759094590686075 1.73464353757235656417 -0.45347263712319058060 -0.72404889992652343711 -0.20670917478589817540 -1.49285864453210836977 0.07732797558972857865 -0.82913449065749433853 -1.25870700603450025312 0.39639402605707202421 1.53029565077475693258 0.18690574894495687319 -2.42350026940471074965 -0.92445225368063321802 0.33607685716766061423 0.33499055078393036311 -1.13513586379218489597 -0.18740456160554927467
1.46089935120482450337 2.31473355889026688459 0.27292180259425219413 -0.46625316088095791756 2.18199669643010096820 -0.27903553376785339424 0.15315082264068874407 -1.17117189861344250801 1.55880740551747898337 3.32770750235552315033 0.73389752147977482810 -0.43755311634987820169 -0.68565024024793019830 -1.94836104212117344758 0.79268148293201579069 0.37187033251111667465 0.34213069698835951726 1.60004361978677467349 0.39272224508935554832 -0.65158485991968306816 -0.47024474818372591356 -0.27648439723812395785 -0.55089873731712979410 0.50375705063387354876 -0.89030634616351700394 0.75537667923017126625 -0.59524277987910567678 -1.16199440230254524842 -1.29401223510767016123 -0.47423995078828745653 0.09360925533864083992 -0.72392639802750979872 0.77219190953517624632 -1.25729863522392992792 -1.18232926679328365083 1.17285752831419198827 0.77916761445114279816 0.82520463926658882414 2.06588672975925868869 -0.09564994184136337008 1.70071538442841108107 0.86280241493966858268 -0.00616689607012417713 -1.21147407425825326399 -0.68771533802208906216 -0.13131972230838115379 -0.21610809510255032939 0.44213249723332814778 0.68828711848565338194 0.09359620815818721351 0.59639705332470571708 -0.70794993448811460723 2.07526598792591032705 1.73699918587800916647 -1.09135022720951435637 -0.55569464729331674580 1.97761047001952428026 0.31432070510013909725 0.35704515710121964567 1.18704614397100494116 -1.34167438274463379777 0.14237994499631470569 -0.78109300156392802439 0.85103304297518622690 0.68165820712972502449 -0.21737174033885708901 -2.02970610481253510571 -0.36466259952194957084 -0.46483106894259268449 0.03875562588407747283 -0.82222355500457844357 0.49401980013670127034 0.86725375921161085291 0.27108273980773656131 -0.16794330578310504021 0.24194652908289723814 1.03030449716427474627 0.07003987735935277015 -0.48013328794651688458 -1.62725470561973573069 -1.23318178771191355736 0.77091990447443969892 -2.18332848741125395975 0.23501714383650504359 -0.08544872255310995146 -0.94149758706538322350 0.25467430196274526422 -0.18180648404435920118 -1.60639449226230435208 0.33529759523033469959 1.33964979452864896281 0.56444472561464409388 1.50151810762320625514 0.78371363143533245843 -1.45566280567144223923 1.07560828891148108077 0.18606761146496719750 -0.49541240708919653812 -0.44330646862939010466 1.40041800071132005456 -1.11610457324176737259 -1.38403589233871215924 0.67670486163495380261 -1.33340649210738648733 1.03000503391561304412 -1.62731021836792932866 -0.11578002125969109881 0.36077123253210957587 1.30972729420464029104 0.14599990675672291918 0.92656797014856662198 -1.27118931495256437536 0.68633301988349515455 0.85460015777150000194 1.45174603285690695387 1.16868087218573601938 1.23980910107389408203 -0.01972923216427890231 -0.66970575551997002517 0.12040609719131876998 0.15532266986556769739 1.30328802386373676647 0.62760845677325882708 0.05595443144020140896 -0.87605805462264874084 -1.13585095499910737615 1.66088355186641334349 0.83085950353376525346 -0.74159439186346465256 0.12303473937450572218 -0.76639595690223860647 1.11751727854788929228 -0.04350198880583650007 -1.01475360326115815468 0.08815224912942504210 -0.15299246969485547076 0.14598217207579647359 -1.61798178180927143543 -0.41911245689807269388 -1.32082073038622183070 -0.92979784991801051053 -0.49246043319506604963 0.43719740865943118591 -0.43448332403105105470 -1.42611151574758765470 -0.59549604253443944035 0.93340124922916245520 -1.02000635486716562106 -0.45004838408088887469 -0.08461854486524310326
1.96314947039169429566 -1.35446044295599121732 0.07087528795070971444 -0.11528000739034667543 0.32530543552483037750 0.47107724680385520966 -1.80851088667229742413 0.29205461479307376349 -0.41398866776646264798 -0.93901487677390349518 0.10489646894149456946 0.34041547024055640591 0.69415230989765364100 -1.01243076204324466971 1.54994087867116370205 -0.95486519160882221691 0.43503673507161222389 -1.37354986401527168205 0.18571928044608929098 -0.34436558612745316044 0.76583376601275987561 -0.68051776898533000715 0.72745804276001291289 0.55553560730901108133 0.93977781443486729795 0.20718268265315017973 3.29634877481489629858 0.92792630125957853426 0.26591748799375264367 1.62288957646624898423 -0.11449949787718435856 0.62441068342488703635 1.39255464986601884547 -1.63429040216390997209 -1.01429708969576393152 1.44710058997233703693 0.91495402170403361541 -0.98845032993990733505 1.00326080156535635268 -1.13765958638587738605 1.83260694399415680067 1.16918569418294859830 -0.15376578613255065253 0.48788175769652963876 0.45083149681385409346 1.13435675237228461576 0.78108060195274664483 -0.92142675631626957955 1.16277219947330689998 0.02037022486290058013 0.46591957301086833754 -0.66489162792355105402 2.46143637583820673598 -0.36601360707833491270 0.13847950251831381285 -0.58464596210864749892 1.35652182410911659183 0.97349357604881348038 -2.23823290703797450618 -0.99595151490866651312 0.59377378980296058320 -0.84486675700017788149 0.46295518475448527163 1.48558080911289458470 -0.38380361034436821788 0.64089167918623612952 -1.64053035819537207374 1.03912657595310187197 -0.61310127427253813259 -2.38380445701971988015 1.16343097114647986423 -0.54721742927982530702 -0.91755898463100538098 0.85708007984484535502 -1.13700529836562935770 0.06301230789204027849 0.91955526839803636285 -0.64478851501567802096 -0.39185995362676417919 -2.14811258155591211505 -0.93791480631496071396 -0.02652641945512948518 0.92332463563503108794 -1.62945114409694569169 -1.77889823447270134515 -1.16526588373087958139 -1.39195675551848774276 -1.58217445232649467357 -0.14383836786402076635 -0.30157842688406538700 -0.42613731050275188705 0.84829509475582320910 -0.15731124387467190773 0.06612723635442735448 -0.18799712291833076128 -1.20151095772102456394 -2.33077638943715559350 -1.15212626720280342241 -0.89955428276426852019 0.70054586440571398054 0.36817541251709312577 -0.17921053966392980206 -1.10410486003137786604 -0.41978126006233967837 0.74259317751590558920 -0.51793929875750688296 -2.64285156915288066415 2.34967455498593080776 0.16006184732390868475 -0.20564087112798284940 0.74127652459441972788 -0.49736072874966075208 0.50882433342195965142 0.49830510456165394428 0.13301823604587431626 1.27141119173585059876 1.16754111062314391845 0.40742529968601814971 -0.37182713157679780913 1.03761354274155048749 -0.73739733325282708076 1.89651791443403383575 0.12107073959891703763 -0.18558770641136781987 1.15287694242547478218 0.79099626593976668509 -0.68914472087276323897 0.89142687037209256129 -0.68341159966310416340 -0.45091660739437955385 0.52536693797591726973 0.22727320765292172156 -1.86376168099181160898 0.68718088595474824398 -0.13152955251070952425 2.15609023480754080637 -0.76576982071467047941 -2.34909662493817661399 1.03571597695024797403 1.11155747295470463953 -0.98952814266681077271 -0.76496881613404932310 -0.66703600051990297182 1.24822840188587558252 -0.87667477143167094056 0.92193976451516690407 -1.06328126873780437478 2.20416271728394308482 1.17441823461754557556 0.37568758274530089647
-0.07469581218807892775 -3.18796847637095703831 -0.12580667230609376972 0.96564882775191240860 0.90557322647859783693 0.28110483268871788720 -1.93393952487720288680 1.81105482253481242516 0.81982869307464945052 -0.16948037505382351764 0.04448304053281569581 0.56537387900532043439 -0.19886729666195018806 -1.12354248972634529480 -0.76898445000803605787 0.19154550945262846517 1.11096159458997600922 -1.83608369896819745293 -1.71397264221867806633 0.29674357582289234703 -0.98894435348135689701 2.25516959272607886433 0.91173177858541654128 -1.83010654121329774391 -0.23570734064888024251 -0.81592745538472988276 0.27030726164050461469 -0.07942833745339898666 -1.75085778635312672158 0.59314230762970787669 2.46267503347691807392 -1.03606963966691179024 1.12404095053854402586 0.92057660129528462445 0.11220014171709215278 0.22508607284225048972 -0.55077836743901398275 1.17700360208275545126 0.44242917286183119918 0.90683048601611893069 -0.18863146964248747595 -0.32648843583849374017 -1.54926047392087151700 -0.95272752701800544894 -0.61112263901103192065 -1.56360948434641455762 1.38668201140359514945 1.09237529332172522700 -0.07097308904714845490 -0.95088174070270581328 1.01570234764862510346 0.30183848010915786952 1.72325639551772713531 2.38359285393218822691 -0.59287993076658807023 -0.71477969233359683887 1.32235825617992897030 -0.25139019431154013828 -0.72093198533121771732 -1.83469249523496480414 -1.56522463049128490731 0.12759270076325709975 -0.96958015602583114134 -1.04990948910390646809 -0.56473460884105797231 -1.63963934085066864732 1.36059141357870805322 -0.33812966619694467818 -0.02767560057420572969 -0.29870857468599465445 0.55022392064659075839 -1.65568916017126799289 0.68728600958237129337 -2.26819804272333680473 -0.68308341129588046048 0.49235542234487839064 1.24005859125131667753 0.74261621612400219306 -0.87567631496912456956 -2.14271318814781963624 -0.91271811606987074406 -0.48954945417655287843 -0.01508638077596341324 0.57121162368248623586 -0.04176949164415590804 -0.27140422863943475251 -0.52905409629765121071 0.18079583256911443967 -0.82046768736426212154 1.85135067577727663313 -0.16598622270114854471 -2.44118970774514343347 1.20878382499463543631 0.00377816496763476320 1.45228786729865833038 0.35794335845476765723 -2.52428974924000915081 -0.18087029050796912810 1.17089287200182901039 1.26256278013378508973 -0.57093419321159832869 1.47302384573254663280 0.42238371703959681769 1.11790108234457052916 1.04454582167919407532 -0.13834211239308705221 -2.61900811215674966803 2.55469560787303473504 1.26642154697274889052 0.15263089422896986003 0.44178034643835800699 1.17374098050266684190 1.91826134241560319893 -1.20042004924238421282 -1.99214025977249531429 -0.59679028273148015948 -0.82472279320779073863 0.30117432040378178115 0.09501035488836526155 2.05442363922736470627 -0.00221951720662621858 -0.26045622552858604948 1.01582260824716952285 0.24400093283148210910 -1.67520986827743945113 -1.50938487786980091165 -0.15868738892058933954 -0.43513774570742058678 -1.01867660056626774256 -0.86797988665560554811 1.50722471673317004459 -0.81460975598207430171 0.16771036215373430478 -0.96240827375965531942 -0.30714339439258425690 -0.24741595344231534503 -0.94704788844624865352 1.11913292785082885139 0.60742640839904238348 0.50663876916476335843 0.41596604065541259443 1.28114985552347682152 1.23185761499220802762 0.44664200937240766676 0.05779156704658885979 -2.58572723135760096369 1.14248380372452951192 -2.62784007292717447513 1.10621291503953100843 0.16942297645036730191
-0.31694740059547504840 0.35928627399663531916 1.05241604783912490184 1.73401167942148815015 1.64409338469817689621 0.53679368898935253540 1.20378392958816071712 0.53672535529505549512 -0.08900139530404618804 0.75528859507631462833 -0.39654989756821579228 0.43189614627048733553 -0.60471740533750784063 0.37167432739932049213 -0.12027886396844653105 0.23148782180439053668 -1.92912072814193624737 -0.14238684387583133706 -0.80729894103393950999 -1.56545566476799113964 -2.30455851911240117147 0.40181686287022883031 1.66810859388978549589 -0.71220998987049477513 0.09901206911824066148 0.73579926060427058854 0.70659932059373931068 0.86229590036995029667 0.41399865195447044242 -0.00163637776966900589 -1.16976511737533650503 -1.33863342442874544425 1.92164452414363529087 0.32528642405477875554 0.25380274487114495852 0.11553375042774959025 -0.05131948986518291428 -0.49127016487181301985 1.21183895434608723818 0.08811522464766667617 0.84262029609233757288 -1.34397239958992886777 0.25178894786433414499 1.31603308062350166097 0.29337908129607487284 0.68478822292220464796 -2.08340578038455204180 -0.08703634969183776660 -1.01417437636693996694 0.66797468357238520831 0.94291478969387976239 -0.33814722575493705303 0.23007845029516793556 -1.21860618739889958739 0.75473221522232303293 2.30956867025143708361 0.11626180597053857591 -0.49944256121925140190 -0.81155859744577130144 -0.84792715356524650527 -0.36363436518050162860 -1.15250338955541131725 0.74176215766376429883 1.52387356389571237969 0.86470913556672146516 0.41900823970985395794 -0.74096349846845643849 0.12951293755439263755 -1.09853705887966257571 -0.67498760244068922720 -0.39121636814370014390 0.38890903302969836997 0.86147086594497068734 0.48480707382915727566 0.68255941913804285548 -1.11634253792492121882 0.87276687938658348287 0.56188814620495508567 1.97875338420083091151 0.08063296866041989863 0.79578376343589485309 -0.01738259709607594544 0.32352418478883337993 -0.71107954205982726315 -0.19454655447599700224 -0.65153624018697486875 0.30286495539279856271 0.61214507620018510092 -1.26454074599859134231 -0.04775745187652517126 0.63944265774513675549 0.35314783035947927559 -0.92098147382377137937 0.70967052533475571963 -1.54633729976565681419 0.47012506499674439064 -1.58638958999952928153 0.62760710175172573777 -0.91158166530360418278 -0.49407598485304299318 -0.52803294299469483164 -0.75939863020165310203 -0.93121739075030307564 -2.17406532991078282890 0.41574221126988331054 0.84311708347150293719 0.57076799444316228538 0.05772808614753161677 -0.54109262557669912663 -0.89182608505417704237 -0.68118759585036281479 -0.39464079479868685585 0.24590017390073865000 -0.61926570919268242310 -2.03015873097485277654 -1.00082013447309803311 -0.14813813605082343239 -1.74502526092733578622 1.12438458887623249360 -0.28077769708672689619 -1.47013882376993532120 0.08247786010364395459 -0.99231181378571486906 0.71082599413752589612 0.39410852410635377474 -0.28064608609798169514 1.54509760243196425655 -0.51106286118304411481 0.96226963770776541285 1.33783771581938015771 0.52942671232049720587 -1.03160832319377915312 0.47256352608514518021 -0.14791840131364508704 -0.42406105116090292428 1.38340749810677676734 -0.38369684875687776193 2.27014339867397296757 -1.06659594418910530500 2.71033563443700753481 -0.00380848644399403797 -0.65005435553692836326 1.02508955126383072276 -0.04381226295424717199 0.91932913565320961702 1.21854024992735388011 2.32495980201686203159 -0.98537056286131452509 -0.96310824536827543962 1.09486293178286553385
0.02673848857917500085 0.82887235034543083056 1.28276023842997632940 -0.30816232442470115060 -0.15840308648567513750 -0.14064993683434973137 -0.33442100905121568966 -0.14758292770840517050 0.94433930432231760754 0.30973741361071888134 -1.51024869827355456842 -2.12203770331270380467 -0.85103564763804917526 1.30925471422882888639 0.07132581637370356831 -0.99949011817526678403 -0.21764968290954092578 0.56465245957387311115 1.67786793280053858624 0.80277424714606959721 0.79261990739781040816 -2.15756416466127598497 -3.12688698500875972286 -1.24464615196537065067 -0.72956020808450583459 0.28487407470319575653 -0.14310031148263341327 -1.19890944876973204458 1.80372134169309883411 0.79863921084874234246 1.02186690252167378112 0.70772728968034603891 -0.25920699580605133239 0.02699167743548467127 -0.17769945529468589296 2.47479816858271028934 -0.63794213962541623797 -1.15934927358221551152 0.56775958109824853359 0.33129360441804311943 0.96639296916500183610 2.04892598826169836101 -2.10655901345948048942 -0.58788990242172145528 0.45342815753992271599 -0.81624603524684269384 -1.40034308885841340953 1.15811087777808996435 -1.47551869081230391245 -1.89568292527771764533 -1.32054707179442365472 2.17563184698848566256 0.55172501551957564558 -0.43264569970554495049 0.67173867907260775834 -0.40866461629809874845 -0.09137928336934020290 -0.70670356304503667566 1.67776117685001979751 -1.38858651380159447974 1.31483536427999458951 0.75896082265068953721 -0.72480315136252759789 1.07862767216925270475 0.38632266158491496144 -1.33571876296793257133 -0.28449854346922598403 1.87288281009166701629 -1.21658907179118047637 0.88532856538872828356 1.24798873743400418057 0.05710627479626459446 -0.30926202932852359107 0.74868366838580335809 -0.80301663227784292332 1.34034759604339526184 -0.41478837202870327827 0.96126463222324465274 1.89473594012465373915 -0.52672933294523105463 -1.76198748208543243265 0.62280059283535382786 0.98945906995733334810 -0.86147181031552733099 0.27710969969214188646 -0.41102842934646927064 0.04063441271468037908 -0.77576808551197762309 -0.57726393826476130045 -1.00149245533106667772 -0.83005594112204250656 2.23695196777552807177 -0.87089556865374784245 -1.01318031831737442872 -1.99138047266377249400 -1.41092163344020171678 -0.07020772266108475657 -0.65824316979288655105 -0.67038730773357080306 0.01349572184393722611 -1.66918877306449164877 -0.74398922442633919072 -0.42223658564613930633 0.15390208535628263631 1.16931918303561954708 -0.41847162809790222626 0.93961633815335476871 0.43146831252919165545 -1.63983010762904024560 -1.45945456077622282010 -0.74486071282496124635 0.28404430843279737662 -0.93636225829302421886 0.00127907529035375662 -0.46068491602072969560 -0.68448882506765862388 0.38732102530896078685 1.16037242490347636270 0.55872215069571284918 -0.34953547198041784450 0.60575985249673791611 -1.37286243373651628552 -0.22978607833755229639 0.12551896323438488379 -1.28989075174255285461 2.15756330310229715863 1.51622286807786377238 0.45493440819121017116 -1.96734800076185067930 0.60397963324977921307 -1.20000674445266541923 1.64046235544873653112 -0.24657137154753860919 0.21486113498338410555 0.18396005731092149316 -0.14335944758506269370 -1.00043566138130257670 -0.32876870879236802514 1.35137757628697285917 0.29057435673072884441 0.99662077237312374223 -0.57940478660466288030 -0.66797563395447323575 -0.07567470957831151646 1.72368405883132358447 0.29276641540421138865 -0.77035200528295533218 -0.79151542443295974660 -0.03686021911376807098 1.87962516605412877091
0.10667498290296613395 -1.05289914999387335115 -1.79578411649199343181 -1.98202907933062633106 -1.65904192438553343969 -0.68219571978706960991 0.34166285169152976753 0.18599325336125960284 1.33117679422154222557 -2.67045432862162801513 -0.70116667122727549533 -1.38238781127811827254 0.50221619260299343868 0.99091025438076751897 -0.67738670049777283122 -0.20098677869845699151 0.21622889836318387458 0.78978145108707176192 -0.52297449445024601911 -0.71017405596350180463 1.24707825795029769722 1.63539957332295582404 0.62181815500201231828 0.32753581298215334039 0.55892940456968587259 0.99673371304368418855 0.02499282088478494909 1.96527041450964867764 -0.79582813019954468103 -0.62878046988321445454 -0.55584836672307025296 -0.76843647713361928897 -0.04786320584144548168 1.63614803138884745692 0.41957547736814643224 2.32596921719932447914 0.56134462032794685271 0.42625852175797424026 0.64603841937937434015 -0.55317897145688199600 -0.00047800529687105079 -0.83958399268166838958 0.24221543528712802251 -0.53306941350285153014 0.96710840822399202210 -0.35298913124489456061 0.92796899066661786559 0.91377614691407949010 0.85797732557532169206 -1.92271898672506669214 -2.07344799274734192807 1.66542409597334861715 -0.22340106937286613453 -0.23664658331425600379 -0.44282240902620578771 -0.73153364901035355938 0.09345506274895154508 -0.03440365867994343158 1.33735182955174458641 -0.86215458023120927766 -1.14057638695089713643 0.16012844524834854432 -0.24151614573415383647 -0.02526869274174352656 2.66630549623198653819 0.62468488452601911298 -1.13584591873113116556 -0.24649786382540572749 0.57557294689102189711 -1.58386283273072603350 -0.24188952378662437193 -2.02257698562641907714 1.19531685637600637584 -1.09915554472243837125 1.84352391253142999794 1.97397681694474802505 -1.08483963542320305251 0.20842881509213262436 -0.96445757790010155919 1.10088916173879014515 -0.57286646815179165237 -1.70165829696994985731 -1.36367291560299497277 -0.72615293678947001599 -0.15046441499333623737 -1.53352577018145108667 0.72037980309406657309 -0.56648633344253851440 1.73372894242891462113 0.22770379039289295742 0.37803721880873197847 -2.41198372332999388945 0.68242252855326401839 0.72346136418213413677 -1.12486819654974468108 -0.63185734324455322675 -0.59523501213473384297 -0.18559407042944048305 0.39395384562384572202 2.34325992525295134783 0.16066580314645212413 0.04071217530115447958 -0.35113450190577638610 -0.04314452329757530180 -0.67450833397111209511 0.45454171910184781868 0.42338104994481262633 -1.09619578879249846004 0.18736589439358902753 0.68507075645207360370 0.61930332738309845642 -0.40131365036891963882 1.32859055308453810618 0.87484576565016192173 0.16417627651642482944 0.42709372490933700250 0.27589430036882284236 0.98948780564910976398 -0.54707073621693425025 0.72943771106169730256 0.68679329353848284079 -1.69577499592092428848 1.72149441828295524104 0.49943519150980025811 -2.04562618277058616556 -1.10182708252527206128 -1.94392218133233085631 -2.06040984203597110636 -0.03417971976537168000 -0.14802681969489098202 -0.08756293306684541367 -0.99406631941899536997 -0.30865063148386784331 -0.37296562759365420314 -0.15132319714727715532 0.37755933847005096471 0.16870167159747095909 0.27556799405289550409 0.00695723282353183977 -0.22583139369780766414 0.04608326230862722084 -0.46381408949546709675 -0.75884044681176432423 0.80005085841032674843 0.41632090368416468928 -0.30399019676633814990 0.10308337890867451392 -0.08298417469592202222 1.52922862917521551473 -1.37896974464483079714
-0.35823401341528399167 0.50067561889124956309 -0.13839637784574559953 -0.51113731389290462115 0.95102976325789234657 -0.24030894737242758374 -0.11503079459676193719 0.94319892849762321241 -1.93948724639925362823 1.09066336268146968358 -0.14303704719218032770 0.22265249951459573086 -1.46009055145096500183 -1.39186136079927491593 -0.57120184404856688687 0.69212143920127500163 0.91281456188921583639 -1.09962361662591767697 -0.83952646923923612832 1.36323735941066215283 1.27439304805617870109 0.24869261832168915172 -0.66917883037846370708 -0.55436075929586359212 -0.66036393897794931629 0.62099890535518043055 0.57814610303642632871 1.21120078865380853550 1.84809265349200990691 0.37555125880399964355 1.35751105844625730157 -0.59256618338891764441 -0.26543121407997022354 0.65690204731174706154 -1.12286416687242796009 -1.14690829241488279067 0.52497342636441213237 -0.16279334523930236167 0.26897631471269795034 0.18924743818418615637 -0.53417325815123506416 0.90744575815008665653 -0.22107974894641674313 -0.89177218515486511574 1.27771926899173626779 -0.60104246644994596682 0.54035939333592164502 0.22840366897931771439 -0.37111762454426194813 0.02093704899999023969 -0.52892749044568421191 1.27559268559513250274 -0.62977094807571976087 -0.04936180784527342824 -1.63448726509751640634 -0.04656125713824676299 -0.37980388896196426440 0.45849070721017126662 -1.68605376900718750832 -0.69372744819245391046 -0.50109193147514730082 -0.47277131553981893708 -1.15312305473568210701 1.48271230455801750203 -1.41024811058889221194 1.09389842670804560143 -0.40184563153804020441 -1.24692270366021595862 -0.53733836145478497404 -0.34914523050749834976 3.33606325992913443912 0.65921598881070886389 0.13016792631428009130 0.44883449579174061750 1.01159370098230838586 -0.08538299564124510188 1.27141719236179873143 -0.30870108336578555575 1.58012085740655949806 -1.25898358185504544160 -0.70878074820549252788 0.98886052583439953967 1.46953344435291222148 1.03739273588195857201 0.08648682450498160201 0.11591955876298486172 0.33563623534576386698 0.26979235998400158403 0.72040856705113487379 -1.42374438438053863010 0.56405118398711273642 1.52364320858093571509 0.12516770176379693469 0.28128360349160969056 0.95013741721033484477 0.31921181874527371214 -1.46986526010680407239 0.11278657598564133246 0.24814887360191989485 0.22382210246709383084 2.30897504045061285893 -0.93638029559584945449 -0.83090989711945306695 -0.43239139696138184643 0.11379946542784270813 0.51697488495469157144 -0.12387376763868696017 0.13362442269934887706 -0.48311146603181898129 -0.83420841246437471561 0.83336447768652244239 -0.18035835058959276411 -0.88540206749361638483 -0.34446403117617929723 -0.88866678514281793877 -1.74127419444072240040 -0.13053224634268953408 0.77991627173593458533 1.16787862884705107014 1.30963713583937679807 -1.69992250029764457864 -0.20488357607541862748 0.96511673237733774933 0.68632426285774106312 0.55404168762409644611 0.23404447545142437193 -0.10764158964811541830 -0.50305152221279891833 -0.32052699713750343324 0.67139075786299051707 0.13696640600762424733 -0.12338352675838126782 -2.21897643784919162968 0.18854062508385616148 0.97503470502878863968 0.06227116866080401741 -0.10908481848910304979 0.38595130545506117770 4.65853377596010354011 -0.96043547885698177247 0.76544875846326199120 0.33329612911793660146 -0.63708377617431199980 0.39398120729675317753 -0.18431945165206320425 1.22455134691093148191 -0.61244708110955958791 -0.68871704893197394082 0.31126143546051460165 -0.45154056258232511123
-1.06888511211697045944 0.84022923590386111581 -0.23618364042888251308 -0.24416710700163271608 -1.74458594187558801991 1.17531153966885182349 -0.36724221144755980761 -0.23353141075125602444 -0.56577521194714408548 0.65762676771126959974 -1.82181848657372236211 -1.19141879549850160380 1.35043099460211246665 -0.06146225379495796198 0.74360981991757713061 2.21338715824509657537 -0.40471089372672824913 0.07572506751797553060 0.35642056449919107264 -2.52855985057446641662 -1.77715388664437723421 1.77790679390068073751 0.55838614050222779017 -0.84670315076429636392 1.07617447034241076054 0.59078093138545406671 1.03451408542746836616 -0.39330722810150159363 0.44195220723755185288 0.16630968969216550213 -2.22823690309670752185 1.48040749893030354478 -1.10957257019790245245 1.07663150450985356521 -1.61132657192165784643 0.40302809974205577870 -0.10928624734861315526 -0.05676115022247311959 -0.61964967753946487150 -0.48418898509648700124 0.96601072868935466964 -1.92036522281015664682 1.61566603832409572128 1.32178250102048600034 -1.76266489543864457445 1.22742916139700986022 1.27457072262371040594 0.65133798909228912688 -0.89821029495333037929 -0.30139854687663131250 -0.02874743414309658893 -0.97853292934151947513 -1.09157509635229432732 0.50628607707370298918 -0.35131468225752288115 0.02550118139938668468 -1.86071498696330239753 -0.45862161755572788957 -0.42434348336117666545 0.61654076781039446331 2.36946284443481935966 0.48618702354286325029 -1.21258649942415241973 -0.03447359380781490207 -1.49017977884105623509 -0.65518122717403404209 -1.20610529096133034521 -0.69744111148962240065 0.19780668253865857364 -1.01668656361757592244 0.38606718402698619874 -0.58741811465423487970 -1.02576084016420954192 -1.24226493401885140777 1.93132286209951131717 1.24106510963929772551 -2.24401233554354639921 -0.31908921037689169653 1.08089661936196868020 0.20471769495272870709 1.12098969492341415943 -0.72821834930717221912 -1.71893733366903922466 -0.12336668769302494564 0.74711206944994723589 -1.84748223551611201465 -0.69125631790422303879 -0.83670683429093728467 -1.32244718001946437447 1.08096172564760695245 -1.33879965960366287270 0.33197418474797701915 0.86816539109288981546 -1.58159045032301159850 -0.34376618636715661204 1.17680455251382132253 0.66185704931076949631 0.75972240776299770904 0.56781807116037863459 0.65851322179076687835 0.03421458268679661990 0.62535417323142172830 -0.09092578492012032276 0.58802258398964801778 -0.02719304843285365661 -0.78312858088691028602 -0.42629058137863840017 -0.86885937912281596684 -1.18447737309816125695 0.33092132560052328616 0.47020229402200219848 0.19284008161149857052 0.28470387605445529600 0.45077274285418372779 0.72962906790234771659 1.54441011455135690511 -1.82604865319076359320 0.47663994755430555417 -0.25964554262234651461 -0.25491315018047072671 0.71890984910886734927 -0.61178757675395778470 1.29867436931695712232 -1.48945271793746503164 0.78693448755659767269 -0.90233621384655393616 0.31901788857902879659 0.54177963278933449764 -0.28154004018802430975 0.29789380983857821628 -0.58159580453029413594 -0.65041903609888851445 -1.25924091007212646254 1.29934242864338456158 0.50056583245721386621 -0.26902088860769773904 -0.41307584653448625733 -0.54291896329781874631 0.05944818587523579417 -0.50006690732819925049 -0.98562353435272354041 -0.62700573841130535779 -0.25185915789923701835 -1.65278327374256250870 -0.14926044750507400094 -0.10166665177244461893 0.77865390478184304257 1.26455206098111583302 -0.29783839772895753795 -0.69510205649353196122
1.88339652187415085294 -0.58421458544816540215 -0.45911383978436648423 0.12829589271471367184 -0.46919020555478790913 0.44438490905621391702 0.23474609534980586667 -1.03487200565220582860 0.84734555925513088681 -1.24519171203318346208 -1.02741633068741222701 -0.91105881777097807994 -0.33885554641921400432 1.99354799682610561717 1.59071646905812369432 1.20473169054382522880 0.64004451201635115254 0.46238860605246034918 0.18058357895059062859 -0.70950193625957169719 1.68749978941359657370 1.83090557236138384845 -1.07617165572786310790 -1.25120380434736477859 -0.91916970493336191961 -1.01591794216980302323 -1.51395688126148186825 0.90691657107737833066 -0.51186851597502447397 -0.25229009875288915810 0.29251985535800872906 -0.60733114533822341041 -0.23162146015108783792 -1.58115349671113403218 1.27119304066504179573 1.61749411142336452230 1.02165971135393252034 0.98688451896347961778 0.90103707863859872074 -0.66470115523302431004 0.74451306497837366205 1.76324530123146194782 0.26389437204991617048 -0.37288508882248388998 -0.24050145373994349929 0.48250402846234763388 -0.22846503921007163540 0.58692599246808840885 -1.27195155957403160940 1.25804147272173105776 -1.62823121293211570126 1.49500352909497635778 0.29859037260469373232 -1.82588957044100763660 -0.50213049613106852664 0.82806836416564533199 -0.24478899298965756115 1.45211569872457202379 1.40568637567997090088 -1.19469803977547206486 0.28319233616712985446 0.87403126841364175981 0.00435417999341135113 0.97912929289799144339 -0.66341522780401052106 2.12911417227497645754 0.86012439441132060303 1.23747718461151912095 -0.79911336301391744374 -1.37258594304872727498 3.11032222187810791780 -1.19742970084271860287 -0.10929777398965277724 -0.80015892804228827551 -0.55996124398776603304 -1.23685093416221181251 -1.02497657493162996900 -0.57069935289464868156 0.25541551282745844631 -0.05334762676121904829 -0.94752034210946201043 0.51385338327644325407 0.90720696486537322212 -0.30895502216048398303 0.28404832812180719204 0.84676820411810804767 0.51351457125960520145 -0.68553091310071512243 -0.81681238094880259659 0.19128333454762927457 -0.61797067224408563924 1.00469906270040887364 0.02314060428268896463 -1.54474239726750051105 -1.79470245845252751593 0.36880888697059838188 -2.45913000801640579951 0.20641745146904016961 0.32318730596604516858 -1.04790201405228033948 2.28496445813645943090 -0.18453587185820632954 -0.62311474456815196810 -0.02694650524908417596 0.93789472700301512731 2.37484680724307928301 -1.31631354163833536042 0.82437391724302266915 0.87577092480295637422 1.47183561218815572857 -0.26584037081140365899 -1.36558581579866844535 1.06035527760696468569 -0.64691005646253552097 -1.73103951044962456329 0.59933823354203541456 -0.29635737814062557138 0.94703576796159505413 0.70198914158622049975 0.42457773247905628011 -0.47751181535033776493 -0.48885178538225004807 1.43874465240044102643 -0.43844238751842429247 -0.92687017204723876063 -0.64268568771012946073 0.16798101216208130571 0.46106618717093073023 -0.89624987992828264449 0.58054903292288073668 -1.37451408673635233626 1.20513828131464650895 0.64840149663090806964 0.40202331124362927772 -0.74594124120003024725 -0.17971911041636703943 1.03373501540489787232 -0.55636606819007972113 0.71725320653398472182 -0.53966910697698078359 1.30283015489917497476 0.75014028762902884573 -0.89029282847385249333 -0.25905849877812492377 0.03246496237659646233 -0.17081304153888141051 -0.92549144863347543311 -0.47592065412201489671 0.01258948300011449202 0.48877075275254994180
1.58447052576011149227 -0.16782271924592889745 -0.66697167014111091721 -1.35480696628830421524 -0.29915460366065149689 -0.25814176405485772525 -0.09007058478906453114 0.34108655295067780155 -1.08185737907014245529 0.62490650040051631819 1.17177964082666763446 2.01167152561918882725 0.01879474663624255623 -0.05566511313948880463 -0.02316105631500752632 0.53685411630212320766 1.34767784176086702352 2.26645567200284947518 0.75459168708087309696 2.01339629694406596627 0.13163736015792282252 1.09575078407307380246 -1.03736581061338961618 1.10392030770019355934 -0.63167599990425526979 -1.61805257820790293621 0.06842203895353898835 1.01932659519345003574 -2.12695816296232687037 -0.62548175593198140909 0.66613306561145979590 -0.90330544523133982082 1.75681383223399700810 -0.36904946594653259551 1.53078044838779647741 -0.31536863585371460728 -0.49293994535100105203 -0.66523292702929082143 0.54832771656985990205 1.84486306723300175214 -1.44596268884854617376 0.43835643865731183100 1.22892132813942800418 0.02292261989797545613 0.82638003719325714425 0.16393145236129191833 0.36952945841743778388 2.36938731672509694803 -1.68415899725994644420 -0.14561991789299988387 -0.34055237278598271544 0.70872258869947757365 -0.70274686554124021765 2.19181985743354657004 -0.63888700180763791092 -0.06362495035063858717 -1.66519228075801728473 -0.75291748476843711746 0.20002916859404767935 -0.80511283120068333208 -0.03089257714616526138 -2.41430751508364016544 -0.61071193946007962250 -0.20130569814664261985 0.03676724770034332096 -1.51610323495481846834 1.44101842591275230987 -0.03986717768339595458 -1.05508816907101632410 0.05654173988305898763 -0.32672944928343117255 0.03164870950700778007 -1.38566223748519012915 0.47132430235856792589 -2.17995780830403829142 0.81782017895885383840 1.69327153906285654550 -0.80337426992411420379 0.25602105651898943162 0.39849224604744276634 0.91615245972040471045 0.05321945877224764504 -2.12528960977648306852 -0.83655880869224386043 1.03303063233561531753 -0.13985120685153781817 1.05748765203671557522 -0.83387952958382882684 0.53883556091278461686 -0.68516593534676772936 -0.60697029403798707925 0.29740352634834049672 -0.48013238119778978152 1.32600937436949295467 -0.62682864937967830432 0.09234212266255562018 -0.59788506542151864664 1.49009793860141770416 -0.68377636965888577425 0.83327987312201845516 1.39307314758270495147 -0.12766974426836955048 -0.24245083440078765702 1.51919997146877960859 1.06046161775166902785 -1.79829247755862020597 0.29119874150842778304 -0.03499256067362574441 -0.47144227636121660563 -1.03179807429425163257 0.99410794800158563955 1.48273087018244975610 -1.00046649206084969919 -1.42645973988629837237 0.78992762807083649612 1.96585150498996386048 2.34051446831298948226 0.65004887287051416056 -1.05814871165455914870 -1.27627014474688360579 -0.60612590283607070685 -0.35074835728472875118 1.98451432500399294057 -1.21363454468695253219 0.45100620515434680646 -0.23391844711125059364 2.01038359998458737721 -1.22860171953307317771 0.32574776071828320800 -1.09198852206493235428 1.29718555389073197937 0.01215850570978103083 2.02287987067630581350 -0.86018065509602625873 0.74845245292911766199 -0.91821950378511774105 -0.05806897019370424462 0.52631451567148979098 0.75235985067482435973 -0.64600639186440511619 -2.11505075571318412742 0.87925627410236928405 1.90495705920916758025 0.78009347095832526353 -2.16605623266670610505 0.20494705373543434246 -0.97356325404213128749 0.78095555303290797866 -1.03623494781224190220 -1.08975712175944283722
