1.86625401169895166475 0.28984920452700357885 -0.96987372109950731325 1.45129239790306407976 -0.31713780186888906876 1.68421687487519311510 -1.26757964950183321662 -1.76254082582938087498 1.27783099883547213160 0.35937609396317365951 2.34399753146181488717 -0.34351186645553422050 0.72859254663277828179 -0.51088665415170619877 0.24383811173286992768 0.60973877408952326107 0.72348203190191562317 1.73485247870867476117 -0.75512655194071054421 2.28401862230573415857 2.18647446882535767543 2.26100678564911206081 2.13294869585131774414 -0.48942880574723895970 -0.10537458114699146949 1.08317038099677587226 -1.95619426638764903892 1.73104455637747789432 2.01676506237169395064 -0.28965926466566105368 0.46095928597758178968 0.97070537869782369533 -0.48695842729867683252 2.54699004343240531512 0.76036562692207532166 -2.34770561729309923393 -0.09283702089755846432 -0.74341980095084969626 -2.00581822651227170695 1.42800097060716857378 0.70463170161519184109 1.81954514213737650330 -0.51289332600031412035 -0.39757457239681170957 1.21677054994606348437 1.05234593417679977989 -2.89809426325498797894 0.20487047775821665141 0.76218766539094917611 1.58743130667082432694 0.95194878940286997704 1.55150084838109525442 2.69092512427695895738 1.08672244988478583494 1.35955756541070527099 -1.20815478569553569343 1.61070608007949012119 -0.42976517925062629466 1.18571519285598681037 -0.97815887021946645863 1.54691816478510224542 -1.02073173921447102330 -0.80124300118882552102 -2.37483425513844448318 -0.05220873508994020723 -1.46369631229087526769 -0.90356360902627874676 -3.02330324948495166026 1.62047545760394418046 -0.62863889491154800737 -0.79397192651811776543 -0.75868636911530062950 1.05302780667194006980 1.13876534984029431641 -1.34297596913528027862 -2.24000072993005350241 -1.00481535715281400378 -2.23366494627229839054 0.44201724961419830429 -2.15096902543446599765 1.17863863818499936542 1.30137660188832926522 -0.57958205301680332244 0.20247527722488203872 -1.14379023316945316324 1.03058634999149023592 0.47951287559971905727 -1.07526746455468491526 -0.81266470672975221756 0.24741025992710333203 0.04027900810059296260 0.19024011439912985599 -1.17775458994525306089 -2.79941801667369549733 -2.41753809503576455597 -2.45271582228466034081 0.54329936959679980824 -1.21790411963365041714 0.71311922690063311858 -2.06671800335075106503 1.40740720742410641009 1.66739440111145786894 2.10817065790995483709 1.65539797439681790614 0.69499000792253529113 1.33815957908021054834 2.95493596501157540501 -1.32634878329329386482 0.00280875357492898483 -1.10951401132141258543 -2.22983748128134173783 1.15263903067535178337 1.44620499116468104184 2.46167761109481375570 1.49791475827844378088 1.83873080575187741736 -1.51809494424254065592 0.87391771036013088381 0.67976474743881554197 -2.44634564073818472352 0.11940258702769429577 -2.44309381322098051470 1.21342737139576750671 2.23728834598717840620 -0.16913359175495887299 -2.46275937306492975765 -3.22040427405317020160 2.03697470604925401361 -1.24844121719038203544 -0.69582365137770441077 1.95487202729014430957 1.79650829433671965774 -0.09485856714653183308 -0.01092980555698125529 -2.09275703107667609970 1.83187855874575888926 -1.94692271498956315234 -0.63099773124119662437 1.25011909411790789193 -0.28069379690294865570 -2.04873958717361670523 -0.92641868819331096851 1.42209756079654270344 2.41642143161966238551 -0.44777673634273584824 0.88084341533780852185 0.31336300205659894935 -1.09305208165160960831 -0.77906913249468168203 -0.34698957780158229403
-1.87321934827722635930 0.36065249551718259191 1.02877413825305286110 -1.45388193695476042322 -1.69711692929652224748 -1.68250236649626105923 0.69992902192522643556 -1.68795894945584534774 -1.26413725844357549555 -0.35101393621798659961 -2.33665024830343748263 -0.32241145412496696743 -1.40343846144999506720 0.24018591617582674136 1.62971238832504483618 1.14236908993542907176 -0.56940388611670411656 -0.31428904648078714867 0.76385753181628868180 -2.31492365873739114335 -2.18586072758038207908 -0.50156706161025665924 -2.10401166504119574441 0.50254383583863337925 1.18744792539527166397 -1.05890033395620597467 2.01885126806462089633 -1.76693508080693617579 -2.02244232375118082601 0.28132754756709721367 1.64049240681098384975 -0.34381384262281677877 -0.01777583120407067591 -2.57552631931019071487 -0.81993070270093260099 2.34034859613561874170 1.80390832591685912334 -0.04590742696568162612 2.04931595348015793689 -1.45825203211762510769 1.04458382734202293030 -1.81247257899500535672 0.53364123236561100683 -0.08596859452137503577 1.68025256802175881887 -1.10511515792150016857 -0.17748522318366499739 0.63851733752636330443 0.61466129011033887597 -1.63508036359424413497 -0.95721910461751824606 -1.55396066249924258429 -2.69619450256037884728 -0.20160672788110611808 -1.38780176801265597852 0.48584990746911793646 -1.60072773891700159687 -0.61673447887881172047 -1.27154562856774488999 0.66445952546512110359 -2.85321499534933886721 1.00183558737368150204 0.79127659944205375186 2.35315014720159565442 -0.42047573575639396459 1.52400924259889958279 -1.32808547906144314155 3.04217055607557629315 -1.62973973627931356667 2.05258210073510793947 0.82212419668980130094 0.49375589937141212138 -1.06812091526162400434 -1.10868787424918102680 1.30219099644827607243 2.23398266890423169428 -0.21997036502693120830 2.26259317006650206849 0.49305189859322040569 2.14369154098241310180 -1.16384925924794213614 -1.30899890405911345503 -1.39756492424344158643 -0.19005438971236762735 1.15154145152979325850 -1.28186705753327667701 0.97855863516334740115 1.03432950986378369151 0.83168266216329311824 0.27008624123701879816 -1.29865337682761539106 -0.18274035542876485017 1.12361281287588088418 2.86304485229891358955 2.42862227293030263908 2.43620960761855709364 -0.69916108661684894798 -0.05872753108212631218 -0.73141460173225536501 2.06287381650504730857 -1.42849702999717864671 -1.75136186540331406647 -2.10843655361392734449 -1.68977716966678515043 -0.72500682234829072481 -1.33269738583196328818 -2.99904974779879207603 1.37965865415046606834 0.05859017649455201121 1.07627843149162072400 2.22572561606962970870 -1.26552335621642719765 -1.47128798458180498621 -2.46501540574802158190 -0.87616838397699381424 -1.83762202072118707719 1.53485651664903910429 -0.60288123108763858049 0.00663517083512348872 -0.94485421458121010563 1.16682750140168756126 2.41964255904795511043 0.24374192734861055420 -2.27248983709363416850 -0.67244095656435443065 2.44127300802182212180 3.22440551602142200238 -2.05870855302875765958 1.16702237570540257039 0.89663465626997995717 -1.95032848663752700347 -0.71543950216031682032 2.94426745917459520285 -0.56414276579048105997 2.07245398905264410772 0.13440393951433032838 1.95735098449521238706 0.62547478044778137551 0.27702370030119066735 0.31560887941943194246 2.05620888299487125650 0.03743571649213131569 -1.39920912064784763729 -2.39042300830943377221 0.13090409949810830059 -1.31091742505683650499 -2.09540678608041375242 0.96117907857768658531 0.87986485891484855770 -0.87487550968428851039
