0.77188156946926134161
-0.19925702459737060224
-0.83964419910585219586
-1.30303293776724316011
0.70447528046356244769
-0.08585361452031500806
-0.32354001466736170833
-0.19883598210055389299
0.22854746552422822159
2.02146331446972071788
-0.91331840357240479111
-0.93121282315731968016
0.36055710930957857174
-1.13328133861697155638
-1.48908132673567483728
0.59499682841261858357
-0.93958375333883514813
0.89837546042737193019
-1.98407915847568872003
-1.31565572757498583378
-0.59140664783078222833
0.96711322608657579458
-0.54335556053160694034
1.56731004759672631899
-1.12176445477476249835
-0.92634204360999927719
-2.50028066787328429044
0.43712227469175635175
-1.60446570798201948449
-1.78903667135691790691
0.89171103347812841200
0.28349117830131748130
-0.01624999330550502136
0.17019294210186855509
0.11995900489340299844
0.55879680059641201328
0.78323955010544232813
1.63297882191253096451
-0.11331695226684872224
2.03570313390501445028
-0.00245381342292682637
-0.38262645299087649775
-1.59061906614620207634
0.46842270662897539379
-1.57023773513440900729
1.91456139686268311806
-1.03463525400539380072
0.30322514653106480420
2.02689674615169224126
0.40533678082531704456
-1.52939049900651036218
-1.04971009412798776950
-0.40168396340310608128
0.83691584706556287898
2.73721013662446788217
-0.53289636176443599958
-1.31245310497214173751
1.72291905596233485554
-0.66387064509881377194
-1.18051027025448362906
-1.48145689844895156462
-0.71656081073373611989
-0.84556518538983682642
0.06733658934688488418
-0.22205346521175051144
-0.79222879368271104106
-1.38094215141918685852
-0.25821892199151097458
-0.67219533581166135416
0.09449988575244586131
-1.36020628230161166883
0.62307284082235681044
0.97758694076395935557
1.52250552785835746583
-0.65857114763145629954
0.82851176975257678770
1.48230179714795240464
-0.75549690368418309649
-0.21314811257942897771
0.10515884307767403572
-1.61185424583756642392
1.04019267636283130329
0.36629874746940521701
1.07290605484521273105
-0.68378009808145256976
-1.14065971293483037208
-1.08668070910334990664
-0.73721474426857758200
-0.92048754097088703041
-0.05705696095622739966
-1.78505451659855807200
0.62668636347456119218
-1.25366016489599418904
-0.20749602626519866866
0.67223732045139628077
0.16003829296837565610
-1.07386716096805368004
-1.15646172354682441608
-1.52115490046441093064
0.81817988354711668197
-2.04711502264543909746
1.59617850510024283928
-0.97184597936557182152
0.32890479834315489160
1.72207787627165909150
1.43756193835321655072
1.75060521923702561153
0.49087318139568325570
-2.13928768361006227394
1.30650375787274075634
-0.07351361669453737591
0.73068166509220111582
0.44951783346980483946
-0.04499736021536820951
-0.07631447588589157505
0.45738474592459787971
0.74023776758523873731
0.08725978878990148235
-0.46221298144750355696
-0.43505659454550882348
1.44315373910074162822
0.60592395236009377602
-0.51794579750360669745
-0.36021524952376254847
-0.41553070020749233171
-0.13979287310051696780
0.19277373900547598029
3.19682044229180561956
0.43161592063207249170
0.05942122524174076742
1.47864962835366964278
-0.27645955470510019669
0.66308632569635250764
-1.38262799071329922640
-1.87116912737558993562
-0.41598529179171406245
-0.48232855498404986205
-0.86347109145100919836
0.39857481055701948769
0.03558597293741320999
2.12308910047107612939
-0.63565040098683889269
0.74572472485649565765
-0.24089970554299530714
-0.47631853276726232593
-0.08061175741816832552
-0.81759337020686095876
-0.35518950469031618233
0.97899730303406395926
1.66133796216646012489
-0.24690444762646449051
-0.91001235693469717525
-0.43524891670104287611
0.52180158915620611371
1.82486263001778636905
-1.14588391510392373362
0.65333024189097022028
0.88380311760147134414
-1.24887677935833929510
-0.33977652098916610868
-0.99302192893391916240
-1.36567032257484699542
-1.92466061664588705682
-1.40976091038839235203
0.39975392253066338588
-2.11227354878731032883
-0.71848654575620352070
1.77427766395638353281
-0.41567980758706118971
0.98186625129617910446
-1.49857306144704738315
-0.30699626787198547317
-1.37219455268755496924
0.74478464804291455437
1.18763719598594130744
0.84959974058912268724
-0.30984792125525234541
0.81684913624470933957
-1.18904035238537497676
-0.18658181312185492806
0.82857545648002706162
0.00546941077828860551
0.65785670591795786244
1.45779609932833742469
-0.97443343077141941766
-1.00497450846398739266
1.71422376661738495862
0.88907397705791135767
0.39789991561473414539
-0.34680991704124936037
-1.45599982734040156451
0.28849756545675425690
2.22468281175304793962
-0.41954254398564749806
-0.07460061343171543735
0.66599748910260792023
0.84254077374537739153
0.64445792220220654567
0.41424443822544182447
-1.93155656321505553308
-0.27339079810664240755
-1.49467539662892989760
0.27539199280848802864
-0.93641098521301935342
0.97123044421659943115
0.13919125496956394339
1.42214220519364675788
-0.23362335511021231627
0.38586199951851990475
-0.25485639427816320080
0.55512001871198857206
0.93636396478257555298
0.00752885839918374707
0.85691827888280625025
-0.42696965066093012231
1.00644815440203050372
-0.06808947047489938287
1.30593912517584231914
0.87281590942040898629
0.74564256404034179315
-0.57369707669291869490
-0.15097601140549807286
-1.11267911236885574944
0.75620998903867076013
1.24811771641293822732
-0.33571727444332327694
-0.94361727226154989978
1.69879793904340892219
-0.13754974242983608601
-1.15037543947681086820
-1.17862553807404490946
-0.21252374914325367072
-1.23189235735854007991
-0.02118477420883278783
-0.19959947724258636503
-1.23902965888746630085
0.20156723686020242003
-1.89464039573496201285
0.33668380779170992145
-1.31945150523425214217
-0.04625987101190507517
0.19583419902939119828
0.54255085330090147000
-0.16350783303000782087
0.04491971303466756743
-1.73927885423382422303
0.21435623694048827614
-1.02639251562208966284
-1.69436106265428465534
-1.39556279997381538216
-0.13264816142627217088
-0.69645027159812422646
-0.21616309320441517983
-0.40465780923876037978
-1.19718659206226685221
0.46374771758184030190
0.95537782319922393004
-3.47182621756744946850
0.90697411417812501266
-0.97982014279967233339
-2.39141294694000094978
0.73023467665596408782
-0.38181060923379239735
0.09392329573214061589
-1.93504620701454155274
-0.06419837405510489536
0.15431523358657414646
-0.32265366364411912636
-1.77566744366495488094
-2.41372654947393350255
0.07291270039886332821
0.60587876605682577935
-0.75924791797129465021
1.54628936543352391020
1.56006092003298402204
0.07135220290436679325
-2.09276746743842867460
1.05832478059563483974
0.21479048964112817943
-2.12001700784582336468
0.72112539646425732887
0.91850459573509224409
-0.19766924822104106618
1.36668145476065161503
0.01718416655326630502
-0.84764106467758537633
0.73026109773142067194
-0.60596080844736588400
0.14239594899856741761
-1.38863805971095310987
0.21816534006189544637
-0.26585916739992437874
-0.54634984938421282674
0.12617214604342105733
-0.16853128685458593217
-1.56552452613371517742
-0.01347409679251807858
1.05071441068742377212
-0.78281401256701088620
-0.19567993638129957401
