-1.37236173359247382031
0.19545608328631489115
-0.33096958722190245039
0.45906379955762566247
1.15921582922495614021
-1.77666612710983939927
-1.67575891746990235376
-0.57623851314596707951
-1.76264866931991215360
-0.68268242996697270364
0.83514982319364294838
-0.19506129094979646199
-0.82669667907431521048
-0.74555931392362140286
-1.47559811105828253552
-0.52860433343458079758
-0.18517601639477809794
-1.27707293326998194694
-1.18242568265301195574
-0.08649073178339504453
-1.97119597692522141585
-1.61124789602655416054
-0.38730309539186535961
-1.85898021173253069627
-0.31795300610611348935
1.02957306148184390970
-1.69230269144625578015
-0.84197102589506811476
-0.25959699729952101510
-0.13057113161997999096
-1.42156420508944880687
-0.12928434606083924474
-0.61505286198366582173
0.05035766732455616151
0.12243507174188132669
-1.12470830551696132638
-1.85338854892273396935
-1.79335433927134002552
-1.56237009394845527410
-0.21987020484470348736
-0.57100608751857029333
-0.04438308126487833932
1.05550983963946665156
-1.20173744969103957203
-0.56605406987768058791
-0.82817967607743336877
-1.68491211736178070346
-0.83213979147009742299
0.80517919840421836586
0.45466451538093971552
-1.58550697629593062565
-0.46927616143286821071
-0.18544362112660239816
-0.77082397307090189109
-0.03006030753330145994
-0.16730062648874047260
-0.35407685625906543114
-1.07275852963392792638
0.16413099916087225960
-2.39945943734930722258
-0.33362642219037164093
-0.90954963116953135849
0.69869014064665857511
-0.90444669947425904155
0.23004890067624897410
0.55659614583735117499
-0.09726790176980722180
-0.65799485217650410807
-1.14595010611489200869
-1.13898352517974110754
-0.26100407740705083848
0.93179416100915990473
-2.37128307276924843450
1.38239465767710334454
0.64773606308244158214
-0.38147606891938945495
0.52355764837775697895
-1.30894616134351915449
-2.06501410972068866201
0.00014064821804633343
0.80257436716240748709
-1.58364617959627995702
-0.65864391722313819777
-0.75693683000557210327
-1.87087692596497290332
-0.01470537631577302669
0.87589546290583608634
-0.60415684874710229302
-0.70263596261581540148
0.02954029461661496908
-0.62732236459987855692
1.40025471338623019868
-1.46311416530980853423
-0.03305126927383338770
0.55099575401035927325
-2.91644627562312885871
1.94787349541924181828
-1.22118417673724755090
-0.46801908717957180217
-0.25656248241438023294
1.15200129419961450061
-1.97056311783761994860
-0.50581089613122942605
0.78594238300728158642
-0.17921792402765521213
0.50706784623329836936
-1.47068071538860145608
-0.26141882106135416741
1.25127152507685379668
-1.51319230529101722560
0.71842858333384651548
-1.86928794896814798321
-1.52083891281066185819
-1.07267205730244619133
-0.67602536643841026898
0.63488044552251154951
-0.49307771249129106472
-0.77793819145598441800
-2.11219143868441072698
1.05765551910818822456
-2.61275704145307452464
0.90233156324214658373
0.12690396698004449694
-0.81574656793689370726
-0.83900925676155779787
-1.38632719335262066807
-0.45023309123915028485
-1.92537940227301418439
-1.06477155622092745091
-0.89220548329489035577
-0.69585327527183793439
-0.46595432620885679498
-1.35626846111388732474
0.38218891759355777538
0.23259544618068983546
-2.43136123348646648878
-0.29024203507276552516
0.89924124122558013461
-0.64993781848329890138
-0.30760348699663658811
0.59149969016361092500
0.31811087875434573835
0.16609988504884731775
-1.14746943494659947582
2.23036131806654402965
-0.01401609883527032453
0.27445570351233067319
-1.39171650541502822662
-1.05765718058057434092
-1.81703096849357059739
