0.60717726900337609663
0.00186337491014371593
0.53662618302624953692
0.16246334356804073562
-0.39590799568501350292
-1.78764633191203659024
-1.31130907459098411394
0.21140404743288349065
-0.14035356171802240710
0.02015347060089412237
0.26465332589307599687
-0.12265475211269008526
-1.61069243152636820682
1.71665534624193449886
-1.05712619780992445051
-0.24925418546848243651
-0.93905439816001179398
-0.58276550470182331143
-0.11574492117619267217
-0.19543370744694765762
-1.70681455620384681104
-1.36638093066444188395
-0.94793589160296354290
1.27943938466011464250
2.09101015007932211631
-0.54974981633328678932
0.51063404509723331337
-1.24600055590018365947
0.63070487203344860472
0.82308339394750384965
-0.52350511397794430302
-0.45857762195705370489
1.06506687536150135287
-1.11356176176592214233
-0.86846297624321688868
0.83228402608016904818
0.11660424431235363874
-0.05240284881865061445
1.86779486309081987905
0.30714130925883059708
1.16741095083515400432
-0.34260120500087715145
-0.49576104512272112235
-0.24536202301276224813
-0.10727571110724011538
0.86311351845683048634
1.85827658121751349007
-1.25466605277991827272
-0.89904394198469284039
0.26018831240785178505
1.39537526237892861580
-0.46481310040488793556
-0.97098899499158652926
-0.71133591349001978887
-0.80579150083507711244
-1.98704293850903646046
-1.29437097650544474803
0.46842793440216945466
-0.40247184079839148918
0.86815019954442063099
0.96692274859535543019
1.46144333694736161533
-1.19429185388337977258
-1.01097442243478896629
0.61270321518943759997
-0.03773455486742164494
-0.11978539287998712926
-0.71679179856910524293
0.01651058695397702655
0.07013299433826881979
0.35039502906208919164
0.75449144486178143509
-0.01955140159880261116
-0.91604863375237621792
-0.65247021039922137309
0.42883943601975199611
-0.24563731628870930090
0.16512299989645526366
-0.72635809398215800403
0.52985958608105854228
1.19346259526310949362
0.58189100031997398332
0.10376097618207766327
0.47383245835889364894
-0.64572707285438946112
1.07239288288845147079
-0.30920938496154209973
0.11965646504833932218
-0.57086517056585250884
-0.48563614714654673721
1.48789854502847851414
-0.48691753785058372594
0.34897861526595952419
-0.23540689353642041404
-0.01059312516715567830
-0.31901153354237327120
1.08526895362501485387
-0.51913187715263742206
2.73812187806851037308
1.42293736968621442607
-0.23480600152756703203
-0.53414126218769952814
0.66562972398570607879
1.38588647865307312834
0.07132087058350762565
-0.34447327148495426874
0.76611753098577151100
-0.68932467814698017428
0.44741265440397137709
-1.73416064079458864811
0.83590647918742277955
-0.34978988771132429880
0.39685969734478593329
-0.13022116498298452747
-0.33204266353113742749
0.85300790163190909343
0.75745340660710813729
0.58658301583987815242
-0.35805507177829576371
0.74338866241034917692
-0.00080296564492679588
-0.40808200987748483035
0.67434160833624268161
-0.64804117113211168189
0.66146400818593531490
-1.75170921871537643710
0.46077341654231607215
-1.80930050992293134371
-0.24872117124095913243
-0.75583968045819494019
0.95082742689530697078
0.49989923816031561765
-1.00531671237279018882
-0.05855807012900853675
0.06093081137213132020
0.97566330663370270937
0.94541890787795179740
1.15556246311048482767
2.02454278588217073676
-1.27518166926326137478
1.14259456746130361182
0.02974036141588928470
-0.06792642755270034138
1.15246191017185761751
0.86905982098656686663
0.19148781249188059905
-0.12472081031510270921
-1.52995371158873849637
0.97220593302782076783
-0.10659456641380443687
