-0.03713224282074832627 0.45155831400988355462 1.74550508539477422509 1.67081776057801079105 -0.08492290525587020689 1.29727745562718488337 1.14880877594314512180 1.39113208745389060894 -1.89783450857912217025 -0.11980204941393138296 -0.27496685779387741722 0.25030745874145982066 -1.05842118946139507329 0.36952628378280999444 -1.06749952010233140065 -1.82439517095180958606 1.45986090100522725166 -1.56993869258635831976 -0.84233932965035440699 -0.30112123545070745845 -0.00596111362780411737 -0.03241963474949716845 0.61562907452747361869 -0.83010720245598879075 -0.86048029653983637566 -0.53700059837361313608 -0.83535886350995702809 0.76800578378472683649 1.12946144002608273027 -0.74009063884316783621 1.81609254113617990534 0.12783716266448741372 -0.32331335346067685554 0.62310153007473667586 0.31326033224007382438 -0.06203029175581106086 0.58854006072047693188 0.05261025867662273009 -0.72433816601166034488 -0.97407199131254973423 0.08935341636725700754 -0.51228203408519701334 -1.47930845398602972551 -0.21480377561933963748 0.12155305598546625734 -0.69014066781031402353 -0.45595514603183212587 -0.58259900499330907753 -0.82327579098017622528 -0.64688435824957668530 0.18635062455598247477 0.30838578748433609356 -1.09484966606093214736 1.89705979094972354559 0.49261492230069608977 3.00308742163782449452 -0.96733519761207376053 -1.52727802932004674830 -0.57184717138909457734 -1.50926564087415271409 -0.62702312705109741753 0.70617224022059810196 -1.93744121617189435369 2.28065976804319525684 -0.61976064787824847180 -0.49246188557086906235 -0.41950840718720433520 -0.06572421957774153556 -2.11676979670764131569 1.72276221565906340061 0.25666499149956251147 -1.18669657559729802010 0.27698721426528294387 -0.20364037509200796916 -1.11759243399134300390 0.34352128902399409194 0.76081562534745905690 0.41819805633663420519 -1.90918465015993521483 0.96433484001625802140 -0.49823875951809143414 -0.50566060333201978683 -0.63676533700886261968 0.16781685090560216622 1.32663836159681358673 0.58017781758532827041 1.67919951882404294707 1.33664718061228149359 -1.19945027589508801391 -0.45220384504487942667 1.78688664813973385748 0.11916627547986184676 -0.44603555778599734971 0.90927927677090569780 -0.68633007828484593471 2.22221527719774458731 0.92397671019121119240 0.46748852628863046821 -0.34936657611877136587 -0.14655388675662420206 -0.91703758776385613238 0.62490995151062112001 -0.65401845805300296011 0.98169713223578269901 0.96331189165162722787 -1.40914243907090086516 -0.18684328491902313374 -0.72836319657635550939 -0.86508035732141264074 0.61443088106076315658 -0.36957612226977731851 1.93200620323942429124 -0.98673286777053947905 -0.68635447716836894827 -2.44029663155104792338 0.02308327891311531474 0.05521805816047075516 0.34861119470801760212 -0.45105189626330394193 0.04906701594219085166 -0.79983654623484456980 0.66930770545427542562 0.23361521582744868009 1.05371517798413849576 -0.85890386651926986517 0.78402742016772553058 -0.70286448740585261152 -1.23848749778385003317 0.01584547129678554739 1.37075307587989070335 0.95787426409012321749 1.80330353038295010393 -0.47123159438312806069 -1.00894877915764413778 0.43576163344600021832 -1.72272669578723847117 -2.06196174341324756085 -1.46081936249165345032 0.70590604441904236666 -1.08555753051292680489 1.52334395121713783716 -0.64467078898519591945 1.17155307292700339161 -1.17070832415202108479 -1.80583287762039690350 0.52985356439757913538 -0.80090721681462628823 1.61766635146672399515 0.24594277275994241849 -0.05436967956251728684 -0.83946023226482902047 -0.42635085488192792091 -0.08874435069506179941 -1.13533355347019782045 1.36488046549543629027 -0.34617356530722359631 -0.94308101607802852229 2.64834394332292077934 0.43699701847365579610 0.17854603807940988558 -0.01489147374415916540 0.76036560369110128832 0.38083766395761148305 -0.35784453482339090291 -1.52579149870717190041 0.94259767389208770627 0.28343895853288081366 0.57132275019901335167 0.31157536793791601459 1.14339977616509114178 -1.15908660439207955584 -1.65993330248431658624 -0.49021464153164356903 -0.01286069701907162008 -0.71968729592569224973 -0.11396108871596262457 -1.10257133910089955009 1.07078854639090792489 0.07381892726998297294 -0.60758836690825535065 1.16941167535286760781 0.02752207333921218718 0.19590344915669666293 -0.15999677842388113080 -0.01119454454656064295 -0.78796718158945822097 1.63155483211097251939 -1.80940637835830786528 -0.51554218698125364728 0.33870363340707587696 -0.88249233160662476916 0.08728000760891964360 1.29907189595116245862 -0.14657760820682225189 0.65636018133969342703 -1.57090140167775560442 0.90129257115088223795 1.34752194725761409444 -1.46313678846354000562 -1.20809671328852918926 0.54767196670261109048 1.23298545019277372425 -0.87194968804239336713 -1.52383145439421596734 -0.63715308958697125519 1.02839125060766667374 -1.60061058034144831907 -1.14674970021855027191 -0.83135964245882310042 0.21445603386162603865 -0.52152726036356433781 -2.79465522536260335684 0.58311321103734203852 0.63431130663448742624 -0.51818579519395335797 -1.13976139110723018177 -0.34548229032957611384 -0.73210660785125902805 -0.50022599128417022385 -1.14435118944575986433 0.19708455652458695129 -0.01008760392124466790 0.17289746189884180883 -1.18579005224499023363 -0.83907224138676606007 -0.35812047633607568820 1.54600808220481544808 -0.89189330023803836678 0.13636933407397688889 1.41482950745123892133 -0.94983378841037491291 -2.20005323767278859748 -1.53568965413362801264 0.96400689759070701257 0.47588412512104361074 -0.78639385593722332946 -1.25720334023893465236 -1.21688618097676970464 -0.82793105751586926200 0.45579689815089147187 -2.28756262518388497895 0.88453013019313997400 -1.70333200761708947191 -1.46657572132210489713 0.18641615485588025614 -0.30792295384714241102 -2.08707079644104309679 -0.52605187422027510635 0.33067997787810682331 0.37227224478396775398 0.34150250646786378672 0.63322733626450311561 0.75444511120563151341 -1.61315681706958358177 0.15243773632529472595 -0.12467205500173554611 -0.86156715968101071912 -0.55716954100516846715 -0.93432615822988629439 -2.07515265995940456634 -0.07432707084006925924 1.19981098260249496867 0.69527230497062997294 -0.16169605573804290977 0.81039740380227520689 -1.57850809333371455701 0.44780645979908262344 1.02010628746982612292 0.52477608558681343442 0.33501553833475966604 0.09205436743678087341 -1.14142586698877646079 -0.35110934527453657727 -1.73967317883784455823 1.57236978923937309460 0.87849516049831788411 -1.46840091076250334190 -0.69651211192161621710 1.24894624279776667031 1.51689232597545209380 1.42276664394956919857 -0.04522363079308151790 0.44799226705364175727 -0.15292185509293268475 -1.22190575860283079379 -0.26832540533941889871 0.83064987099730347442 2.44722909581629677334 -2.39635437318030586340 0.96436605016863174988 -0.72002603921033614398 -2.75159491613319229231 0.78174958239395730963 -0.94060591906975876686 -0.75909577182589149658 -0.47633622441131817649 -2.35155161696160996954 1.19079309243896469539 0.15503946226522058449 0.63484411772336846180
0.66191081736631651733 -0.19702962858836439719 0.58815613727449345127 -1.72653957963735082970 -0.80939349813252314814 -0.98502854320509369845 -0.29381095629842901573 -0.06205429816108385538 0.73716793196683083611 -0.56373660897596034047 -0.18831637425846339817 0.21895861362813570650 2.14769367774785635561 -0.52578881545829536659 0.64262964742781092387 1.25964687370937489241 -1.49365187214053185549 -1.30783471978262744173 0.25721767213888668824 1.50995211291092901185 0.61328641249509385780 -0.25611066133222470942 -2.96138383786865677649 -0.31849411739738592297 -0.74570628965842411517 -0.26322748071455198682 1.12923100450322611010 -1.62406292708924349100 -0.26375015007880225903 -0.77823501441067022277 1.52002934590203264698 0.54951164265269292208 -0.99669158330489637798 -0.10672802776568673933 1.09092821293226260870 -1.56235283545132075389 -0.04050954720848263385 0.43936656667267465215 -0.50327096052180553265 0.59643490931025344715 -0.62489439620561815225 1.53913647619504923014 -0.74785299592193932305 -0.61122233527766123284 -0.80955246529432034475 -0.45118612520647943809 -1.49464961671360718753 0.85828333561188863143 1.69722494541890278619 -0.21124422774529996727 0.29128803741092706980 0.72224409180998128122 0.17827091778155423896 -0.37575162214826823837 -0.39690416508777531801 1.17744246555848652847 0.45260705865570466377 1.94114045746116103963 1.41205215548201579168 1.78328145530993542600 -1.18281853554976024157 -0.20910821917922864377 0.77684305444214418745 0.50165892687417323881 0.11373970603658595246 0.23472031324109787764 -1.23113526217882940372 2.25951312828616535100 0.71091831749988798617 -0.92829976382847267935 -0.43897849858492049568 -1.04770198534506731036 -0.83607800938209297925 -0.76387970070911481724 -1.70025257562131071332 1.17234095735903176561 0.88988740797532983606 0.00695699087042190960 -0.11420885943010854191 1.03188998594843961421 -0.59014517517989006912 -1.28461904956007133549 0.22194234669365009438 0.02841581592893976244 1.18922713008602087825 -1.08248186686517589017 -0.65106972044628408369 0.73201532099836363887 0.06630332250278221651 -0.34116182542441497727 -0.76450702971259687502 -0.31895258814085930554 2.41715136681127695795 1.62119869238055791527 0.12100091051950916110 -0.12269130652029083817 0.76733557865472123982 -2.07679328267965335186 0.77867825739505380778 -0.28867058368386760980 0.46615825344750055903 -0.05929444003788852946 -0.12606213688104256354 -0.18899496527230325027 -1.55609727869534242295 0.05582607166420123362 1.65757671635809944455 -0.53045253491217136954 -0.00910172349762266783 -1.00615689484898562789 1.97460784620792062505 -0.31237425046093519887 -1.00532213774201362178 0.32018288806598588225 0.02188055392750120828 -0.88449761294789230881 1.05190419615872721160 0.25379363679640942753 -1.86171524690385825629 1.52007650669310723224 0.55820739921310458254 0.72195554209962820025 -0.39918741841332150422 0.13327842195182681984 -0.30002245665131543895 -0.80777469451314787285 0.85513873275778262695 0.21699367083498499742 -0.82272810251400152470 -1.84709681554983551344 -0.26368904283831762214 -1.29443678373969772721 1.51801617907520536299 1.66742058135994497547 0.35893918724008150312 -0.65756570346536735716 1.17882796282128499143 1.24760229426562641031 1.19895217005399312704 -0.13192314839688423778 -1.13730623141267339626 -1.39640867691678272067 -0.12960826425056501399 -1.88609929197037962112 0.66709748114026057308 -1.43963623898219261754 -1.05773373614772836504 -0.08849352635532602152 -0.64414995230902738488 0.81242321226253277899 -0.29534300978588923225 0.80504821559147932142 -0.89327683556079617855 -0.21249047302130386061 -0.55887827025648062484 -0.74034772395066539286 2.00042343488149354513 1.53379461522949611663 -0.36702448194332448761 1.69432417599872908731 0.38791454613373010929 -0.17076489976162545492 -1.09060183320706238774 -0.80995189292081770649 1.54563013262054771424 -1.41303846778204245105 0.19370547490718539874 0.86390461631065840198 1.71483251994784735572 0.87453527539597830653 -1.62266592222688332825 0.14904935455438733660 -0.34714525684726837973 1.04580966519627072131 -0.43646579673273827593 -0.00326309936469892968 0.61014099177979630451 0.55826602432257543818 -0.53300221939029968077 1.11306205483898645880 0.57493739435297963603 -1.64429968167873608031 1.61842932878797207685 0.96380128566406864099 0.39907853449470109819 0.05994584932410822187 0.92435342796901376339 0.86623792863712412160 1.71055480624844347126 -0.00243834599911743784 -0.28486871132998892175 0.60137032627953357355 -0.69208937447482155036 -0.57620906395905113762 -0.19575383740046817249 -1.20326443196203558550 -0.18431992892061399569 1.13826907280582756421 0.97134529934593449862 2.03199310819183232013 -1.30003214391511545678 -1.29680587542667602463 -0.23366791280798060448 -1.90373026598197814252 -1.26698051416618184817 0.02461881625507302343 0.32218050614207238702 0.54442515299682303631 -0.38478974770932461436 1.57747681368898851062 2.32320406372585885890 -0.19721536439781836569 0.38497850261437444042 0.53479305974422175485 -0.29527497480448766654 1.50526875292080819513 1.58239912002427751681 0.92235598434784416000 0.74902407556306094261 0.09005452318053026872 -0.99571674817840727378 0.28149380438638244017 -0.22402719294009609818 1.39310510310887591956 -0.30449896630919154328 -0.68508123775069318384 -0.06301844049642896239 -0.09492837061034301027 0.40366527513461653021 -1.65924345604808132215 -0.86186225917917236305 0.28408022374614649852 -0.47263358567742008720 0.24794585331914861803 0.72797243407803680082 1.05412715870690010256 -0.54352723308114814227 -0.74089635519118668405 0.13703888931135646545 0.01641673220730901356 -0.80472083121957349583 0.88808424305798572274 -0.57582327716911829718 -0.67522006871503426062 -1.01668260063560156325 -2.13638077782386481829 -0.04775866088036356122 1.58759597701257693103 -0.84207426802068607863 -0.82451386325614306472 0.69313915998920105910 0.23929954921495480424 -1.22736181410340661202 -0.09539800287497737785 0.72829505453923204517 -1.00881577909363984169 0.97516717041799050314 0.34142880430927519120 -0.42223517647515440565 0.59125790761499719128 -1.67124958705854442798 -0.36598785607387962493 0.85849630275610044894 -1.60309392071606326979 0.00612303231609747940 -0.00484584352285637263 -0.48469571003207884141 0.24493247472588136615 0.26902726861122849833 0.36339588199713179772 1.60041604665637615668 0.04898336658780566566 0.04819646806302320396 0.63036905804551379706 0.33772338229510734386 1.13163266478712998264 0.95064374623331315828 -0.54387824494337777548 1.25450466607889699056 -0.44330801625684840284 -0.11848834756380451083 2.05708902597299969628 0.21457680839400458672 0.73467606871528678969 -0.77540601581130252917 -0.63678034414039486055 -0.73002882830510296142 0.40618901629196851877 0.64538495366318027191 1.29431911979974989535 -0.01203670596029176622 0.38715505599925437163 0.16511313190206997059 -0.05205125803590289479 -0.37054870991032673455 0.47888677674766122472 0.63081147627094091845 1.73933112353915131365 0.51192427831808373639 0.09240017520812499052
-0.86511526932074567231 0.04015904687779753984 -0.08516610204353416980 0.95393453903667557725 1.65674476822975513812 0.17841407569170530945 0.68820820730016485367 -1.98933066773028177643 1.79082677737866302614 0.10575959373792021001 1.25416072580927351332 1.37115844626843719212 0.73518145989823224795 -0.26288383171267520888 0.08905615662234170338 2.57871350042115077272 -1.11304322501787988919 1.11970800245182044996 -1.38430518230629262533 0.64332199784067423121 -0.58336509637604050393 -0.52061824660995437153 -0.48947731197664162694 -1.21799129803402239602 0.16232123794446284837 2.88497713833139979300 0.30806672863984102539 -0.11054824502908132400 1.48108115001265794319 0.75895555280732041048 0.27833813497253651059 1.18786370806202734585 1.18266735973660952475 -0.95122168557456954208 -1.07047770457190627447 0.60146380789842057712 2.85976583744061851888 -0.28605466628466480472 0.61670612434920357714 0.56596621802719182526 -0.81517713827845983410 0.00453067129213320652 1.25611710848835755883 0.12567103895527309554 -0.97004699659250526178 0.89256060685326976678 0.48235825547833832694 -0.84575792489750600822 1.85361114073977839567 0.77481554823890574912 1.36966102817292312288 0.38839069163885692193 0.70944376422595711862 0.68607519364921876193 -0.62078418793747869309 -0.06826976296434196512 -0.57826617194711260606 0.99195381191745457539 -1.28461064497883636903 -1.62566415378792861191 0.39277425895434775471 -0.28788780147503229001 0.33064523765186454307 -1.43606364646097972582 -0.45743283275514984298 -1.07243296217230632550 -0.67885453120846217523 0.28133051035874045986 0.33331731217336824091 1.11624405251488023616 0.03015053333803645319 0.71741390648229286242 0.07332450345392937940 0.24228286629164935695 0.23823425788637250800 -0.82583177449141320636 0.78134512087647733924 0.31892208737653715556 -2.14760281463254898426 0.30664657103881171052 -0.11052664019108392190 -0.83174729357014520748 0.87273754073638432072 -1.58633810367294691979 -0.24428388667553610492 -1.13744196790930729435 -0.45538890881930121912 -0.77395706860970781005 0.75956375364487738189 0.29424335384887589928 -0.10610153825283359652 0.05398129693893940345 -0.24455383324059912220 -0.66348476124214339489 -1.05149372074938618482 -0.27892297649955549721 -0.28700805387570976768 0.28317709474666524772 1.88254273803020422129 0.84285949111150937352 -0.27534088338989209932 -1.26978678825475710390 0.65694282270051940209 -2.01704820939904294619 0.02885992093715433054 -0.62850077911139767828 -0.75056808290811227735 -0.66218859238473293249 1.42622251059346116797 1.15673314563064355553 -0.20343000802873337229 -1.20103074910782936513 0.38818806456758730983 2.18492727010550336075 -0.46295376549179889647 0.63596611909271305585 1.45271367398899031720 0.32653163595631090610 1.62788624193551978436 0.44702195270133837646 2.45030239694881490919 0.04083151249556193213 1.35312167581777020864 -0.14681432791316004205 2.30131785730441373872 0.34624613222143008073 1.88663596192727833767 0.69379610489273169094 0.77882112570252159944 -1.83503218274057666726 0.90284473141185772604 1.03198717091982805627 -0.80699782348397219867 -1.20914461741337309064 -0.34466479258965426746 0.01615059405411248261 0.78695339347077153391 -0.08412577168084803270 -1.78910123351461858299 -0.86178181025373079560 -0.42736876015553976194 0.19021911452721299018 0.81407804882942635949 0.37357307661530214649 -0.87998460551189761070 0.11495423622683675902 -0.24274551214960357615 -0.18168633871130634994 -1.59912627582554200956 1.23836591932287043427 -0.80970951809623414874 1.19927281723278356118 1.72382194105769515069 0.66720645216596896621 -0.59838428233448115456 0.09788968457534835688 -0.58621964675262805411 -0.62813497094363690554 0.34944667569330117862 2.99455826907141320348 0.26862032395159463061 2.25848822081528588512 -0.70936405308416572435 0.70075197947002643151 0.44245701286369015781 -0.91214755314999895752 0.42754638903723790611 -0.20003571959557917004 1.29318902583737327383 -0.08502413712424961023 -0.12151123073863945301 0.12009223391317226659 -1.36276570673300168046 2.17426383587180938051 1.06241780204204183669 -0.96505726373322908707 2.11339951894323929693 1.60955023359227067381 1.46614398479312479928 1.85963344895589410832 0.26673354896023188099 0.59547213312914970551 0.26838514296569004891 0.48280676964957752739 -0.52649105159056808212 -0.08292087081562299344 0.10619803691712043081 -0.93963878735186168178 0.17460408661616452775 1.18904856619482535152 -0.27034110230146957132 -0.48834709902802542203 2.08384847803097006391 -3.49346554013278698392 -0.29248120298838214959 1.14038769368983827768 0.28652737460861954499 0.55105638847035254280 1.78451299034569355051 2.14636714743317069676 0.01576096263874309650 -0.47482273541618968959 0.99085328034115016660 0.96103749696717200024 -0.47742842085867087665 -1.52100012052075905800 -0.23046919761011300243 -0.13711891266311937443 -1.51020507293228534174 0.19123577960903401229 -1.20521507822182982750 1.73230799429752435614 -0.86524289436558921018 0.66267263945292176341 1.16063125072417272499 -0.21629682693539775684 -0.90604747839572574719 2.67692870476134103797 -0.57679852995849223429 -1.55038504999818638197 0.13033078511870729854 -0.06958949301910315188 0.09655669449078482791 -0.49728718285359130302 -0.73990436746040488813 -0.87394352290029309049 -0.81240566550893422715 -0.23234180413260124842 0.08752747611275710216 -0.73128914021830715431 -0.16979395743612149539 0.15752438843048729988 0.64025862412411316260 -1.05587284653672641710 0.41330938695843633113 1.35014460903152855309 1.34548997786195267956 1.00958260613538852724 -1.32511832121351580405 -1.68991189357662752180 2.39925365499364584565 -0.94697338740246039812 -0.33984277046867439331 0.68779424620689677550 -1.31308982259819329030 1.20977825520418980076 0.69436291917630865722 -1.69392909243376976747 0.18633966763637729858 2.06130100730055154656 0.73660494692325606536 -2.98523781022546064179 0.66449561317907601676 1.10685277332869014266 0.83123893003751936348 -1.66923432919793235385 1.45215900369054096153 -0.53528328617027620684 -0.85459435563934793567 0.06278815161935891176 2.48066777584902276033 -0.72484843233928852868 0.88588172694330702406 -0.09050517148782578902 -0.94207483795857038800 -1.07620296578126040110 0.33785778650975450965 1.20718315305511403324 0.01975017088047253261 0.37961688820746958273 -0.01812761344407965922 0.42921716606872467592 -0.01648378191615318400 -1.03546309227869537395 -1.28793316216035358401 -0.28591276402847026761 0.21519847094608982041 1.12482562575884270650 0.65999194691769780263 0.77489787060059112100 1.41383881373936848291 1.37081247366258152098 1.00888202335646415264 0.87046732868512111114 1.77877282189601793050 0.98234935333885908815 -0.36322215576598321229 -0.27222754548987593282 -0.16062991232853734980 0.43292703399010862286 -0.30033924767822367530 -0.15926457822550640908 -1.39710588324849038777 -0.29067504310127989520 0.34197653400431826665 -1.38438681375962513442 0.14826118839429611174 -0.15959621558601475022 -0.93149432290802480772 -1.92151065116155161938
-0.36198261901174388910 2.45983846032434438911 1.14871501696033373463 -1.35495912007299890156 -0.47763466745751020914 0.09172309219541399661 -0.82182816832764726822 -0.11072722572470179714 -0.50601619675748488181 1.59813602401263787911 -2.00185430228549066101 2.25414664698768785200 -0.62966202068575516382 -0.62190424518753928407 -0.51414261349897238951 0.96365446754600447843 1.08758891213606512238 1.25593789887812157247 -2.36983093450414195047 0.48767197427035252622 -1.82016923140778352774 0.30272914543425694101 0.53689038273365086162 -1.67046381414181621672 -0.58130399122518350286 -1.23659987733518783593 1.39184987527315939815 -1.40204535092718840517 -0.90132555364043520640 -1.08390686622022425212 0.58844930194711242422 -1.13976812238017277679 -0.45667077788930704463 1.52711938007008396490 0.48191707563331254160 -0.01733263124499481028 -1.48488382565716725559 -0.31273168373550414012 -0.24576152608850124204 1.07600941484455914221 0.88592024857367579482 0.06986833948192108790 0.37991928230482591156 0.34340708818387977175 2.20324455831891397040 0.32722825499903168689 0.05540199480810600874 -1.37332244579617013258 0.82076265720837970896 0.34213199025695895106 -2.08246204218851360679 1.64830136937474858172 0.47391144968676740534 0.76408268736541229416 1.52110684150440200746 0.20831019825586810645 -1.16765038417672606386 0.36617596777212257919 -0.24692508654302539051 -1.38741134139782151813 -0.01639622431315784085 -0.89560154016705328939 -1.05617835564595763387 0.54879078567134498279 1.60642169188386851886 1.46542829946475539060 -1.67089865232689382957 1.08574705366907209303 -1.48754509659708578084 -0.54271475093768872799 -0.18227250508469350354 0.10111000926408175715 0.48944528742530873933 -2.12851072610456881762 1.24849748320762321541 0.00742155597582245218 -0.54631831215390125323 0.13154609319058513384 -1.11129062987916560346 -0.12342933433688843547 -1.27098638775435324177 0.58984284050581059500 0.64139985558600254301 -1.20513789199606069502 -0.11979355509784986311 0.43457460516074281065 0.96767062655073821098 -0.82051813326467748499 0.17529232578946002397 1.31359569355379934841 -0.83798693108243826888 -0.10056961276393842908 -1.37320449650639431205 0.68418467856144038475 -0.27619309509390782553 -0.01301395523162116909 0.68974218565234612921 -0.00127602491553487464 -1.45645544537282423114 -0.81051000623953739499 -1.43566390726176273951 -2.85187800762328080850 1.88043095280652861057 0.79224460522681727781 -0.32551053197637658254 0.81603891904274650226 0.60601196356243669516 0.25378080590345691858 1.01257772690213854183 0.94682816216530285569 -0.02951406877283877309 0.47891763596425784844 -1.12101725039608712819 0.72279466471057340904 -0.64166910273442145929 -0.71211989778332107637 0.59391352538593900068 0.70928983629237607467 0.15562376601604499538 0.04616900677704952050 -1.05769374905542412613 -0.14375115225970383492 0.70106224525430305139 -0.99461256033317102521 -0.15197147536506394605 0.03982321519416718442 1.05149064406104608693 -0.21284517344602230104 0.90773076770187599571 -0.95266486611120204664 2.97622663484566585268 1.63499041522295129880 0.74372052364566831884 -1.44992861545306350735 -0.63379904804565390108 -0.08129611974441926237 -0.91049259408284766160 0.14535293346039898643 -0.66116600264841252077 0.96199219566197002873 -1.33546429528645860252 -0.17547718139713341934 -0.51355692939597519242 0.27325638804200153009 -0.09391907233871518712 -0.51590489210369028239 -0.99821286737153547275 0.52871512743307991222 -0.36553708235109422242 -0.73210901819430274085 -2.67084577316428539717 -0.19968392014732194717 -2.15371818700240336142 -0.05803309396821984545 0.81717681232302918914 -0.18194663969536761794 0.17859582566801349146 0.21777271264439368448 -1.51745149587363892252 1.90363328863453307171 -0.42415126031613392676 -0.00359946406024081031 -0.54220138949965102082 -1.15118918248780599534 -1.62863875453693185413 -0.77199091892233928647 -0.72187037838887146979 -1.30958774010345457839 -1.33153186472500228987 0.98469637831274470230 -0.45140634889702879740 0.82717645242464066246 0.13243201202860993559 -0.60247633430779468089 1.22088766247985658353 0.97755780094256261581 0.46335507792958396944 -1.40043074607202178150 0.47209714038910111089 -0.73589476503873751945 0.07811879133278261389 -0.43419621238897598836 0.27077883944709713049 0.32827483322601502813 2.46008124510032200050 0.05445857569885445559 -0.31014545494940864989 -0.14498060222437766931 1.18877970527391663147 -0.24211247155616483218 -0.34525217230480043096 -0.52025832138776118008 -0.43453634127660173414 0.10180674933880651256 -1.12757943913777647360 1.15962535383619957940 -1.41576008668852360017 1.24310384489715253231 0.52924874859597081933 -0.39829675659133245702 -0.26428474709179189395 0.14083449732997874171 -1.51444005711524742885 -1.03542362545156829690 -1.53310631902943872440 -0.27508482048599802727 -1.05294148141556598297 0.55186065935916861491 0.47706228348715778997 0.36360057362643233292 1.89590883000690602067 -0.77139131129637006357 -2.19158078753287988150 -0.96862041840350854294 -0.99260582578208733651 0.63205171198912790675 -0.82508350810577291146 0.66956583325226570746 0.13365478327039112538 -0.59914863649028837767 0.16937566901500825112 -0.67142443392698913929 0.31198393816803127176 -1.22570049427705818346 1.25597302902940644032 -0.37038351246327244626 -0.01881041369612763275 -0.95699312192336083438 0.06516344104589577579 -0.37570592864947016665 2.76784240324335595318 -0.85299782328206286142 0.26561737747412228483 -0.86883106016419553441 1.61396542349457461363 1.23628557261054949912 0.50079499794461301843 -0.37585498393560845543 0.04052358636576230966 0.18855471315416147404 0.37397682947716581747 2.36669463347565933731 -0.35897022848985526977 -1.51604060397160789186 1.31555427131796753848 0.77684514212423660950 -1.18340110388891339710 0.68767995051363950409 0.12255236521287687923 1.41189145732228094055 0.84662796719751387542 0.66007432387249831418 -0.63251296370827336801 0.71763350352166010993 1.20361263997522116576 0.76027808127407714434 -0.56099856046994800440 0.28802446247620017150 2.55839131212731807352 0.27736952078461324378 -0.59683044399761575605 0.95931923785693196116 -0.77142352289095972306 0.28201873559807627556 -0.14702146485957587330 0.61490068776695538943 -1.64851310745277013226 0.87606277091943396407 -1.24730696026617215999 0.07239736070752110508 0.58347325403807859256 1.49742876389587853403 0.93720668352488334385 0.36341651866239360613 -0.28991200554781693111 0.35540226093979737643 -1.38535946252912811616 -0.91314591913634479692 1.84628013092952425467 -0.48093586084074019249 -1.08743111726960561825 0.75890053627235787292 0.31902238611177424765 -0.21338564367972831515 0.04299282994590680751 0.15800860625688201155 0.69760138422988937634 -0.70485791305935341367 -0.97111600369927841836 0.38179807597124398866 0.60415364953974393103 -0.28217348400667557895 -1.52274824080126514048 -2.79297053692758501242 0.47148647099576579400 -0.94812086222788427570 0.21066930503029379640 -0.71750041704600642234 0.64236378407357075382 -0.12035716204362480186
1.06684797767136485547 -0.59959357300362969845 -1.14278415680493350415 1.97342422790531868415 0.73625363206293648055 -0.66565637677177835752 -0.13537335701427863355 -0.29406231030721297071 -0.87445823371644226807 -1.04605338956953630714 -0.51181881543846441396 -0.79710415183936145223 -0.09716601346276425299 0.80414686055068751447 -1.44604539551200805825 1.06166763312888212667 0.15648565090670607525 0.42641586191688168883 0.24041341654445763654 1.06174254011550472931 0.72025095434730068700 -1.85218520056920699091 -0.39325030319605258633 -0.65539574575186620997 2.03883246598254830317 -2.70515015375271916653 0.46787308811568489864 0.05943588325088953322 -1.98517419938724848372 -1.12857451711533185446 0.38719125587196762117 -1.72326273899521975608 1.78639926443706920089 -0.81247523312038949506 0.28424625573436879122 0.90075897790708703283 -1.17618272156901526593 -0.48550620911672565105 0.23379773126988223630 -0.85140494702856828191 0.68243555274926404053 0.54460992744496361517 -1.60941313221709081382 1.65582964712712166211 0.32315059323105072009 0.34114096138789762325 0.27199498985188386158 1.53959932767252904995 -1.20637095996102772233 -0.53074101768991632788 -1.68815560982998102979 0.08432833185471493020 -1.57446449703369739659 -1.29966059101059228098 -0.07064957195255883171 -0.66196752477051545860 0.75880140044875699079 -0.52236980052844872446 -0.53317239867448873447 -1.44551245185448284936 -0.94630550682180658573 -0.51929642705713552342 0.12997617765006411195 -0.70552939011964010962 -0.92028797103632997700 -2.31903546105125535348 -0.36382866508301930919 0.34979008928124827316 0.24278037042500980047 -0.64081173498502952413 0.91049115849655049004 -0.52820199376201548702 1.26112958660659457699 1.09357959676695637441 1.05730578809926134554 -0.18163571543942019781 -0.03047404524440551488 0.34679126443223817766 -0.34602033947741678288 -0.49477994143926201653 1.49783886472668692491 1.06109824298696509004 -1.45409936628891145460 -0.21940404512235450740 -0.98167511184280575876 -0.15929940160847558261 -0.11907220387024214370 -1.07701745628716594183 2.33819006096486026181 1.11537716573393996811 0.86267235837091982287 -0.72961947319794451250 -0.08321669011009021066 -0.67007245897059253270 -0.31711694414815044807 0.61549388159266527065 -0.23413002457739470752 -1.15362050618398126467 -0.66740911134886160561 -0.94088197933832418141 -1.28501618194878464152 -0.80245742265598951626 1.22525382069615584868 -1.22786712417937193820 0.58460521543369692310 -0.61034026596372026319 0.33496169104335477007 -1.00789519694526941151 0.08042627775206001584 -1.29719883750410480694 1.24739612720979109461 -1.73365611718031553679 0.15324649249730262768 0.59719868931224751041 1.01802075301379524319 -1.86413740918618375808 1.07383210460163969202 -0.73110868703175524441 -0.49382236176334726174 0.80424670471398496119 -0.30173499911897189163 0.81339685019449214920 -0.15467158965530566905 -0.31989390786744503758 -0.25762041221167508720 0.97313161102810197267 0.27023248136225319627 1.45717079237520485968 -1.24813652675123631930 -0.58773822183347268489 -1.02656924928241677364 -0.89888589689743803035 -2.37373613175927911101 2.93828923602704694673 -1.51359504816657008952 -0.35788826326632100505 -0.80498434066426449718 2.12837841564483865042 0.42888826087119974462 0.71287905755322256152 0.38858371592862500643 1.57217997894543648485 1.41167228460869531581 0.68317400329123800784 0.22713816685856796918 1.21327054059935601771 -0.24482849560846531300 -1.95024191708045346871 0.84794326012119791702 -1.98844503731858268658 -0.09802465528456674737 -0.22976664889012668458 -0.02043517895577650831 -0.21469312287884440016 0.90349397900249250881 1.05497415992091636561 -1.22868934614109748260 1.53097622189327053910 1.70953823772446922291 -0.09027644839541926203 0.61299951425615850642 -0.82788802808053363336 0.31206158277265771961 -0.25877359446362740991 0.62226755703914415907 -0.76830276467106295435 0.10053586160172368891 0.86150650798973049671 -2.30411733202649049446 0.82866599004822572017 -0.45880281470336425897 -1.86298071087553918090 -1.90237693245658334718 -1.71376764404084935833 -1.95950388298687694366 0.08154203474589795386 0.68235288073324873448 -0.69860414483552990550 1.36070856507164483773 0.30422239964127562040 0.31044595128545060536 0.27872404743666095994 0.26878138445151228408 1.37843751799053126916 -2.02747738039406799615 -1.15745397029667507205 0.59445089359975111787 -2.27404567884259156685 -1.18483966119643779891 -1.08961970604875046931 0.31601008932099383664 0.45941226650622246641 -0.51809098294374678062 -0.06721477972070602491 -1.22518068933658397235 -0.76398202569913453708 -0.13107597578656338122 -0.34334395133157347146 0.84261280006139327448 -0.33359467294768446743 0.91491965118618889807 -1.76087680919218492193 1.06735262919806173088 0.06906888192546604965 -0.37959777502292152418 -0.01422646719299188074 -0.57043968417178725350 -0.35835744262541491256 0.80829508219880752407 -0.14015450442070623294 0.12859784206861937794 1.75887992133315695931 0.48743678057114026014 -1.53892523952612170213 -0.09255062609563742548 -1.97356263209617721621 -2.58445809656889169403 -0.45266757176141958485 -1.07837023213521954190 -0.87895243606360795585 0.09072307264249399039 -0.19690980963152457384 -1.91478993067196090472 -0.79626239112363783601 -0.41439619373345815134 2.04508994501444130165 1.03388056637184577724 -0.26488054617955331116 -0.44336859476133982927 -1.00252236797418037284 0.83912850540566241708 0.43992641927692927029 -1.05772712852413719453 -0.35004574223349416151 1.04828300063750323723 -0.74486967016915284212 0.03707595821398846497 2.02819367406234052353 1.63381467803695845653 -2.10636326995880063251 -0.21525042107134112479 -0.60483486341834347133 0.06049278933028838512 0.62840106628614089690 1.39740184647903653570 0.76646445022813614045 -1.42703204793580873400 0.35134230712703357069 -0.52932624801686289917 -0.59943416976360375248 -0.82978921096578805994 -0.07216846248727998292 0.14701606316469187363 -0.85053197248012035736 -0.43992203080627156897 1.11620344359767575959 2.07662054412128904701 -1.50142770596120356252 0.88835161590267974763 1.14935432841794593628 0.20923204333747369432 -1.12309538344561921086 2.08795847654663679904 -1.10957735168352344957 1.59350169228308069513 -0.92195042431592122423 1.46765086666902955237 -0.80385329012090633860 -0.28105950745784474831 0.67517022010339711180 0.95290720690457830777 -1.49491357576663230766 -0.05931954267504349620 -0.74061310235821076198 1.00126633759087835251 1.13747098199148766184 0.84702755403573404269 -1.02172676761863212569 0.15948412917812349043 -0.00403760551118113268 0.46930648746583630837 0.09587626874928405207 -0.27266085754836771882 0.61263311552510513192 -0.41528222418020621642 0.18908135432319292391 0.03937805152486176935 1.09884721878145219520 0.33061577823488341732 0.85138650678042870901 -0.27232773060171572288 -0.40375885767098435020 0.65996068049951772672 2.31370959922552499322 1.85318850872411466923 -0.60171343449023950711 -1.23808461073304321154 -1.99424327799467127065 -2.20987279119877566558 2.29059168248255762279
-0.23075591251559907091 -0.13120523072718995317 0.59196845192834446348 2.19721733611541258924 2.65457324176515063741 0.61088737835791784292 -0.90448102050212042524 0.37515622375434198865 -2.19942179363812506665 2.09231480520343460228 0.61124196331793823056 -0.59166178207933339817 -1.94203455899792887251 0.93873211161158032212 -0.09660854029478620209 0.72610313772221246609 0.76333793851557707466 -0.01248760918648447044 -2.19712546083326953905 0.57286846837541249844 -0.80642022712020711150 -0.22040588584309439568 0.62419851628693645562 -1.19192922737507300823 -1.33314130965757771108 -1.43638483803377425829 -0.91410927018919740927 1.93774678447835113637 -0.15306627611103640341 0.28245009299259427049 1.72451324727883936738 0.89155767081575942878 1.56989889708613206132 1.57921098337331411443 -1.30095519156847894138 -0.40983836875518353526 0.30741559381194499823 0.55616972298593614354 0.55824049861461333411 -2.28854969863443846734 1.03171332370959056846 -0.85269749650690962461 0.56078223955347494822 1.10092550867996719077 -0.73515543490512591518 -0.84646175380065358240 1.43496952037620695286 -0.94797494627309430992 1.52573087713983235325 -0.22530666562389617402 -0.27116374867055892395 0.89390061860209568678 -1.79546560506620345166 -0.31479965064061804503 0.86582502290326568417 -2.04020457686742107128 -0.54811940879086618050 -0.54312326665486221344 -1.69325861442516889532 -0.15573443632843730899 0.14554234266816679089 1.08627620603374452912 -0.32205153605761077662 2.55830124531069769134 0.67967210814556977549 -0.95274077860435435472 0.67438483314839536842 0.38865117879112404120 0.74528781258658194364 0.61301619549740971049 -0.17231675513071650907 -0.18270807007686690193 0.77547918923911329792 -1.47893503412816751386 -0.44004497494781402711 -1.70799089573488327432 -0.50664066956313802415 -0.53218883251150794766 -0.70205843471988627069 0.46536257281508680572 -0.29992209876110870193 0.56322837779173506867 2.06977046675526477060 -0.55640678413164057492 0.47097397345871028218 -0.67420116816516995062 -0.07673604102915494718 -1.07503586631222991521 0.17163951342493960484 -1.41654529454986377601 -1.41309248384585206537 -0.67699850779058523553 0.98164329995686350205 -1.40408951655742519904 1.26885497904268662595 -1.14574941900305860010 0.82984602122853046158 -0.39680394566910476284 0.81716445835977813417 -0.22392577775185831812 -0.75366180185853315354 -0.60562170861610853390 -0.41352021903390551172 -0.71057982323179591511 0.16225031215435015142 0.07033859014010333810 0.73472976579739213143 -0.85073452281192418756 0.98519188331904394840 0.06138257066326508610 -0.35579194479490083847 -0.40763318622397526347 -1.05136580505565779831 1.84742348348434148875 0.71289439188815262316 -0.45150804080215184433 -0.18487609718388925417 -1.92160301473827122010 1.90865434999331795574 -0.02973496340980805522 -0.44530167019917904492 0.84118094169513391023 0.29352651244341843029 1.01846008169234547580 -0.02574228125336492159 -1.42831978637048284675 4.32064471918645320869 1.63179365370059681339 -0.30536192569423820098 1.85206820831853047338 0.04497844084970337164 -0.52815351565949619772 -0.76026157774803626577 -0.54239874745918448262 0.05121874296382167985 0.17791080883006907265 -0.47853779154558945264 2.47885342811568420984 1.39621732287489841440 0.82471770874572958299 -0.34612428210098322712 0.09894318616229830221 -0.51306599437798494634 1.06613563079135276190 -0.65766673750919835140 0.11917175164895611739 0.01636751940635097768 -0.62910974016342890991 2.36081218586597962883 -0.07486604344588998483 0.31194523614416830304 0.21126205366936581798 0.72606617393189554210 -0.91770686103779763876 2.45538263846614279728 -0.41231805252627745650 1.65025957658339805789 -2.14266724157620247482 0.28069108219819455252 -1.89383968248505829557 -0.75484991646876753446 1.25793668142619652350 -0.42945762027466211075 -0.17970715834797768018 -0.77852603662316233191 -1.46637857759769540955 -1.31148697278521764176 -0.01654163096093104815 -0.86620538704471283786 -0.26440902215648964813 0.83706620852364033158 -1.88218811917187078819 1.08814586434834459361 -0.67594537245117425339 -0.43551963532441184679 -1.10814123427793709276 0.40432492430376920645 -0.82843031034330483209 -0.98980232160969006117 0.87591770643046684697 -0.53725486129654909107 -1.01496457127027750467 -0.41861625816588343696 -1.75447595726206828637 -2.57406416166049645255 2.09902280343417402264 -0.33632007523305196273 -1.12467415496029987665 0.79105925971537549568 -0.72078923214590262525 0.07358092578677011275 0.59355736016773807950 -2.24295782831514900479 -0.11980815854918147600 -0.19681448065133733127 -0.33701263489218336034 0.22717338010156937211 1.04334158856842407204 -1.45482120886297683349 1.29009109323800763569 0.97190409414454015380 -1.44032524637251846400 -0.44258196348441841694 -0.53746586072649238375 0.07170308030004518551 0.75409859982226745689 -2.42948515119998686984 0.29306805927051393645 0.13302093159733588412 1.53839229342696226510 -0.29142230817923964192 0.08024934141198296345 0.22687362418771070405 -0.47904874686422527219 -2.05679134874330982186 1.64311959189319289898 2.36089905563157120838 0.18215693011241629318 2.30913156859169843571 0.62977106781259251100 -0.92804388875730625674 -1.54969011686820090645 0.31828733641833711898 0.84589466685891234743 1.50417898160497598425 1.00389017027028670803 -1.14192041692535228847 -1.43524531335241500862 0.28073960667074204789 -0.02952486477669015452 -1.84902289526345309234 1.09408990213361301258 -0.74510521019152398114 0.63748219845847231557 -0.23846754658013061268 0.44497901863958611024 0.00058434031953152063 0.76397470398592637331 1.09017792402654389861 0.33157395723488775063 -0.52757316059349068649 0.14995646087038955185 0.01368832124621809608 -0.28225867843950425140 -0.10683170887215938383 1.07807477266592588450 -0.41815592918092275854 -0.54374309408572440994 -0.49114772807200385296 1.55378485696809431893 1.37002009546570846510 0.45835041602623299850 0.79535996209197312723 0.66552778920216559833 0.69235286117214944746 -1.26163036508881831743 0.37269870584862074825 -0.25887039423301722030 -0.33534879831971725617 0.23199665807231945047 -1.11451701439058092902 0.52985732792614514963 -0.62417088338377202383 -0.79648175749273086854 1.41582742857878862708 0.31318954237471813284 -0.15266187795135757743 -0.53355292556869682308 -0.63264714864441151665 -0.17794700646526437349 -0.34741176347680119418 0.04145662164333747957 0.22392165949392178748 -0.68955563858895985163 -0.75977337108357168027 0.07501387628447919731 0.32350308497932311891 -1.83629335061377663152 -0.53309581705217712333 0.48270959078959102539 1.37127962845514672630 -0.97996165396875412057 0.76627691049704360626 1.20935510492389108883 -1.23689267330857388671 -0.18316371471133804927 0.30438691396427047797 0.27027434405112671367 0.64994835187631838647 -1.63100594114801045187 -0.54991305812876700720 0.33906819415623323799 -0.80414264565508641880 -1.08423201576239525146 -0.61460054846489731162 -0.77769604038801753987 -0.84793010444722738406 0.10856873711541172034 -1.23064403096444396901 -0.90834402651546131136
-0.39669228426066882598 -0.92868869656447050609 1.17915179254243351892 -0.66424781786905451320 1.76995538034948696193 -0.44694741191165443528 -0.58799420372511856936 2.21874293353791518513 -1.45388882747138481477 0.37290000535681899763 0.48469150397198262903 -0.28777547336461084537 0.37542326170342588121 1.17827506568987194768 -1.58079707753948084381 -1.34127701127762644084 0.11326659967414308416 -1.90360697657309319020 1.61073712883574637900 -0.13307540572703560611 0.23229863885317125760 -1.68566338744757326928 1.42834651364856068945 0.68799159611809712622 1.72779681308420940411 0.01138306561124054900 -0.01477729464548316676 0.31185606715251734666 1.08763530997872281958 0.59691069265504315133 0.20000117624802227212 0.62317619945195035225 2.85188704531135517328 1.02672495662115981219 -0.42327717783692397902 -1.74795069080767140335 0.13675544702566155841 1.97784339991822522009 -0.13372657329736536980 0.26866084954812446961 -1.13942755505137394145 -1.22292106828838487154 -0.98058892324483959424 -0.16540046789962731255 0.23532565499996840885 -0.00169858639013382735 -2.55790847251979958088 0.79644237021760611039 1.13599648175516088067 1.55421518618903120590 -0.23270293056004787147 1.31290096578431447760 0.42792900594305527395 -0.81007842247847772210 -1.82555127503957415058 0.73418461831232562087 0.90037374755410426452 -1.50079953614007632900 -0.58713088717626549240 -1.40655033171242260792 -1.18540763203835775030 -1.04934102958735064881 0.79279113642104281912 -0.54331092875137965148 1.08832455329420962897 0.69622298431333617952 0.15884967407856490085 0.59641092027184949842 -0.09257269626328940015 1.61247758201607505057 0.44534112140601672669 -1.26605339178393005994 -2.07522330898966744783 0.11040265170572229059 0.50161573092459932344 -0.63596122486163664256 -0.69371051284815454796 -1.41765509150654445136 0.50810483888804425234 -0.10709675057220743866 0.16069883566734219360 0.46544081462922404224 -0.55684087554620109728 -0.70335930584256523002 1.28642863214511704584 -1.00826444501329914871 0.36390486046669034970 -2.32134725771798233751 0.96807659887205343985 -0.38192679399247697614 0.06590439059575481373 0.24416575375264720771 0.91755886535876840515 -0.63390093346665166152 -0.47531029086251974647 -0.65846623372737600466 -0.71950413415883796020 0.69371093862416732811 -1.24073642705872799752 -0.57848197513492494171 0.05655418404986513325 -0.77875463727439719896 -0.21614361318087566000 -1.13628422595467282186 0.18119790067599675365 0.79717774335543933883 0.69488991776312014625 0.48995844568844254541 1.68771393502107258655 0.31917261891535497753 -0.48226472782261192718 -0.69186408614125871619 -1.07005545319544403959 -0.17665492317230147012 0.28907901856244672123 1.63526069287538922126 -2.78661839092388152750 -1.12656682720814860232 -0.56202508705739839812 -1.00991631368117817935 0.16194398663441483821 -0.87363491251311231611 -1.05140025730818464922 -0.14308681311171461692 -0.83531412984576836056 -0.08563246136318451718 0.84380798668244061389 0.10390773460661020811 1.30055320600604518155 -1.79072612849631340737 -1.80044125375816777002 0.63002055745380247664 -0.45690111349355838621 0.74330740850304644063 -0.15248387754659328830 -0.84449844849665434143 -0.68006891412444858691 -0.88906697686868907393 1.06698759273450671792 -0.92574158341603285383 -1.23362585809752345334 1.44768260888145228193 0.30891045968262237364 0.31754317616105814936 -1.22478141013775476686 0.44710317778282232526 -3.15880727417572737536 -1.29948642603850239574 1.15295395365543273947 -1.57900930424434782218 0.47830297779869662689 -0.27164802438348567559 -0.40409957656671802173 0.23601763427765892756 -1.07064157256077518987 1.94770607501843850962 0.61227208119564813238 -0.55892848628959224122 1.18798174184016769317 -0.74954619259042998269 -1.90948565407086467971 0.20450228494930849932 -1.03933931300514381668 0.09849754453385384245 -2.60949510649971072596 -0.93113803019519636450 0.49280619345848403201 -2.07487270373102106191 -0.18502904553545412858 -1.40491110247727735150 -1.10633538318985813476 1.67681072801186648036 -1.66253135966602405560 0.30856000497754104694 -0.89042354257199640699 0.20060941670941651038 -0.44708720619194369794 -1.21288369148153440946 -1.22842325004248498210 0.97339334897273932512 -0.55674610239909771980 -0.09377513962219474752 -0.92982327370920492271 -0.48338705474064314060 0.05000994914108358030 1.80347835578661275235 0.89193317408345407227 1.56043074753882171635 -0.75901065144593915512 -0.57999703155608484106 1.43120582888673886224 -0.56372377533979367570 -0.60852316285350249725 0.86904609433335600066 -0.23968595736072212388 0.26327234660431036994 0.05384829292821544794 0.28521057818552425500 0.81301635858783383171 0.31785805943218969905 1.39442073685084122481 -0.40929800240937197486 -0.46522633312445582643 1.28204633951237356726 -1.58985847349562758879 1.65259084326724359215 0.78746619417960594944 -3.75323673864636964126 1.64675806032152149960 -1.24125193324701221798 -1.37131618973306834697 -1.14079868876976275871 1.01527795877120552426 1.26142001013076754390 -0.60114768161755105513 -0.06683603361875924131 -0.29311180423805033302 -0.76397228515695170259 0.30351839845481259905 1.00656572468875138426 -0.67643092355443246166 -0.93409060730648640902 -0.83450025991030729600 1.97296297645632168205 -0.35753307642290121926 -1.02309370594373061358 -0.23527859313112212125 -0.03002576884032741311 -0.45224757140646981712 1.14871610272951452103 1.20287450163208586851 -0.18659022059942487193 -1.85443117819111824573 -0.17013100094482747071 -1.55873437212757948167 -0.08045230037950253099 1.66466157932033942402 0.75729741294573171828 -0.00750143156283267307 -1.44132916638507957430 -1.48651627621537896218 -0.01744555466170235464 0.13481048804922282636 -0.34246192697584154629 1.96362627048348103997 0.15309438310321415999 0.21232249570112304848 -0.06333461121634834101 1.27729044898174204370 0.29434752685737031186 -1.95164764213655761438 0.62995948819946989694 0.03887214048954905354 1.22020813485951262756 -1.82217968518825235158 -2.03115452295616538692 1.36357878403674748213 0.26169973683818248400 -0.00914695203623179347 0.75816001594339532677 1.15562038412030809731 -0.34009964356194039015 0.62357963144552119861 0.38514563280211927543 0.45952646888868187158 2.05595724270084190266 -0.04738488974004530230 -0.76721853137235629383 1.11023327842790275888 1.33386817127640600056 1.96169246560348820019 3.84534957839120483669 0.21276714669168145244 -0.75133453442135600397 0.42548388245887586168 -1.27433978988739360361 1.31103442770167344378 0.00954021470873735004 0.62933500173382461718 -0.67274417924177831729 0.17112202777383744845 -0.80085747340720192522 -0.16079012272161435915 0.14667245742606752068 -1.29567650958322344579 0.11985560399141062526 -0.25566115098675512574 0.08467089620338547062 0.72453403009189765172 -0.91925422512180343659 0.99644719562717565253 -2.34436574586100743289 1.24708363783457309992 1.13823314726463165059 -0.18315494038966978474 1.30796084228892284251 -1.33166279468385795326 -0.20197943254519171163 0.44862973002295891689 1.02537448783794338247
-0.88359515424376200432 1.39069773692155917999 -1.39371492004496344563 -0.97994254604752761839 0.76112689765080332460 0.28580128023770207113 0.10292560144456969207 0.73482679199249112401 0.51667286136274714892 -0.39925425933051067462 -0.61632578407876925652 -0.29626112033782947552 1.30231762078033597163 -0.04237799688771962808 -1.21591667763154398507 0.96037497335915267271 -0.20855800312702632571 -0.47841833167810482452 0.48473369520092401963 1.12452044260058636738 0.42329204094207784070 -0.93636168881726966617 0.08560969635840162684 -0.60648605528266263942 1.05069025791973436057 1.52808718508671836922 -1.50908213335325158688 -0.73476828357086687582 0.92856013453621899512 -0.74507314632737153826 -0.69432248400388485443 0.22392892548919385298 1.04647447359523204646 0.33145786228527829298 -1.71939831132439691075 0.45159801211936839715 -1.22344565910970648481 -1.11170161504304076949 -0.01259972224641021064 -0.02166906421070033048 -0.07620049196239350731 -0.59390002705532318750 -0.61502728942120910016 -1.55087810932688907606 -1.20103411354627076513 -1.25275784632947306818 -0.43824389705530197858 -1.26332390232693514420 0.32637451990122340328 -0.99706377246945887549 0.85221725971225359419 0.39371751098844326444 0.45500301504840851008 1.16612426584191686274 0.08589529884577203067 0.01772734365624078351 1.22053686533822780547 -1.40481532593754798732 -0.78162162077845498409 -0.73075395819710409206 1.05098332230438851198 -0.22118164825361294468 -0.70282213511535884809 1.57494386270354191915 -0.43247070804599446747 2.21144665644139015726 -0.88960669733432329309 0.53111872331265230773 -1.17205125232182472139 -0.48009652518876222427 -1.08492938597783927790 -0.23324551160539866435 0.28474564246835298853 0.27701877258475154919 -0.44112721156061673877 -2.47864958074788788167 -0.03867037448323160792 -1.25143744407348500580 0.31765476649099866346 2.01315247196456148515 0.40662137774305862070 -0.70873541701808961957 -2.65661890452904314586 0.37492795280855739648 0.66355137131770880465 -0.34954952542861617015 -0.45282954079766846167 -0.27003623061890486001 -0.41991160618960593487 0.14593688285241707137 0.81304082814402278689 1.02914987703423377319 -0.23658599975205713006 0.13549486610660899100 0.35066181110037514257 0.43195938905150033094 0.44907941103968335161 1.86821126037738882708 -0.07288655550360129132 -0.59785735284617547158 0.32792296695849115773 -0.46859027126135421870 2.38583225136164411850 -0.58252915660112436491 -0.18978138738361755022 -0.74851775865116876307 -0.16675659132593462219 -0.01439320106373248240 2.12982064524451120135 2.50533817739953024173 -0.02549497872084565894 -0.09392592453866036029 -0.03750401026214078559 0.70893631441769189294 1.83438193533420834669 0.95959120007779874495 0.95197411840986889686 0.11455732461312161108 1.51585870542790113191 -0.19140313282819312879 0.09802205291603890980 -2.25663289515135634389 -1.90250409823985133784 -0.01839654336309306734 1.20143279436915939584 1.43598136307471224704 1.05333394600123431140 1.28825626725093300706 0.47057102144690177159 -1.49486151979999681849 -0.00536589870749558037 0.70499184294629879677 0.39249713502403843490 -0.88884061138414682812 0.30674992734068234901 0.63015295910612012520 1.55734974369781942194 -0.43641849952746664121 -0.45680634696260169481 -0.97202482808475298981 0.76605425393220405450 -1.53677162034910264055 -0.80761565756584230424 0.90589347404646491935 -0.99491744511640867188 -0.94038459512955074882 0.99805792785477565054 -0.09851645556558391581 -0.05835274988655611561 1.39278911484827494505 0.42600075280493282515 -0.53975871046446910473 0.72266440156260347560 0.33714324194080969033 0.06998099306584422419 -0.82396364985487546839 -0.83222910649615189360 1.11616375403704881641 -1.71702892822339725498 0.21322556403844891704 0.25891779896281358342 -1.98183820048158287896 0.58711413041584226136 -0.74910090632523140819 -0.49094403525886554096 -1.26816255522771159647 -0.52308732282452652385 0.36725270747828270279 -0.77967555885233352786 -1.30234532795641455571 -1.35799259275749650833 -0.40453894511612981111 -0.25397715847763030483 -0.18356168660960398009 -0.47388552796337790607 -0.02997171467668910058 -1.51538959354678559599 0.28574716840435337994 -0.05777053924322388817 -1.29340728307217522897 0.60244953418234681308 -0.92168750859317050139 0.49349518082569571176 0.14174866663964594271 1.05389915820370227983 -0.17442974674238637123 -2.08469937168527907900 2.63447830846684549755 -1.65694306718473649553 0.47714049238756850446 -0.55444571941111930879 -0.31306359441810088784 -0.97485310581706374755 0.27517328364235094096 -0.26010520131998143833 -0.16937773401408659502 0.14385038569795299823 0.39639938725150908327 -0.95392522364223708564 -0.87950339036841806983 -0.35072669831565861376 -0.76742680676211394442 0.58720233395191379078 -0.30875362182510740494 1.53129436040914890249 0.31393257547479919145 -1.00304883357997454141 -0.78343307423053543115 -0.69306822493387976181 -2.46073379255283697375 -0.99763566669042469393 1.07267298796666166183 1.79988850174945302918 -0.02921819615942511383 0.55884690813964144063 0.47406438710105985868 0.94212239438499578714 -0.56313039349474591777 -0.45127825961183898329 -0.72244060563961476351 -0.16573858111112532709 -1.62460040811660011428 0.37956260828670151941 -0.79115613600060585853 -0.19373597716885970765 -1.15455936286819094150 0.22539307226757895886 0.45987760499042129592 -0.04319470747508262487 0.68991565383688868707 -1.25722353391070695849 3.17299895350843419450 -1.61343025042687759907 0.38207575466570287137 -1.47862339519385677100 -0.11841351460135604579 -1.25550855306583208915 0.43677377876492101683 0.12921959644289141012 -0.39751935129140381076 -1.33213018427124185727 1.06741747431278310998 -0.82169048306420233718 -0.02304740394055379907 3.20939101907862056606 1.33230379076403115945 0.50430991738092412202 -1.03011349123068529643 0.51387348998974036185 1.25559588329753735181 0.40960630325078328795 -1.77124237018214758521 0.88013645952191998934 -0.73925327676619589923 -0.79520961778528809205 -2.01612111455973996854 -0.04567543113232098995 0.93704070501310621211 0.19811626188453229647 0.06788727845566976116 0.61964528608106872465 0.02124977126936451396 -1.36134761843340257315 -1.35358153237157541326 -0.28760822091490984009 0.98134897794374931213 0.60842908145163909772 -0.40828044726489903793 0.41952239321181555853 -0.56330314227129629767 -1.47239394428997361075 -2.58369126137699334222 0.07238101332438452717 -1.08041680020712660415 2.87523269584537466415 -1.48711439008330015277 1.61428370550340805067 0.35995339896277911418 -0.39422080883265403495 0.79541382923204762001 -1.56871287076535281813 0.43085561590599458226 -0.17067034134075204088 0.18086776479105340365 -1.36683055432354727543 1.58899015760381390194 -0.91722769684294447323 -0.12983952223109421209 -0.02753815477460630143 -0.76563611573556034084 -0.11529505744415190216 -0.73137959003249541912 1.06412001093668884266 -0.42574175419950871513 -0.00978584013394120933 0.97829801299818508475 -1.28267957188311476635 0.91989609484329726286 1.13589292057683954873 1.23779736387678940268
-0.11940085504706697550 0.53202670834067811168 -0.17109295115474096316 -0.04221087734075772147 1.32947134363713814764 0.57454488387926427873 -0.47967665504160467149 0.41690122648031091579 -0.61056701440346317078 2.06368046616284805950 -1.73076545411034388167 0.38569497891962378766 0.59391151176405510004 0.28859749547425511684 0.22730640601289769931 0.71803354897120319489 -1.11393420326409353649 -0.05103965175189461440 -0.91181079747557680637 -0.14226141508196196717 0.81306714765042298332 2.05524305255780470603 -0.72747027599288704991 -1.02717967867406922977 0.77829576652457932440 -2.72156674738842596639 -0.16057062538517033468 -0.27798313711914335311 -1.46269766880150675625 -0.32484907366725462863 2.49376943551061058812 0.29716118548077175010 -1.54528920557328675045 1.10200807237942965955 -0.46618898264984853785 -0.58207833051703239402 -1.36690483380327609808 -1.03457035462027602257 0.37680561791277356054 -0.46945823261166202967 -1.78563124267006334556 -1.62547169586540052322 0.88327029582440164113 -0.23146174797838509063 2.52247447147332337636 -1.01770997369353155548 1.32679586921236247754 1.03256290225111158065 1.09909287317244763749 0.23106406406507942752 0.76386503937766903061 1.57595712384893449354 -0.51914579347216294192 -2.76428226407523736086 -0.10093718643400302615 -2.36079218784441113854 0.20452497416328599411 0.08870213452376411734 -0.41080689711400780739 -1.59078095687531395619 1.41785187527158740295 1.05194201433382739097 -0.28535196730850082014 0.50612510078438277539 1.29400474862126002584 -0.78042270280442194164 2.01064026693300945681 -1.67069335177659561431 -1.41598574318699310659 1.05678659011810549551 0.87153882983307184862 0.82093034914336326935 -0.22358358860930802048 -0.64010382211322158774 1.03414570473782574389 -1.54681523699094114477 0.46923609467758187197 1.27784823915885703549 -0.90297276974822271445 0.10571504229307782108 -0.82884079515100539393 -0.93535212705264025868 0.09326393657628083422 1.19937642567439972652 -0.13443384094744595392 -0.75133538117851761395 0.23090575163627882760 0.35863046274070092823 0.12589155378900354632 -0.19447138766094479445 -0.16430553783359294617 1.46604038729796481988 -0.51889028670863501791 0.12892296142928053038 -0.40219873250826299049 -1.10156824104957196120 -0.21934876403239259024 0.34096692979669457335 0.96347720466430941677 0.37697349572377880644 0.23461358503964763189 -0.98077297444318090047 -1.45193271525303124747 2.40427784828952262330 1.90731719983094194504 0.48311732108332244851 -0.53776116090495240663 0.15670306315172022327 -0.94336655420354598167 -1.49897834315928224491 -0.45878427358859130702 1.07223045950045370311 0.88393453263064303282 -0.40779228245282439502 -1.43549723222556080415 0.14754218743029293148 1.07151346009663139824 0.12570028880125527770 -1.02663045206592773440 0.14690549541955649770 0.03435167141734758040 -0.96217517206701341781 -2.55827237037173382816 -0.51661021476894242177 -1.03131077813362281859 -2.23796531557101685550 -0.72383248080562301308 -0.40129814705498112470 0.07146800428830885066 0.31790726892975162965 0.22257099888257844689 0.79976765582459896642 -1.26767900318337845000 0.41175234697530477268 0.24751841659595782974 -2.23106147425739331780 -0.71725824971868235025 -0.65837174482705163037 -1.23921086822261750093 -0.48123909677604670421 -0.90915902105567081293 1.14406982928835154745 0.28521887130741968575 1.17590772556146738737 0.53122095388849854825 0.40176997156494054231 0.16049995708843906028 0.74131077787923194133 0.12031983419899083820 0.35987622233156418838 -0.89729712784365267542 -0.92321849960710866689 0.33459401492581736237 0.31252119052228249929 -0.51174588359888839584 -2.58110726868448825400 0.69985208209245375333 -0.69531988837209923737 0.15926086243275142107 -0.19342042929493896697 0.02884430315658738711 -0.52817566416118366668 0.90233175674948473688 0.86244773243398298312 -1.10528005932269501876 -0.76699171203513560879 0.83594103705377709179 -0.18569594124199675922 0.59735939026169049271 -0.94818253118318718276 -1.89882426043074370448 -0.99734607808056074951 -1.32244694363146919613 -0.67430469336801990288 -0.68506785750090726239 -1.91330495909949416244 0.79060135469701064981 0.65774099099330796125 2.52366219203891439804 1.11197398228361055139 0.05736918822720964845 0.04485803346574136763 -0.97736527801132788706 1.06115841670688593190 -0.96974088701601934837 0.51689035838529873157 0.92333265653066287637 0.88712451038956552374 -0.74429131841108520096 -0.40751403367203442585 -0.78968592173442864190 1.12246504385886236577 -0.02982248067754966411 0.99576409581352010036 -0.96550053428784410325 -0.69043042308432478471 -1.54822040251512116349 -0.49559546727210690431 -0.14722562158667740206 -0.53408884242685905619 1.05148313891993172575 0.57892231135015703725 1.42561868228542776293 0.29838167811302657162 -0.25361663299923015158 0.51453236131690638366 0.64023644511885779984 -0.41317570559542210473 -0.01964634669913332271 1.25851251914337769477 1.96653422409916633917 0.00494148019636749675 0.16663615298135731058 -0.59697043782945169443 -0.95933019512159700692 0.64149123938001806344 -0.65437128806340982834 -0.41257614261348779516 -2.65864225201373072238 -0.05408261560110653315 -0.05364778286690681519 0.27842861780383920678 0.45649574967611189491 0.99457495362836889630 0.46602631949386780219 -2.31781719638681549256 0.33749233076189755209 -1.70471261422811504183 -0.84683038491402939929 0.50839823853532284392 0.10367247553189107290 -0.44101510217427752902 -0.44816558939153922081 0.39738185079033999658 0.44249946639876402976 -0.37026664053002433796 -3.03541735704125992257 -0.43826233712219431204 0.91409259237676798726 0.53101914689696572136 0.39887927694671171386 2.64106416945504873794 -0.76858009889997791486 0.98498361903450915023 0.81957368130462915357 0.40320204626295563788 -1.21580914831204234261 1.51964975975734573055 0.30178559991231435067 -0.59590407930848543483 -0.28792830598781926632 1.27117716873681674272 1.13815665753267314386 -0.09081093301956570663 1.03081479953630750224 -1.89121086038022090392 -0.19698880206163149609 0.15813738454991915772 1.14938807141306864601 -0.98868326082316637660 0.02598382039212474709 -1.23032405709258418902 -0.00330746941286586601 1.79424141982075147084 0.06159972959246104440 0.59922523381629944073 1.36114926127526714161 0.54532242724322699257 -0.63100073190670746826 -0.25452369039893324443 -0.02892669337991048140 -0.42414382180911414100 -1.77661237380378222994 -0.73477932712344351529 -0.48844319095428689881 1.10528303259923887936 0.09281830185024012025 0.41563551170951990033 -1.14771576627810567572 1.44418115098432675580 1.24293572649884720427 1.71610014163513557861 -0.76632535781333721570 -1.20878499985841525444 1.71199987421182076019 0.43193767072501926263 0.84142246579234392101 0.33957887558672028572 -0.76492582932386821160 0.16484833499759546371 0.34826059053752900230 -0.83126779336688039201 -1.64561072596364521559 -0.47738312245999953154 2.07335119687390090348 -1.40101529321853068843 -1.54500287428042115678 0.34023314460080589239 1.25118217563376155077 1.88552500711793369348
-0.64423610771498718286 1.39378040384259227480 0.49914180664674329124 1.71854459261588154995 0.61848150912417720892 0.47925489315300207060 0.02677173529751455255 1.46839332833104596610 -0.25283220900177388879 0.90072445215584906464 0.12512446299884913414 -1.30853277996363259739 -0.56610694478425360732 0.31921108918923785103 0.16676429714213358846 2.81605086006601323945 0.37231152266572764553 -1.55147769008404967650 -1.25536677792918638374 0.40424514341832340492 0.63365057305022320921 -0.90193349281484813673 -0.57225727771605916505 -0.73726461950973420922 0.29402193140749421918 -1.16099437309126440887 0.45264181349330184778 0.28788624449456390320 -2.17422415615198394434 1.79214747863564771713 0.74772731133041825391 -1.05539046595040408860 0.15505826017670298889 -0.60832244739763607910 0.88545426827762485633 0.85795445429362970913 1.99306698376239910253 0.07361549983076799697 -0.46808901602820235377 0.36644787647802312680 -0.48342307523786948176 1.01461336874455021473 0.90952092833479269984 1.23237031394771356929 -0.42047845527777377717 0.27353526536753297593 0.19260269273084931752 0.53114983441510765783 0.51316332255189289757 -1.14461341442453989892 1.63305956226303661261 -0.59681039858939421983 -0.83002862000175314794 -1.75312315067748336617 0.25930533312432357818 0.33857061530569859675 -0.69995851293712618713 -1.48969635967108460228 0.32431521466820145694 0.28344285200735608310 -0.40654976055902192211 1.99192808796388565185 -2.10652108720801667374 0.66618119213933968403 1.86852963742917044243 -0.89093568374254972220 0.18897584606430306575 -0.81833012569787033641 -0.31085828488954897475 -1.59612355947728645766 -1.54309769162768017914 -1.20509076686598071149 -0.37605232833564583572 -0.53651274025132245082 0.02658800725494676540 -0.66071954070011751359 -0.64944210859676743119 -1.80031160105421772499 -0.63831454830826994673 0.38553656485057946623 -0.82837002057328068538 -1.48369205191217301554 -0.50721269711213667897 0.75189832852888016657 1.02449165304500056095 -0.86058065355843804678 0.39709285912003644547 -0.60238235844414378395 -0.41548800824368420370 -0.79609381583339133837 0.12889194654347577162 0.66717626105290883665 0.75893986600310126001 -1.26650381793147626119 -0.23420436572922662122 0.67217097707331663337 0.35414631265491497425 -0.59651656691752796835 -0.33891930026040473223 1.16897434400375344055 -0.70120450362929975796 0.19436818482063070168 -0.52958611042984937711 0.69592737793661285650 0.14756859044459888497 0.47489615589602446333 -0.38550295479481250238 1.03287133336919456639 0.46640337854037933196 1.27858519433310457991 -0.81283553609989800393 -0.49652266373806974720 1.26986413011485432811 2.02929066363194987588 0.52781712877277753293 -0.49565853260203512898 -0.07766776118688946406 -1.73456720774744566071 -1.67158574222047495716 0.80048547440206774262 0.33803182890614080769 1.07510312242573080610 0.12478394686546108450 0.72324366783580662510 -0.40327099215780631836 0.43706482349009168065 1.82778691622366640246 1.66485493284960739402 -0.54218767776528009605 0.91914206981311041833 -0.95505706620341102031 0.34159843593698424602 0.04079677615862909584 -0.00400724870820503513 -0.95637077683823612517 -2.32543075013936517692 0.39524083792352476818 0.06031015948821499134 0.03808459604246723640 -0.97976107226502096026 -1.07400811411154450958 0.36896784611389787933 1.71813915551061291431 0.78311261405719834183 -0.27166317190311323193 0.55942791129678171025 -1.21876607636963574244 0.41236313494499987620 -1.38812628098902890450 -1.16705600422207300682 -0.08241826199980309409 0.41583040108859203876 -0.50649750021750306050 0.45734355606509974335 -1.46191647478035369190 -0.31484973675637034640 0.89583164255738489956 1.81437509040921018943 0.54983380536885273493 -2.27800469470829769492 0.68034795699418082471 0.14946050228630516910 0.86459331115933246714 0.79150039767065027974 1.25078639817705306037 0.37478402934751159359 0.16733382361738780020 -0.84356821012947547089 -0.14581115510664480195 0.52607502140001438651 -0.33783647250479387214 -0.05413052487305052701 0.71204701056904173839 -0.59284567911082852731 0.81689394711726193155 2.08299451096232068892 0.52421832748808971925 -0.49491999276900189297 -1.36313767280348163702 0.17961529991738883760 -0.95559051794217320097 0.38353311136950068994 0.38685271032436102656 0.28433857139739204811 0.70353502795888078758 -0.69872121723366165114 0.17574504474415125754 -0.44542726285249578666 1.11558778509830491821 -0.52004988445683086873 -0.29587508607300344599 -0.34552656642282447708 -1.81107959360802106552 1.70891931020104537176 -0.58260739769863090221 -0.41680249622272036447 1.11097653339511848181 0.20274723820221898785 0.19976190148553810144 0.18913604295011551826 -0.59556481344470391104 2.30049139872772645532 -0.06714104103470810991 1.47603078768397177889 -0.59276360962298602075 -0.92151311442869088264 -2.40441788758325092346 0.50840991882446695538 -0.06721579209788768050 -0.50701872852330676089 -0.08451418304838897999 -1.67467785054251416810 0.99123287154636163798 0.26695910167422820525 0.27893087139372840788 -0.68217834043040459502 0.69725342560413383630 -1.70091927544676235762 -0.83899542207732258348 -0.43420372249117711316 -2.26444361505175972837 0.23258941957319800853 -1.34320231173415538528 -0.26614123397834604789 -0.24181239166503537552 -1.07920172596737118376 -0.09288703149128542391 -0.95669208951076478709 0.22043212427212829918 1.95913313517287424048 -1.16415181816360169265 0.82287650903552922443 -0.82390881068035370927 -0.10617281142727011400 1.28333341815229795557 -0.59111123819781485889 -1.25724577268658999074 -1.20983856078123519495 1.20528789381068013320 -0.35469251578411531423 -0.35133169738639558055 -0.24888220772477742671 1.69770354300808534731 -0.77392719630026529654 -0.38199577145225560582 0.48711484827245443707 0.69491661523517611609 -0.08573639554836801069 0.34573414319828055241 -0.96154768245227995038 0.89314548927051395921 0.47851582880214088567 -0.58765571986816989014 -1.31373678967839846443 -0.26042969431644052980 -0.02978448945471727158 -0.65236647551069804063 -0.06833601450866873261 0.15690940706762049328 -0.64053422747048294195 1.19131136371274171104 -1.25809719306175082920 0.05314679070334658861 -0.75315064553012966986 -0.12477937379756616487 -0.46251616324400129932 1.52915589007137664446 -0.05786512573500329770 0.80168880321560820335 0.42960568447040531348 0.81903984365442583648 0.34472258749790057886 0.33821117180818327519 -0.38528791293166242404 1.18352568183750417319 0.20448219330981454167 -2.13776678504500639022 -1.74322666602829534632 -0.40685916840387259530 0.39628121846053554478 2.46285590716124147548 0.92344830501471475426 0.27327332953708738383 -0.02911462994917742020 -0.21781521220000210626 0.83169829692432828416 0.82135275059545975740 1.97214379919366566973 -1.22927968419762412289 1.04888850777746522880 -1.02336275580828339749 -1.43802369495376813902 0.52472462025093347116 -0.81573626980386970686 0.95936948953919864991 0.22625049355242274340 1.80949204728501045203 -0.75549407565614168369 1.01922339853590360192 1.68949830067395079247
-2.00504691704617332704 0.24993432845006474663 -0.11337048318865407259 -0.36904499895729286907 -2.15973208664057869655 0.87592399702577861120 -0.01518004849365857736 -1.76595171583803822735 -0.27494616269688176846 1.60245469794559536325 0.11211768517861003813 0.39289488073369355225 0.47350590499733891114 0.71023022632373811192 1.35411334787643111710 -0.09345578821428371374 0.97240190005238757998 0.05391568539048344211 -0.49727979497736723991 0.85367409285004713926 0.92436589185243689393 0.04728017504163840867 2.08076403539652243779 1.09950122480879919351 1.10280111814111236868 -1.61079765162794963373 -0.85770644661578110401 0.94619807449282133938 -0.77712614151285264175 0.78820851012209236508 2.91560895664656882786 -0.35185967933802497765 1.54981666449802646390 0.97338025528708804757 1.40791376620966457445 -0.47061664348560966475 0.88677884620587521525 0.53102130944518810551 1.21648527353215119007 -1.37392650091158863290 0.22214011795269344995 -1.33051606705554181787 -0.10791857284584163712 0.65546089501031334912 -0.29384061723209820016 -0.45134788928328423152 -0.80435438943162529402 -1.13659134868983180411 0.76441050691607503875 -0.45328770272976659506 1.13159675182797481163 -0.79573599282485407702 -0.61448947509927298594 0.79781918985489108653 -1.04853980665471935296 0.81513497237585696986 -0.26523275437091575757 0.18895508130060331697 1.62974695326412621910 0.80492705301901745774 1.38249218308816557155 0.09345874479472951468 2.78106911444774995701 0.20660870878674941764 2.11886762144560636401 -0.63296500000435773625 -0.67845400759574914229 -1.19410637780922646023 -0.01521970047085302417 0.36623070950833425119 0.32787771898197909382 0.62623671668288760639 0.48660296340752495770 1.90606271321473941249 -0.54886550322605798247 -0.23164037710649515445 0.48493112868833232465 0.82256987757630628533 1.47611286328426816183 -0.55588048385897859127 -0.93326335695300288720 0.41639529518723189527 1.05624903148535009834 -0.79347894739373237005 -0.82592320805464514155 -0.10688814450067490869 0.55962292495575716167 -1.95953224296448103026 0.99484406406150960311 -1.39432847453665975657 -0.08857273097593806876 -1.95474943696456682218 0.36527979860442316706 -0.48200741753434872550 -1.08273016173706193577 -0.99918652961111298350 -0.76086501120022542732 -0.74643329154629334266 -0.97657537436448338397 1.22683887567259497509 1.32645100730513965104 -1.37300177653766386499 0.59924760605060356511 0.44121273643154823585 -1.95542922698021492955 0.84808904410640650884 0.57613085302213629113 -0.12240482031010602171 -0.49179070271106750667 -1.00849535748251684097 1.19628196913492113040 -0.35814928279513569276 -1.78040643405016885126 -0.26490294313730555764 0.47435823594883264054 0.21310381704077091536 1.12155470657010303270 1.86115989779566226581 0.83998436399197728974 1.24940702478751330951 -0.85383017209707612327 -0.07118237249372244557 -0.44227347778195547079 -0.60780452895399650348 -1.11477599965053753017 0.92505750514991880173 0.17668182191656187086 -0.98355828644319232001 -0.90914669497916777985 -1.15992895898574110980 0.00559832549976297875 0.08696157158647066510 0.46425413945207655297 0.21442598900386644623 -0.29570857229907260288 -0.29798543947420885747 -0.35252763042473650446 -0.95835574732119599428 1.44109250969813196264 1.10333286994995982688 -0.22953446204203961645 0.54264155175963013633 0.46862266348411035777 -0.14850504570939579430 0.12151388064874224515 -1.19412201215661140097 0.53009078384295871267 1.15758832290491708861 -0.32815200250903708845 -0.44025300891490087851 -1.38122230385209965320 -0.16954086554823111221 0.54736235691799373093 0.81740111703719542380 -0.44944724631732463349 -1.29452159353440765521 -0.57273017307098716966 -1.31622109249028818034 0.23561130108301611696 1.27067058355346995668 1.23044766599059052226 -0.01233969036830066639 -2.28972820368747287390 -0.26741581356531479718 -0.05859047694406711859 0.57356719825705426707 -1.01241162906004622535 -0.30172804132782232722 -0.07204363808025847360 0.56991447947974660515 -0.83440398623502720632 0.28233029506674545139 0.53845719346596376820 -1.37878543023374078302 -1.62010796959593261768 -0.70650404398483490631 -1.06001092091934001616 1.07182558177192133186 1.91864205533405618453 0.41842471242747986127 -1.30185189035058623830 0.25107517234061260680 1.06756352869923154536 1.53510113247255985947 -0.29146282748580359945 -0.57854789981598719883 0.06778974352094672973 -1.42231171251696708602 -1.49344767050644922080 -0.47757224532837577735 -1.24962077207169786064 0.16141479408127568096 0.81445356905563348615 1.52381529518287539560 -0.60941395151937660657 1.49025827333737570513 1.41133538843413908204 -0.12184895636190608281 -0.23913597482393819660 -0.96622272882174853326 -0.81716561540245791218 0.45998370179625047705 0.18433912292976420422 -0.94598696189824293956 1.50513979923284435536 1.58944635766722397463 -0.35875344590277447043 1.12387659308886544984 1.72052764775214517279 2.06746679650576092868 -1.52726980270063905643 0.56369668012261109347 0.75903784461890588808 -0.60613889839257695247 0.12396244241317805335 -1.77714171628551986792 1.73480999578754335744 -0.94368147090255827258 -0.78308207113690164736 -0.08648304622015268173 1.39310315130099637848 -0.18045284467092634340 0.72494389580057916334 0.52112059872873972566 0.70711777710382706097 -0.48224712563431287871 -0.38874394941439638362 0.39774982656746526999 0.15584584580712718127 -1.17811711194684387571 1.71342052756945939507 -1.11550081690502467247 -0.85664221643854254751 -1.73560789305392559889 1.47109298244695940738 0.60550830755558904261 -1.27471637424252737247 0.32853652047054743290 0.62167442492223934369 -0.28703538102836934076 0.75477080868149371007 1.27172281748808391200 -0.27873226038025633589 -0.62803893606833283147 0.02177465637665455117 -0.37399176468781786253 -0.54198255694218078204 -0.88402813107386879476 0.75132621684958877939 1.12402124004463122020 -0.30547581795145345440 0.79303618517842378033 -1.06871700184242901521 -0.69036656752592451269 -0.52127637559026551717 0.67137034996704270107 -2.00102414290734875735 -0.01444993918989383695 -0.19000789409331692026 1.34821953802798999433 -1.24583192832079592272 0.74096510804488058266 -0.47693763209180423113 1.34148497813484435248 0.37474225485042633732 -1.59175299708255701958 -0.14553589187783549930 0.30679307313955633818 -2.09929268993079931604 -0.50675535210198896507 0.13414704794840770496 -0.45989062419968779194 -0.40896688664073549413 -0.69000562085958794256 0.88816614557271378327 0.81650952499580065069 0.57627014098389650609 -1.58430332441278687305 -0.07716123087191643914 0.90188782836205649840 1.30607179560255937112 -0.61183040646765785020 -0.91638995507593534739 0.11573987657914275307 2.39344603764421659520 -1.00576621602776761222 -0.62226447943954565911 1.35500818370541376012 -0.32327018544574603887 -0.68819523373551694245 0.27489639175431479501 1.43020984998358313689 0.60829564949336600854 -0.59356406179811282975 1.34643370457164035514 0.28654281412539250873 -1.23427380575658585116 -1.05709646224952646953 -0.87337153255229704740 0.07315467675299229533
-0.56398591331076752819 1.64590945996100357362 0.74972730767436546184 0.56705896689241375164 0.40523591234871930711 0.09915895557210585576 0.52727918748668245463 -0.54619074320800986566 0.84021620830872822960 -0.99653158753242232493 -0.82149409819784424691 -0.12801525999343363327 1.04407106127264626139 0.55249877190930396509 -1.02329254910317901661 0.94649763107019890818 -0.60107428982464494727 -0.76961071980237660828 0.19339133414756942697 -0.44800930583755227410 -0.16754373797030441828 -0.21376911239387169639 -0.70258882023168889308 -1.35828588870123945220 0.85951518018022665668 0.64424138619924220528 -0.31366256810710896330 0.31714928335863329378 -0.00388620250429626106 -0.71813089651121930768 -0.02713352095248384305 0.11263730393284784870 -0.62094267315746320968 0.24492596453862494621 0.10401300467760996038 0.45777831734091495308 -1.27106294429798349910 0.46351799546679206543 -1.07556564346769678586 -0.85945491213868940861 -0.94115476115708229798 0.78227831331561337169 1.40681469115781898616 0.58085223913104822024 -0.46271246531806564661 -0.36410893063502819400 0.79768298528895420496 -1.49655817014082326288 -1.23034435645598505538 -0.27662931908757487642 -0.90280887334665427257 -1.48166870255214555563 1.70944860733579173662 -0.62938925039040083398 0.49762384561742761813 -0.13164859246441321106 -0.78049669060840887180 -2.06808485385365292686 -1.08108213184237222926 -1.60360450341905558247 0.42242888852443660763 -1.36619724663380548435 0.75131307227823851402 0.55365508976742994207 -1.28850063604693376718 -0.68462055591336457017 -2.69721248622605624945 -0.77620625352985628265 0.77642621582455995100 -0.09189062272740670945 -0.04415325182631719275 -1.07788061346308627897 1.04046164246751904336 -0.26840161685890084886 1.64705051556351245168 -0.42902058399305320613 1.29769933849442731244 0.88934221542409430672 1.24043404157259828935 -1.09769181237157975595 -2.21045862270882365053 1.05218818624490983993 -0.40196986525859074169 0.70305361381522879505 1.72526061366811234166 -2.27929766825012247722 -3.85147340481707445292 -1.22905148969618571719 0.38958621528108688947 -1.46785961883366700143 -2.40521633881908680763 1.49779741278408073946 1.10963942535178872184 -0.40317900088383346047 0.75165573281202735512 -0.45697764459310158403 1.58573425426644742942 -0.34951637615797320757 0.09906674528907488675 0.29640818146521280552 0.46640667339753660858 -0.64273365161579842919 0.22702729209311123260 0.37854110466381041267 0.39929520921899791519 0.03294398666987474050 -0.55208407992221697480 0.68924751826192520721 -0.59335827291002518624 -0.15615300463708778334 0.23464143439954823767 -0.95509957447632354288 -0.47329086642836071253 -0.39601877884554775866 -1.33601139341741981248 -0.95472634488766017213 -0.79173069749419422436 1.42121532770841851878 -0.48575564102389662269 0.14938412760916158772 -0.37511728996286114457 -0.46613926219496876202 0.51561926968229776502 -0.68071693218300233230 -1.11956931907209455979 -0.21713491555953789991 -0.43555249536385115539 -0.22853277675664240842 1.00976555479575536012 -0.40554898162826980013 -0.86295108856091640170 1.44773330075951589535 -0.90053429810024343549 0.69684715968540777986 0.22324878850844326328 -1.46198898986011283085 2.09636504783114707706 0.88560139515464919580 -1.17031988618254523260 -0.79849185129744981726 0.82170763461000317918 1.10558256689869960354 -0.48320438153525502312 2.06374091314120677865 -1.10274802588171461082 -0.65031788925689559822 0.09703064832912676463 -1.41898669043183756067 -0.60034264325058817047 1.94810095377500713809 0.46168981494907901375 -0.52408626935932123292 0.42218524371977655951 0.52916622327282358818 -0.49084076422081140967 -1.36871599360534945689 -0.19172504452220756610 -0.82850168809165458672 0.82464826006704283756 0.07516602715486805919 -0.18646787385854640684 -0.25648578233746122113 0.15395949899900795987 -1.18320323083886802529 -0.03276612009261974101 1.12918667497217550810 0.49460612123842562227 0.45625227416892383259 0.26049726473203083099 -0.70931469022187221274 -0.15660157778815311791 -0.01499463952169753644 0.25761353381078189173 -0.00151106326895026830 0.31497649213298822835 -0.03402738241454869583 0.05749943232360971157 -1.60203565010650517131 0.35866714222033152515 -0.17849804850099698639 -0.28586147092975167094 -0.46529838068083601010 -0.50290264098881432009 0.99545980831279179402 0.14601507013659081879 -0.59837723123466568520 1.21700053481736891747 -0.25181934275845746507 -0.24609185924401952295 0.67429055755578004572 1.48912380945695321799 -2.16355689082209856622 -1.39850911886796769323 -2.70485505032668438474 -0.72828252300283691234 1.04473994294811989292 0.15601907312251733773 0.40653662215525382395 0.11260036121422363486 0.46606150074849295173 -0.66752320511367191358 0.10387874716315691204 -0.96161715846319828493 -0.16755937287912653355 1.80698923647891462885 -0.33583857922383658634 -2.22229433683701049773 -1.04783035219102060864 -0.39373861916951258255 -2.01850512327867548379 0.69384966311528428751 -1.68959925502379060269 -0.99133282848790504893 0.03175156907077771734 0.88561654288104163513 -0.21557320124857162758 0.16641215959673577585 1.48433691358509056712 0.57279290193243426188 -2.03854368104933003636 1.84501616744112184598 -0.31949889896674132928 0.00696399456369103508 2.26667719968321668134 1.43037072840015255792 -0.31457785608415544942 0.10763041504758696920 0.32764858158437876190 1.27304613425553614370 0.26422009632417459146 -2.59631979050823202826 0.51388222928847848703 0.79367358232695661702 0.07514062275523110401 -0.80611601713033786965 0.49516939981102758850 1.06165951201462638309 0.35948595249147569097 -1.21096313653447329450 2.02921341005446720374 0.86777236607497287846 -0.52054595224585531454 0.05024236567107038393 -1.08822568274046149739 -1.33891502804631379320 0.35953567262200319954 -1.16207196739218732162 1.21940483400625865329 0.04811165926102221879 -0.60137662075372944059 -0.99088893688137957838 0.37254018566407676172 -0.01856732072681165774 -1.67641015545879934479 -0.35978858749946374118 -1.79166782352332920603 -0.75937019496653157535 0.27229146398488007774 0.55295045156988853474 -2.24066063336396048555 0.51145489806829336210 -0.11840401230271184463 -2.13426731184162932209 1.43241027034825574304 -0.45816126701036641311 0.22318122984367166906 0.04055957318114600252 0.24191758784295533391 0.12963333578042599004 0.60369991223182339901 -2.75360614727957653258 0.00425007716957791649 0.90509568120557104542 0.01987720360737466399 0.10585671421120339264 0.26502337463185238198 0.95784870764012730593 -0.36146466847856445481 -0.11077585661887127955 -0.00440241099938840693 -1.31455877188096170727 0.05711804147799109249 0.15959391036332140623 0.39666253773285531370 -0.36628052768082131063 0.76913275781707501899 -0.68793235415715536796 -1.37461645676700205954 -2.52967850019616768975 0.68918465129058015251 -0.64497921225576648752 -1.67223578949329998444 -0.44576417467245310622 0.79551851433614784170 -0.17066221351549723528 -2.80585329965943852670 -1.32349859427656735278 0.37653253290973903722 -0.61166432682222482420 -0.12927742442600592687
0.41287372575104375194 0.00440802327845703310 0.22196861975154943969 0.01861405768108800873 -0.75250134787356248722 0.30446278401342846687 0.26259194060364288159 0.42803538409688857147 1.67150448397085260588 1.68458644323636375084 -1.09119708121251113297 1.08061960472049589654 1.14641683588523402015 0.36005612797610497822 0.72967740701695571470 0.57311657162181106617 1.53956189418591882223 -0.29792967165532380225 0.43987997321270388973 0.21592716691364868820 1.30101202578285257694 -0.05901803041444545622 2.22540505480061145960 0.62431321399493355795 0.20063324781602187574 -0.18521616446025940261 0.24770529957038051050 1.09120396774736616585 -1.20080347932442021985 0.15416018067194647845 0.50654634146401145145 -0.47097032085222850784 1.62439137943755662619 -1.00804601845618968525 0.22375814502853719201 -2.31411238598874779981 -1.24821226975316479368 -0.96915708239398445922 -0.01772950135880401595 0.15340501793032512712 0.22848341587083770277 1.20176182673317955008 -0.43444690078702702385 -0.66190397509885212646 0.23768044877003904891 -0.44116080429476500768 -0.26433897080655405221 -0.83990032769754474629 -0.57049875625711155003 -0.21560801572928189884 -0.49159564198856947614 -0.61312855460526427542 1.49775947507056872432 0.62486726497704614403 0.73909289581334658426 1.08704744069967085274 1.55951674005153662073 -0.90850721233580966629 0.54240730741449638685 1.44270899352726389431 -0.99366976770701620492 -1.33349989488522924219 -0.77320552374735029844 -1.75002452427520105438 1.48685172933041775956 1.66818881144643182957 0.92064972749729134804 0.71892951576092289923 2.25894586007812669948 -0.09046933561195218132 -0.27032578289609160427 0.04663163043965037891 2.07387761670454873197 -0.30093186472361999062 -0.43412325024037695664 0.24727848420887879599 0.06632398026468495911 -0.36279369405597838849 0.45034407284265159932 2.00959181349825666274 -0.11243300111183959777 0.36941773234142821769 -1.81529230436236810320 -0.34640353929109884978 0.16124169765775689389 -0.79060950356846226850 -0.88143032552249545031 0.10294616944630471944 0.09102042890613218362 0.45893758258836769848 0.80443859256759142617 1.93821586765132303221 -0.10297838145917195818 -0.25058545903570794700 0.25617306377617538038 1.89147783100485300523 0.17644646158849028317 -0.58194309541908917360 0.29671000751643933357 0.27249956543016873312 -0.14761700469938715541 -0.17813802917718818408 2.49361620818665397081 1.14240571145279212750 -0.17825793578993859301 -1.58649558443584659528 1.85990472938392192859 0.36308942014473011284 0.16621247028206584395 0.45070535928547228455 -0.83572843974767174746 1.32647710180208600050 0.53993892440578228342 0.84297139499230866466 0.72859020132465179831 0.74381108501398973676 1.18529084094584580278 -0.78137759000356254990 1.00546664954862774444 0.24371782646179324106 0.29938663611445492929 0.53822161385755040719 0.79652102064489138655 -0.89908995859440321574 -0.34423218723634785299 -0.42909895004749570857 -1.01825659598773321513 -1.41010195320188125301 0.52123117283432918168 1.47569070200019103467 -1.24480930570775161215 0.62306554511681488950 -0.84336364944281949629 0.37705925199888479238 -0.61331187675666887227 0.43520837270446077749 -0.01360163694856067300 0.32086822145550675245 2.46196340067952679220 -1.45027660508943001538 -0.29556659037876337193 -0.96433284299224719671 0.37459412467217689802 -0.85310679283957246977 0.78260756672091869035 0.62296427242560659110 -1.01364848309456667685 -0.19929137101201344073 0.19300055905459603811 -0.51758586169504128272 -0.30871921758783638090 -1.15104558180082117147 -0.11094942857587238028 2.64221003749514915526 0.62659839104620684846 -0.98758129610040656932 -0.75258204440290654702 0.65505187804303199872 -1.11883969672460503730 1.26518310422797464199 0.92145216347301350801 -0.22214955629914437396 1.47339356526840759010 2.96629270785921761444 -0.68964130472328821764 0.95496658651941845886 0.32059351093629817608 -0.81986429636311763947 1.42539958428461432938 -0.09119985216772795444 -0.61408115742531255155 0.37289473092034636226 -0.95343718016279010996 -0.98359652231134075961 0.18638370824065847442 2.15123993660503876058 -1.25631893545104778021 0.42846099376946339410 -0.47321646892353513847 0.17535974335549792125 -0.34156100789321403033 -0.38681948380197189730 0.69061566106237737284 -0.69581032440400447658 0.22158386246504133132 1.61583235669458691319 -0.80154620682244837049 -0.81172709246044372211 0.45308847713446948058 0.58380409647733344514 -0.71845445895116910595 0.94136610023211442222 0.49531483321391356345 1.13928584677856403751 0.99486019986243845459 0.33520107123372122615 -1.71834106142168163700 -1.49080948129195101082 -1.77173684052465074679 0.64209411570996266505 -1.69284844203091977555 -0.31365041502925433692 -1.12571451507364006517 0.34782886356276959683 -0.80973372202165394551 -0.65274481669627271163 -1.14702197128188898567 0.02669380268668639089 0.14553959497570656545 0.00501113810627879571 0.95961484486241732661 0.11745467672474405041 -0.67957295459604472043 0.03912820853392916243 2.13611032353914875870 -1.30151488571604012634 0.42159859837777763358 -1.44776924708573706546 0.82667110744525107435 0.45234762555198276823 3.05448880109694664853 -0.07387535006474009458 0.23465549045904651737 0.03724033074121377990 1.65748280168987949246 -1.04823163597211399534 0.13116300234607886077 -1.00894481574473826591 -0.50338863428327818017 1.44386195096630576273 0.85520165976093243110 0.40606982377041184185 2.63061723529808544342 -1.07934268600078753231 -0.93235390438084986275 -0.21251509153421016540 0.19504166899916378086 -2.12173054053314524836 0.32151549762402575894 -0.65834161709024041631 -0.01804781979046908569 -0.49459455922532874483 1.29219792925575927001 0.44744585583452378685 -1.47898197574608092353 -0.98411882579891885037 0.05667992933450716198 0.82547617034063203167 0.14701461004378385544 -0.52344432735474266671 0.07876761996291728463 -0.90177350789540244858 -0.17235119336044379956 -0.10537709640873241246 0.70326654815817957189 -1.65156936690055688999 -1.27813361816171755514 -0.30630834310516857899 0.11595895312634074692 -0.19280138553034795179 0.09446729550164047196 1.63311752412799360279 0.33030157876180366028 -0.10636681734173233926 -1.15964978315946454224 0.53130920829637962033 -2.69603601309841200973 0.99506380394939175638 0.91805092109201580364 -1.10474058011761644416 -0.04892185897942318007 -1.97362168338777022036 -0.37165258525036154458 0.37077148393806119708 0.65166755774573481563 0.45746872929897947069 -0.43508063091366977471 0.10261438019668039923 1.11920327640179717577 0.95961540905258690959 0.29899436459632444674 2.10014979131955481506 -1.25595214696286405776 -0.35717020238121455211 1.21299682021638322027 0.66304809553326082838 -0.25623625897867613466 0.97800378416011735094 0.35805478020143227669 -1.10147425932652054392 0.20195886821176226023 0.86932986191791428165 -0.78663551156782363094 -0.23611139906333739047 -0.01430856119834393939 -0.53785709762321465277 -1.57817012963278457960 -0.27905853845505440569 1.74607112186381763230 -1.00077474969614965694
-0.86562650201743540634 -0.18382801076942806295 1.37471034851754070338 -0.71330338019485417522 0.15619181902618928248 0.65620897872565175923 1.34650917855629637110 -0.41748511984543523745 -2.69260283347730000614 1.46693556943312608531 -1.44068979304216671089 0.46296764980269089484 -0.73926093358177569215 -0.23683108880240066885 0.45348307312396685109 0.52279109660425604478 -1.12950131253006680332 1.42902481920217550027 -1.77435521798696016482 0.64323764370515790212 -0.86304922125229832641 -1.76285260839422552870 0.07382914974735721447 -0.18116627514629432549 -0.92976074270244557507 1.87830035466431222169 0.64947917833543333810 -0.94316966454203465808 0.10940123094482324950 -1.17581865183318878820 0.38996910113482730065 -0.49672314248020066341 -0.75299576357580610964 0.29271210655136992163 1.97221192713667403673 -1.08114439225872738248 1.84049300355964873255 -0.11580156108060682407 0.05606972192122516158 -1.22562679825069986705 -0.01078346408446302640 -1.04281155195525143675 -0.29013522089870613652 -0.04764833102319737668 0.39582853167655329685 0.37959771378294515642 -0.12585953877231692566 1.50275585973162062459 -0.79744257221531422708 -1.02356779873345682397 0.67911297017899885375 -0.70880239492884122843 -0.60771672519572283999 0.31891752838652287494 1.09660343473819232862 0.69566061293153191869 -0.10705581690879698020 2.64391211084521859931 0.88906110181581432528 -0.34328097189631728847 0.82773686406152102712 0.05162087011108528606 -0.28867784242269034500 0.97601765382977145880 0.80871643177380947431 -0.46616776759138012221 0.15919901963424054614 -0.29439427416878882759 -0.84942718513412562853 1.03149752923372739488 -0.30053318496418141015 0.79904184011344869809 -0.34083984855148069526 -0.62774379940904945219 -1.16367393664986829016 -2.27156822184411666399 0.00264451117815554760 0.28126774811177279734 1.35788828816507600727 -1.45781865499846530199 -2.46215725187480494185 -1.27746605589981609974 -0.45947710048709833330 -1.93945729592795057528 1.43798794398011864359 -0.58711238730727066670 1.01356681434999384983 1.01665289773796607697 -0.88431046925858758367 -0.81783711076575704713 -0.73868786278628573161 -0.29692639537880521905 -1.54249557573386919529 -0.41981648724682674167 -0.31741158221062582001 0.67401151942797266070 -1.52857859245620075761 -0.82671660085478793079 -1.05838563508892069542 -0.26709440468180811745 -1.32533648326415587348 -0.01483156741943849471 0.64219912012945312707 1.90571839485110960943 -1.16754347647685285949 1.22516766508990415652 0.49558816519043008553 -0.48935711340323417851 0.43977132328214924017 -1.17000508418715853942 0.11422486951954738399 -0.60035113860595468172 -0.15981756101055707986 0.28888447578736914378 -1.03189144087546269546 0.86489694745877976345 1.24034719094678003160 0.72606747560507678418 -1.42025317839519327201 0.21564919657997211333 0.94501989099977745656 -0.30258749252083189107 1.02401089238033193851 1.02117497758539244046 0.75630808747117783675 -1.50699902756171710827 -2.06808972915118927105 -0.20585041639973286620 -0.16786016994640726163 -0.05430594306239048402 -0.78598270128683311864 0.82280339427467530378 0.17140671841530366604 -0.56178587129333923400 -1.45869773357063836627 1.23342651105164735625 0.46122798607727760745 0.91789194871292500988 0.94040843869007884059 -1.35206151090273984927 1.09652412871330851019 -1.45544162549865085943 -0.18746225295367252572 -0.64067301827081113430 0.89498042413340050949 -0.78443268548685951558 0.39053361226717764332 -0.33023332768022217731 -1.80572770441221197579 0.57940229308200286162 0.89746417752341978158 -0.59937600427854120788 -0.21607510717404518341 -0.02740400719046393735 1.19023631400816953807 0.66875621412854402426 1.58223737652102758311 -0.53706527020595329347 -1.09356597822384382646 1.18157276273148381662 -0.31453552439133469765 0.90808935042959315620 -0.78518564188063988407 1.82472636541378796515 -1.23786112771114442666 -1.21810231603354646168 0.76020083912629654588 -1.80865670371720477227 -0.82403433563729155953 1.08974923908626086799 -0.24120331148301660251 0.24233500781272604430 -2.36358901289075751251 -0.47425604912758029252 1.53879588457774807431 2.55168537726846667013 0.04315822138272816522 -1.41701919524305686160 0.42468011533602062491 -2.03506165671428762565 -3.02255853056555290337 1.35022640912640223831 0.36270313198613424177 1.13948542917358608406 0.56028427175002426530 0.16701429316304358674 -1.55700901470729635712 -0.28058772515013763460 -0.77245426804230277185 -0.49815071101761043693 -1.47943452542509379377 0.28770894982203804036 0.45910014650056552021 0.79455818804527855725 1.51963815851032402193 0.07097301198469972705 0.20274445166475055236 0.92854905471075199763 -1.53945160411108195042 -0.60469227664457847471 0.30374265679437201237 1.30224897196984201742 0.97093738387833372627 0.18545213532349752450 -1.05563501457124120364 -0.64475810982743564370 -0.26178428544166387759 0.09411142377137897419 -0.06114007591099174244 0.83114329046691448610 0.08424731885238698204 0.10662714224153803377 -1.26005570615996620454 0.10062749568561442370 0.64252077054042067150 0.89588571315742138168 -0.30794292516263888082 -1.15602331266097868578 -0.95724097644010108787 1.16125896660958183304 1.05623009199870532271 0.58545246036245779386 0.87060155480248913040 -0.80647332859867926214 -0.62924686213252833955 -0.46196161143634056900 -0.18575295727780227750 -0.13469293662891415608 -1.08271864296568431918 1.05024950952346185495 0.77989514095383871695 0.67911017209330093447 0.13412484907127952827 -0.86450794206277148390 0.69226739443464879731 -1.05404970560292166049 -0.42251068836607669210 0.94892891505519938455 0.57376696367034896173 0.47519348788046295029 0.30272920418654508667 -0.74511038024838860405 0.83461699465569383349 0.56439690292409883110 -0.35037699184195925106 1.53385478797838370468 -0.44919962755250231190 0.84690723090416297758 -0.20285469652905260829 -0.73146435140994037205 -1.80796986312442209410 -1.61155394045666855440 2.13865499626027544267 0.10365184790808379400 0.27905801700878862803 -1.10209921426735912853 -0.54800594255819967682 0.14039618259380765020 -0.84553305788102606222 -0.46059022300038771069 1.05964899005481449912 0.49470943015728430225 -1.83515461668869805933 -0.65607231092063711397 0.34507606624899395120 2.01990694276675641916 0.45242666306472345550 -0.31621716496757523718 0.12416705725184329356 -0.31173978427977228067 -1.71938280972097312649 -0.59443595190704456854 -1.11251408875370993989 1.08789524687076943898 -0.36383992172899703998 0.94444444716233222348 -1.20774413016950865618 -0.38432912784032102760 -1.08330348061643677582 -1.14997730982554347001 0.84447965505354605220 0.11442002427300954071 1.82798381444636026671 0.01260371804134690667 1.13962738203748936705 -0.38970606499166965397 -0.33904459563300104463 -1.97694065177901623365 0.18585843195776335923 0.77677414649761145071 0.74034136264321381837 -0.38720145980335701763 0.13339664824743130422 0.63094930992177156170 -2.15109217027501431474 1.19308750052700651700 0.74345487278976041257 -0.69448087177297956885 -0.17919414490908397442 0.76642290103195676032
