-0.11235935179102671255 1.45514031618134587198 1.03752567245677740360 0.28297336974991915692 1.63384664420066361146 1.80774614274166767203 -0.05591118440787107985 -0.56524188295438537732 0.37772195073926684294 -1.44284194303566670747 -1.16807675415815359621 1.27651395225022579183 0.33757877568259181400 -0.73145763592586798829 0.00220694296764874362 -0.31960819893010289361 -0.28667064056287044904 0.44343308647218671048 0.03177057322569456360 -1.56538148708079360993 1.15874435488429372576 -1.55972208049243610262 -0.24007816236991794123 0.68961242400076716574 -1.37745598526817647489 1.22431124637970634161 1.80517676263632176337 -0.70559092766694908594 -0.18726006347159027121 -1.30197911389505627255 -1.96974024987290818878 -1.27988303055556951193 1.07159813513150625752 -0.42464633876345786456 1.60967484119695813938 -0.08180345995637412770 -0.86135569100609943316 1.31236156336800191546 -0.47971390755541326589 -0.46474138575913603866 -0.66525920293034868092 -0.76203258072248158950 0.89341733581817350807 -0.34192542480569737551 0.94495272979075684017 -0.79758252080862712674 0.63906620284455206704 -1.33253946170577441954 -1.26786977469763062487 0.42849827100012860548 0.29648243070064539406 -0.36977942831907573140 -1.63334757208647030069 -0.69598801823801359490 -0.41774338862455845378 0.34649053474253738161 1.36333608297719699465 -0.43022582626383276683 -0.21542869602893371939 0.07875341523644566188 -0.74004974277433699381 1.52262028405905547324 1.27145358365978333737 0.09539032837655909980 0.68595618496468135916 -0.29021715204829362511 -0.29047289593211322867 -0.95790315970230921483 1.32644155297026755669 1.34439210479012571930 0.64501677085515951582 -2.54719317029063141433 0.34825711463628211684 -0.32537089564411220133 1.07434203868702504714 0.14261425796578477976 -0.96575224718665220180 0.36614923196305260156 -2.19698747029417429388 0.22837600910957811529 1.78905772621047542970 1.07778944041753033112 2.03018532909401594466 -0.85984366408081058797 0.57623410515839323942 1.70079477195136274936 -0.19694089912658169217 -1.84944538243997036453 0.75880969757918215191 -0.75834674431910342740 -0.06431959985279261938 0.17109373042183806390 0.21176295002210263063 -1.65608918479908773236 1.59274751633245403859 2.71308324843150261430 -0.17374171923808837126 0.45714414631767835706 -0.58823489237353265846 -0.47314341384443647787 2.29382479840553532568 0.73798043513327016285 -0.53767798866116256473 -0.81717552241406465896 -1.04357765660909440619 -1.35174147617934470311 -0.25429389921133344066 0.42582800029476158832 -1.90682831584265621849 -0.84642085751871187771 1.20936837791430118472 -1.09905050091199307793 1.37929518881654478157 1.17912489218467420038 -0.68739016553297427325 0.33237509036334372814 0.56329873498100635487 0.63672684565088466524 1.69568839649066327446 0.09484942414347330431 0.96843557178122330331 0.37627419481475149476 0.37435410318337608571 -1.10739892114551619073 2.14680942945801866983 -0.41855239646172198720 1.40725108495613482340 -1.28481975493073918848 2.34364427438904820988 -1.32478097453417187346 0.19157833265743073881 0.38027001585487152369 -2.46585723215570506994 -0.09008909560791844573 -0.44392951741291641898 -1.30060960149087856408 1.85211169021189858697 0.59476237536149001439 1.26149134639370141819 -0.64896037654837146480 -0.39894380360111159067 -1.20664347932198490199 0.98116603747626396359 0.53115309868297266860 -0.86944454953424021859 1.06759697189874547263 -0.49425307866729834005 -1.42436873139754949236 0.16687437619613776363 -0.93990919546821904973
-1.89773852416434607449 -0.52792582697283574333 0.44633837998333386610 -0.15475092802572182338 -0.48094182965772136473 -0.58214672925908472756 -1.00308582378271649027 -1.30460211255971825217 -2.08744613953061541878 0.23250488836056190656 0.44641320979237558708 -0.95993029796948814436 -0.09799909650507659942 -0.45296534525411291661 -0.38952524255610254666 -2.34712834945167925227 -0.74657513343610071299 1.70768812407977743639 0.82715290782521455615 -1.21383266541758971790 -0.13595728559216435638 0.21813659543559602016 -0.11331919281664563914 0.34207085165231482238 -1.73969623652805083225 -0.44862127501099702265 1.72723880266302187714 0.22425413975541072520 -0.28426772438414787958 1.03132751198451044772 -0.55442763433825481556 -1.10713920208070182305 -1.24802761678964579950 -0.09038309561136072257 1.58605698962567887023 0.09792116289663180262 -0.24864858041422654988 0.08731930363447411303 -1.10764120034113822122 0.00315992976099941118 -0.00997160783678133385 -0.64260239944776598175 1.30834239625490078573 1.02883647276155443251 0.75179872444689788136 -2.51630501040469445329 0.06981329666637790810 -0.77466417703762047164 0.53325618676984565258 0.10926995835361583143 0.48736781449776001018 -2.16894069787552101758 -0.61869082321730184404 -0.83228726416297948987 -1.74118067604386639324 -1.21133659398999316004 -0.26843469385242035852 0.63742350530670188746 2.30613879138261168578 0.25879089954638717641 -0.01900538750503286828 0.33964247180972007012 -2.13133489742907755726 -1.00726323108046078580 -1.23276810253905644288 -0.68264603265458123627 -1.24453621882479392724 0.37363607225072198448 -0.45899682813550068960 1.46204462287398873066 -0.63790490111662834227 -1.13565007549525365249 1.25420598333939303792 0.25220732909024734525 0.00979823058253975927 -1.27668075438602368621 0.42211759046976427001 -0.40055007306679912826 0.84865641468678798542 -0.35247514970853977001 2.00546917849297168246 -0.99836541293621194892 -2.29554505717933299280 -0.05313249854607367262 0.52871427407563964529 0.50871713360921877456 -0.84404763841036845040 -1.48691784581368713347 0.38027957188973710023 -0.42561258943863167215 -1.31646600698104765392 -0.56113161354423468641 -2.54790310330509850445 0.37351434458446197695 0.31167777986197209295 -1.18168331775614987578 0.42079934654886474998 1.18200377265060563303 0.76420568454961979032 -0.83981902220063187059 -0.16119369778908868018 0.76250318063814970238 0.42264270001530618304 -0.40505900510023612471 -0.40692464753931212318 0.52030288095163679252 -0.59050169369172933465 0.36645770450496295556 -0.83631450320478217808 -1.84263140965152638628 2.27578064704049598532 -0.42969073655230066722 0.36306145803778494541 0.08071925100267476894 -0.83376985548871385134 -0.70621112551734588347 1.09447955345488279200 -1.23402749131255595749 2.16345076684689940905 0.76821630694118725469 0.35344031684717497344 -0.80768036354204164606 0.61292056113445303467 -0.21841094909919372968 0.63440839188633668666 -0.42469206383978952424 1.52472343919696462500 -0.11504561127499104978 0.24443196208296366634 1.72892444366720487992 0.00034092427414390185 -0.40934236529013234840 0.66184998535134487163 0.17996167182888081482 2.80777066859063229032 -1.10440493633099134918 0.92044791437511908061 -0.50592477103881816625 0.10156372311483584381 -0.38616410297438247268 -0.64087651666728118194 -0.71154904935198703964 -0.97105348569338789666 2.45274932442442672453 0.29840131264477848250 1.27502215460025691840 -1.32780395213580137970 -0.06029979726365646692 1.14324453891073507528 0.19125516734386166506
-0.66443885279585135351 0.28866578440883589041 0.49420814475949947919 0.28128033526503104511 -1.85543938416752496323 -0.67391529986531306662 -0.92147663224225573320 -1.89826105914926679397 -0.49892573560637859531 -1.28948474984149608069 -0.66909663888918469166 1.07126103493715074677 -0.02129000733138033258 0.47200339529390539228 1.51477600858243954818 -0.18582780876714874441 -0.94635759188605905745 -0.39948805900931089186 1.05032992537187785942 -0.16277470054953843692 0.28118705185278886072 -1.28124660525015410251 1.38505683104420040941 0.02833959093544164559 1.53931213934675281685 -0.09923479331606548104 0.00543865141884015968 -1.70143331094034588880 0.09305776706039982360 -1.44727487138230936914 -0.35562275791484854182 -1.76006402258752792100 1.65601086053286694622 0.67313898621685364088 1.17858768813987624391 0.09700575633837289768 0.15413914790070609717 -1.14820558155877505691 1.12801030133070590011 0.22691147154065804958 -2.28355642413364678944 -0.18583643373497329976 1.04557230007236801050 -1.62668490199312332223 -2.62743760023584815855 -0.46574044660902985671 -0.40385027436222592501 0.23264155932766031332 -0.36869848982472536170 -1.04556844871434750921 0.06203814792862809291 -0.90558366489211949979 0.39141426438836318669 -1.79362090959127273848 -0.01359345818057158123 -1.09678833328582503448 -0.33148374589678536450 0.06469943929261227911 1.47926846269807565903 0.04315066780153745118 -1.08298624460939318936 -0.67041872110693412345 -0.32293177885268126159 -0.45617300172760505417 -0.42263373000940651636 2.16099875479741898587 -1.41206852850346309403 0.03835782373280772345 -0.40165619836807792131 -0.95247529397539199003 -1.67397427776691332113 -0.42060153130026428636 -1.71459888768864798791 1.11516148769246847827 0.38118983563809061277 0.03650963371210554781 -1.61456687726044623155 0.93780058942542909861 -0.45829545600604337796 -0.71485721104116017877 0.96742249150507220179 -1.00962238052602870653 1.03096875692790357348 2.34289081571934687531 2.43056449508313621166 1.32205195168006683915 0.41681517476174695380 -2.03765821235453392646 -0.52994730175774451553 0.51773372588191080013 1.22752309645408552718 0.85846538861202503767 -1.33859212835640861705 0.56678765500980043957 1.37016655208394544374 1.23134833358645079393 0.39491043337775094679 1.68672733820887876810 -3.02563665866690101325 0.22933602329307278822 0.17062995464063657192 -1.23482416342658951613 -0.79462296269360499501 -0.25785648796794768955 0.59389018668814042012 0.02392035492314346923 -0.06769087822866934334 1.38118652182135259743 0.64706179542711339536 1.16199878592715477588 -1.83173645437597554242 -0.10896533081275593113 -0.37893921270270880530 0.74647882459782588516 0.69813469364222646707 1.45178609981975048626 1.30857405679859439829 1.88577321218951343695 -0.56827373556093874196 -0.57693189843412295836 -1.16238743269941724456 0.13605016960458984898 0.26189652412654329527 -0.05212732040381883036 -0.25184261829654513987 0.22270478713529748283 0.29618691532552310353 -1.40510489540116711993 1.27279307087404136567 -0.66593331654404452902 -0.49099941040517686153 0.78605185913577257928 -0.96449507047160087936 0.92321399181624985708 -0.88420227516154947800 1.94690883362970001969 0.82923038348819411159 -1.55354669914244758466 0.29851831121853167339 0.19223947618802408877 -0.16027077287424462693 1.79210205069217543006 0.62879297287175639486 0.67514123586873941996 -0.46384164915746917135 -0.76191427189274318899 -0.18287658262199280035 0.59696077876645703419 -0.18938208112907650715 1.13372931996514059172
0.54993734727745835489 -0.11834353071413036829 -1.30959770395534480514 0.06873846385734576347 0.98048019481968995414 2.35475585071678006344 -0.30207408767498039603 -0.93578029315902255814 0.62434130079981198236 0.39011023918199561056 -0.16321039659622627038 -1.74717225632179617989 -0.93372250386268562661 -0.48915480328517091380 -0.25263401100838239755 -1.05410619576966335664 -1.15302591803353005062 0.04149776030025679324 -0.30891848424658824301 0.79544022971878902695 0.23085843017704268942 -2.03867687832611732546 0.96517509856906003041 -1.14877141780170144436 0.54215278140108524862 1.07359862126523974979 0.71464061951853263821 -0.00023860954754671471 0.24869768972148206809 1.72719597058114970878 -2.11803038840492030559 -1.51367204886241535355 0.31778246507780838481 0.95244591113154475348 -0.39925003944910009146 -0.30496368863894263157 -0.37767446364858275887 0.88814575229919379140 -0.30863588192584018310 1.32317311660292658004 -0.18663007536302764211 0.89092596878218954792 0.29841417759313393354 0.05499177134255373023 -3.42415677627020320628 -0.71112031910985307182 -0.49124552619891104221 1.38638119553215077850 0.73129032528044390915 0.69654086987788998986 0.84078350017456593424 -0.56305506142140415715 0.57851067102941411413 -0.23465660396139054189 -1.75407976963390432878 1.44859417696058789815 0.81451136291607029172 1.25990073229228238816 0.51974962189332385432 0.43575321198951733059 -1.61888088706738630940 -0.60894258931685329994 0.07771196873843119746 -1.26748693265914580408 1.88802813504317201776 0.02977174115980396260 -0.56363745213840787951 -0.23953485397103516097 0.57825875926544390015 -0.31883782037812030685 -0.50546708728242184527 0.26342963491561594003 -0.41331499985221981097 2.02357896045829654952 -1.68006581696963519512 -0.78059027607120068382 0.28421455904906911538 -0.25259722803022816029 0.59657800454711518157 -1.05061839722018857124 -2.01077125130449152479 1.31189248366155508663 1.43567016619248488674 -0.53538830033055828661 -0.01991485980119456906 -0.34275315712477727459 0.35085143784579875259 -1.32414145505422276017 1.44074406252602837952 0.06905126955139152811 -1.39838771211113188642 -0.93868975111229480124 -1.01844316899512699059 0.41476179057225281976 -1.69840109233886948914 0.82966306024132752128 0.98126780116141942845 0.21919666262957418490 0.59211655265191842634 -0.89820361739823917357 0.08220195442709353484 -0.37187386943560796215 -1.43209948058837865936 -1.62071938160487571956 -0.60787067117989757037 0.53951366973089909251 0.52322490356407314049 -0.35210075249135408537 0.98065978886548899052 0.52700532373637198891 -0.11375324333293836132 0.85437821340736763709 0.63543551151932842203 -0.02280467280164122021 0.60987034041461973821 -0.79154647951832102226 0.63415029829021873908 -0.37307705248319261715 -1.42401876180948772088 -0.70125141224691356356 0.24695112734491564410 -1.20646730883578912064 0.49758981879610025834 -0.26367208237705103135 0.12750107584662551119 0.48995547048698595560 -0.13091630222309058595 -0.09937838168157597796 0.43831552355892094974 -0.27551015409800211353 -0.46039934190505271694 0.10450513094435748274 0.93004637193141326268 -3.04555378006432331262 1.34534611310471241552 -0.21835171843471073982 0.18214516965220145517 1.65432977811843606730 -0.96046108564428678278 0.89901501239869108240 -2.05412454422663559583 -0.56853710985913330500 -0.45946833052512187079 -2.57885052085306432090 -1.10334833806943177770 -0.59633364668888466653 0.49906740954006872935 -0.12712091418546828114 -0.47376513147340815202 -1.01413852821838190721
-0.39229622400533864512 -0.37162513995617046936 1.05259854985285739026 0.24231451558887190378 1.78165764486761890595 -1.44855570867830052428 0.86003159031012066382 0.09362370052698380796 -0.23678538052671252445 1.41432864779429978697 -0.42421447976868842389 -1.31089882937583146472 0.03060085655502959787 0.56299252168269453556 0.54345624341973064464 0.95315521262220603838 0.00666171940723856316 -1.83290435232851156577 -2.31010308900904526297 -0.32774230052752179043 0.04241152791709217745 -0.82459158593711834317 1.68324191941808476436 0.52778364555389745139 0.29913667492832674011 -0.57213884004971660158 0.57452193508229798535 0.16824081731949519503 -0.40457059092854008586 1.71338605325248738431 -3.38366057941666342757 -0.77745887638202915149 -0.49114743411285621821 -1.45150362313918379620 -0.10640128184158834102 1.05491716004369795456 1.95038029625945208423 -1.90365723490036908849 0.83328156890143112445 -0.42707276470867294726 -0.22174271599000197619 0.08094272147369423187 0.92656774973481947910 -0.45251673031796874058 -0.80089771955291899630 0.85365446528797750414 0.77919592112634872283 0.20725011402412987782 -0.74439970853620351932 0.39781641704682524363 0.10377651589170140689 -1.86358631546450403960 -1.99025637215199968644 0.89824125485547701153 -0.65092581960315265555 -0.30962288734539356039 0.12436664033900059201 -1.41256794674210772733 -0.44436368120190011810 -0.37734184768709855273 1.62126582623574089226 0.35509729506854370573 0.25044811581049686300 -1.38413110888317936187 1.05246747891045511203 0.31871127058154213874 0.66495356300793251325 -2.16904130075824408408 -1.73894427426014241966 0.20785859691330399457 -0.00858895617347685096 0.37789131772572437384 0.75260132463310358553 -0.25026043190397456728 -0.40044050771718536774 -0.26098511452232880936 -0.28222465605518332055 -0.85732129399453449459 -1.60411151974643595430 0.01703071409162833227 -1.32709924624141928362 -1.74768269935234243917 -1.02285356062242138719 -0.97375444733772054118 2.49799401881165294981 0.83480737603564680871 0.63478657773088109639 -0.67673384745086806458 0.17655585117222988289 -0.30910503260382238278 -0.30062134040864701978 -1.08943309163325907640 -0.27802127725836878192 0.93958405877825734720 -0.95541853188161873778 -0.26341381092908700001 -0.42821002050596612687 -0.29081013941398969891 1.41927538857078494594 0.61768654130349032183 1.12544789033291681157 -0.71277110758023709547 0.99817554681740372491 -0.62399337506376584273 0.83168149842171557040 -0.29585936004883578443 -0.15458434835582926525 1.66519460496333771005 1.62910078707234573514 -0.06682157425015611274 -1.05875842563599609214 0.11491304231441054617 1.46329105965520867016 0.30133037694236702864 -1.12676685321284009156 -0.98489408106222553485 -0.31736863514655749841 -0.10908486761179572722 -0.02265955262892381181 -1.73113008297083670328 -1.37620340818669451011 0.69882146456079929919 2.62023669150077553880 -1.10788535265464926916 -0.94759904474028100463 0.98146378200103046030 -0.43600130118653712685 1.75798313043685605628 1.04137068079664052433 0.80450091131721357396 -0.11738796753062934186 1.09944198460880526724 -0.03928180243256793741 -0.69301974028774582237 -2.26381307423391131550 1.47118122133917927918 0.45013018318636183190 0.27895766677630012831 -2.92540764672845998717 -0.23035417681284969804 0.42022575276417484247 0.53287222192517369468 2.13509567288905666160 3.30676701905295455930 -3.18381088818179192046 -1.04387409681411558182 1.49098368677462445042 1.44281024021539372448 0.00329744212060192800 -0.39528267773605474389
1.79447909435046826232 -0.17945799524691558036 2.28205658110234166358 -0.19914834340272161151 0.08819003580835674261 0.71435227746112395231 -1.55356159380770675327 -0.54739028720845195330 -1.69710548463940069652 -0.10196573942574788108 2.70253459169384768757 0.54807166529750073192 -0.94596476660951378523 -1.31830865772312511019 -0.55779609258621876133 1.15741853977804809439 0.23684297709908566643 -0.62585820484560017452 0.14977628813961424425 -0.16574850244030636670 0.46628893862422049477 -0.16659233862257449843 -0.11373992000045818340 -1.31897222606715303073 0.55304481291790563713 -1.04506065845998263875 0.13387550973792400333 -0.35205442192557356851 -0.98239439404001205336 -0.84462671383056586727 -0.68710903119578758957 0.06615069275941708182 -1.59694646876307788652 -1.53273247970760606584 -2.08626757233716997320 2.32529452891234544865 0.88856200953599584480 0.76514328251991303720 -0.77550585215696787866 -0.53066419182357282835 0.61596473380041683043 0.27875290376326450348 0.60156042229422279632 -0.17730652448209388572 0.72099814862087252543 -1.25282032074348137485 -0.08492963979373080452 0.02116805941670944075 -0.59258779660957550117 0.38822578544328389949 0.65287321979518553317 0.98994430662989274516 0.33461121191929460439 -0.88779948587870027854 0.90056615982418519728 0.05073591681571033851 0.84821885654811068900 0.10363063826430504721 0.31013882437305534401 0.03882067147411773916 0.53100609385699559795 -0.62756207764930560522 -0.02153557922106073136 1.09755627707779113145 0.26124665747682118688 -1.14338574681688620593 -1.27193814306202801490 -0.19628017082036225416 0.09754006652153239532 -0.10062551276982459325 -0.63439512113678220295 1.25537490310581856257 0.95117272672362762620 0.23851863316219348854 1.21097895545529210537 0.34379306907258672110 -1.08006183911946984644 -0.45864742455315932190 -1.07850407677850634869 -0.93287089522579713652 -1.17172192073035263959 1.35333274929561042654 -1.36712049320633477478 0.52409323327734202991 -1.79224025676491005576 0.16614306494274075354 -0.44146482198129138874 2.60818436186730240323 -1.87228257292297306513 -1.09478172726479838772 1.13720611894782597240 0.31318564727846731621 -1.10777784053809669196 0.32982800638626424972 0.60071893112008134530 -0.20379603122952513750 0.37350716877859646559 0.22579491801932649597 0.70658351228650739806 -1.23271981837608213262 0.03936562309300249002 0.24212862830296688621 -0.84355364988774250712 1.26565940149628697320 0.31770204124003414980 0.60825327522141647840 -1.59442051551372676599 0.47165548601442691679 0.39565371037569563306 -1.61327510813581431748 -0.63751391597521811505 -1.16764096804829353715 -1.17445794019882643333 -0.91587478395549537513 -0.92400492647343512864 0.22679613439380214013 -0.89707664336357462176 -1.80252599285754500080 1.21957292160957941896 0.35022780133067604735 1.33894617156495709942 0.54055101233495772561 -1.19916499866479941971 0.81944549091889284931 0.18189466093815942482 0.64972451320710700173 -0.27094890233565932514 1.84491860772938687241 -0.12620255286731266176 0.05861594814502757433 0.07997746649742636105 -0.83135888296360938021 0.26561688478374922973 -1.56779900117624615419 0.41900483661642845545 -0.03092461758760404328 -0.71580988162328351709 1.91415185321490199932 -0.52296913079570617189 0.23544867032447069910 0.25887672209770989928 0.52937434661084459275 -0.89541700864063367149 -0.98443301421884588098 0.15388665872969464754 -1.42880177139777320150 2.78359493381605904716 0.08892212541669163028 -1.54278404114219780396 -2.06650883387786210577
-0.34028305827024052377 1.40338691783863511731 -0.22656599197342477958 -1.41874115830232394586 -0.31748879230063309365 0.33647139087844213368 0.02609291695191776062 -1.49416438940322482409 -0.48850368067892940838 0.73923958593438388043 0.62364893258857156955 0.57466092103667765212 2.31157306137049056716 -0.36456060336622037044 0.34817177679810934476 -0.22022307182078904031 -0.77375585280968972590 -0.30634925439811466763 1.44839433832156694315 -1.38482470169241422830 0.04701997751905248601 0.42739422452692643617 -0.09377598206313349227 -0.70215961748597299774 -0.29599195851017773284 0.68525344069269078506 -1.09875134827799247894 -2.70482321652985024940 -0.31363191565858550280 0.42309080096842860419 0.26929679554569674327 0.94179082974418015795 -1.04086094477117763191 -0.66078615541121965560 1.51040582720418004037 -0.40772055167714726931 -0.32781309482091852692 1.06066956848767834920 0.76448370239996799036 1.40457322213917201736 -0.75250869875043691071 -0.81986524060351251286 -0.05963597503276441697 -2.49621487457674406940 -0.06139236114747825823 -1.12546716707818372782 0.37590185078679783093 -0.33450394969449998017 1.60115720124090565868 -0.11834079646796594187 -0.01747823361144263191 -1.31747982792612128300 -0.69901100225986390058 0.27927375818218475034 -0.00339191716429301923 1.15512585702776049423 0.28406522315958315783 -0.44880691741583733645 -1.57818459295130386622 -0.22511231558661942698 -0.39639907065484430992 -0.32916322347387960701 0.82684070684856691980 0.45461557881510866741 0.50803415555916708879 0.06117923853321879241 0.16583581143933467938 0.39305958433841298172 -0.78463414580446166902 -0.24884532197600425785 0.77301842262405062733 -1.20255764964336919753 1.33947102799107486959 -1.00274146096668692607 -1.48985629008851439004 0.49902520840604080998 -0.32292322514489840701 -0.83124032558899507706 -0.52753698429532980274 -0.61519942596475463148 1.65545236339298207362 1.44069241804737324664 0.01464787659083207141 -2.19226053131297460297 1.66089928335957481842 -0.54854382015428759800 0.20419032187802740874 -1.54572973069156294201 -0.07243285177529028285 -2.48560902637285296990 -0.45043559014514328309 -1.32082617079041142460 0.29890787740525531779 0.68690568563169374094 1.15144669994874448982 0.67548351120250171853 -0.64539430031333822058 1.65743905174364569710 0.64769138008962123809 0.32106573564893498007 -0.75819963961957903553 -0.64208538817219307226 0.51863068905619524873 0.46969796224861870559 -0.73820196224801626350 1.77217505728794066933 2.35552432608986217488 -1.01902932566829540484 -0.13200758640717499826 1.57759734564129527890 0.76458012323956014988 0.54833592204636061318 0.22790477337574480132 0.84685901164183052803 -1.59167060764636358883 -1.47759964316211123148 0.84816276270608104149 -0.89368867643844063231 -0.80461147038550917543 0.10505903602437653699 -0.00038426358231772386 -2.39194113909481353986 0.89680388632243890346 -0.75118612500750736594 0.31860563274423125968 0.39422630656161483653 -0.13675289769974516285 -0.19079108007283196446 -1.85329973374741885372 -1.68418310305647156433 0.78873554282340885280 -0.17819896980211130666 -0.04053483496341413889 -0.19359248860049832475 -1.49017053005183863768 -1.54595540517866436581 -0.69286382907155630306 1.44033073522118915122 -1.53242861199399027505 -0.19588375759086248951 -0.65702937898824276264 -1.34603276542337035870 0.30334620305849208100 0.27374121900399223106 -0.50329497729720018562 0.27124390707962503511 -0.73199494813900967127 1.44836505206346344288 0.23058248907987344278 0.91977936804091919853
0.35823855761459033609 -1.59430095445578312585 2.36795385765891674978 -0.27412672594710429941 -1.51615679294006389100 0.26024741252252392432 0.12403494526816023769 1.26800050988664070317 -0.94194621631196195910 0.30264050213484250396 -1.47443487287529007013 -1.49012074981775111127 -1.66738934092483770399 -1.12376045519927103555 -0.93434470783253187331 -1.22509470126037012250 -0.99657612886804847196 2.30556665512746095104 1.39579015300122466492 -3.15446557440690478202 2.40825778001426638042 -1.24939334028493442830 0.81995397319398577451 2.22720889901033070046 0.70030351247160704808 0.71406504757138733464 -2.02176834399321059266 -0.95187851909470311274 -0.03160056172280688996 -0.67617304314081594363 0.98004965881251748794 -0.81014276845425425844 -0.16622453681362717171 0.27396198630911061667 -0.65552811807694055801 -0.10799023601616576651 1.94925015729256378982 -2.33089080830607819905 0.67413160433385133086 -0.49525247456921028810 -0.43416459755181557867 -0.99922931252204072461 -0.05115086949220343931 0.37181138111299733007 -0.09381929158859281248 0.74440223085320467167 -0.64007504139705462265 -0.06334898878490190233 -2.66559367866215302101 -0.74636434748445212861 -0.39304997234137334372 1.44961817958941252549 0.09305584420556133052 0.45093235026177591607 -1.85579223126168724178 1.37116104736301624989 0.22124609149681240261 2.56064986571455888154 -0.30749971718866492276 -1.68729134245021650251 -0.80065596968089247643 0.48810398910566860087 -1.11085763801364323378 -2.03392945116614010104 0.17537385973105173997 0.43970625287556069916 0.51157105931851309943 -1.60739698179681100854 -1.06735682954835264802 -0.35528656529126095842 0.63540170783377825092 -0.25209674395965692151 -0.58231007868061135380 -0.86991101731822395582 1.33313162514867356023 0.53052105163173979285 0.69183490728308216777 0.32973256182668631009 -0.50634444432895686639 -1.32623172152164592319 0.20976903579384403864 -0.05810252132505340505 -0.62221505964486423235 -0.89847691902006687759 -0.63537766255648298053 0.10356387100188343964 0.66141134700926995649 -0.56258442876714143122 -0.20429924507546282086 1.07527373759597377756 -0.35539441399849397429 -2.08715559082133772506 -1.59311079949798006794 -1.00568337905407800825 1.05692184131104149891 0.19667747228137574811 -1.10683257178074079263 -0.94933882944159342365 1.24925537719514023749 0.45702076852381062766 1.02389989931560476677 -0.74051412137320404838 0.66927697677011444011 -0.44026185465559392052 0.80553337050341244918 1.52083048865415704221 0.03934989574208353630 1.05359974062782568716 -0.69181724562963675673 -0.25665290630487530565 0.06687970839267143308 2.53209561281171646741 -0.22719811673237824690 -0.43168362841065405222 -1.83439884788840124052 1.78141659769517413103 -0.66543620801209768523 -0.73640110625523036436 -0.59531062839273252152 0.99873612488403185061 0.18722137945408373616 0.55912669272048654001 -1.01553330540539010762 0.53481476951306772261 0.41622134786015119179 0.12817776091729848886 0.95658144496505748133 0.14660283086514513951 -0.40783729713053845645 -1.04339062990361353123 0.85781115116933026599 -0.82159240751970985528 0.98995833117492015862 -0.83823231352378424486 0.44167534088769017098 3.04790003228815953307 -0.64877748789057076984 0.20800987714768778836 -1.52451495465756492464 2.19711394358879452682 1.38714504717122522059 -0.28614730919035019641 -0.13013776415662800523 1.30034284619310058773 -0.27874218438119141572 -0.63394807783382056687 -0.96525118979091806271 0.07210327210420827693 -0.29369712006569292928 0.00386590941768041787
-0.65581706571151132668 0.97598654047271593548 1.27606315055153984872 2.16216084856322021679 -0.23665867144816241097 0.71698218569474836404 -0.53265363836426005140 1.22258142669684799486 -1.04672747904296858934 1.72243849328273856969 -0.80483032195128545450 0.79020680423618461230 -1.64995171026008424775 -0.06777472685810452535 -0.09516401158913996572 -1.02554167006465379863 0.53272013261312956001 -0.76537370205440480309 0.36445018817838026326 1.99868313914188022729 0.57375652388280451444 -1.10061501987854382101 -1.74602190812723834235 1.12183466838685230726 0.35036500017705246579 -0.68472346414219709132 0.12165420564287043881 1.09678266777463395698 -0.50782119575441742043 2.23473405624330201391 0.71797244320301678577 0.53169042772925756424 0.25592971675608183757 -0.36655534222323421512 1.75454687518857155304 1.35661737034927876167 0.07598653596779379737 1.33085886223745331058 0.46853327285594698060 -0.29733473402772958583 1.29104276368040538081 -0.95112218786275215532 -0.22297368117600543935 -0.39239470901085177212 -0.34118444099089512145 0.72036119587876534798 -0.48684110932686963658 0.33253748412859529537 1.11365238380909947757 -0.11670298680831975302 0.83033519215703355254 -0.29295560981747281737 -2.08074143270774403192 -0.64310803064963950604 1.88428586617987092744 -0.13951777731870970700 1.01716455939983441148 -0.97192949268745643110 -1.00736378785554125947 -1.73849141641580029471 -2.13786360040075651412 0.03092141948722030437 -0.92766348952326582733 -0.74648039240596419930 -1.42912469939187780632 0.11474655202601151405 -1.16534361906299399614 0.94866812498151609212 2.64878836487229696317 -1.28262852945006611272 1.61364791982929101088 1.14585441874053683975 1.21026385584753470859 -0.55753988286944877739 -0.53732632088669762815 1.32415919017843997096 1.36564547296955862699 0.55181336743398867739 -1.15723876839334827160 0.92199086002559516029 0.39362149260842221876 1.88585908185522765912 -0.15650610808520135087 -0.12316266031881714649 0.02802930527605533226 0.52608276374822904309 -0.00633690839955578216 0.40844971488108866575 0.75605537235827136033 -0.84147284572100555788 0.07438393478095442490 0.53112654861383545857 0.28726419061792796139 -0.65455714802799302987 0.43923120514670693781 0.33193317721555831712 -0.08694591198536420762 -0.24706238655993376097 -0.94248013659702867262 1.50205402579356950277 0.54833952905379301779 -0.85054505173081729197 -0.05961878182371651430 -0.10233065896163084929 -1.65093720296832580097 -0.68889735327330270387 2.28921299349570128712 0.71163438404826984129 -0.42461622657552594573 -0.80048507041034544507 -0.12548986911901685581 0.98178896054450026654 -0.47608916075741863905 0.01788089279393914599 0.56989817146512067314 0.99554930937042018790 0.68329628921214224935 1.49192340831957603875 0.48604983293214426565 -0.23768964331863023931 -1.54675381918049081875 -1.08989403139297613698 -0.21792789520887423382 2.12752363337493166640 0.51844198192204526965 0.20719160255842425378 -0.20192532447866456957 -2.24104927489049199352 -0.79726565022482986933 -0.95416920343699029861 1.87161103025174990755 0.06446098848152273519 -1.91041410022941060554 0.75747933380372911571 -0.14812641488528718869 0.66002550942841575754 0.46309125611258789013 -1.89689169779922917058 1.40409042143919648993 0.46518621467681187109 0.79421453535587072103 -1.13961087537076277698 -0.48747365272236198308 -0.07679019303002329599 1.38569568355823680150 -0.62701041508832389137 1.14518452336339393582 0.34748985439002921805 -1.90920750088930368804 -1.47889380856172070189
-0.10926358075113924706 -0.27138336261311329922 -1.22961689930919293445 -0.36230306467279560501 1.82874563482581087293 0.53240714033412017692 0.13548293561202925939 -0.92455305738247339775 0.04745939959375509998 -0.85917181556129640363 -0.83388448591746844318 -1.33820705615332435912 0.53030471234840204087 0.56350287755924721722 0.56424730828167868335 0.06247762015581453943 0.66151800847857056276 -1.06862564654149627685 1.52464004006400677405 0.69112490881939903087 1.89824224642128314144 -0.69201726733304080863 -1.65603941676690613605 -0.23303590627941853097 0.28293066307456232744 -0.00084324472971229877 0.24257874737966922396 1.43835496077099000978 0.83947453886137191059 -0.42875103876498815714 -0.66869951186615950167 0.06230905340237036932 0.05297846757254649763 -0.85120626491408335479 -0.54718034220325062478 -0.82510148588256893021 1.58144111013939725474 -0.32297740159629717560 0.84239356348114147188 -2.67864512523430908786 0.83067513891606081788 -1.22230664549337064706 -1.93570941003610808018 0.10492541343107918139 0.38539827576822821564 -3.08640430566696810644 -1.58451833968351873949 -0.32460823846804226500 0.09948882161478640740 1.33402515172644742236 -2.23966486139338805117 1.34919623466769378339 0.18846565291583564083 -0.19694447686545313303 -0.24141472926414883626 0.49957920874298156200 0.75095622130032757546 1.71292721446509421668 1.68851686187605110057 -0.13108268988883667316 0.92724320113814040489 -2.16034619133704230975 0.54309196218405164647 -0.93434344953665982025 1.09354071379806971898 0.92868477221110101727 -0.10593967135740245400 1.11189399816355916073 -0.35516539269821667535 0.38761791090261099590 0.92629335296314485593 -0.20465760654535131158 1.74360887345610970911 1.06878369874839429521 -0.71530759842778723900 1.56790722259290848939 0.21436312986438760264 0.49937307591851082256 0.89171865125121607676 1.55430105021443454305 0.09836451365258229440 -0.94523809217901744173 0.03284800674221900751 0.84312256649604999659 0.73329503021017006237 -0.20085390769259942045 -0.02047927497728042889 0.18618106911463422337 -1.75157008194342544982 -0.50632166206674622533 -0.39562559502923111410 0.36207972395160908929 0.21056096286225484127 -0.26795096780664812153 -0.53426833390266981194 1.77421489054549152975 1.34669815431981310105 0.72595049088280383387 0.09494855120244004298 1.03445993140936431942 -0.87846120536789107369 -0.47889944799116462848 -0.81984004346941785624 -0.98160620977859758263 -0.31956696729406536273 0.03266112035635092281 0.08298907437605269888 0.87037379498108813358 0.46804719024034807662 -1.22860047502551328336 -0.16271644931627957109 2.52839016730377830200 0.06275676520800427260 0.28166526145772152745 0.39734511324443250180 0.88420936533768901278 0.93027281387096227849 -0.86253349284451474865 0.78466695045800993746 0.45308499557481829445 -0.23515127817270189969 -1.25846646732407396740 0.24266891513968785743 -1.88697625182109995912 -0.90086933688010784049 -0.00541894017156236470 0.45901421936105296639 -0.17310364870228195366 -0.66519736932937767460 0.78617436298026699415 0.84559132246232304730 -0.13716184105079082256 1.77045816608153105953 -0.64787037411009751331 0.23053276983616233231 -0.86732959798678399554 0.03859599687279638425 1.81058873466022807186 0.13922618875927431081 -1.25530380423010301527 -1.48206200404304477836 -1.01847510682873476640 -1.01687328747640171045 -0.81775387897694240547 0.27242791964607726563 -1.14546253572942924315 -0.21300066113067289697 -0.28693399192244312124 -0.33160587844105038346 0.72009620578900235266
0.90341987781192811813 0.50960829601644785924 -0.08751343632113803284 -0.74027833026263401006 -0.17174265672371480385 -0.90176147472872669741 0.81811417792000018512 1.56333354784921496616 -0.36530764373515922649 -0.43969801918251766315 0.85520589182175532628 0.75224362254768917246 1.11316757827296197725 -1.62658650406440985492 -0.89990046939147561034 1.20509343620776010475 -2.09631091246141698647 1.52411406962009854382 -0.61189897511157065324 1.46180374790775480243 0.91254222821365404972 -1.01019109394125483625 0.23818494333368986360 -1.93624284979644989413 0.26352892727172627652 -0.34467180219148002562 -0.98473304266950301145 -0.67125721886873235267 -0.61923596448055928665 -1.16427745269885019042 -1.26402323274061889613 0.15041655463244021917 1.46889878243018534576 1.30872864610042838329 1.33213714494438750791 -0.74479251750727348824 -1.15974746811019646664 -0.10690751572134216119 -0.54408569057651046119 0.52413429436515990290 -1.03684094318227981724 0.76705861154151733228 0.26561174940555964952 -0.71367484695385996485 1.76409724426412450882 -0.56389580220963286816 0.49370000307749101198 -1.54815704560680456048 1.68437737091927286492 -1.34904773379181741610 -0.94135636505536812724 -0.43278913405774555034 1.56665127269066739579 1.42189179915989494241 -0.51256592892364072345 0.04904342599668018443 -1.09440429790062632165 -0.65800973820353503285 1.65449079695228529197 -1.97233422172531214223 -0.79329035140340375953 1.30374390111571525352 1.51397609715704195565 0.59663025656855450674 -0.35980120408372179286 0.26148119751378551268 -1.59724403624616373421 -0.04030797249949370775 0.55509257893374752690 -0.34762680836257475736 1.17030169390901850335 -0.34509598476888769802 0.55073690206432024397 -0.79954655526745366245 0.26338123347804154317 -0.31733496677093991911 1.06744200996192040165 -0.71790263890724592688 -0.22341234622046307612 0.49144213997387942161 0.57009413571592060244 0.92420672580211404856 -1.23341121837585654397 0.46249488817406825270 -0.98677319904863680655 -0.47746537185635984368 -1.16317683325012710682 -0.47241326528426552667 -0.20668822029287159392 -1.93431131467234895815 -0.01621909326041039157 2.32024516805108316220 -0.15419592777306367903 -0.52147267848643208410 0.20384022761391970557 -1.14124144192768550710 -2.48881194939025718327 0.26305251625456677056 0.16158077482158042515 1.32937585086060616746 -0.67782770946905146481 1.30152064695714919651 0.75931975680112506755 1.01590721035539477413 0.86475724372714224408 1.20469696093814571114 -0.17916562538577493480 0.20572988666809086111 2.07889111952739868983 -1.17732002003067770524 0.69498632364314383292 -1.17224989465614615192 0.10066545485914080160 0.34387340789788628515 0.33135134212499506301 0.07183564760104241276 -1.21658920125513958510 0.61673412257021564820 -0.61580231207852231812 0.45592603052638158712 -0.38886317721891389132 0.20205431950444874278 0.07849188840463519612 0.14145776484574545950 1.38405094256498606420 -1.51204759208426486872 -0.93143599979280289336 -0.86265550440219063155 -2.38775328211480530882 0.42326087559970443364 1.33373670816165934561 -0.26330062799494580172 1.41832534913661878484 -2.26655174116271318496 0.47144140700294601132 0.32372187526942280966 -0.95066977780180605961 0.40017128853127786892 1.42657991226712077548 -1.11291900769219753720 -0.55430890455358883262 0.47548940771631920121 -0.39019080168748448978 -1.18856971182408699406 0.22438005091379698008 -0.65316927468567831383 -1.50006881822131710180 1.65889188266562470631 -1.17965132216358337125 -0.99714761028101561724
1.75280285873064878288 0.42422545657068100322 0.02571134959579427642 0.26233419482035696957 -1.85352072891491581608 -0.18354599731986620537 0.18459469986462759272 2.00125848180715193436 0.38315686295906692393 0.38735816717853743807 -1.33849350732261829222 2.10174612950557415658 0.84528138028756694133 -0.29439846267551061931 0.23479349518296238619 -1.13293982272880966455 2.31624653190162854699 -0.55742212580839511915 -0.47010866463542971827 -0.41805032490943383472 1.11837232421956067618 0.10120249624430206759 0.02293636564576100045 1.34820439961216265168 0.25690219085338122929 0.05729439340231379241 -0.83434192354030378702 0.22853849339156875886 -2.16911879860065859305 -0.36099310326668787585 -1.19846265315116728978 -0.53811785500219055933 -0.91792972534012684527 0.06756228881434993283 0.04281463374550205370 -1.14304402392472770345 1.59641526477947737206 0.29683734221699437095 1.67205028050254744798 -1.22689148600716091408 1.38526546976670306144 0.93606695366055303609 -0.09257182061630654657 -0.35742495095045151432 -0.06901928812278666781 1.89452224007242997494 0.71083887143212787230 -0.41100411398513819750 -0.13774446464610318186 -2.04216013156216735780 0.97568007315039206873 -1.02469166584801452125 -0.50570605616003583282 0.87790876402443795978 -0.29884702659491380050 -1.73534268735173924370 -0.40318614613630632260 0.98119833848629178785 1.45974096679184683900 0.20577957672367902520 -0.14526345565134018978 0.60998804329437184002 -0.63689060355917503919 1.62436275607119839925 -2.24560138364378625297 -1.27502021315456648409 0.28839748809221482650 0.83916604849068299199 0.39422863605737418213 2.41452385964239057969 -0.20242727297765425454 0.33344795561442797105 0.05128471575646895847 -0.19929404601333114422 -0.11377794192136059248 0.07463029392373703164 1.05313332669872661285 -0.47641024914477181351 -0.58919569841339258787 -0.58158818518691868249 -1.35283662094515211294 0.73612489318459561893 -0.53618567848782927587 0.43433476116605002071 0.23888017744097639339 0.86712232223626084515 -0.08650192467259038009 -0.43110514599904331545 -1.18937300302510573502 -0.54383568012382932366 -0.83195041647800338502 0.86265477506678955866 1.16473650719653099017 -2.08338345112489653488 0.72623430948567180288 -0.56664455808428637607 0.96076065979146185736 -0.72413129513337703980 -0.95729627178717113800 -1.11737129471418206172 0.34368883161102520285 2.95150499962281198663 -1.23162759181016889798 -0.01538715943425126784 0.29002107334815813156 -1.19821734664144163851 -0.36858864152391973557 0.65289313674805971033 -2.61325860514305041704 -0.73442943444316099999 0.10068463086805271023 -1.38713667274554919295 0.65753013543857485868 -0.74967169332688088357 -2.31198358467178755049 1.06562833564514569673 0.79813625640595375899 -0.40856957377128966247 0.56273286160184243787 1.69854321970035937461 0.61491955309591705969 2.11648221828298988001 -0.04081180218317460168 -0.67950672998209071807 -2.76139623524729138637 1.23773402290965606198 0.30750317192281689804 0.25506734291917759760 1.15244028350014104944 0.47858144203913111081 1.00109206108969761573 -1.71501004623736319488 -0.39533610978149841264 -1.00584028163378480514 0.72884071127567229276 1.72924419823582709022 1.95245363908230262773 -1.20961219795392982412 0.30542355664398351811 0.20696256911985172477 -0.61154747800884623476 -0.24999999483562795888 1.39484051985835844079 -1.83078194670397720323 -0.37256088894928451882 0.12033509074612142031 0.69739022199980271743 1.29822451492518964322 1.55353882625931505324 -1.46254812381488474848
1.72100885068719433590 -1.09913605766828514909 0.48235134116246414226 -1.66999595048838078704 0.84099663901036514346 -1.31397435226125947061 -1.29963948643063975652 0.16440915522176172137 0.49744309687829230127 0.57920187905440057019 -0.52906401905563371635 0.33676621624003411082 -0.19623289501039009597 -2.27831758869566902703 1.00814899038416982968 -0.28315969654096184716 1.43639289095904354454 -0.47761654284353061151 0.69157626703954966363 1.33442537217486356660 0.31573194972117096802 0.31755313146210983888 -0.97541784422792099374 0.64318533992692417112 -1.02951229915678732496 -0.20985887528767788179 1.04081498584460696577 0.31432704542848849405 -1.84154275398394906560 -0.06284806422882069366 -2.39773000384199930224 0.62125494480751697335 1.53244541269937473160 -0.89635560683267090365 0.20310745844125696613 0.21398166590841541379 1.03953510468471388428 0.48791752485018025087 -0.04903407131779553840 -0.06294645136839037425 0.05902879307700555772 1.26203357641198898875 0.57295784498729740442 2.04987229195614428789 -1.33167313211048066179 -0.22608892046145323551 -0.08316012381467211001 0.15669594477549039779 0.79736625397207161470 1.09523836592217804764 -0.62834175727329444339 1.11910504437444457970 -0.03211137832867346636 1.21094109794241244771 -1.06983891216851456640 -0.57000536279142710594 0.19315346745593189870 -2.07265499572759281932 0.52829316936689774131 1.41230157904782571698 -0.33155982252298965562 0.90296960804733161776 -0.56791870823897228071 -0.76624496186590507207 1.96173121587402832233 0.80719497862926781195 1.08924520751011910669 0.57311905793306683332 0.60493601879314173875 0.89698560862536336202 0.19881415844739167009 1.27791210678147160174 0.33862815969074055999 -0.55452786036504186917 1.32102204115936183726 0.55512334329748891371 -0.25881375179141163922 0.97713907287361534415 1.08910502367709893790 1.67851295497529484635 -0.38802893032150048702 -0.12301735527198782993 -1.18037237513443304948 0.08343259128672329827 0.56958152002898998489 0.08903163344817645319 -0.29643894468000364650 1.70159820735441313921 0.10533985573620437137 -0.02516031295016752517 -0.12900355163432741801 -1.40460422718593247460 0.07515261637390302507 0.50420742056660428076 -2.59501649597407180181 0.77909552602365372831 0.15308417377569213946 0.02298469027752428687 0.45568831958813404981 -0.79328708375883194570 -0.30065613164663851364 -0.75702662399565134876 0.48663710676002347455 -0.66224478331753144911 -0.77723365185193094007 -1.23407413341524074823 1.02405595953869399395 -2.04986183158752810485 -0.12491577613881875430 -0.39036817554917424555 0.02498496747845382893 1.01502031164524741946 0.36725372293218078168 1.08953159267973198610 1.63858044598379093415 0.90048315935654044129 -0.03236773607097382516 -1.52850700399753947067 0.20628465123180536600 -0.25574320086318219625 -0.84687035811136690544 -0.95742816448774525906 -0.35763724709977795513 -0.00943307010865439798 1.51863002196307506075 -0.06265344741629150227 0.95145248766139500773 3.20728882132418879891 0.56265692990341564794 -0.50811041293133718533 -1.16856169996143410827 -0.93382207649061899080 -0.11411073928225620722 -0.01870011389092019610 0.72230171272741994226 1.04588387679156058496 -0.90436856129479248345 -0.80035205496589811869 -0.22850198024360732219 -1.23483463744481825053 1.19818836639816717060 1.39700740200010065095 0.24386077072495085383 -0.79270008886441900575 -2.76606735275768755855 0.44519908297978133538 -0.76602024565284965174 -0.58138461097024640711 -1.22074369311183361653 1.50569484353391302989
-0.18076642522640046229 0.79875662097872524026 -3.19577490954705956128 0.10695207726203495580 1.13058579347016729955 0.39865537487076552203 -0.61495672035655268850 0.06470037503415067281 -0.97460073019113513393 -0.45151852486162624700 -0.44025341178776905560 -0.69136259357270701820 0.43977909945247362078 1.10340290064122670266 -1.15272558761504773095 -1.38401488439782904827 -1.59484864740761533852 -0.47816069745856581985 -1.33459708837678148186 0.57415230944490391884 0.18137169553047599591 -0.64586474116346326291 -0.71808941169075168887 0.85517440517295051361 0.98148663791082979557 -0.87788884748309092831 0.14185841882274016768 0.23974767887358017227 -0.55392753195553401380 0.55517951413912414171 -0.22747797228906291300 0.09089763440944048645 1.05827200370025997778 -0.42038735157660100938 0.64125225036059985140 -1.25714218688254497636 -0.90219505285551537810 0.94827088044302265679 -0.05182211646254820253 0.79569455448421622101 0.17246851216580144639 -1.47386333594034946159 0.00413573995019840979 -0.74513824635582159850 -1.88374854976282679608 0.15095869830397357081 -1.51170054375210849429 -1.49503824761267400945 -2.07205360316403552901 0.74977868373584488637 -0.98531095458924122799 0.66108344595299783908 -0.81447603036995375181 1.33786137290764917118 1.86989004004437320283 0.41402573066475079067 0.63408915462091341997 -0.50451102083388799091 -0.34613835279782928511 -1.36088124000201915464 0.05192773382254430026 -0.13992185781761093399 0.67383637182934164045 -0.98039272225300289065 0.09957716752308824748 1.97339512357669932818 -0.76917207585838176520 -0.38524327745594016958 0.94773219822371157495 -1.36972606802874330434 -1.97934176980283327296 1.38926640074758278587 2.20992576563835552150 -0.94814875938980058834 0.53015783992769305311 -1.02284284710768758053 0.50622913750952924783 -1.20468501231109348382 2.06284627688584798477 0.47639661435564878422 -1.09578160930802814832 1.58003388439536540666 -1.48340031796452720414 -0.26546092255088332701 -1.77379313180374076353 -1.43434187287693393209 0.40845777961567675263 -0.88082498114836682568 0.19783026255297866958 0.21144091173249815463 -0.08323193549411388170 0.35509726188863532936 -0.30189935084903901652 0.03685436475152675806 0.74969075450397371085 1.19144060767985848770 -0.18227598130719024905 -1.31107763158411838589 0.91433424635001780967 0.64373111895869750132 -1.47268114092554935901 -1.65591166882437423880 1.65154813683159384929 1.99665107598861002458 0.42845480278348685443 -0.61418862931085349555 0.18382274971633505434 -0.73743740396041679297 1.27655442186094836288 0.84767204962836206761 1.32217080506685569219 -0.43572298676235482473 -2.18948282951881179059 -0.81512119781894432080 1.81018962300747476846 2.01935383068661433725 -0.25026068920867755585 -0.22669280072013137106 0.90908211143783279606 0.97399008237511452979 -0.96663922321864881315 2.50638349860718889772 0.89113620166023410629 -0.93532942112424555248 0.60193673248442325363 -0.70357349955196346603 0.32942807254128675387 2.33793031753570579312 0.36541602580242066312 1.74554922327659989278 0.60132118334589634845 -0.68005866444915774593 -0.73252777864115825590 1.34773517897330452620 -0.67667805807801606477 -0.74075023872798417823 -0.90003631077014178974 1.49375907466536750334 -1.30170556694301398082 2.19559410014614275752 -1.08359231039662540219 -0.45296985534273731533 -0.03001855831731086929 -0.28824765572941696279 1.72908610934649331625 -0.06645154801916376697 1.26634444067705587145 -1.58735581303790862506 -0.06801938989851988304 0.30657620094624310481
0.39068620436960266318 -1.16852456257931480721 0.79886888829807045642 0.24374086852147214266 -0.43139415053336954697 -0.73648851813495219698 -0.36731597701154850011 0.69622915751561020858 -1.54078587648347675731 -0.40694573620665819291 1.31776845714997725700 -0.86962330394292219893 -0.28921537354003873377 -0.31167443572713582345 0.01331455576094195403 0.03057883336836057786 -0.52053765235588334015 -1.20379158310436995549 1.09339637644676490602 0.00025387831764367360 -0.39512666786732780766 0.10252407930296975058 -2.23591684644144494953 0.11296899613935693085 -0.82178548733047307451 0.30045876976787755375 -0.02568952002314933009 -0.12481827233333098182 0.96682278310078939576 0.13912878773164136237 -0.34345994858431594388 0.48555974344186253466 -1.35076276044102416840 -1.28351090380982379990 0.79268362411598913830 -0.76677386159632943130 -0.84580655954782102413 1.59199195431378837107 -1.64957614585445222488 1.58485783397875490408 1.34271456948724510205 1.53143143192504171957 0.18165695226717148980 -0.87384180608108608102 -2.99695419910692795185 0.26070250228229413514 -0.02372923182589271179 -0.21785335834578159475 -1.20451449279396216596 0.23375097297358501947 1.18811067539024084461 1.35695340888960336301 1.19424185802891402730 1.15130017186806510310 1.41689304718825059837 -0.07865908067384809466 1.09357150529160285224 1.06738734699558546204 0.08922587386956878919 0.95833730657893945182 -0.61804757588456427086 1.74555503878282269881 -0.56639825550290123779 -0.29610627489185664674 1.33850509243042381513 -1.69196964421749163066 -0.45564840804877104752 -0.02106786541396267476 -0.36923268064438963254 0.91723500171328864461 -1.11512618579716171752 -0.95650939448484129102 -0.51387433523001901925 -0.41818338415479294756 1.96332122954812615667 -1.04000843283520438831 0.52629833822483707007 1.21499130611497974108 -1.60835195512990702937 -0.13686652109102792618 -0.79047819561975907199 0.47153866843818714738 -0.75511197285265363455 -0.96216837157447132611 -0.81510247186171924660 -1.68474999918804035914 -0.91936879620232503374 0.84703043030561464555 -0.51944585242278495940 -0.06491744200234994544 1.76824504199183496489 -2.70479268453312293730 -0.34150329618245017782 0.67489207921318983274 0.31112313420763565430 -1.69241332444191416862 0.23419241660650474968 0.09028026235211426831 1.40443660937272940537 0.16677729215326353440 0.24304508859289064571 -1.13939422610548368731 -0.55093732806484696507 0.94169403800154216633 -1.71599786611204652154 -1.63812713817198662980 -0.96758759327357724001 -0.12117447854020298170 -1.26557993284905268006 0.28806692130818517539 -1.10675718199051731361 1.31355547930708582705 0.20037206212177019471 1.66463919495809009597 0.48095127889272409893 0.43344880392883783360 -0.64298263094866403566 1.02409052206875683666 0.93850316142093337390 -1.50058330247042648331 -0.74653090816495670801 -1.35934615229941302417 0.28351673865467497127 0.18859964798076186976 1.19668604787761756469 1.71348591995419363698 0.90763262734481353622 -2.63087028215290752442 1.02747636309727630177 -0.86188157232262363472 0.18149572744010197822 1.09790684995715825956 -1.69956642935534918415 -0.99560295686120248160 1.15087893516950856565 0.63070620572877944543 0.86476404506452952958 -1.02832975204385013157 1.75751652129747615305 1.14761268734656574075 0.78675324572814375745 -0.20540913964298565531 -0.63330205378614135014 -0.58959950659508997273 -0.35161257132461276598 -0.08466612545141924406 -0.89397178582046510353 -0.80867431583835036601 -0.46912722023318575992 1.59962970048291430736
0.46564304453443167153 -0.60451178800884408648 0.39336395007683561120 -0.13586250220497533836 1.23927980466636800116 -0.93569854160044374503 1.99082388220367412224 -1.76958846306489170352 -0.48511770141612986507 0.09752871240379207274 0.23726632379422604724 -0.65906868770510163014 -0.15131585924669280208 0.58071748478088214274 -0.50831073461011788694 -1.18240850082805315502 2.15405527788670214662 -0.73381285046491828705 -0.77848749987897569724 0.34057564448093824439 -0.26418353933911808973 -0.64657412131444491621 2.45429930364327741898 -1.69244945464210583275 -0.45473470012324501699 -0.49097862211843540381 -0.88902599743280552591 0.48167290982980442982 -0.39973374506334569123 0.86794916647559228196 -1.29980531438706847780 -0.16000271972378249385 1.53771326409303710214 -1.16123069764056618958 1.34607078920323419702 1.08925866851609520758 -0.46633233632301829275 -1.74944613760037315231 -2.25039528919559073117 0.79213423361717016924 -0.99719425059924038379 -0.11032965780528489197 0.62207054913914294758 -0.37362246028074480586 0.30661771412838551010 0.06764027974586306335 0.12962482230028171681 -0.39532843964090164102 1.26265657499777050887 -1.47742962827280477356 -0.93417345232988047155 -0.16627947433530262944 0.08193806484842948434 0.07007560357808205465 -0.91072339057811413365 0.71455661829212946401 1.09732233248851684948 -0.29308078972749423974 1.16289017501007529987 -0.06448510317791374125 1.06864259035339115300 -1.44030384280080925308 0.64365860953744347128 -1.12100819175813759543 0.84309003326355436148 0.40313516371504948266 -1.54705697831459398905 -1.00399313048489369216 -1.38586345669903110434 -0.45246989024215578112 0.54686708075878465163 -0.09037720923553317631 -0.90035138005331982747 -0.15319853862698518121 -0.08364574243627255490 0.63102311201454441836 -0.40737182663957649531 2.24053268923443615890 0.07699143751030090854 1.61220240404689452163 -0.57232850143950464439 0.68909603696589039057 -1.40120243021084145418 -0.70924177794510956385 -0.26085265346876224113 -0.48749238777592357463 -0.29643584288031238350 -1.41186484416573843070 -0.60039473747561822314 -1.43317074251167042576 -0.27031644558287493130 0.10223458674280055947 0.75984511343627048063 0.40214175109348238024 2.86608942549219403162 0.34492481963253901478 -1.00024488827716528938 -1.43216215097805732448 1.29522854063951076142 0.28974130701212352790 0.61682763139607166281 0.59619818418480685640 -0.12436221951877163283 -1.43476220312974711568 1.43928265110871844712 1.09961452267879655764 -1.78727367343735932259 2.64076218010740504383 -1.53857740310303392484 -0.40129089072763990398 -1.71284417772134855973 1.44829570347928227037 -2.19672209788819960963 -1.83794669997588666632 0.58485796963296832196 0.98731375463815973514 0.24494093849579520739 0.99677248832933695866 -0.42834389465831201882 1.03069326704297070663 1.67587532815379591788 1.25755695696493696722 0.51669379463920739326 0.32406130343668843041 -0.23651065452580768977 0.18975380714950609851 0.61117743179671568665 0.34241419775073134169 0.27573247164882830340 -0.54759885791043139136 -0.76833208628666738171 -1.15395792280667164320 1.36603837151570006725 0.26031869523082928897 1.20329460218746331357 -1.76757134795057124776 -1.28404295235357035487 2.08774671467671346647 0.68092388756467125965 -3.36826110035533332621 -0.99083618661647554493 -0.17550699205700023842 -0.21309399204841725228 -0.46213072382380920855 2.67193293207597193373 -0.08794424839790213055 1.34574118642235052157 0.85898064234963200647 -0.14439759137342034201 -0.21246161825373610643
0.92302286719989745656 1.01492349362372591415 -0.38966738222568048089 -0.91295560642981432586 -1.34787795357717965494 -0.15092149948723831976 -0.30161777507932457931 0.04147303522511554957 -0.57678113195407632041 -0.14433000734866635595 -1.73689296818952110257 -1.97630920302321144710 1.07050804337101568287 -2.05773708743443917157 2.56674596778595365265 1.77729839255771127071 0.48204649530340537567 1.77377983753995738248 0.23835584976400650548 0.60221900930553584619 0.70496252382031154848 1.50691818631214480284 -0.08246385146019666323 -1.13243123683367241661 -0.69051717177602545128 1.09421192203526240760 0.71566194627077117651 -0.89148611749040296282 0.94851700960570506371 1.48497870129318365606 -0.74136434252149951973 -2.27647464095438900600 1.23262071733773326265 -0.61076520175637039056 -0.71256735083517031004 -0.18952216568148155806 0.08373162261190922329 0.55332119746952901362 0.52241401988635915998 1.34258406077211911445 -2.08315657679092369747 2.52624329945793313357 -0.69478788645469979901 1.77137218477406177541 -0.48585852963777775848 0.36517757331526667919 -2.09070506765571106911 0.76182589953625445833 -0.31978425696693008051 -1.28878847927108952653 -1.54725466461806693275 0.14845915361515696351 0.07506185553299574154 -1.62767196718231610397 -0.59908687599134835544 0.38301560902567938216 -2.38490216316020609000 -0.61034993913742718874 -2.15481609133537510559 0.95021713429845233723 -1.56574553979318076280 -0.91427035271334133881 -0.82480654063966518663 0.57279459891683193185 1.76885951198725832612 -1.22537187548373949220 0.82873670489492978763 1.90405008292300248485 -0.53567706476730470033 -0.47135233723958319674 0.97901428422591418865 -0.28308276166869378310 -1.09630880393815766105 -0.99637671585243392514 -1.93332457211456243407 -1.44870213941818914982 0.06379930108191596283 -1.72413355369690357577 -1.28414991856595039899 -0.56750452489978053805 0.17493812103188743912 1.27542998554381159515 0.87381390408407255688 -0.91083657217730884526 -1.65465520133975485528 1.37723915733035107145 1.12545347942372941930 -0.30211236445683542495 -0.94598696570887153001 -0.45917159847436406217 -0.25715072596445115449 0.10579659968319872487 -1.53134482752787914883 0.92880404289189721911 0.12678723197217994789 -0.16296483627564864460 0.53356306859044122515 -0.78273391430010075265 -0.44191052438801720070 -0.76537048847032607135 1.77830334775157750116 1.23159008102172884414 -0.43354622180830271194 0.30794012192117475868 1.68459971810746544918 1.49914262330014458335 -0.30347118510513598766 0.16753879397026161246 1.70754755061775687075 -0.49579900009047173093 0.35659184275504568484 -1.17408715345453229517 -0.06884675755453908974 1.10538933082671020358 -0.29886622307655352770 0.58710508103442005101 0.96884020735167497573 3.05428976285360365139 -0.51841888524950496819 -1.05573910503854317966 0.44529923672843679805 0.90872705625456873246 0.34979331204556890489 0.95671035828515760269 0.39401388652421143188 0.32994926172078176130 -0.29360148642491717963 0.21774631498808924568 -0.29979440793462197590 -0.60071909690404889925 -1.26674130468988854759 0.61889035328252384183 0.37478869126242991827 1.77894440722391800058 -1.57460470369456828621 -0.59032530164181551413 1.41986820279450709492 0.77425569670985827653 -1.69877484589646865487 0.41289483326183179512 -2.09906766224233543028 -0.98921164813501327728 -0.07352513991929089665 0.46339428085629025267 -0.20264339482287105354 -1.22241310429216554212 -2.26402321804232542490 0.58918423882501214095 -2.50449690801698698905 0.52809055768948320875
-0.34718739765332762293 2.32206573521098702528 2.44878978237062927548 1.54173997282838803891 0.43845071000339497225 0.53205021089368409459 -1.17745365086820585887 2.00928352406459476143 1.39276315044734211313 -0.59811799963541356639 0.18718439199151251651 -1.50683392309033958867 -0.15983720811338952839 0.01819060741381842150 0.09823802156257435692 0.36191287616527362259 0.63901240285610372283 -0.41698239772189510388 1.37060779279834976663 -0.39527033865095312359 -1.04233870212778301223 -1.98047910903411983341 0.12510424972900080487 -1.30321615830940107372 0.63866003688393180315 0.48244699216693859301 1.00228133145144382432 1.56524442207130864979 -0.13785814568065268837 -1.76886237380002420139 -0.96071231351544672528 -1.20973153759783258465 -0.72793663992531576490 0.31543445902611472187 0.96479046899668630122 -1.51165432546214972831 -0.01330236495831104218 -0.35938026187184529681 -0.58695753520446569684 0.74458212034918358491 0.99843476023868271696 -0.23913918803128647594 -0.07310680100178010288 1.28659225463454673921 0.47891041905176084947 -0.26613322902739894316 0.54070428360247280164 0.58543932418082489377 -0.01935482854477608983 -1.07629345943419951759 1.20806911757774848581 -0.28220099730580416875 -0.57282502563838855192 -1.65399116312777416660 0.29809805186033788704 -0.42616286950292242564 1.29086934564324318231 0.41539377644927288902 0.43997136219069593599 -0.95876364665842805923 0.54740240704911991010 -0.26928920216460172643 2.30603783521449168248 1.66121899223485569586 -0.46216571042546400472 -0.68715039661670662685 1.65936607747448228167 -1.85348152005851818380 -0.80649962548543652208 -1.17950930854071089904 0.28087538923646232503 1.75893123603718204429 1.09854444074449064672 1.05040830285895370189 -0.99716864323606846376 0.56266789628857882821 -1.59646790411442984770 0.91488930486052733038 -0.78802205998685059818 1.33820585900467436957 -0.06070452566035806213 -0.06508040961696011373 0.32834738297538640373 0.11064477288465691951 -0.71010912612446497327 -0.41129978442141101880 0.78039118452628086775 -0.67504327827698218378 -0.35823147879030498020 0.15696775206059940255 -0.61441356007118408389 -0.80181591390849549228 1.82075363336721984808 0.84735959127272819646 1.24104718881148867737 -0.67639769548255668230 -0.21490679377307064790 1.34624890778148786907 0.16942989941844752155 0.55439362108843159849 -1.72959847733370897238 0.52692526839728859311 -0.67785867670848209965 -0.33688213434258257317 1.40326668774320495459 -1.11918116700837422250 0.56417961727761445356 0.28554206990781910713 1.03191991571040708742 1.40949835553211322292 -1.21031770842260621990 -1.87611532764975730281 1.39351816058260058462 -0.77965693036252359249 -0.82632322003432134849 0.38574653827575511311 0.76134871516593116691 -0.26408314711421027043 -1.27904688403649569040 -0.06979641805907908780 -1.97765301660572845321 0.50204754247171656800 -0.12020065719956603278 2.12458777262285636311 0.58581807220103687683 1.69522670522399665494 3.06202767777548334749 2.02022555932868819184 1.13731225361225329884 -0.51669872363741808918 -1.48341324130529317316 0.96119915660985233430 0.99468833255311173147 1.77479992283139309528 -0.41619400237450365765 -0.75580311710639758171 -0.17269348717831572992 -1.42668165312201344896 0.12462189755894377552 -0.75383565546637743005 -1.18130885127762108588 0.44201278358226647747 1.64681615657185664858 0.26696985606002160418 -2.33166939691407026913 -0.92009485513763267228 0.32308043528746088757 0.37753817752560486776 -1.12287712595338273758 -0.15388122663224040876
1.55786433119090905741 2.25533505604109940634 0.40064894366971065542 -0.48904995526275252260 2.08560096800675687234 -0.37869567472954385190 0.10495123137709205796 -1.30099892853945053872 1.58486182504003525473 3.30360374404986112395 0.71824391482054450453 -0.50231303222391399110 -0.74616879144081349473 -1.87167307716353947811 0.89694226279683642034 0.29165139010192869806 0.40871846154596513934 1.75639901704377998648 0.44236754011538004239 -0.68684428510285910896 -0.44927544326900442639 -0.25791056109279070219 -0.56789198443384469872 0.51518012235840349167 -0.79717500760209547561 0.70241872643067337911 -0.57581822463536247447 -1.10430757456801020844 -1.37728113501630367033 -0.44676727334218713228 0.25766615911325352339 -0.78827196947811295491 0.75046946726561802876 -1.36383901360267900671 -1.10505859354951674334 1.28539741454643086094 0.80041362463445409059 0.93768674878657720662 2.08959486896788737553 -0.22450643228987293698 1.73897960841294341172 0.93652182890132917858 -0.12662270666852967760 -1.20566113305995892269 -0.68098718439388672419 -0.13306667443655834093 -0.26431326032114554891 0.53618572851204504559 0.65936247132652447966 0.02869603155125555541 0.65106539055808243521 -0.57225790179171109884 2.32624536263728298735 1.83280220763784984506 -1.09108715446246695713 -0.71832565026325501112 1.98673510165324129773 0.20883356796801341715 0.29121652149062376980 1.08575541475970882566 -1.49120858749049012282 0.08764586486444010671 -0.76780349538961589761 0.93674002717972515430 0.61507969979494647728 -0.21855191647680458078 -1.88310806918048201375 -0.37347595948318723647 -0.43327388033772928910 0.19349258346834893874 -0.77808546657024257875 0.42836179088158365946 0.88918334107536323163 0.44838219222091657556 -0.26383429800627494766 0.28470930958997636706 1.03691193225476085971 -0.12395493400695792308 -0.45697030453374687387 -1.70007607052338149956 -1.30188181762391241847 0.70914323506846344003 -2.06933723766123423005 0.01854072919061153929 -0.10606732301055230017 -0.84306714031816776256 0.32290248538229798791 -0.09948022845112067247 -1.48563804822146972029 0.30061841826622326401 1.37667375666767033415 0.43300056295704270060 1.48157780568922547992 0.87208199310132805682 -1.23987941318659800061 0.99020967792231351368 0.12106077646717332275 -0.48875732100712693251 -0.41117671476775241590 1.50542100393735167607 -1.01225122441210846347 -1.31493215592790835267 0.73045423602950410036 -1.27390114825305778012 1.03948770523424149914 -1.69850610237215460252 0.06371119627410810893 0.15104419273986460781 1.44714760205159698181 0.31586748712322648691 1.00655503244201605106 -1.33922136499959432143 0.70835949971012002191 0.85066243770858218642 1.37186827761378138391 1.31634923330297293198 1.28859733167171630619 -0.17968409785465377926 -0.59391620637751041389 0.28172348139544167722 0.29000246233828202991 1.25527935296991377534 0.78201924292782276638 0.05514368676103820893 -0.86705915116401366394 -1.24809433108226697229 1.75270710573814469946 0.86940699772164198311 -0.82102353175441211697 0.05326248639247372491 -0.79740275306316787951 0.98451781086946499322 -0.13165627612015712300 -1.20135349779082245547 0.21120967878086591152 -0.16876983028328271241 0.04110349707663728952 -1.62705711985877354842 -0.30076592265659202186 -1.40221479631633205720 -0.80190291380379086217 -0.53236090399464830458 0.46230012649215984633 -0.56579112930829444927 -1.59526973977376962388 -0.62143215711077426366 0.82713706219713378776 -0.95520044194078923550 -0.51487855261378001615 -0.13384114115615819429
1.69672352017349470366 -1.32448874210409472951 0.18100802787429412510 -0.02346037610779955901 0.47681143550357957261 0.54753992079859292730 -1.96230539183963470506 0.21873989790609998929 -0.40851014116754025274 -0.90804307351468771525 0.02928521385739242533 0.38874749459587620848 0.85710527059419561180 -1.14876699013858463161 1.75728383483598626924 -1.12147731700883368511 0.51774018847581115832 -1.41394556357946532543 0.29811904357675594879 -0.26098174314107241978 0.76740250636350082480 -0.74338277470515556899 0.58352728589974078854 0.42791632609324187220 0.88067954440463003252 0.10183114923347022507 3.37894503396877787793 0.98528048941714752029 0.25876664751189554226 1.68566940855710845071 -0.10971549507727459960 0.82173720401147798409 1.52965284684754387889 -1.71967686781201956059 -1.10485565982319133838 1.41028285980303702551 0.91142529997103338690 -0.98607132675244557607 1.00663309787089971792 -1.08761355595502862137 1.98534339582062457907 1.11541454345577917273 -0.23274914336467303344 0.52105715905794514065 0.42546508224235440876 1.21387943612956017425 0.75920295502289225631 -0.99343991172868828521 1.13468079581377345733 -0.00720810385569716633 0.46822698867696205260 -0.54499006062095589620 2.44505239278981845175 -0.21352166538506031634 0.26669577592584825521 -0.57227157382786997264 1.51220216176507560313 0.84767396494581592759 -2.43577942391847335202 -1.15804568164940291375 0.59981718955490725964 -0.72567813950868609307 0.51406992885780289360 1.47154508178503351523 -0.32135390452251721971 0.64246120069506895689 -1.81983204990218072616 0.83201889987629285006 -0.57475948909723439950 -2.43144912808632707168 1.15101315040603946471 -0.49720700717633808940 -0.81967497087688778734 0.81348802019481347703 -1.10323250202775913209 0.05647276349442224841 0.84886942452714042595 -0.57440887756613834281 -0.27661477754488267289 -2.20899128226316587842 -0.98816457832963533470 -0.23791360021971746930 0.93245140742690446611 -1.63178271289199083860 -1.66551812572353208353 -1.04900546529337113100 -1.36182122538950500790 -1.56562215822858807890 -0.12596249615596968874 -0.29653487633268593715 -0.42039159817698301680 0.97356818941016798341 -0.18691355589752775557 0.12981580447268162293 -0.11392172026884225811 -1.34839356218277739430 -2.34246852223495460876 -1.03091574320608581061 -0.77446454328419189750 0.79529952398939662839 0.34800541936810525101 -0.05120723061484892813 -1.19518245383611287913 -0.43411469045927331134 0.54715996003710698492 -0.43213538976811310954 -2.74080903078481741275 2.33146020062726400113 0.05194403313184619425 -0.23835341175770025091 0.77775657082687887911 -0.41471904166114931245 0.46427149848554133404 0.49360452359532802635 -0.00628156530193180011 1.13299445639912099715 1.16034081819675916059 0.38396270277958854944 -0.37303632195101932290 1.07425825078466408158 -0.87389180657980580769 1.82188559380123438203 0.13487097476367687632 -0.23351570627703124861 1.40192154252799183745 0.73500593973690508953 -0.64724013721404816124 0.74251520516254954085 -0.60392691389978181427 -0.39572937964382337572 0.60626435345685636413 0.22016970609808980686 -1.99872469767971794319 0.53139347505250611459 -0.06983005784641493907 2.21357594431345061636 -0.89178704867038749438 -2.25883990889935004631 1.17455915186319148624 1.15215013580285252637 -1.21408566954788366132 -0.86525487162793912610 -0.52482947126827517170 1.22860616223407936864 -0.84811559123359403500 0.81072992315011038755 -0.97631414263163895928 2.16613933311467921072 1.25145115365580750222 0.17489771466576348180
-0.15992091587305737321 -3.25492570763467581330 -0.12525157369812678354 0.87868003833598484764 0.78313266045146978644 0.25406344335354347219 -2.00225344189956189211 1.89063211892780436152 0.79790197351993819019 -0.24837889334825133392 -0.04178417841384393649 0.64861960447270461394 -0.32440809747963689214 -1.19407695868454388766 -0.80664204873438394294 0.11443674739775872018 1.14918899008777186665 -1.90296050114682047116 -1.74021965637754449929 0.13615889254741850301 -0.92541523609884457358 2.18153391821393993766 0.71651256047090083889 -1.91886506429786041217 -0.11441219787668981123 -0.85650378153553152760 0.26463429766665075293 -0.07256094960194811594 -1.83549466738907995911 0.49954098865403556706 2.27587016602568104062 -1.10999215168996112624 1.07081958398271259725 0.95376985049519025228 0.01259846281904191366 0.15898127692040361914 -0.63369782243602146288 1.03235248488214326201 0.36731719305576410184 0.92758766174272166971 -0.22680403586541864058 -0.33037381483636579782 -1.63650065440842507059 -1.01240284924267576194 -0.74331843687235166218 -1.53068620781691433486 1.45457300073026174481 1.08691725087694734952 -0.12323378135327961447 -0.88204665750872046637 1.06975498415033709598 0.42901373213175925114 1.73672023085110316387 2.55275034243350296137 -0.52195764229255070532 -0.86381500930683252637 1.30324193555700795777 -0.41336857848254554559 -0.92508129076525547063 -1.80993417775163978334 -1.46562499287014369465 0.01504448085700011567 -1.01199015428115002280 -1.03253156349119801227 -0.52814856222253858675 -1.65403993584288722118 1.29233118310836503362 -0.33946930729163660168 -0.00874518952351035009 -0.37620652883259569910 0.61201015232076316774 -1.71513143544667290286 0.70805781648379984006 -2.19662615947064576716 -0.68628849754873721967 0.30247367179321810182 1.10109904555616289201 0.84825928935717120893 -0.89340465074931696421 -2.14496025060981265753 -0.91370650973438327647 -0.56857802429333736960 0.05265601993033435652 0.57044195992770863057 -0.05527195715566188966 -0.29219801120017119267 -0.57161095290732666374 0.34466806390050680475 -0.76983844328085826447 1.91950589664815307600 -0.16592126815617763702 -2.45675929641158941052 1.14288803790196835664 0.01741325791090499522 1.47524427223590426372 0.33703068068558938997 -2.53473458139278173817 -0.13256014481288130868 1.10147554655179025218 1.15699890987481412985 -0.71564110489314014529 1.42150557528886167802 0.21480832379859313153 1.13721636655200053490 0.90093782873898620167 -0.08688854374711268980 -2.60320675974816584386 2.78739312121308779879 1.19044287166333262462 0.13503864857668626542 0.52305458175194097237 1.28214211973097391706 1.84117999831183642989 -1.17648144265991816404 -2.07333377528390361277 -0.63382200659363974182 -0.83560961658019783371 0.31522491638224892085 -0.03316057742699689281 2.02638995592612891627 0.02688870849609786493 -0.26050088094930179405 1.02349550613004369737 0.26652605364285536504 -1.72510685984409239957 -1.63637851191961547492 -0.12258427943731668719 -0.48193173971184555260 -1.04608049773657407755 -1.04975056335363237103 1.39124580992984592243 -0.85759975777400321295 0.02488292554636590409 -1.02068636431382597785 -0.49684724285275777556 -0.40172748119851814375 -1.02000996322047510212 1.13738677359700068870 0.62350387618437719262 0.45189423430634717560 0.45614020670048149864 1.21255672407728365414 1.22844022423808585387 0.51309063322279468977 -0.10407809190671102328 -2.61189067598818835947 1.09793626440610103678 -2.64564864363495377830 1.13174997697884327508 0.08445123047673604166
-0.25373442382066446754 0.29974221380912979829 1.10650791448712548792 1.86784929854953207773 1.58597587787217797484 0.54705952259142287541 1.22067684802283582535 0.52713796302199122934 -0.09539332857831939183 0.89450958221015675065 -0.45819754922048916423 0.51024403574568732989 -0.53051468308917160144 0.34944606866285732316 -0.08524163347206981101 0.26438981547576484443 -1.93616174719145628380 -0.09730261697972927837 -0.83885723462681871521 -1.55561512085075648315 -2.37524076494606717347 0.54336673657107847912 1.66755646090291831385 -0.71564760091903700800 0.10520803774081559367 0.80013052296802822383 0.68664050327234837923 0.88649594294879652256 0.28466011305232097328 0.04243153690740286005 -1.07209985752009751003 -1.22243744772609908011 1.99656587740303903544 0.37302816373152469787 0.18055185107017235335 0.26915293726672084862 0.00290447980115396756 -0.59705120908406028590 1.19626864386227982351 0.11731412335577783013 0.88536097972751182095 -1.35847624779396758399 0.16383666982514685784 1.29497505332734563765 0.26437155714862325961 0.70484783934537298400 -2.05824219259772211998 -0.18281158869879496343 -0.96955030500725292164 0.62186984691513713663 0.95423800737210584533 -0.31508842382396062831 0.20968077132308249322 -1.25642977032350611211 0.76444477282644962557 2.33446354131233402285 0.16541959672648109958 -0.56069776585186947848 -0.82201798386774327376 -0.90518515949300981660 -0.43205996161706822223 -1.05910998821057700248 0.68351284555317204372 1.45559667446851626060 0.85250550586892959171 0.35226164071570237324 -0.67236869169630630871 0.00015559694474215097 -1.16495507204497394937 -0.80226933155916646534 -0.31456842614794711110 0.34784424097755739513 0.83824660968116804227 0.45166918737999772748 0.75075647662192557252 -1.06330394678782180762 0.84252439220550023879 0.59473622550126226116 2.00628343631722172447 0.06723619292447444162 0.73905078271870339179 0.09906391395199795613 0.32243668706208628016 -0.77404564087718719101 -0.18863100928450649008 -0.55688316195623477345 0.27698480752286952500 0.52090642003454767917 -1.19236792075606024000 -0.04595186405778525079 0.67404429138019184009 0.39127568275876667414 -0.95075339086356247531 0.75422987637464733446 -1.49868348985829147324 0.48588417275978307286 -1.57064727821778160610 0.52705888604104345063 -0.87358528065663909601 -0.56308841585391289364 -0.46982940920224341985 -0.65028229337600651494 -0.88390138050997635322 -2.17632141234503340144 0.42128248542714558100 0.77591755262554051864 0.52642281300896465179 0.05130916128423465561 -0.61607776090067745134 -0.90260736730955914986 -0.66245005642525522926 -0.40879560572519885175 0.32095637211499705721 -0.68006072113541915503 -2.08784700622361762967 -0.96914611429341057658 -0.20340138469466217952 -1.72194997136190486309 1.18524957298326905075 -0.29395756251209759213 -1.48102424394889697901 0.06786091090924917246 -1.05534100346292292194 0.61476854243167922132 0.37266543682115294001 -0.21175832518778278657 1.58435658176677085507 -0.57212371364505032467 1.01312515349398601927 1.34651076918838086272 0.54857440895569464789 -1.02174076742087183156 0.33986124664060901601 -0.14875900142755868472 -0.39341271397641897067 1.43111658613718062405 -0.33082240883063640524 2.32338587127564277779 -1.15879766386782367960 2.68175537641335504091 0.01072844791648482933 -0.63662819439877460503 1.04295150940110570303 -0.03772260135118479796 0.92706726016667906354 1.23836826491957063823 2.29262156433756958407 -1.00139679533626435592 -0.99128085063516202524 1.02899033784700022487
0.00002757633296694665 0.85078482385141196431 1.31806053847652537847 -0.32439027923605406878 -0.17289212735281234146 -0.19018699025332991281 -0.28904500585560360948 -0.20004740996421513377 0.93860270180086780023 0.26720798986872312808 -1.59848098681083339301 -2.13775626955854924915 -0.88002338974625760049 1.34381895056447442371 0.02796723075204149422 -0.96889023295964238347 -0.22483332947502371324 0.58929190828772926025 1.69590128268977125003 0.79529350674877286043 0.81225852227257266946 -2.24226239346372402395 -3.05507400752617686024 -1.24141243715839966200 -0.75629439160460198988 0.27328377009589510660 -0.15056075843626354205 -1.26639433769466025481 1.76211900950617472716 0.75957418068205184714 0.94865487606428522405 0.71400503999666276034 -0.17645873577441922864 0.06880185298366604807 -0.19626503945541853846 2.54584840249121802103 -0.61795823089610790735 -1.18919396108358288444 0.56089678614265658929 0.31135295678625513061 0.87587071060382681864 2.08492893082625796453 -2.16586343656887470033 -0.57910730702001211867 0.38777129772797513940 -0.81438988794696753892 -1.39350050795653901403 1.09279980756325789670 -1.48165052144588860195 -1.87692145023250067659 -1.34156060901246809713 2.17275024325833099326 0.57516656757410755674 -0.46707187187086585123 0.67435046677728505138 -0.38562592559963621008 -0.02188993850027290758 -0.70958760039193624625 1.73786741478006567796 -1.40609493113572536771 1.31876868072664854559 0.72812678262778218752 -0.74677858406220520848 1.11350339479332260950 0.34586518160990942228 -1.41091893339155505238 -0.29150977898462182569 1.86889606933085317131 -1.20921234204321725869 0.92576465484591052846 1.23696347222608160621 0.07530775695844231510 -0.31312654173234188981 0.74885345726647079001 -0.87760691026224402211 1.32256250482744319719 -0.39205642739229690230 0.98354315961826566106 1.89799029631132287754 -0.52484630173913360274 -1.71408383499679484174 0.62996025657355014804 1.03463424005638437997 -0.85003700859537634216 0.27149598949209352572 -0.52694504660671603880 0.03314756374991201238 -0.76318338379754380174 -0.56676296013674321017 -0.94517775778046686508 -0.84266616335540567295 2.18515138785470242055 -0.85521256676286905307 -1.03002185363955556241 -2.04265054339424434460 -1.39118781652736989152 -0.12079781493064822850 -0.65596776086267283290 -0.67305751691377502244 0.08464941107553788924 -1.72331578459393841563 -0.70743990107237220144 -0.46109279260813040846 0.19477266808391646702 1.24455337371027940918 -0.47172624566578735816 0.90063167871364480099 0.41589152497126269381 -1.58709869460194519242 -1.47820856509091447251 -0.72660399340047476802 0.18448258622894847525 -0.95506487063551803729 -0.00901594809634471625 -0.49621218663991195630 -0.68921630871245820327 0.38721096649913760990 1.12485694880017694786 0.49400444426239048523 -0.26538385542936260286 0.60177428503682373062 -1.43433962194510722377 -0.19697021359452912548 0.04186407325458765122 -1.29351426137192726529 2.18290334174216482666 1.44091369761064869159 0.45000509263782584313 -1.96479340215437692230 0.64519720591030838008 -1.20686988567590258725 1.59160888648155940395 -0.32903830259378891165 0.27426490687773336097 0.21965213329789110008 -0.11299802716434594052 -0.97545745207204337390 -0.36633746443176606888 1.27827246323154586349 0.24578314696755168556 0.96955987097206863812 -0.58440014628552605647 -0.60761684003750304761 -0.04208523466948977526 1.63923246330175231833 0.35886747839934102222 -0.74892771204942121255 -0.71461568087536964100 -0.04519896584120434990 1.90635000428768197622
0.17952788592376983656 -1.03290191820172094772 -1.83810372261600507571 -1.99529964755770294893 -1.69619447100466458345 -0.72774517756670120683 0.32148288742167097087 0.06000785934683876971 1.37785468401209798550 -2.78464715663682760294 -0.68881841846087110692 -1.29322019376485064512 0.43730203635790182437 1.03221561770385483747 -0.72353656072705163638 -0.13256014175821687062 0.24435802793727301463 0.90240810051278241843 -0.46368799793523890473 -0.73089597418912410909 1.25402488462432315508 1.52644986005658411798 0.47991015205818982059 0.32912904036368256788 0.51081680228842818448 0.92673307452867625944 0.07635746971029844232 1.92006493331101313338 -0.79241479650854540484 -0.61362885634660424561 -0.60703118563966829146 -0.83083374038738155853 -0.13772666647841871890 1.61433526213970801599 0.25889977326409607805 2.34288566089639216372 0.51936764860786410747 0.40736179844304637454 0.70030640675741406831 -0.50931326995148951120 -0.03877373045692446979 -0.99611750602733051263 0.21371645139539688363 -0.60771918919983880514 1.02312782188304862707 -0.37439202335024940327 1.02802023389392971353 0.88637294310506864470 0.96775583357370187354 -1.93814466108220329055 -2.05479462909942878213 1.59622975596566130108 -0.26537116700373863942 -0.19038986440415098245 -0.47804136617776543661 -0.66037570561027680860 0.23190202530599848818 -0.09509713082485551916 1.22287054636260772433 -0.88349435843280688108 -1.20337596653435752181 0.18057381080563894571 -0.18944382817654259465 -0.00719197692624085234 2.54927822620267097165 0.53413251986755794221 -1.14264373564957222307 -0.33238059464353780781 0.60373217037230408888 -1.58596039775597685839 -0.31167658256537306150 -2.01626021760550111495 1.17948020241806328379 -1.20872975867657839188 1.77324494969227886010 2.01170161897975896537 -1.21670520653801572664 0.12919376650882219426 -1.02626808623529508502 1.09102226565606841291 -0.62570131768033776520 -1.74338067724489853560 -1.44657536879918180439 -0.73040559630538026692 -0.10246558985761124172 -1.58192931881744325295 0.78905304043183699392 -0.46283357294615617983 1.68995124012565822724 0.24271952406168018079 0.41747310307755874925 -2.40843695855615225199 0.66637054913078452856 0.70485168919073193372 -1.22427389482301784973 -0.60883472615287337337 -0.60691472718183736568 -0.20908486495671285699 0.38537571187365793346 2.27935791325150516329 0.02184470402618670856 0.02682088306280212830 -0.39913905258493515005 0.03200922594655319225 -0.67535895075372687213 0.37635902253468450640 0.31745522033779988158 -1.08039012936363287842 0.20452601235584710881 0.71383178731865470912 0.60361102290770418666 -0.46671324212642206763 1.28495445971589927758 0.99416895683640205128 0.05999045319192366360 0.31073155012928127539 0.33899155402937131143 0.96911651406239296414 -0.48668261624187192371 0.63013024009466955810 0.62016999619577706238 -1.80352490579063440279 1.69937807134988450031 0.53189113392936615554 -2.03633021039221295823 -1.14111673999726903617 -1.96238720020716983505 -2.11671312046678661289 -0.09647262901462361206 -0.08614503043041030206 -0.11669977312491966459 -1.07524344430782892168 -0.45655192546832390477 -0.42316605845411681130 -0.13977321206178283663 0.25184496303370390580 0.11823418434957101708 0.21749641627083690643 0.08759819735983430389 -0.31320536673062882027 0.04729558753952235739 -0.41032565778442470217 -0.71142096014926081704 0.84254544990035606933 0.43471119817570430532 -0.35876693751769056506 0.09825722876798438643 -0.10484192558691549091 1.52099712177625590037 -1.42332746817368627212
-0.36457477377083674641 0.53769605151143418098 -0.22027622005860816867 -0.50435253967411408649 0.91923782070131088151 -0.37992236833758036285 -0.07358787855789349075 1.01890867124952522182 -1.90838632127675977834 1.13785672962639528016 -0.13757381622913783525 0.21393675521202917822 -1.54828366577937392989 -1.38706115628885351398 -0.62649387763458774803 0.62257698376339321022 0.88505153651817192184 -1.15407431633625834344 -0.83757517960508076627 1.31765540798408187229 1.31347554513015807309 0.28130792530442633170 -0.77352676050415780651 -0.61407416235752976252 -0.69371183622940835178 0.54298260925339059124 0.59382460480825016713 1.16685235915488583203 1.83459206807372932069 0.30325800426958376965 1.41844842135851090248 -0.53829199997971510783 -0.18136708231146420056 0.66717601316006747147 -1.15571498814744511030 -1.20916155100813393908 0.47013709536385084320 -0.12798411588436112152 0.35142021812266155401 0.12647495930844135370 -0.64326510846347972894 0.89811978651750801195 -0.16905987263238511642 -0.94863315226746225406 1.28531073842127696594 -0.52272084965190701578 0.46215618079176096211 0.22248142059276909688 -0.37743972775132300645 -0.10177773822702808337 -0.58142320287326276773 1.22550405495461589567 -0.71052405468651036458 0.00626109642749370695 -1.70077837616474547566 -0.06326657113681899425 -0.53158366203219054036 0.45232481159846360530 -1.79151319234899086830 -0.66881725578286255196 -0.49527798645494020002 -0.44900641775253663512 -1.20807675392792424063 1.43628111612437425748 -1.23662425307914203287 1.03421834705709803082 -0.40675997265227015198 -1.32195200567274318004 -0.51205394565608686186 -0.32472714723421958194 3.33993183419337924533 0.54475633300464554321 0.10007754655918578435 0.34622866854961364957 0.97928492093982932865 -0.08744546303318691260 1.19568574806922911513 -0.28104911146705385816 1.59185602900422340511 -1.26874531689871949958 -0.75415948118983044957 0.96545972485738895674 1.36236034938925332227 0.94510193070352832567 0.09029495460568894016 0.12386930058686553002 0.38452260975389990216 0.24438430158493071320 0.73504874567458799994 -1.35985915976490590040 0.54941503959415183278 1.53454249111454776866 0.20553488449874010580 0.20688643992017111128 0.93678813780192837779 0.36714318903245501957 -1.46194466862281835517 0.09115639493923066716 0.20474068876435683184 0.14581611420392803780 2.22954466640301518510 -0.93980808791118397583 -0.88449249606405566659 -0.52076786907486460887 0.05496192583448326896 0.52591950553953081826 -0.09467319889365184704 0.19790579226582982741 -0.51336571033549560639 -0.88800085021268126972 0.74796096103526554799 -0.20743847262628234418 -0.92304094254081014981 -0.27895675021541288530 -0.86607694117497535657 -1.73051539515976049444 -0.20443558126044461543 0.70320614891193622409 1.16955516421540584027 1.32319922319016303192 -1.71789622797090824058 -0.17815844882064443833 0.96478272509670093271 0.72687007472172548983 0.40442135534471962410 0.25198280076916018677 -0.15865489792509213096 -0.46061430090058008702 -0.37552204230862146206 0.66224549586686765057 0.22775149523316651212 -0.15656398159648257651 -2.32804447394928271109 0.20714175563055398088 0.89756506302232363925 0.02033459333386070794 -0.13849029395227102635 0.29575142835263057428 4.73369551641604768832 -0.97358024329019421383 0.75841979511096035971 0.38066262079678059305 -0.63269924703091917628 0.41704441801161390435 -0.17007267153978675167 1.18111382494662309206 -0.67311473675073274503 -0.74942964739438078237 0.27991480241246585736 -0.49063510397401793872
-1.04591905153286668373 0.83681593943559995363 -0.18801240875860086854 -0.24957085713153834283 -1.74733133052750244651 1.10156607255003002876 -0.34409066270384286446 -0.25632214751108972628 -0.53233576438708085643 0.63171711488658910394 -1.78610759166307864199 -1.12511780150069107265 1.39704308749896743969 -0.04550095955110119300 0.72337867140254208387 2.25096890923532555462 -0.40166500681286665397 0.10597110683266781905 0.36185847208682531129 -2.50019114905113237768 -1.76348115434674324042 1.76075149259569108118 0.56155139551163013589 -0.85908471131233310469 1.13474052546273607156 0.63515358636144381155 1.04809226551733369881 -0.43865525838102087386 0.43333927470695132733 0.16715928404525501327 -2.19713874280731547017 1.41964023463495325750 -1.10221214200591188792 1.08179408503613050385 -1.62479709007064698767 0.39095258183100223270 -0.10833985381438368534 -0.09780006811927667576 -0.58544206843725954403 -0.44296871475913035532 1.04462830841774567681 -1.96579979752545752625 1.67227560597120405994 1.32008831531577297547 -1.73526275166982468789 1.27045832294018268271 1.26820996370659799801 0.70469087385045303673 -0.88892641717828013714 -0.27338403568104130414 -0.04040217892620873164 -1.00147939846517552986 -1.07841005711958226598 0.55567029761277697553 -0.36372944310972354920 0.04878217699701879045 -1.86355699952468456537 -0.44766840467965762773 -0.45630455170594069747 0.61443236940664536228 2.33423692506110569411 0.49695238445738787458 -1.21436893519270561193 0.00227926937982400081 -1.47599092105522400331 -0.71649538584881045100 -1.19589680008712750947 -0.66597921837364515429 0.20388176783626726918 -0.95673996629896829180 0.36584136262410904550 -0.52366021198655388069 -1.03030335310107235003 -1.21860347295009985302 1.95173105419013848127 1.26364666325992103246 -2.26206517055376288283 -0.31213831279470138913 1.08532006889811727390 0.23564686354413780234 1.14281063742495003765 -0.77855453565393351045 -1.70806238176014013597 -0.13205754332709693233 0.75198011638489059560 -1.84432121386446778999 -0.70432320527811209665 -0.83491729624406763044 -1.29589895751710093563 1.08115254913377634161 -1.41340066945699849299 0.31638440748041907202 0.88855569075475671070 -1.56434157611949498090 -0.38904871486831876792 1.16810932325953076294 0.69473152609496302556 0.79153514320069717769 0.63966905436906018600 0.70728432507458471878 0.03310093815264781442 0.62622982186385756087 -0.03251724684612469080 0.64607125788920016785 -0.00340191713480740739 -0.86635845474915185171 -0.39917885312124257169 -0.92596327137591005751 -1.21372656345989304860 0.27259122552785847171 0.51153530684321435462 0.19309902100596812446 0.31820541251091255530 0.43730548828490034552 0.69495945050120921938 1.58870882082336639662 -1.82585043619437747964 0.48599047751660479078 -0.20201215491772303579 -0.22116087122087962902 0.72038609204693315746 -0.59274542183164347087 1.23102507514525605359 -1.49233063444258262642 0.76584114442437833947 -0.93559178480406834932 0.29073866068136455798 0.52588169688777686162 -0.19894872498773319425 0.30963545947829990146 -0.58215905058800554439 -0.69378127510953457868 -1.32035779283489973501 1.26917524454412644630 0.55242817602159499657 -0.28690586092212860825 -0.41453671955131221605 -0.56523109539733928930 0.04288188230689675418 -0.50980094339449044671 -0.95903082081318247187 -0.63582158352818762825 -0.22119190593324347671 -1.68444750657540653904 -0.13688990296398756419 -0.00491723987280251289 0.77584570970826616243 1.26528277737816141624 -0.20499978446482181038 -0.69717765322377545090
1.74476651662715132041 -0.65437005918429647089 -0.49540747276004559740 0.06945323150403964751 -0.44333659686127618871 0.56164420713768414828 0.22783497886783277142 -1.00547233916226419481 0.70760939637699005189 -1.21994687669763957061 -0.94471112647172417187 -1.08537029621621594622 -0.24095888582041291581 1.98175296177487947347 1.71920738672547268600 1.08966464775145621680 0.60862534315120675465 0.40617152181781807085 0.10815389544311956871 -0.70280775589693555983 1.78979073296061996778 1.82834195860392556554 -1.11187537582603535036 -1.06951823982790772405 -0.86117664040792973879 -1.04800313499392361294 -1.75206913628113647441 0.86052441931087109150 -0.53909160916117238038 -0.33675408929759953480 0.15938986577763514241 -0.54126296161922404782 -0.28585494295110369656 -1.66507269410262215281 1.26450919305688991301 1.53781574735394177544 1.06165588158189816426 1.04573545582423799161 0.86120742893682711294 -0.71890266724165463597 0.83785814224133303707 1.89155735527894419690 0.12782642427388712925 -0.37526069440332482374 -0.15374008732536137423 0.34048144996597573542 -0.38636782494903332275 0.59606401827057953202 -1.36930613573925641369 1.20076380229696932922 -1.54729163458848439916 1.52426427104053896500 0.34381097348350625476 -1.77974806520032013957 -0.55070212772644167032 0.85646018410031998780 -0.30238495859587039005 1.46455805086111956470 1.46796214361620802613 -1.18084050892167491398 0.37948476280465220922 0.84802016371328359234 0.02227390683506763960 0.86784216606285635720 -0.79966348576882040344 2.16698451234539612997 0.85831474532110163533 1.14353817233203969295 -0.91232693751372717639 -1.51391159798262542324 3.29198696074032204351 -1.34528598345951277970 0.05942907551574101721 -0.80433273304485652933 -0.41025395539675818535 -1.27964073848442994041 -1.09548759888710534049 -0.62474040052609014495 0.40348326633703851529 -0.12946358834430723994 -0.91531594435977703395 0.49230223802364270203 0.99130897353591052035 -0.37056410151635033046 0.19391573949034543456 0.78249677211200296956 0.32437657889575338688 -0.63408308150752112908 -0.84180241467401106803 0.11437041292992675134 -0.67726597961239998202 1.12902021601080049251 0.03676557175447404957 -1.64697293811990519430 -1.77233821415154180201 0.32807626771431641632 -2.63015153277556690270 0.14788552399487944755 0.13494964730516784135 -0.94504069660732159530 2.32182951405386095445 -0.15997765347769560274 -0.62379155617516690580 -0.21219641860251020615 0.88268065126277617249 2.46032539227840452156 -1.39042354425575287458 0.73864408141047233070 1.00003166073547355985 1.47875798823622917055 -0.30589089964775639796 -1.25720744118323657368 1.09423730704955457504 -0.83040598117358821462 -1.70114407842844772567 0.51919939383469726479 -0.22159503015731318865 1.02521737212513008863 0.56594405361498056894 0.32271833919117215439 -0.55113350525258986146 -0.56932978990530969110 1.58079043167877464349 -0.62364465311789052393 -0.65770235353610395634 -0.69562780199218310351 0.06825824074673229880 0.32846762132374052179 -0.82971363319532398517 0.63517745574992057200 -1.33608379137966548633 1.32134214563881813298 0.61644829329687300667 0.54355970668105146881 -0.67818425825474015767 -0.21732654598038175786 1.16616076012739977585 -0.50541294052874752296 0.71417796007783029832 -0.56794767208643748280 1.20580407175477599679 0.77029811487527610758 -0.82630177911564794968 -0.42153807443659296883 0.17938604739778532537 -0.20269494177471966689 -0.88843746284547753245 -0.35338101603819538354 0.08140580349689151285 0.49834312630208488226
1.50656293072523750354 -0.12559442694930811335 -0.66610539367051724291 -1.28448030917539623985 -0.14887018194214562961 -0.47914660575603879034 -0.10174222349512816732 0.48495304381038190078 -1.12935640327453934439 0.72247347318596721877 1.01671913126578261632 1.98320193437884828569 0.08983531905111040439 -0.19846383866089312153 -0.01478694160828659086 0.51967748504656063879 1.42249222330933222658 2.43866340099478495773 0.66401913937135637056 2.19225690307954224068 0.12310171048005806582 1.08599072792572726165 -1.09849928059737655950 1.09697648309950057666 -0.67735076911260527766 -1.47727590187710400293 -0.00330680880536271884 0.97458829757964660079 -2.26103111379208510101 -0.65322982828605946626 0.76603205094452087032 -0.91240641923635923405 1.87536310296058905678 -0.24550237441261169025 1.32890903307123720012 -0.49557192010948480920 -0.53140503259993587815 -0.58498428719503448026 0.58857568773822732666 1.98530687608009248635 -1.49989835680617078495 0.45981358298343727453 1.32805552097301604597 0.11114201057076780743 0.84959584001803223341 0.32251493534392494666 0.41523312418581254102 2.45364079870447282516 -1.71695463184348739993 -0.11656366186218881931 -0.42740449694698195993 0.66583276391080392642 -0.75257748514143352203 2.11207418303835092743 -0.75010519222415927842 0.04652532221596292206 -1.62751416539213877854 -1.00014762359460229746 0.14906480504325358982 -0.67430031196643180902 -0.22918546158833083548 -2.43857166133177516443 -0.70297555590056037822 -0.29612945452703715032 0.17819910374981531853 -1.48951459587889467606 1.56601804749002204709 -0.13241638757338800025 -1.00152707512789662658 -0.04196014724030725646 -0.44938029059318318481 0.25386693026172041376 -1.47404797825706879166 0.36032481763721685430 -2.45748928504212882373 0.94676285428764617169 1.61400061435803765519 -0.78340961672039299835 0.29471262716324336806 0.36956179367229136101 0.96400161654004368206 0.12262105678225834748 -2.05435797070237446960 -0.87291184022345247318 0.91154847563626295592 -0.25812789343797259978 1.21633426452811788110 -0.86457119109735058871 0.50408286714583172561 -0.64133053158468111832 -0.56922818794589225000 0.37668901775650537322 -0.53270649815398618543 1.42568067961825284407 -0.71957172523078971604 0.03658321549959515917 -0.65550226531075828085 1.54294303694575352104 -0.69382714538929679549 1.08235237225148583917 1.33049777393693924310 -0.01310324732337948481 -0.25643743214760689186 1.45939107713323434901 1.00422361309964180975 -1.96586064871284138533 0.18165651445513805728 0.05546120876515372305 -0.56436113589735814600 -1.26169230748052041413 0.81735199302447159031 1.52763001132878950550 -1.10288050786991487229 -1.18732903274575440911 0.72518215412014530585 2.09675028446617650602 2.34503913465358504453 0.60453953408237759426 -1.20446700600063061337 -1.39166178511086480185 -0.62478488105788754226 -0.44890260465015102698 1.85264384117531943907 -1.34277767159494554328 0.20165738950517386741 -0.24099123593910465324 1.92600430553900481279 -1.13376742405740760233 0.33358913293992187299 -1.21854512490137878444 1.27592756170710841523 -0.11554768573404068654 2.02952161350445026144 -0.92073252654526616112 0.78188559080632102916 -0.91420618129689446008 -0.10776115346658995953 0.57823121059526605414 0.72684682342201978322 -0.61091408688889559109 -2.32182423008935989728 0.97457666420573385579 1.91644081135010968531 0.89795864511180945033 -2.16938260773183788643 0.35009216103314649837 -1.01843005202127101505 0.74483940393097824995 -0.94796511203424660419 -1.09475149492550705155
