1.85977728905968220374 0.21242033291172723874 -0.99909960260627761475 1.64017319368695058124 -0.29841597249966550498 1.98834673545748952250 -1.26513147212905430194 -1.75707019766548522277 1.71205036089570317159 0.59445577632435808724 2.89257904915076480279 -0.34322513698437989715 0.70455563711665114557 -0.44632968131205030815 0.19515884106040931600 0.60992255313759569102 0.72154060075510173533 1.73496105086366525505 -1.18187249527919568948 2.61286984844221104041 2.50014676530285617773 2.26090586487388556236 2.59453426765249783870 -0.41179202416207089099 -0.13937746119082872198 1.19754686859362680096 -2.45237422470689248044 2.01454613869475851473 2.50634871127669800472 -0.32036171796310253246 0.46378343294972579347 0.96847778296872411019 -0.48636223317591753545 2.59724376572593707024 0.72384662407436173304 -2.55121366286605733009 -0.13538219141530979939 -0.74270104482094179144 -2.12690419838220856619 1.69124340943015760708 0.64331866356764610959 2.31596366524897145922 -0.60334095916322283415 -0.42325309321814841290 1.21914573145258753328 1.19627062167991771169 -2.92590223829196549588 -0.13049041865835386833 0.76030911485848784448 1.80032231217515925614 0.92465813943512031869 2.02132773831808076892 2.81906143703392775279 1.06610520087444471393 1.37942962745065744734 -1.20817621519699103239 2.07604369241106345712 -0.46526646735865234694 1.33329972595816714787 -1.02348057037858408691 1.50713956396575943231 -1.54533141864467005178 -1.16734683352530077549 -2.46937311847383966779 -0.05830484227154213855 -1.78000343929978122048 -0.90404529713571446514 -3.02562483707396756571 1.70339272782419182128 -0.72745844297270967349 -0.80915337392554420592 -0.79221078201646399908 1.46965898304446218603 1.63865722622066622982 -1.44513257990462151703 -2.68380315536300928514 -0.99836202066972223879 -2.60654265605416846086 0.44551651282031839996 -2.66313582527955450274 1.58055996990482316988 1.35645160396858877050 -0.58101723457463405609 0.43933345529284456576 -1.28044729055456030231 1.34518190127974057724 0.43225199738030772867 -1.07323166220134336157 -0.98980636468313154541 0.24287699629541115165 0.00424883232846851901 0.20005973057432732687 -1.44602970432690747238 -3.20627957833935539611 -2.53202316072544464376 -2.54647671047728829663 0.54553717807179691324 -1.23591422720234955790 0.82772540735405042422 -2.74913944808669619135 1.83555033165413417073 1.99849605148660525167 2.27786068490571880218 2.08253569367514845823 1.06229855275359996725 1.69589910721806780280 3.18920693322539738901 -1.76184902745468474627 -0.39619446053815804420 -1.41043011702105092198 -2.52370478789195917813 1.15753070492642118339 1.54543829323458403735 2.59256203797540285549 1.50243649817549562719 1.99162024366321266378 -1.82518442959696947092 0.87391543584051190052 0.59035567331164628957 -2.44812129475534590028 0.08884319819241297267 -2.48443085331554947004 1.21334851408425192787 2.47168175641476706161 -0.13624377234539769566 -2.56526375324120614607 -3.59668884037118541386 2.22724327801876853528 -1.19152140250074989325 -0.93687253182464491630 2.27616612411137886340 1.75692247726927863738 -0.09714135657846607874 -0.01696899422850636080 -2.30371874176351409957 1.78367627318985277896 -1.97352456981557566884 -0.93805623115367109399 1.21053715524032212691 -0.49330022186659094885 -2.65968196562852732256 -0.90862016726632954811 1.92884977641123911418 2.45210618816104553019 -0.58746898725721696799 1.00096819811668757971 0.43669594727407512469 -1.23682905949511612320 -0.97791819884578423672 -0.35878607068770368427
-1.86664836849440085587 0.41260931338189760220 1.06010039199246097752 -1.64519531381192396502 -1.70181864861709297720 -1.99997388099397865879 0.69797119291137343922 -1.68717064482381351453 -1.68585963170928820887 -0.60110919947257923646 -2.90060400336168511259 -0.32266226321482355255 -1.36315288178436189170 0.35835674505974918214 1.64240010874441599853 1.14244599654934364530 -0.59657255772508321900 -0.31439776950953496337 1.17216007061975702186 -2.62652262807804204314 -2.49474749277246266033 -0.50149838839317306682 -2.59295566658397635962 0.43100530773051981548 1.22476901531637216713 -1.17809967509616275727 2.47642305702295972836 -2.00621213889516969431 -2.52909239130014773522 0.34212690173280513317 1.62933967844673954772 -0.34205032914196459304 0.02188341796466567943 -2.58762409739470378156 -0.78991449257753787450 2.55402530557526574739 1.78117745966859963858 -0.03750627067512240370 2.17255240209362776582 -1.69995257217225170798 1.06442020229405942544 -2.31332963313393369376 0.62754027646308541133 -0.01241327055369343194 1.67677155174569536555 -1.21113516257883935268 -0.09446373250587009052 0.69421889819418769463 0.61640586055119717113 -1.84135668284347397972 -0.92499228248856102397 -2.01299826667795578317 -2.82887057793217566726 -0.27839642249135959640 -1.40401943597517453455 0.48587559349452003055 -2.08693629550619164092 -0.57815562713373080950 -1.37876935661790200882 0.72130366838519088812 -2.80955361123541624835 1.55596079650304197628 1.13315258502994398171 2.44480712487406215416 -0.40152675258766523658 1.83055580077542501272 -1.32758925222167545321 3.05084048819279152198 -1.69616063821928553246 2.00344967921878414074 0.83392760664481724309 0.53399972045723032021 -1.46681409217452429772 -1.63842027102557530327 1.42217719219253546648 2.71058972685325194618 -0.19337254709254286800 2.62595970131813416515 0.47319480222265797309 2.63431659454691535771 -1.60841111080735332806 -1.32810980556269431219 -1.39419696476868049118 -0.41841321061598329978 1.29522918544624343617 -1.38762892564389361816 1.02568389889428002171 1.04888715388984032906 0.99229248359046040573 0.24210426879339416728 -1.26089642544839941607 -0.21076018058476170269 1.42884146015385282702 3.23200324332886568257 2.55321091803168664924 2.51200952972842106448 -0.69163882049129365992 -0.01333833304704291900 -0.82949709987586284221 2.74525086411523133734 -1.84354845279167678385 -2.05042234487165320189 -2.30460251467648635781 -2.07597492010026929421 -1.09672409820375693634 -1.68546348516271748963 -3.18615512255493449345 1.78224717673290378173 0.40567742387555916217 1.41231825789772669211 2.52539373032210168191 -1.16200510831938608192 -1.56292179391543450961 -2.61064653913541411256 -0.88571869004679848469 -1.98406161419650972633 1.86388512791375271505 -0.60287911899748936051 0.00413466464498035702 -0.91403539234078523545 1.19691667190658668218 2.46370873066714723976 0.24373290183633306016 -2.48988383539357016616 -0.66306968226151119516 2.56835554629671314331 3.60866972480951586633 -2.24967960980015480033 1.11704765247601911504 0.96187690002266557077 -2.26848069418624431748 -0.67308529112078629986 2.94391996382321030623 -0.54728259488248764963 2.27219018405913741887 0.15905408856382297067 1.98831202848884092127 0.91695176996968064120 0.31937381555560034885 0.51285294450027474333 2.69591041279459631141 0.31039119486136090842 -1.92904665078168302550 -2.42424665644442516310 0.29754851517073094280 -1.35085155427889858082 -2.02590283930368109111 1.15289051369424666582 1.03971421477142045298 -0.85142415845322583223
