-0.25295617453055907475 -0.07970946846382367945 1.57096588326533526114 1.00697168054686647665 -0.84246734668214684483 0.82708719645302131163 -0.61450698670421455283 -1.75871853208429040905 0.67699708317919138345 -0.26979024842283855223 0.13220511353800182275 -0.22314765526421884156 1.08238207530124275202 1.53268868614208253476 -1.30516174132403439678 0.05959438495373772099 -0.11294651729179476518 0.79087791046714772669 -1.67458771776474146797 -0.57678973221226537138 -1.29215593562971409192 0.17871068032645989754 -0.16944517447217621875 -0.01615133449516117231 0.26967109469154754153 3.43228921881739301725 -1.22176694080954262311 0.53439108907961485606 -0.05566214034742963945 0.38295255778051340290 -0.26575425330820384717 -0.46120581679213307202 0.34694753166782615894 -0.58703757394904088063 -1.34996204461980995326 -2.25957538478829622619 -1.24051761551846051468 0.03729514977126302533 -1.03650291205176281473 2.05150622311962527178 0.13722685286763761092 -0.40506252966807848592 -0.54123527944315075189 0.90827667320618588054 0.93446174682723592841 1.83308595633439663786 -0.27889870610707495624 -0.54802151904338636257 -0.94665072662382354629 2.06593421006891286851 -0.33043410014616925174 1.18837613264017272208 0.61401939213696599129 -0.28855639064763322077 -0.57815341721289637000 -0.53469081448399102818 1.56872205450929391723 1.23242425891530782422 1.53419332791987916842 -0.56840629689232824440 -2.07585825290076098071 -0.30482171836045862667 -0.25817446932882331945 0.01830043892879278447 -0.12608673107263201896 0.88589784567338769605 1.09756562388024248023 -0.69443980860197074279 -0.91904632278464415407 0.16326652621503426333 0.16281405562708725632 2.48712550691333955655 0.45798705881710771726 -1.31396609918197326827 0.36040673477375245737 -0.14441619776026431987 0.97850648847330012892 -1.23642873610267955975 -0.91429400340889177556 -1.84838841249583252235 1.84093128556046092825 1.03797179431631358959 1.33659536102348108777 -0.59067648186646892761 -0.15916978083499977448 0.87303761086093600863 0.01887853263314014096 0.85470526833839788328 -0.05202076086840774077 -0.37681499157212422491 0.85338929350525472017 0.32747016133351691813 0.74484109470010972931 -0.18735679075069075483 -0.13668087982800089519 -1.25985751007169888283 -0.45085665697419263775 -1.11795861262859208551 0.59433352700669517255 -1.30006309337210290700 0.11828777015645944304 -1.40123148668511832149 -0.60260435980834137215 -0.10304965998364026825 0.27165678773483437070 -0.95337731225202826391 -0.38412937065642055456 -1.85416675593513491371 1.30204816734168105086 -0.38542715070649324893 -0.54839471383590987497 -0.99330372286763080059 1.15675936562269687791 1.17439145438116798736 -0.64351776300013596721 -0.92071810316986524292 0.96055413482695317651 1.36782489267024764956 -0.31057060507054662368 0.00681916636084168963 0.90122952589905036547 0.62473798367921840047 1.03688969793924501417 -1.07259723255657202223 -0.23982322402176747822 -0.66507286239167484609 -0.86511892543956525614 -0.33273475015926434750 0.42921976095385760974 -0.49851677403648053666 -0.54796803529916693343 -0.13387672430236918775 0.94285223042243238023 1.90416666533121436977 0.05527747475755417916 0.81995835022603447140 -0.10762884763557054035 -0.03547036043148994733 -0.19072831506184192984 0.46320003199251064130 -0.64891997589323724416 -0.33684115183906476743 -0.13637703512875215539 1.21522845219088071467 0.09144071605178660800 -0.25744477173787172486 -0.67008175450646534355 1.18185397056200480748 1.26122124842708926984 0.27424534178366549719 -0.44108446994766087323 0.00066233005125817992 0.09775494201974634090 -0.83248840792055123217 -0.87626539091104693746 -1.38666590819173429772 -1.92617996626507448354 -0.41884581611480514729 1.21770081039386335320 -1.22291132611638464489 0.66112432066046766810 -1.43615477980034733640 0.72970091341400733498 -0.25349598442258658437 -0.65714057398192304849 1.94653201300096689863 -1.79954799924456154692 -0.81323948155401659665 -1.17637913022690088205 2.30821257433678095339 0.39951909981672634187 -1.49411576836497528298 0.13222902848143641696 -1.46174629877012884904 0.45635894668434295873 -1.38402551135712581498 -0.44986195507848847353 0.13162623906258821838 -1.56142338694401283661 -1.10986275024823011215 -1.31089698326005876794 -2.25565374503755577962 1.07460109139577264514 -0.39057312615848621684 0.06979060062260429576 0.60706929902782647002 -1.35087031992835515659 0.96629754361571917887 0.62615298615330361454 -0.16810574382388418502 -0.53071432373702454033 -0.36844666238051870799 1.07140757227828387066 0.47222271490698475294 0.55894077368023786789 -0.06286302650419409166 -0.83398495410558770580 0.21434694917113311652 0.54776692915393598859 -1.06074169523421013572 1.22147090788630552360 0.03136208798993932872 1.14615587384857353648 -1.41278126897477762647 1.26474040632460105194 -1.34117740678042807190 0.78834494612554650850 -1.41959820863194052798 0.48329667302591922118 -0.23585081018221604188 0.67594132585682009662 -0.77592889516886898171 0.14756099683520010335 -1.24177140927303497620 -0.15579420887167916288 0.59351646380162526029 -0.32228368108391364233 1.44418101790895003766 -0.48709497627023168320 1.16677372561345449320 -0.02424296202564816399 -0.98022359894186528173 0.20460931848227184582 -1.32354335504165376847 -0.58395970720206902271 -0.20399824853074138842 -0.20882924737058050635 -0.75321532548552005970 0.40418973400200725044 0.58982232105349652329 -1.07061901755568178451 1.16086558407838191798 -0.14031056024100146962 1.77289531601730088184 -0.15047269319082584582 0.42743416268824685478 -1.17019454896294994306 0.29903782398923639541 -0.08233280450346117108 0.69557689964746871603 -0.24697952850636342714 -0.12738363780267034087 0.86195283336515027273 -0.30283119836468491703 0.68077043716981933130 -0.06698166329618691905 -0.40280822460987708578 1.36658088039260050550 0.10697568168593754590 0.43751299626732870207 -0.66668031970728947044 -1.49985322570146806243 -0.25925607929135430219 -0.45650483493977433991 -0.75740491661261954981 -0.55693733988624871678 1.76515438473547670029 -0.97836402084064766349 -1.64687520922016483738 -0.49731799879193022695 -2.15936733846357409305 0.44133273288526869704 0.73414894200974156746 0.67158944925347052735 -0.79651536396746092095 0.97482372981975973225 -0.07907386294117621506 1.48405554291090524544 -0.47919575839374906057 -0.11411128149870745918 0.27081788833563946728 -1.22253518984588027685 -0.05484416437470486516 -2.16709828953430383436 -0.92250586872597339916 -0.30034485600041144204 -0.09613269040096820983 -1.57275037292664898736 -0.51663728893576443824 0.48942967520056712694 -1.16494663607439363773 -0.09772362204790333018 -0.39715704031058357559 0.54736957918867334971 0.44069115748324649839 -0.00431627039519760173 0.71605716004066033431 -1.11174544923250651074 0.91998300356844675552 2.46613766824269831091 -1.93812294705853527255 2.17180271410022651679 -0.29921638463409205855 -1.16058551062113934904 0.06305879529608188205 -1.89853668151243004658 -0.14230992209082737876 0.78664987982503387087 -0.84634117236049311028 1.60793894973282980310 0.11417949645047015261 -1.03853011643930237540 0.68905413148332939066 -1.59673535006737199460 -0.94739847284977674047 -0.47117550987095951909 1.17676824579986338826 0.50050043993587634006 -0.89104637216861071192 -0.38795168202812457814 -0.63463572106883248125 0.02771881302516219017
0.72191802469791155339 -0.78118421139156413169 -1.23912047347686393728 -0.66394080822740897396 0.75988826128160291695 -2.02299689321113973506 -0.68633314977828463466 0.31822167147554208944 0.51340060001296428105 -0.37343164132669232069 1.17348071601521919405 -0.13650666974349942584 1.71508987575059657082 0.06601999189232195253 -1.20255958526941975073 0.07108351593857500927 0.44656239801071195838 -2.03805037452477000315 -1.02889542629976160626 1.96861137297044352934 1.25757722792983672733 0.35235273820647344811 1.47293090275612925666 0.37691655297827292292 0.51674739900883648325 0.20301741104939011184 -0.61338723802660166662 -0.79561640644749609397 -1.68734918589860161120 -1.43045591469910449156 1.12675401458725499282 0.71048348511639325409 0.31913778177286006299 -0.87455554704754978612 0.71054301264725994169 1.05433969012549377808 -1.93110855369656175817 -0.23916960665615877302 -0.40202528822853927926 -2.38667508071821021787 1.55248782267002360946 0.52461043940293927701 0.07122940979224599845 -2.64161360312609083678 -1.26714874903114105287 -0.42566450565382962790 -0.08531385892923074032 0.30347603429232294925 0.58442489264252883707 -0.52867428502062052686 -0.00718358147581434504 1.30642833257383439438 -1.44126996898514803114 -2.34204416773778945071 1.18649280179346483521 1.15455897521101324976 1.44256364894800226395 -0.38275806342458623677 1.01051575893650147364 -1.77117152237661201752 -1.48867994663940761413 0.45581539432681389412 -1.52911238731525433998 -1.74355866767197364986 -0.02531372904331875145 2.05823928470868988683 0.69161627760925514785 -1.70964705971964625597 1.19407140992944360569 0.83903117240379176955 0.51667389618595127576 0.33848706926379723559 -0.81010550481587484395 0.10442402347520078620 1.96107349234607086785 -0.48223277360480470977 0.86142820445069467894 -1.22057614681624571062 -0.28011312312840014327 -1.40038854245928767739 -0.75725842855455871572 -0.70028363588461595146 0.45510239243702699241 0.60434247214618430633 -0.59892482123572332586 1.61224841966298737539 -0.09189761616624153584 0.75471375555810071845 0.54224524326347323111 -1.44579016376991198456 -0.16154905838845576294 -0.92412151879446380320 -1.77372802684256813954 0.61494441169976332695 -0.35337823256540723538 -1.17623549360348000903 -1.42849092924072440525 -0.54320953022963103241 -1.12532028418250984458 -0.60492907675063822825 -0.48320982519025179602 0.19716514551925942711 -1.16877512332485156143 0.57570441823624785016 -0.34239719107023935951 -0.20048990972281027778 0.72979937480274392758 0.17856118665452208605 0.32929948253219737397 -0.09694095014287947010 -0.89807260476858674636 1.78984223754260041162 -0.63988619361848997347 1.01920669153757148528 0.59947314669936402343 -0.30589172273869341678 -0.42946104229961024057 1.04508439191860147410 -0.63735582977959748252 -0.16313137627188950551 -1.26340983422934849401 0.08293931578289058526 -1.04916780534212894516 -1.55388591283227506246 0.17535452021652694898 -0.74382014609085200796 0.47810352974039299623 2.50592703303341890475 -1.18310863931240461966 -0.71949873882339299147 1.65046135795823190051 0.32824919912023275970 0.50315048380926319371 -0.92188270550378681456 0.88633284946721402342 -1.50683725466461670983 -1.79070800641606853176 0.45248056218640558823 0.18169197335845008179 0.82072730787034153810 0.00675030235509230941 -0.06481858157725843561 -0.21406224559612491154 -1.94580876750411180254 0.03942375551968092112 -0.05618208176476716109 1.00017376861836448931 -0.80652671412297016751 -0.85250589417018440841 -0.50633333944997804821 -0.32068110792525256203 0.81110739809493437313 1.00573815156867563125 0.14333653870230395055 -0.18747850834679302690 -2.88150725414941089042 -0.02639586155399670231 1.46727251655200108260 -0.51012080156680039700 -0.31387183258703377220 -1.05552266460992205666 0.35536307478083950517 2.55137283498624656275 -0.86840390325733662902 0.32308316137807085999 -0.39239976631840661758 -1.08517595455844051422 0.13656310657029219202 0.45548830227923997604 -0.48726285208841441099 0.18749881816837057902 0.90729235374990180318 0.60958853662743706092 0.65045647070955181501 -0.73849815663575058000 0.51646758539014414602 0.27440926045391822452 0.36013801247413923523 -0.68841498228080899580 -0.29813514150177017337 0.70800875514284145051 0.27010751268488969457 -0.75761979305361537573 0.38336952044310046439 1.45905975302068857680 1.34673440300525348867 -0.34142293791067335196 1.86027152362292835797 -1.12803240509649271850 -1.34339207247158798353 2.17892715998233432728 -0.26661350633254232712 -1.25698450328086730465 0.44577043270612592973 -0.76294067559656786326 -0.65105202999371469819 0.05301618013547735458 0.77458944294395704055 0.04760698519668689344 -0.82662296685157765630 0.77323931173478444023 -1.07586636114901779138 0.92549206186037513699 1.00559142784446908792 0.95583902344646332061 0.84025545762634012981 -0.63670682469677364335 -1.21349957981246681094 1.60208621092563530119 -0.16913940115979048118 0.07770352939298116879 0.24963968062512401080 -0.54556496860553016504 1.03934585439039550714 0.77312692343693278918 -2.14837133500192667412 0.50627397028540344071 -0.05900410172509347462 1.05970013123564799074 0.05157281661519203669 2.26317881883644345109 0.74928556037397897605 -0.68225529948853325113 -1.29110446290842495465 1.66256586898755065462 -0.73754424784761396516 -2.40545117450801893000 0.26064379321073932738 2.92664335687489440829 0.05716801943735795588 1.40194151785391718512 -0.12224446570440479498 0.58070698338339565847 2.45433064250151833363 1.12239098163399919628 0.92307087119875774750 1.18447976868816340357 -1.11525604020053226151 0.39564968333229116881 0.09391954451111558799 -0.08248131102701020123 0.12410559557954635446 -0.32411166805057622931 -0.41021211820285541361 1.05250659057521023243 -0.93133241510352837711 -0.02048354611570168612 0.28064830603378698726 -1.17049829661688287175 0.64395958371961270483 -2.05036048851017627115 1.93107994614390077182 -0.06979013735311531685 0.39862480049282722483 1.39280178162538836872 3.10688536657802272245 -0.75217208509602051514 -1.17484886720436398910 1.33217125750566700582 -0.39435566907789726399 1.31192201119589335612 -1.20069890590891992233 -0.08115124039430873792 0.04617237909989919259 0.78786672263085999468 1.82525018258926663428 -0.55875394127038202630 0.94500068264216563474 -0.06465826849220691896 0.32061792219694595918 -3.71033881059434200722 1.96628341502128889395 -1.24139557553021595560 -0.06640762744015753227 -0.85368916403817030059 0.53746893712864340920 0.53086099617746962398 0.17545154312057648083 -0.24907470803589645825 -1.26978559570526128297 0.41436978692346143616 0.04654598534693639433 0.79785687585284581491 -0.20207632096578337366 -1.42244282766427110332 0.93501767276910408011 0.91756416587041866872 -0.95686320398651814045 -1.46017549810094648954 0.34033400665460444845 -0.38840470239966035093 -0.15234690130393382934 0.49376445367380694673 0.18033846922245358457 -0.33991299945515784930 0.99583076202373332908 1.37839948656821986717 -1.66193054039634269259 1.06529960156269831728 0.14775025494945043247 2.29151282319926563602 1.41280468680982940199 -0.98431113505279133058 3.13582929771598450941 1.39792233460215475915 -2.68675829515109443335 -1.22213045484522586648 1.08962321938494133278 0.19472459338630218606 -0.52770165606018915039 -0.83848522908078571003 0.04776830196550765906
1.82346437424547369588 0.93309809009562971749 -0.47878733030245407276 -1.49556601573884329071 -0.09661995091977164385 0.26153822625298206450 0.18169644936396575630 0.41180120806740749817 1.28070998455737394828 0.26613750292380483620 -1.36172828596459316586 -0.18400873134894416006 -0.03817409957443267110 0.47451548266736259807 -1.00275380370805144992 0.26838752997424181190 0.33829287072474850673 0.60642241267121055337 -1.01274590014546994610 -0.25417455746051853538 0.49439128261381348750 -0.41123725163473062727 -0.03954631845314478256 1.31596994104573616902 -0.70690050281198180127 0.14940767162069160112 0.29137470358637024281 1.32424176934272308515 -2.04366595329150335658 -2.09693672546262899203 -0.20615574597543814828 -0.02191020558510759289 -0.40156930552508496302 0.45976677446214903044 2.16834904390415950104 0.43729701640910534355 0.95962437802402122955 -0.28977501855009701881 1.29442201047766780597 0.71589223608475993643 0.00672388439663618512 -0.27851148066127484615 0.14860545287567319961 -0.12578329582211014714 -0.27762613102721300784 1.09084054409148878406 -0.16278855466327027401 0.15906821184302263883 -0.69636014933100276458 -0.61751528251397402869 1.59290438196974482032 -2.31167202603045929266 -0.27622759806997820853 0.35928968397391053413 0.75734528724452132575 0.92496467313922925424 -0.15168530165221041917 0.84934331118701200669 0.97608148592479559991 1.01763799484145889274 0.31152742761582691289 -0.34588126068300623084 -1.33588884288997711280 0.77094550481873225234 -0.30378122625125153489 -0.05884369219488418817 1.86751001088597301525 -0.15405064971837328924 0.28385237902094273554 0.38866638186367502561 1.16021398072038994798 1.66524754114632234092 -0.42209172612159351345 0.17445191254638656164 -0.48467492393250077853 -1.84905144327602588561 0.17580653740583460087 0.84854205065817200904 0.28248419835591809246 -0.45243566302421811542 0.26000933128624076351 0.35794209227398293693 0.33119164678632578847 0.39100416388421116443 0.44881377739702221774 -0.39554646882509142403 0.28532969941239577638 -0.04955407972075458883 0.03740501003802925578 -2.40678431942916182251 -0.46613973977836692386 -0.32325651832505031269 -0.39002864956607929958 1.28662981739258985847 0.32953142082123176859 -2.47821141114625076440 -0.45331341003499014963 1.07815229902523723737 0.03639434861658411707 -0.59737106973921505482 -0.32788446902915241443 0.87558943783392007010 -0.20238746081347455674 0.57756147231003873710 -2.22673829360484720752 0.73314276199043315607 -1.08758352865480212301 0.61079354138973995791 -0.82838703918379541502 -0.75792665115690416311 -0.24329128367339103445 0.04913985009364951057 -1.05799451839033253897 0.71526522302891604177 0.58401849147914308702 -0.75627703178556526797 -0.83307209556239525394 -1.86633124286060469998 -2.24780190746011498959 1.38836612386244473427 -0.13916025660380507145 -1.36322629869320532947 0.43953426177516885520 0.01563127083121143221 1.03027464849424754689 -2.36554344115071257804 -0.26805802267676159811 -0.43296650953920606808 0.52160844930713690104 1.20122831442777866506 0.33417638026439383525 0.60808843947631996407 -0.53669177161017334043 -1.97821421929452645472 -1.14169280842656495345 0.70129098623540464530 0.16984924561432723777 0.26228285153554081743 1.43086886325497619765 -0.23660341244067575883 0.85310893540570731375 0.52318532950850304974 -1.26911510957487405626 1.08945349878025532497 0.76896909880319497255 0.34901399377083552888 0.63746712397028004737 -1.02100042656678269282 -0.67580939733938472092 -0.47724190835863000704 -1.19238518618766153878 -0.06981228559128049849 0.84249665428313225135 0.76344105542608231563 0.19591369249862305990 -1.10342041478957231249 -2.17004610313110868347 -0.46845909742051861091 -0.90724377564972902288 -0.80854878177440137055 -1.10384026581225636043 -3.00505677733896625625 -0.01855096153280098165 -0.14007343564186852669 0.63482339480629013106 0.72765545013947030561 -0.55959094931255215499 0.83334493383582208814 -0.39631371169208595706 -0.01142452060335147346 1.53055338547439978569 -0.64031676190923869640 -0.86293504170610180193 0.28446631783300801999 0.55596901774560247844 0.63625534301458319675 1.71380538454251363234 -0.76956456905768511056 -1.76456717410461116913 -1.94443312066198048527 -2.94888659799280317131 -0.90440349599724967344 -0.25266111571770283328 1.04022182012764563552 0.03958956275510420314 0.66286977850627870623 0.21212943785679666542 -0.53104005973648982231 0.14812037594787044736 -0.09732499545631202731 1.81357914320382285212 -0.04982196993032784321 0.86626384020291002930 0.77371117510464404443 -0.52163207045051396271 1.38686213775770150747 -1.24377984998665636063 0.40034794802879258846 -0.27882312648115353815 -1.02381394764263977670 -1.39714308068850412425 0.76214127760489402963 -0.64776068376755768785 -0.15100473385404314386 -0.68857622727127765216 -0.30400286506496448924 0.35282690045992304295 1.56471687914817492171 -0.21984747605980622942 -0.57170996474361035489 -0.91776192437716397343 -0.03940232591023194036 -0.23130533928492597040 -0.91012240466324290100 -0.18216616220034345663 -0.59964565941891745382 -1.27044268013317784849 -0.41347570578976711175 -1.72789870738884232537 -0.09025040706644325839 -1.25258913295795371035 2.30347248006813076771 1.26259985819148123909 0.76056570048857030653 0.87261247913650952235 1.44401697688324226476 -1.15765787370790351751 -1.12829651445710421598 -0.65198155872264573762 -0.16428578606222749015 0.41956788455040111563 -0.11137331206634754066 -0.85261781813733206192 0.67991018893115706678 0.04995741163554560244 1.16110481138802423828 0.31099951191733649081 -0.52902033112715263208 -0.75849623720132219873 -0.77973066146219660588 0.68884893793351931190 -1.93111175998499495776 0.87934453287729219539 0.23262049465497905421 0.09793346965668309201 0.48560378745217747110 -0.86866426816173347714 0.94246287954641094764 -1.66412540606554615330 0.73165232903851040724 0.28355365003734456231 -0.32527216887898557918 0.07909299055379669097 2.15540539531664876449 1.69969945491641816204 -0.88195991429934106343 0.53307736199126809495 0.16260657617721555046 0.09406393222024349299 0.81808265471145924508 -0.74494181660051284055 0.95860273082693647773 0.40757743318672484678 0.97619635922979342002 -2.14886861560907238555 -0.10111045183612146769 -0.54493368153786747587 0.24517082022574848699 1.42935967350416004429 -0.05596400548378335782 -0.77999466428845631860 0.01203091896784992676 0.00328188728080317654 1.18579545257493657040 -1.40528897650628858962 -0.10029388672903917501 -0.59108148801011273221 0.36749735657336479733 0.35071642564409805098 -0.23664155639720640956 -0.67566134104741260025 -0.39791457917904859976 -0.65694267075368795172 -1.64777098670883970222 -1.62180508904974707285 -0.21984612375744433388 0.96992643764420460872 -0.31262143592601054909 -0.94718346093425609400 0.67669708009173601404 -0.64341093646697433694 0.56071217491760816376 1.04483973376134842148 0.70053114778028757748 -0.65005242662601736559 2.12652822273038788481 -1.34765009355232545651 -1.50918223084399061307 1.76899984638447005381 0.73549234951460207288 -2.42097638345252130776 0.92175071322390600415 0.03477193947116923034 -1.92309702772741530907 0.70440545189497083545 0.87157028374645439950 1.28801591579022645107 1.85431877374763520727 -0.28354744405956106013 -1.27481082125297406904 -1.66457931885318344278 0.68615652082294098513
0.38915411787217368822 -1.76203356807193967093 1.08421518269288252867 -0.61651339374203084631 -1.51365753774161215794 -2.96125893579017374080 1.01664279069344298811 1.28487634401632733194 -1.49385343788615387872 -0.47908179177242921076 0.58643404178946634264 2.13796137019594034712 1.56704805299204075197 1.23455489814052032926 0.92196947414279362132 0.89008625574500888078 -0.51511382906394553860 -0.51443839079408071324 -1.07930178757717620819 -0.39873953963159503022 -1.77573429704177465638 0.71203821312337667315 1.24151123809403163278 -1.08077867384019943309 0.22412811692568038180 0.50816331720362140079 -0.05143776126794560172 1.24635421445326799450 1.00667085706882675211 1.50019724245614849423 0.21869663206821551849 2.40665724644960965506 0.42110661009880656636 1.96610351493987778326 -1.02880284072723404698 0.22462513128045275002 -0.32914579934732146604 0.24694734984883748297 1.53137520789152348222 1.08745483214998373001 -1.24132728236035583258 1.34719850897468207407 0.36515931586848338064 -0.38299938025027163713 1.08518035465787288096 0.35190524636713543805 -0.29173806959278825168 0.33186459536191970088 -0.26878045394025834591 0.15871997767116580169 -1.21663090248994198994 0.34604172681679662427 -0.32199966175053201800 1.31604516592990705703 1.10078714576053271479 -0.04828744432236232315 -0.73419413313047954261 -0.98998477589150413181 0.21996663139619390681 0.27119683953369994045 -1.31140289005882459961 -0.18380348820500835849 0.98970491233736912484 1.12701711585628272516 0.38168592218533126115 -1.00740221302232790812 -1.36642563790358506637 -0.10365264381165334440 -0.12521191979544971096 1.16400325332272225332 0.17177056409078803045 -0.42715894797355680179 1.32658215663798118022 -0.43305206666922257952 -0.36215997624061202487 1.23776345705453683088 1.93678030914969778742 -1.42780921574830710341 -0.27488154698034306112 -0.99334278875983295087 1.29959450117346486664 -0.25556066066695964922 0.08574831818656454552 0.30138775080778101856 0.30589126603200522680 0.65528491091654150758 -0.63389336265510376478 1.56927926554981356233 0.41622514652035097482 -0.06190519693500716458 -2.38625514435294849847 2.17170388737826058900 0.22638006368572294313 -0.57482891269343860952 0.01380691403050808737 0.04609552903887892406 -1.11244884095659868350 0.61142389177424349977 0.90269095575967361889 -1.04308506886287810644 0.70205129328828785873 0.27262237886973333945 0.47075835908793722817 -0.91097594506968226913 -0.13769680969509329183 0.77252531531697687939 -1.40996349493980654977 -0.55872171873476927928 0.83477073313454575043 0.71911051915845181082 -0.47544571583324657382 -0.53007945839845993508 0.05312415332858171080 -0.02812347278334048281 -2.77263998109780107626 1.62302306618445690845 -0.92662577627062903129 1.45741476119106772025 -0.91183078015002472227 -1.41284621502681395633 -0.93686896933493268858 0.54039492674323852395 -0.76873234446673477382 -0.31106090352288712220 0.12096592255485576206 0.23396099255834096331 0.01696334928351240709 1.35342389951686259408 1.59336304197905120894 -1.60039852544992933225 2.24892170715729688979 -1.62596049854851876226 1.76345789073298830907 1.17040256122195085453 1.37701525059472196233 -0.04168909971955756660 0.23817031983849334953 2.77430031024980960908 -0.29378071555822288241 -0.22969310898430633783 -0.83460869798769365957 -0.48130402207321548724 0.25342468305370202675 -1.07760846817783351170 -0.12414425387971872450 0.80802872096648648004 0.05066212500997749335 -0.41686051067596352482 0.21451959823585461939 -0.15575168505483019676 1.42624282464678353577 1.15051855371709610409 0.26825486804114451189 0.57530855768795297056 0.59434947644101243647 -0.65178441590880709100 0.31877724900449150303 -1.46788440813553511255 -1.58911369977968042200 -1.10519417019002452740 0.71101821495784811589 -0.62771466364546657513 1.95905498229247565511 1.49774409745375725045 0.19810192739810350560 0.49676982536195174456 -1.63436077415097225085 -0.83184970145599967939 1.12545075449116316335 1.46103113361555525529 -0.93920064946895587266 -0.92761383784768847161 1.26211562322370896005 0.80940838901217881940 0.40543718835911340959 0.29832389560885708146 0.47748779318994677423 -1.21159699280374311137 0.76075398966569263148 0.08767816539987884072 1.66753170363024150191 0.52437821532212480768 -0.45625429317469051727 0.46616362569545699568 1.58313646159967569282 1.27051532323798399560 0.87213423166056580627 2.13399265987595088134 0.32147294327214637200 -1.23242329780316861587 -0.80588406513697841138 -1.29671606930224680987 0.33048754749662329067 -0.90553460538682561953 1.42135773797696640663 0.99017449620201103411 0.30574423736665917728 1.32034937409293595678 -0.29619777504171990179 0.80397770825163994424 -0.32295682121281626964 -0.69122336398849071326 -0.34925886317960602723 0.74233000654734393464 -1.08264001124582809332 -0.59276028324724172602 1.03356098082753011802 -1.24223466956556571894 0.64883235637313529942 0.68981619126752613536 0.12539403491331982399 -0.08844154527559644485 1.28653682484562259525 -0.87107310839572171801 -1.41518410338114053459 1.10209636493899698628 0.32914384931537687962 -2.14523250010816246558 0.30263803755562168618 -1.08712984826935277205 0.68680961059862277729 -0.34864884188559569500 -0.75669723940748367941 -0.82690330242581555620 0.15502705141329284344 0.31027503981505827335 -1.00026308364911287185 0.54139465264944441891 0.20700975665391771474 -2.30559969533444730772 0.97032176789032253961 -0.89154811849174331329 1.45091839266811017950 -0.23739389526731499713 -0.96369273816694134283 -0.89490151810663909338 0.57684894764631267083 0.15499977244454402059 -0.98202673933508266568 0.17443650125035795040 -1.01417510169214697413 -1.84563612903625440254 -0.14681340043969801079 0.84288009198904834118 1.13679332738640681555 -0.16403944945451001680 -0.00897415518485996690 0.02968683322032170460 -1.97381255058136018121 0.05426965394222489636 -0.50070561304519667356 -1.98271991575288675236 -0.08215508982472022326 -1.06516572736959691525 0.21738171852768503611 -0.97949147316547968689 0.30902952677589423658 -0.15493913091692751438 1.24996925838397521247 -1.20231196364300951807 0.41286724903643828855 0.36333021194523301700 -0.39402771836400490857 -0.90932554201830584351 0.24742907874024547277 -0.52625362160590460903 0.33679299560813136249 -0.59823399983045966177 1.29695826819779447270 -0.12186394241407311201 -0.43321072067274690731 -1.04249644093102600273 1.63241776614365696751 -3.24283638293153764209 -0.43271810389078269043 -0.00649065954093478933 1.01541613861107626882 -0.29371304197191405727 -0.00321509430115417359 2.03745947002095872946 0.32589584095225565541 1.05645826483194493761 0.53963287517023894591 -1.37554738656020747456 -0.91137474332648371611 -0.29043416412594164067 1.31346822243253713580 -1.27494212447224319895 1.10475331261876363875 -0.44352320122953559078 0.08854091252764167974 0.55662658373752038621 -1.99211664672409671795 -0.38469239519962017404 -0.76157167884558329973 -2.17912201637817526390 -0.04862701241851531686 -2.28008642043412335099 -0.17994607445157942416 0.22205579205286002376 0.00617499835204738442 -0.51054940136979021226 -1.00724665550386638380 -1.11766894225640056604 1.17000753566618809209 -1.08533005719128250455 -0.15771200878661584266 -0.79312354322585909561 0.61192214687781842919 -0.92464429085792521068 -0.60828283482508604951 0.55265355367420543331
-1.26188775320708068683 -0.37475599355916666688 0.48633429465762467725 0.59499928779948985103 -1.36911609238088738394 0.25334135242445005032 1.06931960933340963749 1.27218601944979914364 -1.53417728261926233913 -0.35102941202315618430 0.32467463967482279585 1.27379389992336777837 1.10040122634608317220 0.27369940675950915621 -1.01634338414508063053 1.10287926431309202258 1.32459470641166277005 0.08800278972534503197 -0.02645835285976132906 0.09443491404133057265 -1.53391241594889282673 -0.65194425745887385482 0.06339956139578427352 0.27100600620177217603 -2.49586399360185540175 -0.00392327964227626690 -1.91728472718684117559 0.06455406482817102609 -0.60803265427591213221 0.40129291278369860763 -0.57623423620383451560 -0.56060702837715126190 -0.70679354344069877936 -0.33279397622823631009 -1.82116615717088925486 0.11221316524521006419 0.80370868310280818569 0.44023873837737997894 -0.29095121149528285764 0.38597894773072755070 -1.63199036123679364074 -0.48836998815054932788 0.12728604343766561358 0.30472013621395283023 0.71300471977742341245 0.70646336999991155015 -1.51329727043594508551 0.17975840557491040705 0.65596983634536965013 0.97547082332677070848 -0.57094602199730626335 -0.76801679891593632732 -2.25366774764892197069 0.12156602893251268471 -0.01500823640848184155 0.19931710885264825039 -1.93372666398134729349 1.57611185591818347973 -0.11077562780103522577 -0.52543945780800926926 0.03981278167695630199 0.14214587186001642616 -0.44311326163163161640 0.23610624710504130030 -1.11882217162057218118 0.47529963256533946936 -1.12963094128916941017 0.70885461191028409367 0.86161586025762904040 -0.15156242075586198736 -0.04140658958100598697 -0.72261394164640024851 1.09670599849727490316 -1.36160194789470034848 -0.85896751642335289478 1.26935645941630248501 -1.39953834537477272981 0.92084758489973206341 -0.70096728424481780095 0.65507719381437823358 -0.16704200326659146558 -0.91397667576753938157 -1.30338701387972366597 -2.69725398451951292600 0.29187152032778612698 -0.93389576280587993651 -0.33619803285459842757 0.74406292877961621723 -0.14305313945943418097 -0.76831370415535260587 0.09400525058858948124 0.04874950691511452383 -0.50314140714499833162 1.30714494239309675372 0.40557522566732756575 0.31948559911214408080 -1.22631228361477617739 -1.53304420897294901849 0.46584751763781906408 2.16786123437602196162 -0.43385982411450602081 -1.79397045323797788008 -0.54754548101390410064 2.87122510732608349215 -0.42875633037467891784 -0.27849596090681844052 2.01821621447122723225 -0.09913587387609673618 0.20051042533169710635 0.60236251211778590875 -0.66250795462967160265 0.62192365007015038003 0.99795377863337153546 0.88577731035119877667 0.08797567207684783841 -0.22177956974796650402 -1.78565154628377276147 -1.29524979242438265103 0.48651533952929709725 0.65101814704587090965 0.38653095702019207858 -0.52273530120537714527 -2.37373397642465189250 0.00010523529800476232 -0.64910013298725710573 0.09975886872523186122 -1.23397570117047927774 1.11552813357794522453 -0.51663628095054159317 -1.37315386881558887389 -1.09434967261171167685 0.96695975797395772311 0.33083805660743453858 -0.05638615238026195575 -0.50608340467573154076 -1.53869729775080243961 1.66706667194511348740 0.68343427462056272059 0.15954631821165554673 0.88147131427870006881 1.18606935970298543737 -1.02180646343492065320 -0.48826721757403335200 -2.84417195339734663051 -0.35101924621865460141 0.00478620365589347858 1.99613973784695919456 -1.74008840307070777875 -0.35968191218377559837 2.00804212649912150468 -1.49865880261849993005 1.62988977484105501681 -0.04677440407159939861 -0.04530450475967620627 -1.13692739672015186159 0.81438635264052183782 0.63383828097933736512 1.02109390470231775616 1.09870595254352942938 0.20997489349927711544 -0.99509049763209933559 0.95743088084115657299 1.44359656018571413938 1.53298320885350514153 2.05860092826882734585 1.06168820365872873523 -1.91985968292087250120 -0.60602798425733284127 -0.15767027519927950818 -0.73088485256423652014 -1.15084140769246556779 1.29400200800248987854 1.23692560319178146422 0.43649483049450693573 0.72058542435275008131 0.39541259455467503425 -1.83333323494931099695 1.27713120916118993975 0.07358782904668383085 -0.24627580595996889645 0.00176359571991566567 -0.54380610791556904804 0.97633996184454707734 -0.47985064434325430671 1.71998034569095437085 -1.65043857969075258296 -0.12786406952566475859 -1.11955053089155565083 -0.27149869351665062434 -2.79848493790490548960 0.55535808038762279892 -1.32315805123141227995 -0.01048367283397665453 0.68360524681120837798 1.01424928542330849979 0.37729208843121969652 -0.28425166956485287129 -0.96650516961943588878 0.41153062417198987832 -0.56530528025428217198 0.75419831619555555147 -0.98784539083668865267 1.54806323947001223118 0.45782650411312875161 -0.07475555023786410735 2.41642357092637061200 -0.75347605568359576900 0.77587801022907176840 0.22303771896689372767 1.24110023841140426626 -0.47341847235869166655 -1.06051064104409675792 -1.64206366780649348769 0.80401422811152156722 2.24783194927798746221 -0.03335613048197893366 0.89467071739396875074 2.13394782285592388149 0.28828747812088245661 -0.19232268748621655918 0.28038206195573073254 2.84457271885234019848 0.45872401574956894743 0.35886095857218852645 0.82802860285070967183 -0.55210435425641346541 -0.58530892482572549618 -0.93019946808680120665 0.10270263307449860324 -0.29018114848655285343 0.08144154740504841450 0.39633515092488857956 -1.56132381042081824774 0.51831767977976372919 1.56492206515813991885 1.08591574126385603805 0.79641605973010032304 2.01838899631052104411 -0.25326661701423480721 -0.07220782488169381896 -1.11670481611005834033 -1.62601023336036076827 1.48983633389652125878 -1.71721354549535987211 2.09070723121442147985 1.77795277495447212601 0.05593682810684323659 0.62695620134692842118 0.58891094703560664669 0.52192860071208335704 1.26855813653090354620 0.46939783633205028890 1.09809796908210555166 1.21052165112176690620 0.75553587957037238176 0.81110560693564304202 2.50092419612312255595 -0.75384973429163781855 0.92289390323193598586 -1.67443133729250859254 -0.17724571848522166495 1.05453342341858213871 -0.17632204674439000414 0.73066766562458318468 -0.85550170875695985551 0.83660315382386862826 -0.65597234127388726055 0.06446603104566987763 0.97753430116757666912 -3.34707412961360351034 -0.98310760605130509404 1.04714265290188879298 -0.51151075730593753566 0.54528672715050985342 0.76764580814688088140 -1.60775955209974608096 0.81757074921315020521 -0.34528377922601938277 -0.98788222619432375371 0.42799985788884897797 0.08138488623108391939 0.55414675109647637541 -0.65152226706907978571 0.57829629051341080448 -0.40291945506370868690 0.57798093412799989022 0.91630699377865076904 1.52237309657996666701 -1.63263366794341102661 1.87064461226492007029 0.42797993058913003095 -0.56824206634870455535 -0.28001685570951279081 0.57990747739272141548 -2.28554505290945231266 -0.60861847188845319412 0.58136092551230922343 -0.25161642264384831424 0.84254479274423044188 -1.91566645625080922422 0.76847700454762546407 1.55750893323487571429 0.16555754433950953253 -2.88311715108804467178 0.83065959509974585107 -0.26535133504307195640 0.72091702202972784974 0.01692521403716437320 0.07889202638412246005 0.05480773856776605807 -1.29749953610656132419 -2.06689238891107240903
0.34262016069383544048 1.33836753906784067247 0.01297746656593365064 -0.43667578070362716991 2.56850695368211656699 0.48757605607283815985 1.21855757720791113563 -2.08450954668338672704 -0.05163529980157469113 -1.48533029601417720933 0.37541886941909202724 -0.22212887546721984955 0.29367996163906051610 -0.09564794223258922534 -1.09872031477674703126 -1.74515567153647510601 -1.21426335877927549234 1.44958346029592943793 0.81681123317961679131 -0.14979265104336791925 -0.56146045072263661702 -0.53806129122578461033 0.23586277839030841963 0.50187006086313556974 0.07440052316418881151 1.18880826209604628652 0.46205533289710248868 -2.22396655031889300957 -0.18673558467637021985 0.56950007564321836195 1.72320271491077914305 -0.45759885234590708114 -0.52068168947007442693 -0.07494386117969963068 1.37587578327322024307 -0.19997260542658817917 0.40831332858942592789 -0.77453526519814885898 -0.31294690966067062465 0.17057405373482217859 1.92974285489603780697 -1.16956733775475241188 0.78692472891227260856 1.35986757817682391014 1.74184631545850265866 -1.53423568567202117663 1.28167033262479534983 -0.01892710331763006182 -0.21817489564307177008 0.38943980848901166292 -0.44936021714025370377 0.07342539297322953074 -0.75680745720593134429 0.58033643087672814875 0.69459130240764632713 0.01548495476673936340 -0.51706872774043177721 -0.73128113280438955535 -0.22242866159533489223 -2.32221458041875061795 -2.22826713084725591685 1.50332750026342853999 0.77242861984395083663 -0.42180937500298332221 3.14237596721837109115 1.64971350371129332757 1.02811773579360554720 0.15016091852406673879 -1.58360738029648495662 -0.44461751339263716476 -0.75523409830422172373 0.72663632767674335433 -0.27905693101767364839 0.47998521258742660178 0.64430183205885949160 1.69316437011016285297 -0.77578742765374308910 -0.30913310103505658999 0.43751326510982924134 -1.41975360066813993676 -1.80576704042968705366 1.91127954441251057816 0.85256646162966476243 -0.36902454078962976247 1.33663303851903925157 1.67181541425956492475 2.39943904451002776312 -1.53405770377932415549 0.80795904726962219922 -1.03906970024701039712 -0.59784479577275850826 0.43634170204234323798 -0.11271180444436990076 -1.46024518000442715682 -1.45186195338379953057 0.34719120455937740877 -1.90517200321065516277 1.85896652800824790930 -1.07316704123125772341 0.50085424035786318964 -0.47412581867663838864 0.20213093553427632920 1.12055159357179578983 0.74931166387635073090 0.91014300530515068743 0.43530172337881378741 -0.44774068051531412671 -1.55244072242853303756 -1.00166852891535418379 0.51142124740556915707 0.22604374097780058350 -2.60595035853345757815 1.80996401716853827502 -0.85995830475589363218 -0.59771050204853060084 -1.09853234533058752298 -0.95430391820865956287 1.42234040916576454094 1.57590044165837528389 0.61230971487957774890 -0.39609477997993947085 0.64527927047210220657 0.13395775123573375187 -1.38511376033074684599 -3.04963180120076415847 -2.15974766858758382426 -0.80700551423520039407 0.65444329209725315977 0.53631481130100389088 -0.95392643802105780981 0.55843160276308700940 -0.30940516110508048397 -0.19651003004655184792 -1.11097249029336020421 0.57954965291838345109 -1.14803301059939943940 -2.01577891236091577554 -0.21247598588539112763 0.43770107232151866938 0.32292166423278928500 1.13679286694549008807 -0.32798579814586198422 0.22853555980401579761 -0.82236491084515350725 0.79961309778101163914 1.44356915155590637134 -1.24235505609680707551 -1.53668784576593431268 -1.47550711635666798038 0.10701368787799306337 -2.23701143626596321567 -1.29539339126341856989 0.56507217254476571622 -1.08450117574939874920 -0.17439408740602740933 -1.32517398991228296801 0.78445864030706791148 -0.08063106909413367274 -1.63872350160044111256 -1.78637765929797875941 -2.30467248638192367949 -0.35456814037032763354 -0.91926262115421963905 -1.51656489524988202788 -0.71501395928703903593 0.79777802500181616008 -1.30253797747475497104 -1.34401012645365769416 1.03412187789942233707 0.92343069969186020174 0.18741624108475665733 1.12490506735381212700 0.13758900155656136888 0.80882244376367462557 -0.21731397368811772308 0.22583110098740624694 1.07131967670129402137 -0.19584379665027115691 -1.61053827423427486920 0.13037696654158606457 -0.67884053268606636689 -0.41306555165245822936 0.59623043250623020128 0.42931264500785859539 -0.37192376491051976073 -0.16254359652512359591 0.64266264563335884219 -0.84030146516856096817 -0.88341977478968347626 -0.23202997442018680196 0.42631899563476205461 -1.35569658706156936923 -0.57872698316985604627 0.50336827901029346233 0.72870669885432259871 -1.01951959901492528182 -0.20459502663541440093 -0.79666536928445619292 0.66365213842703718594 0.50251547852105882264 0.34308438143463110270 -0.26895350736323375695 1.14694747841258459786 -1.76949043967232677588 -0.25900271453008227862 -1.38703358338980797804 -1.81738758669448374761 0.67689307206167903530 0.74520477069487456312 -0.40753826864050823886 0.22792952608832392492 -0.97058423587157893753 -0.61990691339056913645 0.43538978969022829046 -1.76201581549468322407 -1.49850106075489053481 0.71087965051885138035 0.17437955720740574983 -0.51890787493894519056 -0.47214852321230860177 -0.15549012293823752384 -0.72824096292381301776 0.12509173038945933798 1.88657352679882595048 -0.37847344727916254481 -0.87151839825988419719 0.48041175637102823126 -0.83777230349778353258 -0.08996077645512623455 1.38326544755466485093 -0.06693504843149480910 1.01783621510313171399 -0.50540361372290709685 -0.51102181398571799864 1.19632955701748033839 -0.38649267982530999266 -0.18736073132314989831 -0.66281886330553430042 1.06037364861016114581 -0.22396266622842889160 0.78550982191142448841 0.78335850144405883011 -1.20551161831984554595 -0.85447122599721059277 0.07109084791513912982 0.25537909431364347324 1.25636725982755126374 -0.41368006103110899208 0.76785623711047013007 0.79776193330762801281 1.02954797243667561801 -2.44277758846830828077 -0.11660066324880027921 -1.76368181192680761882 0.29624654549024914685 -0.47686377885748043592 -1.04415969685537102229 -1.60505085684382664546 -0.33299924513932421810 -0.58950829236987878357 0.71618866465573260971 -0.98716176588161674843 -0.94388164438700938863 0.16551433404238205527 0.12525331381515825147 -0.38121122922335748395 -0.43370628916068892922 -0.47956951563497512980 0.06865474956606912316 -0.72196729986209495777 0.42957454213708229362 0.34050932660368204985 -0.44890282064386904937 -2.39186733353254954437 0.85306471577229658898 -0.18867688772628210536 0.18051808914911121606 -0.77340082367316642653 0.75818277006364453996 1.20223902984624242407 -1.85786018430455235340 -0.51252495963361133224 -1.43717572516033031960 -0.23938176002271410736 0.23862625592018932297 0.21684929567451013965 1.99850103497941411490 0.88585870117274934099 0.74246852170186383724 1.07135146627299171485 0.16390352332496069265 0.99679673448357875021 2.56205971080946826035 1.61679363674434628528 -0.10076741644565558043 -0.54281314502023869650 -1.19462227597402237400 -0.71013738812739490847 0.13243502400917445128 -0.46669674142456768484 -1.83555363034353202778 1.14673142308437836512 -1.29757680045637990851 -1.72535564753354253575 2.07576346220240726126 -1.42280717037892645571 -1.43549816072649427667 -0.32947981422579308841 0.01522036975680452972 0.33744159817020774605 -0.93174660040409229556 -0.20725971165547410480
-0.54700832800535181821 0.97034724674736716477 0.63134479066464932462 -1.33623311071839956377 -1.36239259102171650362 -2.32598961750078636612 -1.63935081336401533569 0.25455562150256294540 -0.50810221892941043187 -1.76427606655027990890 -0.20498689927345431494 1.57105475586221610129 -0.52898608315055850593 -0.29947633880435425846 0.26328452905549476482 -0.79108063845933374036 0.00760414587323485474 -0.07909816769345208443 0.93931237983520121659 1.19201056765400026372 -0.86102755854370605082 0.65290322144891210776 -2.58261485744470808967 0.82050768626528258753 0.49794801001638816507 0.96751101421820007165 -0.18658146419888593792 -0.34713129763226985292 0.44514925751737283166 -0.06987354096213405086 -0.12733507010823816308 1.20298715748578688434 0.42409716641851313845 -1.28117007026454921004 -0.52402299605338631405 -1.38741750701854460459 0.00493591607398990561 -0.84274975407456165222 0.19691986481195478120 -0.22307837887485323924 -0.01469292125169913664 1.59091022387843561425 0.42648013784578420182 1.74917329096980611602 1.05907422000588091748 -0.74847795230827840474 -0.01190789544897369497 1.11132773957423425237 -0.83889704165185574603 -0.07052311576505752855 -1.18142256327695194251 -0.96793728380416854673 2.31731237333244699528 -0.79262398582418513993 1.41550909463778284980 -1.34056734747287142895 0.38310477002396120527 2.45079091291867667834 0.01008659939610805252 1.13286483012946836979 -1.32262514622388405172 -0.33588935049544327294 -0.02338477522798411423 0.43258517060076562277 -1.77329970468428932406 -0.29772099715387900787 -0.60157692133569984350 -1.87325688648585808593 -0.55693968838006036037 1.28393800989669992774 0.14552055926000276309 0.17441582785088918794 -1.20843520649303948211 0.19654616147054659869 0.01828522043364187374 0.74065130509526233560 -0.95360122244310274731 -1.32060843680909623110 -0.18113008405006161827 0.46546227662139993964 2.56743914925153982054 1.08381139527526615396 0.67861262744663497504 -0.00832025235194660054 -0.09321454750942378964 -2.17484635499701228767 -0.18309513610837629960 -2.19665529145702764779 -1.56430171175742516176 0.82598293179873860659 0.59894415467766171091 -0.83222640449679397001 0.09340435050163145569 0.94879025434043373632 0.53523722039535925887 1.04529599792391403312 -0.26723710910157200127 1.19532784943205316885 -2.61462783086349581652 -0.14446699267975968151 1.22440852786087206461 0.19858824961045795643 -1.21934202642409639239 0.46138474420397107556 1.22273987922819449281 1.56731964203326001872 -0.64529878564505349647 -0.30756655290368745126 2.34830893688490816018 0.23560357960118916143 0.57455774616553678680 -2.90875163613010823127 1.90516414412232526487 0.31211544250389011701 -2.60010673681489690168 -2.34071945723316776622 0.42486113949513487631 0.62638010869779803258 0.03195169385285778069 0.68621614057205337911 -0.00474844363255592060 -0.33255414147508133293 -0.56226218158371898959 0.05496899223162157039 2.26941917432824036283 -0.17580710176723018945 0.51493843184220622344 0.54965670332801630504 -1.79307090358462950519 1.20307403649419186742 -0.16784652130138980053 1.21536872693588460237 -0.61011321204768786952 -2.13970735786439192339 -1.54508002179622683236 -0.51012156573599787279 -0.36089385542016244601 -2.31753109063410223101 -1.78246112767520981102 -1.15184730998773376953 1.65221549407179102431 -1.94824586277551170532 1.71820517303737685388 -0.54384093933572308366 -1.24601907550474000352 -2.87847061614486987580 -1.45275731299869126367 -1.02008655477729281991 -0.32659770907199142664 0.05266371739134254742 0.08099411445441523361 1.20771769600377520959 1.31199797480607704969 1.17970577349329119876 -2.10265557572386940777 -0.82445466971542658019 1.34950668923426531087 -0.45905064538026207899 -0.52925090810623287574 -0.80179352822483429541 0.56269396475023547577 0.14579931138921664591 1.00728077780784541773 -2.33299369773010845108 0.96246922116089372867 -0.64409480149274922489 0.98017778366092056519 0.40661481035190677469 -0.01306593475331467580 -1.88544270034265348812 0.61465407745154154728 -1.30795810026926506708 1.14718083263867343113 -0.76885084061563435665 -0.31969631475650878150 1.21771585346205712952 -1.52050901047278164135 0.70902397839895059395 -1.77557011418847499051 -0.55413367649729428077 -0.15834179614380822221 0.24068512010555176417 -0.07865818583867313640 0.62983291109879679937 1.51086147038491702688 2.17368648115262663723 0.26166538441107950463 -0.79501647759117610725 0.74290671141801334354 0.24924617019295694509 -1.30422064124477987690 -2.46088391455851063228 -0.07868091050341483039 -0.25558415842845044752 -0.47343354574262702661 -1.36646879252841779717 -1.89168889729785227871 0.13106344324765101250 0.31026777586024711919 -1.00382251018351587035 1.24973444973671932168 -1.43272845682236793508 -0.60769195567053713170 0.37775566413280853295 1.03200813922348122453 -0.29597542750888977681 -0.48241982987040138431 0.32442355645055154234 0.83211130635781638265 -1.00931924582420173842 -0.52398444171287328341 1.50799023176855873096 0.55695175631987914322 0.77668801211030258358 -0.51730773601138013706 -2.17343896367431987926 1.07060825182501995201 -1.76591583373670824031 -1.18220106102074917764 1.69209885166478102292 -1.16893813903985077651 0.81115449387220595057 1.27003431168643499127 0.03250592923973084220 -0.52805530248134380233 -0.05774606682984567696 -1.58339609556456561990 0.19468820890498844678 0.07215529305084286693 0.15357975018885225427 -0.74094466784622292632 -0.33120121593629220369 -0.25257293051724455379 1.27031239906642867687 1.67965059570480335083 0.89366541468177973506 -0.13485019546937032642 -1.06469606440414232829 1.21148065316550290760 -1.75285071177780116258 0.59612753325074174793 1.07550786582166679750 -0.71348121721903234871 0.17225241177814906712 0.07201220324079503354 0.72192694073969709834 0.38409434828969407638 0.07933232882714007228 -0.64370780104364211383 0.65390964451625976928 1.40248940209170558369 0.40087456624759842949 -0.90872608557068046409 0.18802215802335267569 -0.48837511440155717546 0.04903035644309694518 1.01457916391813784962 0.72196137890989486863 0.34404285471528744944 -0.64222935102970513110 1.12974954051073273043 0.92022341542238006440 -0.86499564365165837465 -0.35866775566099190486 0.45926509966749529124 -1.56107438584895152900 -2.07576780404165317506 -0.77155962204502748225 1.15902639393112516508 0.16107004649724510070 1.40198783079016831010 -1.95370176791484673195 -1.65691646434605188709 1.20744633524263700330 -0.63263151036241849212 1.05031914131637260645 -0.98986284401349822204 -0.65192699839602186174 -1.29154451370716327752 -0.00023875816307398243 -0.69191198760098981957 -0.06227590367049942038 2.48252477560902340414 0.13622659998350930555 -1.06159827062293343758 0.41942738223581882417 -0.82802016351995078036 -0.21633917330319626937 0.31594944849780026708 -2.27479225626953551753 0.27957610805173743751 -1.00467260346636244606 0.70331844334123894136 -1.83883344462020570376 0.14758396880007756957 -0.04706541835475520907 -0.82935768368661777483 1.00358815902530906783 -0.26064644119236574094 -0.77246242293976852267 -1.80189094552866269083 -0.07438814691673267809 -0.29057194422498072717 -0.04027248542431145079 0.70719517689788502501 -2.00188036941229219323 0.05920563117655421037 -0.12742963261950443488 -0.72995942824555626327 1.27306989954094773587 0.46977203437864156754 0.04921984932861803858
2.44282249718511179637 0.78844993064367074886 -0.28744035201302481353 0.34462202716676493264 -0.90329203607820018895 -0.61077192213898645612 -0.90702708163056444679 -0.89889688344946483411 2.07869909898869797971 -0.96551238035096320633 -0.13579215960692569976 0.15216003501425176547 -0.35417251971385749210 -0.23496986382075690791 1.43383311730165030617 0.78867578796393622564 -1.15381236481448823383 0.96271054921703791418 0.83526237056624696997 0.52596518282629933783 -1.16452390464106203538 0.48362408663118999774 0.43995902652528745547 -1.08001726025480238036 -0.56696533015305528025 -0.75330645522589156915 0.54099589790039204207 -0.70292124605221184552 0.36425405451312892202 -1.42648746970061357509 1.73299447152761354474 0.09520720104102867176 0.43009097264822632178 -0.29673316189909293428 2.56491440945250737116 -0.54895190676497862547 -0.15978619283028996922 0.66126666492317420776 -1.15275374369564476140 0.31929844618535607736 0.80188077570934890304 0.79060099334522526693 -0.34097695445107928380 -1.35557621369238678888 0.21032346487221209586 0.82045868026618451463 0.04837622754212574788 0.69444008272697554940 -0.65326296549748830156 1.02391075459510361156 0.40269742104240807690 -0.84033278266937183609 2.91253758162903197970 0.73932891072514006492 -0.26899884366386556112 -0.48799142710583714999 1.92325635767358882333 -1.63345024400875193926 -0.94872215718079000446 0.37650443407982447930 1.16376549802732331962 -1.33523783812453644693 -1.80406919180590885610 0.93388188769870261741 -0.91624443447916847916 0.25142692658937598749 -0.41133004627197311542 -0.78483022069126917586 -0.61305488555213361046 -0.37005754038009863738 -2.94502974916769488800 -0.87027161801154939713 -0.17525943962807949417 -0.23306647846302491756 0.56946897528148165968 -0.18946127567146359150 1.17068870084862752812 0.82709052642927005650 -0.34411558099402494992 -0.62976952612181658075 2.35291163857382779057 -1.98474553182169310972 -0.81037374684081520115 0.74856153318617346670 -0.47497883594305589927 -1.46175582360073419430 -0.71136825528055946943 0.70163891190893645788 -0.32814649314126415058 -0.00828637281355272017 1.04227673008017385214 -0.15407915179950668061 -0.98422948813848254446 -0.03346437466880194250 -0.93292209754670607502 -0.11188066995390734404 0.58471190517563964573 -0.65672626819851498414 -0.05842871526941033344 -2.18530177914589618382 0.22076866181606996653 -0.17231344760268271776 0.48240215938874531076 0.81901962927433469286 1.36241998345236670076 0.44447928476170789347 -0.03095087611029442506 -0.98916937318332398554 1.43084308027251716489 0.58033075759981667119 0.31077307401240727991 0.17692527428954238355 1.02899654236953819186 1.16212958449978942532 -0.01938588116158735525 -0.88133480927977270181 0.33472002710320042373 -0.09081033493689222302 -0.07150269869788046517 0.32882964531433395150 -0.77319817794382927900 0.58052827270997475750 -1.02227034128777871658 1.98713487748875849981 0.95696636720118810615 0.26850824744487183926 0.19638407483208669690 -1.03131480729400260010 0.28273363286746988621 0.27888869352830669701 2.17014856175904879976 0.60901019898002317632 0.05999445875847340265 0.98235490481817799857 1.27844357047301904196 1.06438383207399978048 0.42998495759192134624 1.93674211236466931041 -0.77343550753521306262 -0.86146193416932725917 -0.87605280387012518517 -0.84951742156838272457 0.58774990530409132461 0.76035330765579112189 -0.86279464679030259955 -0.64557190013973286824 1.66273769472362809019 0.22571513706623957951 -0.72577571358485648556 0.29403330059005944319 -0.21798343049907317748 0.87848645950757187073 -0.63911965555209904188 -3.13512392776341242140 0.22156780115809154852 0.23241174300509304107 0.63960277635183115930 -0.10017601567728991185 0.46831085469390471010 -0.61738835735442898489 0.45307501174930825405 1.89077401370821496229 0.74916059987146355059 -1.47739473874127513753 0.92467651291431329774 1.76249884169011084012 1.15595998668385058217 0.79381001585800159415 1.00678103205805835607 2.29493333343749039699 0.55764053140663072394 -0.83367645473964036018 -1.71868404755596682065 -0.61278013440223455532 -0.34601293164305629846 -1.35622758469617088473 -0.53613571949055227606 -1.06361286996963855245 0.26656844637849225199 -1.37552104174380440682 -1.40137562880786381569 -1.65409182534242060747 -2.11936243836502891114 -0.09772399768833898992 -0.17799596086248611893 -0.43151104453535460426 0.16759239578716628172 0.01349458756452560394 -0.07771028058577214570 0.10051942751775205798 -2.05667573243241186276 0.00759744023256809196 -1.43483493344468437947 0.80733193393349522715 0.44661356152525344410 -1.90231755641713973226 0.99849710383299805638 -1.54091266315505626139 0.56321693688763885266 -0.39123749944497726583 1.06507778004313635734 1.10329411755271666884 -0.82800554290335937058 -0.60176287405901784933 1.88594535505449378832 -2.25437577914622755415 -2.32920535857283894643 -1.14558574305757798761 0.09509961318676407593 1.06292023591384054981 0.21822693098284284829 -1.07823520046227994129 -0.65416432116417388976 1.49686941005987006470 -0.06856202048196147203 -1.88055034910831597728 0.25812772729202215771 -0.02892780978328530345 -1.47240582090453941966 1.42180490402135895067 0.81794278528386898941 -1.81009764342319501296 -0.21328034703253112569 0.53322281286053030414 0.50537555423250357656 -0.03622712064262906956 1.02393309563110324056 -0.09134971854939419322 -0.05551350181060786537 -0.42416502047812842946 -0.50760685501309865675 -0.45786682278539320157 0.21767024306145543733 -1.32496892733716453705 -1.21571833441830956524 -0.56149188212422262989 0.34270388832812687108 -1.33033402528814526100 0.10919028891555600247 -1.36448905899482819670 0.05624642894333427984 -0.97561031569070677527 -2.29954707020863091671 -0.56614446529495032756 -1.39351509733390477308 -1.00480374682629913785 -1.39983578849856216131 0.43233777123736411019 0.04866465715694541505 -1.17461960642668605814 1.29001733799901252553 1.26207207294906864625 -1.23626800785080992462 -0.53880456360351258738 0.40356639583880926647 0.81981123712742687282 -0.69758471762964358032 -1.06824988009890753382 -0.77992630172289734158 0.92448031196089419659 -0.74362057376362700190 1.29620661946267690112 -0.74406527346006667845 1.77136528254295688711 1.13471930503126916534 -2.13383167741428225739 -0.18044410528735344013 -2.14181675184477837703 0.00867413320060205460 -0.60584904478785317483 -0.76768119145291446870 1.18997718631096183195 2.10651509141108395085 0.21085440732210183890 1.32502915709922497456 -0.84207150715378475958 -0.59044677049754012987 0.72735770009926203894 -0.50089386578908090542 0.50646371635321751903 -1.16036530239025736932 0.96635493430643315538 1.16597948252549121761 1.39867170282665465031 -0.92573055247366442533 -0.39370891915477979062 0.80804305858224090287 -1.27344919129080769160 -0.67471758668848047513 1.01099205310529183244 -0.29208277389526504653 -0.32505245717126535210 -0.41031571383944620557 -2.48201839102347676658 -0.55130077378578912217 1.49891514121364788359 1.24916380994510523017 -0.55171775691632662930 1.69433976096169658376 -0.10872119924320262918 -0.35874081092328213849 -0.06556865059297174725 0.44738521141931919534 0.07238182557406092066 -0.26726911248693563383 0.14517360236405640883 1.10221270566705809024 -2.11627838376086963024 -1.47240792967441347372 1.30635565123057917347 -0.23193497013095668025 -0.59346813740248183233
0.74844200227936175107 0.85158452884946633787 -1.15679092390746518504 1.23349813140151209900 0.44758367206386695525 0.91266267404137968455 1.09873052407299631739 -2.76388232385303433958 0.11865109598880010933 -1.22121930961656555148 2.25851419448513146548 1.12583159100601726266 -2.47115435680431039245 -0.89868032872265479760 0.92080730384803732846 -2.32613291052170412243 0.34459164911021089583 -1.18392752891481722877 -1.52680135611349343527 -0.50945180033946246834 2.59882287927153576845 1.36105259052437954637 -1.92250609360223334576 0.72365502524609914836 1.35449311355922752398 0.49686836639017301076 2.27071179282561352863 0.64661278725720394700 0.62160884561299545314 1.25817221538739154596 0.28666232359385962480 1.12395036761183142460 0.53792165172291062092 1.25906493557878573775 -1.65552627354718251418 0.23411301970641260062 0.68426543330268596588 -0.77798704961187314932 0.38493384745918196588 -1.95267922797667581314 1.33617860296616153271 0.50576502429556879914 1.55655640231824943243 -0.56791676890941678035 -0.65372728580140448962 0.20148735336375553362 0.19701017623453176419 -0.23700459790304378993 -0.13588406866988511634 0.75951039127606634338 0.91492819242127731982 0.41283845454798934194 -0.90999660654812564164 -0.26011919910525571620 -0.28274835753556082363 -1.44017256370720891923 -0.50788764197737934492 0.95366658710306084767 0.41461018106346042567 1.10043218322326064040 -1.96327251403310465427 2.34629034810349601514 1.96572074441977129311 -0.21925330618250529757 0.25232381052428654034 -0.52587647251596958409 -1.63105802451002879216 0.10372108157313059129 0.73399216805271938480 -0.60049120332356153984 -0.05406709442984557884 0.35559580750781155656 -1.74075328930649875225 1.04971644038700984147 -0.71111804218904595132 0.21780206715723551825 0.63151045507968384118 -0.22048973985591199809 -3.16165175954002819481 -0.08379319866288374719 1.45860910308196856100 1.91814964095428241997 -2.47919570948317247172 -0.14054920843706006361 -0.44830870854250426394 -0.36764243697959669843 -1.61456519654992036727 -0.83976142370352824251 -0.32275527932780329055 0.02359288646100531073 0.73928286091099104649 0.50003947600707854271 -1.27922905454587909624 0.25723996587029607230 -0.14629844722543630664 0.08460292175986888763 -0.10488718516925218949 1.47112943862214762270 -1.62440593981494707521 -0.36531425251720872627 -0.84796700874843722318 -0.63681236069764546315 1.02845833937363617672 -0.95461046959498796483 0.56201105622333868972 -0.10692185812090468366 -0.12634838021616914827 0.92479307633974450198 0.98388238225085822286 0.71601919681428838338 0.40122322198303395080 -1.31721204659448387631 0.16100371530254384278 2.72668580873031674017 0.73011472072161343050 1.13226980721839431965 1.17579195411571846286 -0.13671718155836995456 -1.12644127869175103562 1.02352848154974696016 -0.28337276365644503695 1.43170800683963284072 0.96999779354164294976 0.60767902317109823151 -0.31647515760199756985 0.48860267906813209526 -0.05847602889953355809 1.86439868314884193978 0.65742583428124445888 0.75933693567693083537 0.92504575543543077210 -1.26475347556998629628 1.66573288560120169599 1.17459763321046573026 0.55442632779831213519 -0.03668734613151841684 0.97865475843274740697 -0.13064056621341582631 0.48591336731888418177 -0.20097582387951284932 0.55569024627134844252 -0.40725056980441659560 -0.85099661124318748406 0.37149051451767706178 0.19079098397658372788 1.65548194249509839082 0.98938948218991151773 -0.01207696748702721985 -0.01221515715894555890 -0.71772715798829189726 0.84779267466111241092 -0.74849965426034592575 -0.47687756826895283391 -0.43872424913288604609 0.56779309766078833732 -0.41506053786482111079 1.55881657576260845843 -0.05267622044264225201 0.49360993298007227459 -0.43361108128002329165 0.97470333924715113483 0.40335085271965398501 1.19196239381700053173 -0.53008533566048099406 0.90670208330702606325 1.22813825450641944670 -1.73802856000832517402 -0.84688966660206510539 0.64768960859369661964 -0.27033857678039568961 0.26951461277832422514 0.44653988445415193631 1.43651435409947425548 0.13810725261273273934 -0.34278234350603570268 -0.33358020596932674851 -0.01416876859735832252 0.72068692006823675822 -0.94605904647716765332 -1.44881049309000342618 -0.04557888871327001046 1.08187107534113535756 -0.23120866081197860575 2.37276523257606619666 0.39742442855871185081 -1.13211306139211220767 0.19281332363658987283 -0.97304926276597325518 -0.73807753254419117273 -1.53043036345434702028 1.41792560959102353912 -0.32928297447289600619 -0.40040438664076727360 0.48686836738297328830 -0.80005588742865074714 0.45967952954317409242 0.19111784088182423580 0.57091494006715759468 0.32996348662896729520 -0.12261425370218567710 1.05317562004285258936 0.16974102302059246306 0.27657238972123932008 -0.24671438706056947332 1.62883797972632415885 -1.15859526488940911548 1.23238044876108343573 -1.89188061675239427295 0.64836471184336119666 0.52965663314193800471 0.96235327777706336505 0.63444951828752249590 -0.92229925763894771151 1.00769736638831641784 -0.54023818938238055143 0.18646200353362840652 -0.68900753393016078707 0.42315666668246826321 2.04141245285394612452 -0.26908868000953389821 -1.56945375831101774367 -0.69268377374063216934 -0.20437832013628712269 0.46261331688376017279 1.89881059520080808234 -0.23707591150571655225 -0.06234507913606774504 -0.26527231217855312684 -0.32834142342267269576 -0.32643126018960250123 -0.57866699353256911831 1.46385719119371371377 -0.06841954131218930257 -1.49294165462914674158 0.02060013425040206625 0.12319689583129116162 0.51260916115175370056 -0.08868703588794345227 -0.23440270909248561715 0.93881200621125748818 1.30390818383643058986 1.81895656217832568657 0.18771303817634502065 1.12479954829363326674 2.02599640828548110960 0.91611053755132065834 -0.95026283061349081649 -0.56626348701958395537 -0.52433398084066562550 0.42005044207629932407 0.22340436763617413374 -0.00737030153324280419 0.18874118791066341050 1.08468978567490847986 0.95233868132842047771 0.25892643703690787493 1.38851582945770068989 -0.19802962673581211983 0.30723339339589322838 1.52344657041776709860 0.28039060274637922499 -0.14258332833095149761 0.36879325951708341602 -1.03122517525946766348 0.28385144441497944801 -0.17975085812769650562 0.51335769448875601118 0.94838136921936799784 1.66919315361034437117 1.26100761576517683693 -3.10214182826658646519 -0.42830548823744379883 -0.02101846985340666968 -0.18505105141266528501 -0.26597449124580258006 0.60129332317350636661 0.76043386824391900891 1.36038388566508716693 -0.10624557053645598825 1.94868059562650453032 0.44028104931411932155 0.64190642593011271178 0.82691214486575992382 0.25393430439046715819 -0.63800036998156306467 1.87939420593576267393 -0.55581358230660493636 -1.46804762985811865228 -0.62517684260691275266 0.10827192411068548017 0.39715389453768562555 0.00796541360962686393 0.26355194416307753391 -0.23700471578352069746 1.36850051795435501134 -0.43443079824169889003 0.56483468267994885181 -3.09701767042258957474 0.45881490065018482039 -0.73550138857809665982 0.17912086578552627314 -0.40143285422511687521 -0.39301730095813058874 0.77524540409544684394 -0.48685712884954274182 0.23348194909238764727 -1.50117317967387609023 -1.53458842947133677903 -0.75725636318686206927 -0.28883941536010082629 -0.30184296755182182803 0.88260611835919700052
0.70093719124306685941 -0.40488504361402838372 0.25490637271051486135 -0.02291833845432361683 -0.66906410829821005848 0.16764695747191796227 0.38374383744106072003 -0.15591118136275844419 -0.00408067732855394404 0.05356818608449033514 1.99057866717528875178 0.48401474450773485092 -0.22525107535349528365 0.99416629306182624504 0.21018314714502578378 1.67199331975388321148 0.70403664842264346291 0.41950014053510897849 -0.58422281200494430298 0.48359919700291664757 -0.94132902021145348215 -1.23578931921426526941 -1.35612022883129834661 -0.09671581396534342789 0.84119519105556206373 -1.55356195816218445316 1.16370723935421538364 -0.04016627182774441807 0.40469503609015194945 -0.65752482979691806442 -0.15914795590758590293 1.85075463705769971412 -0.65140676696275423563 2.21388158819269431632 0.93194397250655425236 1.37103517494767013218 1.74337583913062377228 -2.98883813396943187612 -0.48402132161402172672 -0.09818589251041484611 -0.95291944722735777429 -0.84546710567272220782 0.16107663492523033311 -0.27496468770864357367 -0.36050884690150170053 -0.75831786414443425048 -0.44174593338381973329 -1.31704554954698549452 -1.45377119368818474854 0.22637727571246932246 -1.39007650133596127873 1.50445741284600109644 -0.26597750049776164305 0.59867617024470065612 -0.95468909824574188505 -1.00318820436799582829 -1.33472289721355874548 1.53177976206302046691 0.91178320733427753453 0.63243272992434451663 0.08319812443883767283 -0.34683127378480471670 -0.51702547073958726731 -0.53158780529439542129 0.45715158806350603138 -1.38791164023263680072 -0.30625669949511968859 -0.05767297747219390230 0.43824036542015598616 -1.58916407906653422977 2.90956136639389617571 -1.28111979138880061058 0.35563627226109395529 0.44895259007025933862 -0.87606261087648940045 -0.18026816824344538137 0.42424131119912866783 -0.44747164696352159652 0.23544930759584820068 -0.51242704530022575860 -0.11802979664850971053 0.70243567362773307039 -0.94380786390624327176 -1.41067092753970002583 1.21638317431526532530 -0.53071299210559774728 -0.60805217417380419409 0.40099135794873241867 1.23017907945166449224 -0.31799015603178343303 -1.24231041024413557672 -1.20719899508328776250 -0.06372197766346196501 1.45207616565797725805 2.47380625302283441158 -0.27352361457175983217 0.56786493845683494452 1.39479764273579887046 0.01645021979292349626 -1.25646639321318698279 -1.39971509824890971707 -0.59279315744021976453 1.16915222785108152692 -1.62804207180610127637 0.89600816569436980696 0.31088365248169963495 -0.03141840825203644910 -1.02002674038010843205 -0.49331265107841876238 -0.41763366797363682403 0.02726802817590840561 -0.70942693203314532990 0.65723690365437836824 0.34360492251945090603 -1.21461206337668747857 1.36875839699691970175 -1.79830207038839251510 -0.44767357174039151824 1.08843318916691389475 -1.13198555692044822152 1.09769598387965761077 -0.58534428369355051558 0.75146972871625927759 0.43802082890480059651 1.56249597301374687497 -1.14246010114416551851 0.57212961885697866116 0.29485414437436324731 -0.77298481802424068299 -0.28003154006362840356 -0.11199599542274735198 0.47866926460621961326 0.02327056122483311951 0.73027748211544740720 1.34230887189599323861 -2.44288032050925130179 1.09188838291155532190 -0.21700522913897202226 -0.20690968925728381311 0.17747896781311484071 -0.68945209390056072518 1.32628518536373896097 -0.61977556895423902006 -0.06177861406737365779 -0.10591293298231271858 1.39164278385465167709 -0.61913784257858961446 -1.12961945396910778960 -0.19593531662322499765 -1.17035630105134003109 0.35988003804348867032 1.96143704304650978720 -1.35657698694456096966 0.21442457968874489849 -0.92320745313555874212 0.65193585264783604494 -1.16987519105685522369 -0.38183822617482798822 -0.00516806515569786899 0.22629849324866280202 1.87336343146714967567 0.20219970608291376601 2.21301480156808461075 -1.02013265036827460719 -0.35737620452793822379 -0.14749131150977271010 1.33772543308490399205 -0.95627417302632411467 -0.00295618979756309425 -1.41241082869845824277 -1.06156617122399832276 -0.39433836124424281877 -0.77063808413808310149 -0.47119725493421099616 0.50176215266397261594 0.62678944515592716069 0.74058455997127303760 -0.50260505635840280192 -0.01276454799013458999 0.44068762233219499480 0.76853431107625269636 1.17159779846523792735 -1.38851734838027685015 0.93404271235551805663 0.12078903338323072891 0.34645482756403317426 -1.76142181348784609973 -0.13635521256493624009 0.65344784779673914521 -0.09759661413993617196 -1.03384128147901077632 -1.31808892109273201321 -0.37553560069631991558 0.28259723929537483578 1.97992339551532037234 -2.39389324532709979465 1.56170505089031763646 0.06531534156386813172 0.67041782213611456065 0.46122273136437658136 -0.21749694765427651788 0.49893828619940117086 0.73251312196200624172 0.66057878510337686428 0.91090124257798943397 -1.58117427727178117003 0.31971386376312871391 -0.40776501344312698905 0.56357937675973213132 -0.81650909338641264323 -0.64885441807564725458 1.70482519886432992706 0.29610691740373007441 -0.66538401146286074717 -1.27076677539466120770 -0.29735195036165357196 1.07873786518143721658 0.28802887191588349980 0.08806577563652451257 0.21897567231005909960 -0.37323443060895800105 1.48024024054440483944 0.74210209329594023497 0.77353865650452990899 -1.93209494551853433464 -1.05430743869993626127 1.00943802850950437033 1.15877992189195055950 0.82768861041671404344 0.99905820338677575609 1.65912557539023874931 -1.18404270758233387539 -0.11166897329166135255 -1.54284760827554667806 -0.54999726932461845408 -0.75531447348452751545 1.62020724566192164673 0.34066300630181273190 -0.34019524056703071002 1.48210326466886299634 0.60679012149503697149 1.11413159426142605035 -0.50545439732458175008 0.61440711789692081801 1.35867351890909371370 -0.79629683761957759103 -0.65874150545447895944 -0.58065746007960883368 -0.97103776063332158941 1.88819775272364487329 -0.85353806532505160920 0.23817212920198102544 0.04677182886701077708 -0.42633941757708510023 2.00059553495356334807 0.36224575532698216618 0.41769269281127385796 1.53142233335185840026 0.05181086431739190257 -0.00292664432841352419 0.61294162914126426589 0.16541835861812281827 -0.56595553984242885637 0.02541424328405990016 0.23399992948503597900 0.16606439235187755998 -1.77573737931905606402 -0.86499767658689763472 0.19528743969675355086 0.63820705823817547309 1.86836064063537365953 0.45503213333133185614 0.98318599662875316714 0.65095940107859795454 0.92015873782601209641 1.31202525804546166199 1.34574737015658962846 1.47888483178806429130 -0.35252555997644724473 -0.66287243484545432803 0.10709963460500507293 0.19802949522638529922 -0.13815301165552687501 0.27793643478324886464 1.79671635889715886059 -1.02851130612886021432 0.25773973116377663084 0.53104556336110297909 0.85630876911289621756 0.17538818022142399489 -1.13751622062565926896 -1.79530417139700482210 0.24322459831455575663 0.95857416063346445601 0.18347089511753372770 -1.86689379306748626242 -0.72880486912626285534 -0.37421932092994980579 -0.71545528554159010248 1.21005338263229966778 0.30857358851053406923 -0.36789946963122360790 -2.25897945045767389871 0.71365863790760708518 0.25654730940830428043 -1.30919865050844985710 -0.79881895483051967854 0.44032276688612059790 1.41393671692784561600 0.56723629062637559439 -0.21695878583481240098 1.15336843167791713860
-0.94787846665178454586 0.27504208120503503832 -1.24954635094391819372 0.85108944867207336760 1.07100573440961954752 0.10816180873982123023 0.47874606718207313172 0.07585614421431242926 0.13901261355089708505 -2.24845070500362664845 0.16416734791858439424 -1.17250291540645945609 -1.34343597037314199660 1.49910524785637311318 0.25744942458135222640 0.75188587283286889562 -0.78422042035876404764 -0.48783593625932009097 -0.71055410539620778021 -1.74226478484174496231 1.80960192088101989860 2.16919352570161594329 -0.98493983800807727302 0.89382999885443825683 -0.27665746983607997223 0.43402741281927670336 0.45541332476429463583 -0.27397794046151968672 0.52724556355882157277 -0.01488693767383604885 -0.51523440159328515175 -0.53622752857507272051 0.17957115639908385885 -0.54262864847547842562 0.87431651010196109741 1.66406814819317649956 -0.75197238907228880489 -0.21901783573017249984 0.22830302460663962072 1.83498859240378298097 0.73944584675094382487 -0.25592059565032698742 -1.00404231086055051314 0.71925505686873358879 0.31703810090155859491 -1.52691231000181537603 -1.61502488392427756558 1.70589106912583199360 -0.24420488621562516651 2.97562065295205346871 -0.08057876670835112387 0.36007257655353153147 0.75346468670024979719 -0.04873102786142439330 0.17107327526919732796 -0.08461996152798534343 -0.31741319970281700602 0.22195351856997558304 -0.09002579875527216835 -0.16284762405435032617 0.38704540223670519383 -0.52011060799510588915 -0.88050502170893729659 -1.34117565689331308398 0.66770020694691933905 -0.19042967602997565302 -1.80391883665219521227 1.68114290671330279814 3.10464750893126772979 -1.14949367883212971719 0.13567803230266059500 -0.58638432406772678096 -0.70508600053154746323 -0.07064651351666743906 0.64882700383802027755 -0.43939620039337862201 -1.53073379827594147073 1.04394255005805480785 -0.17694555424590110992 -0.00505753211586891602 -1.76424879294670589047 -2.01448670152486064566 0.71680121986902023412 -1.38470303250029180830 0.95967217799841508796 -0.03114160162061523421 -1.20995097765898140807 0.56526518333276265516 -0.97223396208118428863 0.41127400338494052301 0.17410435846262656279 -0.89268565905422747608 2.11442967179650054277 -0.84109789095811882120 1.56366054556979694468 -2.06465114105147051760 -1.15895351421313574924 0.71282572774049002273 0.56383693285219960156 -0.43219947449122808614 -0.22440711990603298687 -0.24384146629184613730 2.07439844025615638401 -1.15276074530380445715 -0.86635921870195398142 -0.52601309057335388086 0.51633435152631446119 0.36550603610564891266 -0.85573628878908847284 -1.45772736807803515724 -0.04715505675571157046 0.31897363747371215714 0.25205056825246635599 0.19567917345966751030 -0.17600529198300995937 -1.57032752594336577623 1.09938585070499561525 -1.33948120780766610771 0.99894609232328035464 -0.65172712568153623458 0.78601581978502799153 -1.49482949918757612728 -0.40889315536784676119 0.29919141373568652886 1.76156784276428668434 -0.04578154514094147365 -0.44356289653038538656 0.20725103712126127786 -2.31567002805443378222 0.35744980011750615567 0.35922664054246172816 -0.31635284750823872146 0.44812755136611986950 -0.53103856214030575877 2.47871761666824275139 -0.95917926967056243992 -0.26376466345605714681 -1.01715271087463521305 1.10529224765566280730 -0.11303026485311555571 1.75172565725369211442 0.10030998694034344576 -2.05134197039481858127 0.39038118832003915193 1.77096805128018797149 -0.55020444402820201102 1.25742754870931894295 -1.56402315797413860032 0.10912982611783325626 -1.31007369173047316657 -0.92161029156578300192 -0.77437738531368949246 1.83891516262906828949 1.10871084127929120378 0.87293058245700938524 0.18455908938011114651 0.04606940548400786928 0.37943654284901434659 0.88991819700702901041 0.33297176605342942990 -1.55357677917379199961 -0.06193025296868436697 3.08582429673841840412 -0.72926488758395624501 -1.27716452642027800124 1.21134208883622673802 1.11236771560232394762 0.85688936698383588730 -1.36750796767480164995 -0.61456735158314723666 0.06744375308844270667 -1.03699198667280589881 0.62599083052629655999 2.31910686870669202619 0.78174851704063419433 -0.66236892493702492768 -0.13863781527017102202 0.87420957244664743158 1.60271013408948737045 2.36473144989541195216 -0.46326575624506544093 -0.87803585033147768524 -1.16834166614559031849 -0.75539487426397855518 0.68599037611099356049 0.03982777313576472966 -1.56336692913498920277 -0.24214876917545036239 0.77872181010679275559 1.24911663880880552391 1.57137361851920176470 -0.29622472426249818467 0.35601052129740118346 -0.47064694491400077547 1.80225710421471063682 0.48076811486140991203 -1.09483657480659601902 -1.97320434673701305961 2.00999465756895689950 0.49365131406713491646 -0.41851953772867322989 0.06874397436499379843 -0.02284846558883735917 0.61349701971443160176 -0.04539139777764119449 0.26146393033079617929 1.28022437082084517002 -0.18628396493959029079 1.52564906456314308691 -0.25124311756999267997 1.08142732841676658673 -0.42947991239794403029 -0.95734475847388400549 0.76171706489398594009 -0.76956077209922846283 0.70464163207783891973 0.01376343795343350565 -0.09371579928239996693 0.23956765986695546800 -0.81816393688801569706 0.21172545385090052461 -0.03073991036518647010 -0.06257729317088399357 0.24370297603988100299 0.10659785818267283886 -0.24750584125222371834 -0.51673883326158265294 -0.53272724338631716190 0.37568516484746911077 0.91388180073635683076 0.51220278637808058786 0.07157287571615539301 -1.16201059697490460820 0.00754547691453063933 1.09860275957070729902 0.43763320391406423937 -0.56735346933878316733 0.36897009201594571648 0.80414707775600891004 -0.61481402699287612812 -2.57368050016594729357 -0.12735732318196138491 0.79107526952343021343 0.74903418993784787183 0.21013235304152982907 0.63510090539319397074 -0.59915568203383329227 0.61951028123771234579 1.06094763778415224209 0.69560583277802201518 0.33727705517449985129 -1.15620387640793520490 1.24507291259355112878 -0.24261957682105247947 -0.30990522014259963557 0.88723627354502676567 2.00073825825138795764 0.43000032031339779914 0.47165345047381651566 0.39924718752649313025 -1.62036820815148252528 1.31961766584565709515 -0.89019730122607687584 -1.36939835251828978535 -0.58256816421486501412 -0.12767266290679157859 -0.15513145403684264201 0.60586071923698936459 0.38072189966448521936 0.77926605858055442155 0.29545523494780806528 -0.84017436181373339465 0.05305622105970841246 -3.96025682706907122821 0.08965316033628960291 0.25082754700315362806 0.06387299310612988557 0.93382358792771291700 0.52964190404676225743 -0.22664446103418750544 -1.32821814136913873838 1.06940411963040582499 -0.60487377668733477432 0.40144543618628442117 1.58836390100823154903 0.94835471459000220129 0.72316253330511415243 0.71328166475912746503 0.27534233284212944470 -0.24208763636739738523 -0.61097145662433638424 0.18081124783145618995 0.95460103633544834967 0.95722784851801334671 0.86496264718881632483 -0.20202030980592114440 0.40402667113909529473 1.12933321701986533192 -0.04960564725477710490 -0.36737222180763406953 -0.63970581992988595488 -0.63555611035905390516 -0.71027835980310360942 -0.14197785694343137419 0.07363313669773334513 0.21131770016508258370 1.69868942612984175078 -0.25828349343173123698 1.41098182420136653015 -0.38777622885306678446 -0.11436711293279287760 2.26736995385853079554
-0.27336560315046143366 0.86258905162821963852 1.32520389042085939835 0.11068929456527862309 0.68465177672546673193 -0.00281893308694305565 0.88704895570255615223 -0.77052446389286732842 0.15702228284425526206 -0.20323010166043903313 1.21129688717563444023 -0.45995053530477730819 0.31741205436906877457 0.32623457758319407418 1.00871093344492357424 -1.40256741946529372989 0.91517893679443307331 -0.05586462773644901986 -1.05797003444056869625 0.31538126174275371572 -0.58003660173659277177 -0.58931879724076408067 -1.31357142680028737836 -0.60831580081631453361 1.73340147469503635946 -0.07433716728934201823 1.22548896573384658026 1.87550133708236299590 -0.30686096767971471344 -0.70700974674707683931 -0.02163700160338020637 1.69466069454646306447 0.17529088257617325697 0.91787368185265894027 -0.08340575147859737026 -0.18387307946102432465 -1.03265743207743665444 1.11840142479706150525 -1.55432472883332550850 1.84239588808198928582 -0.68821300294343901172 0.14110209580745874947 -0.83543213732478260880 -1.11395035751513127309 0.82760124032443849185 -0.91712623359684186664 -0.23242815660877513828 -0.46703927516120574692 0.73420807375462715516 0.26320075110337415314 -2.00061587379558103450 -1.44738570657619214366 -0.88234882313914708707 1.78244580600348734301 -0.08779281424567031422 0.43600606206611375315 -1.07809845820770333624 0.25410302384397726039 0.25672331832436229293 -1.02294322840799045693 0.33588090537759451859 -0.92500517831582462769 2.04119302713069306066 0.16243487609534396077 -1.18258762894834057455 -0.88466107210709621356 2.42692091319847591535 -0.21128889064996037028 0.17942984102856548989 -0.62759772368928723463 0.53543616358068035765 -1.52098979864326144806 -0.00605374182681579342 -0.35048242121321793174 -1.70647856030082567536 2.35895615213598075499 -0.00363664178795072542 -1.03708090862528634624 -0.37360134224501911904 -0.20533346191986007190 0.32472239794111185107 0.80866326245454378530 0.28396071491800317643 -1.28030105804983485029 -1.46983947757890498487 -0.09152014306070849203 -1.67481308660613126271 -0.47897136696347170082 0.10012277898651096575 1.77836592926601899656 -1.68448022898367799627 0.23762108611619786602 -1.68802957922933294377 0.44993349229608642359 0.07733608332123824425 -0.78753673375155208713 0.16582724070568813368 -0.22818777306980358999 1.29193990017310689211 1.50865237394178119956 -0.60338920137025831014 1.83074458153041552677 -1.83434702438399277469 1.19921074327189236541 -1.44057883744208847787 1.16422705897185485568 -0.64606251260679203874 -0.52769397372442916616 0.64552698575592570851 -0.25689589580614274889 -2.12213193500536823066 -1.57484861725694491597 -0.37127542241295696801 0.35996780371307401936 -0.96638281589382502013 -0.30562385506008737934 -0.28351191925595614629 -0.85525344275722903209 1.30724499939504612556 -0.17651728651251874513 -1.13586333943447503891 -1.97872358784241364482 -0.49867649870049285399 1.74078923445130695491 -0.04935584602196583376 -1.20782420128236656076 -0.32106073629281434156 0.26922759335799167912 -0.63053003444252608833 0.09938564901736739177 1.48146714961380943087 -0.25861664098691194980 1.72474412309405411570 -1.67952856517398485536 0.40816296313776045945 -0.40011391010102209664 -0.42508796427969380849 0.05234871804768432418 1.98586668146622735698 -1.43435133986950513751 -0.48215655550401209650 -0.61711318660347236342 2.12860001855306446572 -1.25482274253041703460 2.63589338623305025067 1.25155153720932221795 0.06989439786257427289 -0.51095246904399627130 0.38457260447418989413 -1.98507565982510580938 -1.30502325385550799197 -1.73179471305872656473 0.16041369483250456085 -1.12547121904131541825 -1.64568511625120539321 1.27611512107089919432 -0.94284440519009038439 0.40567880902300185175 -0.04385753670699394507 1.37279466130423388748 1.67007181721382247375 -1.18255923534111495599 1.72224560792814185284 1.79651881366669030626 -0.64208102978135184191 -0.11678906983991697854 0.15619663029820307631 -0.03468566394010696996 -0.01913266193022341438 0.72588175670303145548 0.41644314215772387788 -0.30413015929453374175 0.22617934609025691639 -0.16616533740639202743 0.94954477344704202313 0.35037675422930170122 0.53914474448711946497 0.49432793144209291603 -1.50971364471157820653 0.05747313567635129600 -1.53309780781190174714 0.84242664568817238191 0.23874205014666738389 -0.29879116794372517774 -0.23696324630874354700 -0.48637728176322941875 -0.59497686900276980371 -1.50679553157334433777 0.88036704715712532643 -0.37867857526292236781 0.16358465327159454894 1.23138318337865837471 -1.34676512485115540407 0.42532795199701167732 -0.50549582147575145008 -0.86168411729457561332 0.23693085828457530195 -0.12117929165954120785 -0.74385300135803400501 -1.13182228190035960580 -0.02239961706640020492 -2.47145733687421698122 0.35049413890103076064 -0.08161935571380637966 1.09551825401163882567 0.22001335579437916734 -1.11284939961179540902 0.82927885372008935949 0.77728185211189415593 -0.39395061845791212729 -1.13411723435057965048 -1.32829437283337958853 2.78821348731738982707 1.51149562411226856540 -0.97019831036481596342 0.25903114176881836261 -1.08240653304954959069 0.85132587658201719361 2.21737299322165259952 -0.38390159752131020054 -0.40535058576206811631 0.04896082367369018751 1.34994695815787579818 0.69115442235850710340 0.21569592364026027309 1.55777386380164761803 -1.07406189499811066668 0.68632080839136566652 0.25231465899540028719 0.91890743322741064159 -1.20792785835257809879 0.55173077864934183534 2.99441792315002164315 1.20735859396292255497 1.44614358901762152243 0.32792070898235364806 -1.08268809492038164954 0.71296274913842694332 -0.29052186711053773482 1.54048645587984323058 0.79104170102806137255 1.01310111002655278689 -0.87005556060325128787 -1.03398888219766171837 0.20611255062014310901 -0.92112732488446491530 -1.85358558082076463336 0.42103157846757527372 0.13946223279841110654 0.51718656885663072398 -0.62288359198150511364 -0.13919507266924055489 0.47763593231485268475 -0.48435400065558814608 0.07424063568662599144 -1.06684794745582478548 0.19484259473240000959 -1.14177995007478827461 0.54491159561164614900 2.13232815523204299879 -0.01098352028260925553 0.54442920298695418602 -0.55253607198396348377 0.36776445976706756413 -0.19136963490693209566 2.64530027514474097572 -0.24269407791219918535 -0.77754947534188800784 0.24360231913039506746 0.15168915152063677798 0.26532895948873125302 -0.74217620680372242692 -0.41904961626476766590 1.35197489521309499594 0.51506765046424574095 -0.73564613963209546377 -0.47116813061577123012 1.13761815069346461371 -1.52425343589388484489 -2.31088260395946809567 -0.17062250483289057024 1.02461157153153648025 0.71584221354818478034 0.30560913553071683557 3.51695780289055770496 1.53063155386209914788 0.74176595818105373059 0.26019329085484882436 0.57639689109774683295 1.28333702118436110418 -0.87801342679502258903 -1.29491361629634549324 0.62797941426469550130 -0.35056070114235687862 -1.38705124229552589910 -0.67755044682499587783 -2.45952656821940651710 -0.28703536460044132284 0.44142732077247009981 -0.40317222325361695701 -0.47414280000279440674 -0.33883150446206888873 1.59018007192390187221 -1.52579338993658319978 0.54682311187959853349 1.08788055493349378189 0.07126564021872301702 0.08996417589786241675 0.11329932937282545524 -0.31757097681737772588 -0.78379647567903154570 0.54770659128603882415
-1.94273915013836728782 -1.30375727693045595501 -0.72310023411914359226 0.12719122737566496140 -1.24401696636743519520 0.48022906198673137590 0.55136015990450848445 0.54286540095186386345 -0.68220570884374565068 1.15123503380074465596 0.16688413706715057860 -0.38314995269245183396 -2.65129014119533357174 1.69574983284745761658 -0.76532788589887112973 0.14235332940426667636 0.99589843929703658620 -0.78626086825853791495 1.17060533677972933297 0.33393139631600571304 0.52144636640583552634 -0.10215549053841169180 0.61771778965388124405 0.59257029243944014940 -0.95756350256753319794 0.97834778414035505900 -0.58001577182685426504 -0.70849242217563779267 2.75488668136028014288 0.21558376756501751448 -1.09088714224548199994 2.25170887654059370675 -1.93383593208362825067 0.71338678615911388370 -1.62915856416896609460 -0.18538450971045716820 0.52401437835606912152 0.01012752867388359672 0.88930062139961740808 0.25513302255790587525 -0.48226480128189708196 -0.32301587635444078961 1.81045333057833324197 -0.11645527318313261822 2.54688130658804601225 0.29380170511048692150 0.44396312351503597338 2.05775037047104669696 0.35195081585765414234 1.34363094577057684553 2.05275664985430505993 -0.51893313003182572896 -1.98188887986845263534 0.23674128917048481435 -0.12830165892799014205 0.86984339482104433561 -2.45268527298421545879 0.04596511917114800422 0.10908315842903315573 -0.37523011774372944105 -1.92881574485506157579 1.11066040636456220270 0.41095174312875576428 0.36218224565840656526 0.69120948092701417487 0.48816894292130807997 -0.93772135129465028491 0.27825766517999916960 0.59184394244440452493 1.07218517669035295903 0.97881956997744912208 -0.04824349611249487829 0.04389239102755652239 -0.68038769812369881418 -0.06586880245044211823 -0.09289004181546592354 1.29854809756902422890 0.15840025921813075116 0.92130762454010195484 1.90085455294242811064 0.22501039304039890943 -0.61174177981014077332 -0.04741421574318064464 0.63892071960839713629 -1.35619823624705060361 0.92382194363822800476 0.38583849252982749256 0.28355123320696656863 0.09874802907981218569 -1.32782421404651973518 -1.93067646271393966728 0.32043852936849420709 -0.28041686557176553896 0.06277538763043191694 -1.97052702873654994598 -0.30789713996570061694 0.08226481991709418129 1.68556124254259209749 1.33470672441364923699 -0.39038421702151188120 -1.25666754911822509122 0.73487642524633267627 0.51667424029456143764 -0.05246544836656413108 -0.35424504960823588462 -1.02484408401794691024 2.08122538661953848660 -0.64112339945830665311 0.41097243180391063166 -0.36062035482319110269 -1.00440342053778786102 0.46675042449945042256 -0.62556914198642010749 0.18055881446077073904 -1.08391019358783946558 0.21602410647592773518 0.02433829969559189732 0.12648632718877131365 0.96874351662269009289 0.98427950773499139903 -1.34856075972868327817 -1.14055624245625986113 0.07879944439180266991 -0.18187483022245004571 1.34897764209205051067 0.10689778241750885757 -0.51829368698350786193 -1.50233263902157676561 2.14377111166762768235 0.11247307362995967450 -1.00833758633968262330 0.50844594002788423559 0.25239848950942000982 -0.25499561654942015654 -0.85493823156016746090 0.70632677848794966913 0.78069963120547458679 -2.08602349295283895358 2.31295254202373401498 -0.36481308470530571242 -1.96695235302380511122 -0.18444711352608905708 0.03957861681927564435 -0.74431443986120171541 1.86679430906852172889 -0.12190189739016846215 -0.35786645459812310710 0.20714905380885167974 -1.36057598352489672600 1.32447186870115674040 0.35082685750018277604 -0.20177531780792376526 0.12432509393957692778 1.78223512476089496204 0.01492626430186892207 1.30995755730788210336 0.23695256031630460014 1.84688096785738009586 -2.49696658715875319245 -1.11181634273237284205 1.56015004345408714315 1.10506304830022195063 -0.60641934972568656281 -1.34064439412984492961 1.44314985467849310474 0.02142951815036060054 0.50745484791434924965 -1.20337624388409558662 0.82376084538752036845 2.95222340852632703090 -1.16336039256764323113 -0.47937259705145762734 0.69100764452669805049 -0.72411767363145085330 0.39943315850814614665 -1.45941038915165477441 -0.38279334423592004111 0.56219151340284689855 -1.15550737003650638712 1.22442215909738716384 0.14715256932821679792 1.29751913933651197297 0.88404538993664372182 -0.10865508206980667438 2.32356713546329318731 -0.95677558889604485959 0.20206720434994035474 1.13422632193115835442 2.29347180367668102008 0.90413867220578458817 0.76891892968613639869 0.53396296289015188208 -1.20109584466475460829 -0.01103828590570850483 -0.63661108766823715222 -1.25553937204899268565 -0.03963720297872769249 -1.04463419358445919194 -0.26889461381267326656 1.44621276649219354660 -0.55870257005060197653 -0.65011216293773177455 -0.99699705493838997050 1.34410801132735113761 0.00179895992065270374 -0.74483771458884984185 0.07587759435347640746 0.92480086868178434933 -1.42007430737960316236 1.30443942685047908903 0.38110398997806693711 0.00753807618776487862 -1.21887062145653279899 -0.41071655473007939730 -0.18714654842638889232 0.80760697176450568779 0.68546401179385907376 0.77686881949817299109 -0.47712917529538267924 0.76104817683524095262 -1.03749399309751755283 0.42423264595495041585 0.02445052647908680515 -1.30342569626870274924 -0.57660994996292547210 -0.40799777649591240092 -0.54100822581203100725 1.01986596185089894995 1.80442153040706831924 -0.89448226709061040562 -0.16828414748824227498 0.53392668411148891394 1.79017452474739213741 -0.67028337189011810704 1.32960198176935051606 -1.34256272323968928184 1.15076810229779868955 0.73137868527772897931 -0.04644836933267716683 0.27074965410962170687 0.71663311582224875629 1.03924749772161573169 0.79946548532523609154 0.36072470844240994703 0.15885092801188482881 0.76749095773498632322 -0.52547598427878816629 -0.60938077074898133745 0.71774652975388253395 1.92650428507356474839 0.94960401315082598739 0.22017955484297552227 0.35036629959224097064 -0.55588478981943578727 0.01424566967909213742 -0.56849928780897285296 -0.41765658516378917353 0.88804103586371740953 0.99536067747025847030 -0.88982340267043069648 -1.03343517740146340067 1.74887193118547790149 1.58995781781074341232 -1.23954757032970874775 -0.27526226742840714801 -0.04868778486118877785 1.14895885584012402703 0.83538948644848276537 0.31939376389708512560 0.26100743740645926394 1.14446654794460012106 0.93217944595283608322 0.15410050031300182027 1.12108828445447272770 -0.93474987421014299471 0.36033105554452421471 1.17494827850105698630 0.76530614346695802208 0.43203777796422815349 -1.32937795757016896658 0.58272058239428015103 -0.13166922563982522143 -0.55422970320930808885 0.47609170831574371130 0.67163431347654656278 0.86001565070325092233 -0.55692348769919564067 -2.46964620068259410601 0.56260099903848559411 -0.34481584076938337491 0.09365397802962591167 -1.21673868517756633700 -0.81812826709721020446 1.36598030576160356375 -0.05190660941340822371 1.44835210826497440273 0.20588118734153473821 0.59640245381173795369 0.30051163259606350486 2.72608810801326395534 1.17018846406431809015 1.44889249268656539194 1.61651621347155760589 0.29659596730730397596 -1.43008681237245194318 0.75663708462984957670 0.36797082852496004746 1.22458692118498291279 -0.98590994204692450342 1.05450960182731945380 -1.04814563722738518514 -2.42663736366210924800
